/*
 * Copyright (C) 2015
 *
 * This file is part of Paparazzi.
 *
 * Paparazzi is free software; you can redistribute it and/or modify
 * it under the terms of the GNU General Public License as published by
 * the Free Software Foundation; either version 2, or (at your option)
 * any later version.
 *
 * Paparazzi is distributed in the hope that it will be useful,
 * but WITHOUT ANY WARRANTY; without even the implied warranty of
 * MERCHANTABILITY or FITNESS FOR A PARTICULAR PURPOSE.  See the
 * GNU General Public License for more details.
 *
 * You should have received a copy of the GNU General Public License
 * along with Paparazzi; see the file COPYING.  If not, write to
 * the Free Software Foundation, 59 Temple Place - Suite 330,
 * Boston, MA 02111-1307, USA.
 */

/**
 * @file modules/computer_vision/cnn.c
 */

// Own header
#include "modules/computer_vision/cnn.h"
#include <stdio.h>

// Include the image library -> used to alter the incoming image
#include "modules/computer_vision/lib/vision/image.h"

// Include the ABI library -> used to send messages to the ground station
#include "modules/core/abi.h"

#include "mcu_periph/sys_time.h"

#ifndef CNN_FPS
#define CNN_FPS 0 ///< Default FPS (zero means run at camera fps)
#endif

uint8_t white[4] = {127, 255, 127, 255};

// Function
static struct image_t *cnn_func(struct image_t *img, uint8_t camera_id __attribute__((unused)))
{
  // convert to grayscale, but also keep original for live feed
  struct image_t gray;
  image_create(&gray, img->w, img->h, IMAGE_GRAYSCALE);
  image_to_grayscale(img, &gray);

  // Convert image to tensor
  float tensor_output[1][3];
  float tensor_input[1][1][TENSOR_HEIGHT][TENSOR_WIDTH];
  convert_image_to_tensor(&gray, tensor_input);

  // Perform inference
  entry(tensor_input, tensor_output);

  // Softmax on the output
  float sum_exp = exp(tensor_output[0][0]) + exp(tensor_output[0][1]) + exp(tensor_output[0][2]);
  tensor_output[0][0] = exp(tensor_output[0][0]) / sum_exp;
  tensor_output[0][1] = exp(tensor_output[0][1]) / sum_exp;
  tensor_output[0][2] = exp(tensor_output[0][2]) / sum_exp;
  
  // draw rectangles on the original image corresponding to the outputs
  // TODO: improve code
  int x_min_left = 10;
  int x_max_left = 10 + (int)(tensor_output[0][0] * 40);
  int y_min_left = 10;
  int y_max_left = 30;
  image_draw_rectangle(img, x_min_left, x_max_left, y_min_left, y_max_left, white);

  int x_min_forward = 10;
  int x_max_forward = 10 + (int)(tensor_output[0][1] * 40);
  int y_min_forward = 35;
  int y_max_forward = 55;
  image_draw_rectangle(img, x_min_forward, x_max_forward, y_min_forward, y_max_forward, white);

  int x_min_right = 10;
  int x_max_right = 10 + (int)(tensor_output[0][2] * 40);
  int y_min_rigth = 60;
  int y_max_right = 80;
  image_draw_rectangle(img, x_min_right, x_max_right, y_min_rigth, y_max_right, white);

  // // Print outputs
  // printf("Right: %f, Forward: %f, Left: %f\n", tensor_output[0][0], tensor_output[0][1], tensor_output[0][2]);

  // // Print
  // float time = get_sys_time_float();
  // fprintf(stderr, "Processed image at time %f\n", time);

  // Send outputs
  AbiSendMsgCNN_CONTROL_INPUTS(CNN_CONTROL_INPUTS_ID, tensor_output[0][0], tensor_output[0][1], tensor_output[0][2]);

  return img;
}

void cnn_init(void)
{
  cv_add_to_device(&CNN_CAMERA, cnn_func, CNN_FPS, 0);
}

void convert_image_to_tensor(struct image_t *image, float tensor_input_1[1][1][TENSOR_HEIGHT][TENSOR_WIDTH]) {
    // Extract pixel values from the image buffer
    uint8_t *pixel_values = (uint8_t *)(image->buf);

    // TODO: IMPROVE BELOW -> THIS IS TERRIBLE, BUT IT WORKS FOR NOW
    // first store the image in a tensor
    float intermediate[1][1][520][240];
    for (int i = 0; i < 520; i++) {
        for (int j = 0; j < 240; j++) {
            intermediate[0][0][i][j] = (float)pixel_values[(i * image->w) + j] / 255.0f;
          }
        }

    // then extract the region of interest
    for (int i = 0; i < TENSOR_HEIGHT; i++) {
        for (int j = 0; j < TENSOR_WIDTH; j++) {
            int row_idx = i * (520 / TENSOR_HEIGHT);
            int col_idx = j * (120 / TENSOR_WIDTH) + 60;
            tensor_input_1[0][0][i][j] = (intermediate[0][0][row_idx][col_idx] - 0.3046516478061676) / 0.1654612421989441;
        }
    }

    // // for debugging: save tensor_input_1 to a file
    // FILE *f = fopen("tensor_input_1.txt", "w");
    // if (f == NULL)
    // {
    //     printf("Error opening file!\n");
    //     exit(1);
    // }
    // for (int i = 0; i < TENSOR_HEIGHT; i++)
    // {
    //     for (int j = 0; j < TENSOR_WIDTH; j++)
    //     {
    //         // printf("i: %d, j: %d, value: %f\n", i, j, tensor_input_1[0][0][i][j]);
    //         fprintf(f, "%f ", tensor_input_1[0][0][i][j]);
    //     }
    //     fprintf(f, "\n");
    // }
}

// Auto generated code below

// This file is computer-generated by onnx2c 
// (TODO: add creating command line here)
// (TODO: print creation date here )

// ONNX model:
// produced by pytorch, version 2.2.1
// ONNX IR version: 17
// Model documentation: 
/*

*/

#include <float.h>
#include <math.h>
#include <stdbool.h>
#include <stdint.h>
#include <string.h>
#define MAX(X,Y) ( X > Y ? X : Y)
#define MIN(X,Y) ( X < Y ? X : Y)
#define CLIP(X,L) ( MAX(MIN(X,L), -L) )

static const float tensor_fc_weight[3][128] = 
{
  {-0.33571037650108337402f, 0.33678984642028808594f, 0.20328758656978607178f, -0.0066136769019067287445f, -0.099101655185222625732f, 0.063805140554904937744f, -0.44646191596984863281f, 0.22915223240852355957f, -0.034776452928781509399f, 0.49731501936912536621f, 0.19065962731838226318f, -0.043911702930927276611f, 0.31682711839675903320f, 0.44998145103454589844f, -0.42383089661598205566f, 0.58215045928955078125f, 0.19161994755268096924f, 0.39537853002548217773f, -0.29562672972679138184f, 0.16944435238838195801f, 0.41207197308540344238f, 0.0086815338581800460815f, 0.18671566247940063477f, -0.38960900902748107910f, 0.33022311329841613770f, -0.27149456739425659180f, -0.41879990696907043457f, 0.48391309380531311035f, 0.092589952051639556885f, -0.28449720144271850586f, 0.051137346774339675903f, -0.31390431523323059082f, -0.35717794299125671387f, -0.033918160945177078247f, 0.30965945124626159668f, -0.30086383223533630371f, 0.24972288310527801514f, 0.29275292158126831055f, -0.32097867131233215332f, 0.50134152173995971680f, 0.040925089269876480103f, -0.020774981006979942322f, -0.026064690202474594116f, -0.091756440699100494385f, 0.49150127172470092773f, 0.13763844966888427734f, -0.039183113723993301392f, -0.54273778200149536133f, -0.092988677322864532471f, 0.36886775493621826172f, -0.18514558672904968262f, -0.10670989006757736206f, -0.047308817505836486816f, 0.082580231130123138428f, 0.36659669876098632812f, -0.33237898349761962891f, 0.011670031584799289703f, -0.31942060589790344238f, -0.29903098940849304199f, 0.27012515068054199219f, 0.24301426112651824951f, -0.45738494396209716797f, 0.19652338325977325439f, 0.073792897164821624756f, -0.11747792363166809082f, 0.16228088736534118652f, 0.17603528499603271484f, -0.36130082607269287109f, 0.33791503310203552246f, -0.25300633907318115234f, -0.29360729455947875977f, -0.37713801860809326172f, -0.23185460269451141357f, 0.32585784792900085449f, -0.17160774767398834229f, 0.21909292042255401611f, 0.10652214288711547852f, -0.36738100647926330566f, -0.49568399786949157715f, 0.13002973794937133789f, -0.25766745209693908691f, 0.33982881903648376465f, 0.49927961826324462891f, -0.58331114053726196289f, 0.10192704200744628906f, -0.11331117898225784302f, 0.021106934174895286560f, -0.20953306555747985840f, 0.17103578150272369385f, 0.010972824878990650177f, -0.25501659512519836426f, 0.55452209711074829102f, -0.25378599762916564941f, -0.17629735171794891357f, 0.025814997032284736633f, 0.68158733844757080078f, -0.29196789860725402832f, -0.0098249828442931175232f, 0.27294406294822692871f, -0.50648653507232666016f, -0.25625246763229370117f, -0.29647505283355712891f, 0.55849671363830566406f, -0.083996832370758056641f, -0.29252603650093078613f, 0.49439382553100585938f, 0.089398153126239776611f, -0.12427690625190734863f, -0.40272051095962524414f, 0.17888939380645751953f, 0.24348936975002288818f, -0.23901376128196716309f, 0.094983041286468505859f, 0.044619414955377578735f, -0.41430100798606872559f, 0.12827150523662567139f, 0.082174509763717651367f, 0.098458416759967803955f, -0.29156199097633361816f, -0.018968384712934494019f, -0.44851127266883850098f, 0.18245999515056610107f, -0.15959472954273223877f, 0.10971733927726745605f, 0.20064061880111694336f, -0.33379638195037841797f, -0.28398591279983520508f, 0.35996356606483459473f},
  {0.12829229235649108887f, -0.17009457945823669434f, 0.094843871891498565674f, 0.17879088222980499268f, -0.13039945065975189209f, 0.18793179094791412354f, 0.41398930549621582031f, -0.29919365048408508301f, -0.10536651313304901123f, -0.19637732207775115967f, -0.39940586686134338379f, 0.38308370113372802734f, -0.23801447451114654541f, -0.62268263101577758789f, 0.11257454007863998413f, -0.23096741735935211182f, -0.39523369073867797852f, 0.053502116352319717407f, -0.097552604973316192627f, 0.25294920802116394043f, -0.10828974097967147827f, -0.16953571140766143799f, 0.016768241301178932190f, -0.12497283518314361572f, -0.063346125185489654541f, -0.045015767216682434082f, 0.10213042795658111572f, -0.39267200231552124023f, 0.0066345273517072200775f, -0.038555175065994262695f, 0.067001514136791229248f, 0.25977215170860290527f, 0.047194607555866241455f, -0.35754111409187316895f, 0.0021285919938236474991f, 0.087988734245300292969f, -0.27229732275009155273f, -0.56077140569686889648f, 0.036842007189989089966f, -0.15995770692825317383f, -0.27493715286254882812f, 0.44901475310325622559f, -0.45952868461608886719f, 0.20537020266056060791f, -0.56757634878158569336f, 0.15475718677043914795f, 0.14349080622196197510f, 0.47435873746871948242f, 0.25388771295547485352f, -0.16814008355140686035f, -0.17678387463092803955f, 0.45667815208435058594f, 0.011355154216289520264f, -0.30760902166366577148f, -0.091273277997970581055f, 0.27730080485343933105f, 0.051474530249834060669f, -0.054654125124216079712f, 0.043013576418161392212f, -0.0075324689969420433044f, -0.065635621547698974609f, 0.17195688188076019287f, -0.33670878410339355469f, 0.23599541187286376953f, -0.18218427896499633789f, 0.10308782756328582764f, -0.16867315769195556641f, -0.35745111107826232910f, -0.28436154127120971680f, 0.18940326571464538574f, 0.025620592758059501648f, 0.12712542712688446045f, -0.018044710159301757812f, 0.045467570424079895020f, 0.33049300312995910645f, -0.35724115371704101562f, -0.18531967699527740479f, 0.35393074154853820801f, 0.36996617913246154785f, -0.52430486679077148438f, 0.17938739061355590820f, -0.12343671917915344238f, -0.075508013367652893066f, 0.79801154136657714844f, -0.019510110840201377869f, -0.13873188197612762451f, 0.25712981820106506348f, 0.63417208194732666016f, 0.20313343405723571777f, -0.10542386025190353394f, 0.070793949067592620850f, -0.22759796679019927979f, 0.51536703109741210938f, -0.12622278928756713867f, -0.22398948669433593750f, -0.30941531062126159668f, 0.51149421930313110352f, -0.39047920703887939453f, -0.099762901663780212402f, 0.28790786862373352051f, -0.26589506864547729492f, 0.018474446609616279602f, -0.11862768232822418213f, -0.0032873358577489852905f, 0.30393955111503601074f, -0.37995833158493041992f, -0.50454497337341308594f, -0.14310863614082336426f, 0.0065740840509533882141f, 0.090935006737709045410f, 0.018719105049967765808f, -0.082130365073680877686f, 0.21742413938045501709f, -0.20962814986705780029f, 0.036559790372848510742f, -0.032600879669189453125f, -0.36589166522026062012f, 0.20520213246345520020f, 0.078242570161819458008f, 0.39403292536735534668f, 0.29576542973518371582f, -0.39133152365684509277f, -0.027878690510988235474f, 0.12088897079229354858f, -0.071598164737224578857f, -0.26744008064270019531f, 0.15006212890148162842f, -0.46105501055717468262f},
  {0.27574837207794189453f, 0.049182925373315811157f, -0.33021315932273864746f, -0.19188065826892852783f, 0.54444199800491333008f, -0.51379144191741943359f, -0.19584123790264129639f, 0.23201161623001098633f, 0.32466229796409606934f, -0.20810408890247344971f, 0.13860370218753814697f, -0.39049685001373291016f, 0.043083868920803070068f, 0.040807865560054779053f, 0.15190282464027404785f, -0.27760612964630126953f, 0.21696069836616516113f, -0.64988648891448974609f, 0.50874501466751098633f, -0.43015468120574951172f, -0.24981607496738433838f, 0.18258692324161529541f, -0.16531248390674591064f, 0.66455608606338500977f, -0.23830656707286834717f, 0.13108900189399719238f, 0.29892945289611816406f, 0.092041239142417907715f, -0.11665295064449310303f, 0.29761773347854614258f, -0.073847226798534393311f, 0.045883405953645706177f, 0.27572712302207946777f, 0.37508186697959899902f, -0.32847881317138671875f, 0.33391803503036499023f, 0.11132574826478958130f, 0.25551378726959228516f, 0.064920604228973388672f, -0.11664359271526336670f, 0.15066045522689819336f, -0.39182358980178833008f, 0.41922256350517272949f, -0.18195320665836334229f, 0.18951530754566192627f, -0.33648747205734252930f, -0.20965284109115600586f, -0.037621062248945236206f, 0.014621246606111526489f, -0.17257019877433776855f, 0.34757420420646667480f, -0.44040721654891967773f, 0.055248636752367019653f, 0.37302270531654357910f, -0.33954101800918579102f, -0.14611928164958953857f, -0.19795984029769897461f, 0.32337239384651184082f, 0.14427724480628967285f, -0.32135421037673950195f, -0.13314406573772430420f, 0.15967245399951934814f, 0.094059072434902191162f, -0.34442478418350219727f, 0.29831928014755249023f, -0.40016412734985351562f, 0.17973481118679046631f, 0.73893594741821289062f, 0.18126523494720458984f, -0.084537960588932037354f, 0.26345580816268920898f, 0.059201944619417190552f, 0.26291602849960327148f, -0.43956118822097778320f, -0.074553675949573516846f, 0.11542790383100509644f, 0.0057042203843593597412f, -0.13393881916999816895f, 0.082980066537857055664f, 0.33515408635139465332f, 0.071513555943965911865f, -0.35607630014419555664f, -0.27901595830917358398f, -0.42226240038871765137f, -0.093755640089511871338f, 0.33080160617828369141f, -0.21620795130729675293f, -0.57155203819274902344f, -0.44866394996643066406f, 0.23865114152431488037f, 0.23981869220733642578f, -0.18298156559467315674f, -0.41903838515281677246f, 0.24124863743782043457f, 0.26053994894027709961f, -0.55094879865646362305f, -0.36481085419654846191f, 0.25332599878311157227f, -0.12892451882362365723f, 0.084831640124320983887f, 0.52826625108718872070f, 0.095634624361991882324f, -0.28847095370292663574f, 0.12929318845272064209f, -0.087262243032455444336f, 0.11936163157224655151f, 0.28094556927680969238f, 0.27367761731147766113f, 0.25905668735504150391f, -0.36858668923377990723f, -0.33393207192420959473f, 0.17468558251857757568f, -0.39839470386505126953f, 0.23851624131202697754f, 0.23272667825222015381f, -0.067986398935317993164f, 0.26850500702857971191f, -0.41221678256988525391f, 0.15446268022060394287f, -0.54326677322387695312f, 0.048784516751766204834f, 0.17105269432067871094f, 0.32540237903594970703f, -0.31350678205490112305f, -0.21146573126316070557f, 0.57733571529388427734f, 0.018572991713881492615f, -0.028891526162624359131f}
};
static const float tensor_fc_bias[3] = 
{-0.10890614986419677734f, -0.025916272774338722229f, -0.067491717636585235596f};
static const float tensor_onnx__Conv_46[8][1][3][3] = 
{
  {
    {
      {-0.41459485888481140137f, -0.061536002904176712036f, 0.46285253763198852539f},
      {-0.88462853431701660156f, 0.48546111583709716797f, -0.17667226493358612061f},
      {-0.015873702242970466614f, -0.14967451989650726318f, 0.31018313765525817871f}
    }
  },
  {
    {
      {0.51181566715240478516f, -0.062823899090290069580f, -0.38396176695823669434f},
      {0.58495378494262695312f, -0.61255145072937011719f, -0.68966770172119140625f},
      {0.18670146167278289795f, -0.090753600001335144043f, 0.37243047356605529785f}
    }
  },
  {
    {
      {0.026452887803316116333f, 0.13026225566864013672f, -0.57876855134963989258f},
      {0.55880880355834960938f, 0.24282233417034149170f, -0.18336296081542968750f},
      {0.22214038670063018799f, 0.24985221028327941895f, -0.27378517389297485352f}
    }
  },
  {
    {
      {0.16739717125892639160f, -0.53396660089492797852f, -0.051876462996006011963f},
      {-0.12122461944818496704f, -0.085677377879619598389f, -0.27995342016220092773f},
      {0.25599756836891174316f, -0.34063071012496948242f, -0.13827852904796600342f}
    }
  },
  {
    {
      {0.21019335091114044189f, -0.54835963249206542969f, -0.16071434319019317627f},
      {0.93392705917358398438f, -0.35367476940155029297f, -0.072463370859622955322f},
      {0.25479322671890258789f, -0.47745773196220397949f, -0.24413684010505676270f}
    }
  },
  {
    {
      {-0.037793159484863281250f, 0.11946932226419448853f, 0.23482021689414978027f},
      {-0.12852740287780761719f, 0.023996343836188316345f, 0.21491873264312744141f},
      {-0.060723256319761276245f, 0.18800719082355499268f, 0.28766366839408874512f}
    }
  },
  {
    {
      {0.19387669861316680908f, 0.055631157010793685913f, -0.089717254042625427246f},
      {0.47870358824729919434f, 0.33465835452079772949f, -0.41486787796020507812f},
      {0.33954945206642150879f, -0.24627843499183654785f, -0.71849697828292846680f}
    }
  },
  {
    {
      {0.50574958324432373047f, 0.17192952334880828857f, 0.068783387541770935059f},
      {0.078746818006038665771f, -0.042174119502305984497f, -0.16466911137104034424f},
      {0.19880887866020202637f, -0.23738865554332733154f, -0.40328416228294372559f}
    }
  }
};
static const float tensor_onnx__Conv_47[8] = 
{0.098227068781852722168f, 0.0069765606895089149475f, 0.36170217394828796387f, -0.53617984056472778320f, -0.53366416692733764648f, -0.010333320125937461853f, 0.099624268710613250732f, 0.23947787284851074219f};
static const float tensor_onnx__Conv_49[16][8][3][3] = 
{
  {
    {
      {0.085864290595054626465f, -0.023362431675195693970f, 0.018347145989537239075f},
      {-0.14807979762554168701f, 0.014773762784898281097f, 0.024053147062659263611f},
      {0.0062876646406948566437f, 0.10834142565727233887f, -0.087596774101257324219f}
    },
    {
      {0.026939062401652336121f, 0.10573220998048782349f, 0.050426479429006576538f},
      {0.20430888235569000244f, -0.10868088155984878540f, 0.020170267671346664429f},
      {0.0026511922478675842285f, -0.15411677956581115723f, 0.038963243365287780762f}
    },
    {
      {0.16479691863059997559f, 0.074068725109100341797f, -0.016133207827806472778f},
      {0.044253386557102203369f, -0.044540952891111373901f, -0.035390589386224746704f},
      {-0.12428131699562072754f, -0.11210989207029342651f, 0.028874132782220840454f}
    },
    {
      {-0.14685058593750000000f, -0.10517381876707077026f, -0.10377386957406997681f},
      {0.072399951517581939697f, 0.055522810667753219604f, 0.064067177474498748779f},
      {0.081711590290069580078f, 0.11854007840156555176f, 0.082026064395904541016f}
    },
    {
      {0.029992513358592987061f, 0.077137790620326995850f, 0.073388598859310150146f},
      {0.10030556470155715942f, -0.060955680906772613525f, 0.0054383850656449794769f},
      {-0.056349638849496841431f, -0.10967849195003509521f, 0.019092116504907608032f}
    },
    {
      {0.045926984399557113647f, -0.078560844063758850098f, -0.026169406250119209290f},
      {0.0050309272482991218567f, 0.019094537943601608276f, -0.076413407921791076660f},
      {0.034574825316667556763f, 0.00077955878805369138718f, -0.092589363455772399902f}
    },
    {
      {0.10055368393659591675f, 0.074897192418575286865f, -0.051053561270236968994f},
      {0.14178015291690826416f, 0.044925618916749954224f, 0.095779553055763244629f},
      {-0.10851465910673141479f, -0.11546230316162109375f, 0.010272120125591754913f}
    },
    {
      {0.021152090281248092651f, 0.075609602034091949463f, 0.039222877472639083862f},
      {0.077341139316558837891f, 0.0083305863663554191589f, -0.059167750179767608643f},
      {-0.0014490959001705050468f, -0.097866624593734741211f, -0.064921185374259948730f}
    }
  },
  {
    {
      {-0.017173141241073608398f, -0.13174954056739807129f, 0.089098051190376281738f},
      {-0.28605991601943969727f, -0.16813404858112335205f, 0.17986798286437988281f},
      {-0.0055429376661777496338f, 0.035514660179615020752f, 0.088774070143699645996f}
    },
    {
      {0.031653840094804763794f, -0.13870795071125030518f, 0.024126550182700157166f},
      {-0.015241791494190692902f, 0.0080571342259645462036f, -0.24003820121288299561f},
      {0.058733064681291580200f, 0.066138967871665954590f, -0.27015385031700134277f}
    },
    {
      {0.13268129527568817139f, -0.0011661287862807512283f, -0.0098197730258107185364f},
      {0.13491877913475036621f, -0.088214062154293060303f, -0.46559673547744750977f},
      {-0.0047272881492972373962f, -0.072502642869949340820f, 0.0081882541999220848083f}
    },
    {
      {-0.096518084406852722168f, 0.0013945957180112600327f, -0.084071546792984008789f},
      {-0.12028946727514266968f, 0.055043742060661315918f, 0.060803726315498352051f},
      {-0.051485534757375717163f, 0.050624076277017593384f, 0.042514093220233917236f}
    },
    {
      {0.023122452199459075928f, -0.053856529295444488525f, 0.11359059810638427734f},
      {-0.065829969942569732666f, -0.051978770643472671509f, 0.13180397450923919678f},
      {-0.061961598694324493408f, -0.12790495157241821289f, 0.19990260899066925049f}
    },
    {
      {-0.049665771424770355225f, 0.025785436853766441345f, 0.12396489083766937256f},
      {-0.19203437864780426025f, -0.070992656052112579346f, 0.24233572185039520264f},
      {-0.088432714343070983887f, 0.040295742452144622803f, 0.16291162371635437012f}
    },
    {
      {-0.015351098962128162384f, 0.051850315183401107788f, -0.11753735691308975220f},
      {0.11748458445072174072f, 0.013097978197038173676f, -0.37036883831024169922f},
      {-0.012921823188662528992f, 0.024677999317646026611f, -0.052266724407672882080f}
    },
    {
      {-0.017458569258451461792f, 0.13146349787712097168f, -0.034050818532705307007f},
      {0.17223942279815673828f, -0.034642260521650314331f, -0.43106886744499206543f},
      {0.11165998876094818115f, -0.032560389488935470581f, -0.14070309698581695557f}
    }
  },
  {
    {
      {-0.066875509917736053467f, -0.083583652973175048828f, 0.048933107405900955200f},
      {-0.10946549475193023682f, 0.071264758706092834473f, 0.067085854709148406982f},
      {-0.032503914088010787964f, 0.049326930195093154907f, 0.034630753099918365479f}
    },
    {
      {0.17398355901241302490f, 0.17964959144592285156f, -0.037545185536146163940f},
      {-0.015243759378790855408f, -0.14496308565139770508f, -0.053739812225103378296f},
      {0.035007931292057037354f, -0.12029988318681716919f, -0.20145370066165924072f}
    },
    {
      {0.091031312942504882812f, -0.00098646734841167926788f, -0.11632741987705230713f},
      {0.10526247322559356689f, -0.12337118387222290039f, -0.074366159737110137939f},
      {0.0086513897404074668884f, -0.11922690272331237793f, 0.11755193769931793213f}
    },
    {
      {-0.026456141844391822815f, 0.073390342295169830322f, 0.0046262927353382110596f},
      {-0.026716893538832664490f, -0.017720276489853858948f, -0.097020633518695831299f},
      {0.076158471405506134033f, 0.0071857133880257606506f, -0.040894750505685806274f}
    },
    {
      {-0.032489918172359466553f, 0.11848141252994537354f, 0.075262725353240966797f},
      {0.058465272188186645508f, 0.065801374614238739014f, 0.042406894266605377197f},
      {0.050809845328330993652f, -0.10391283035278320312f, -0.15546314418315887451f}
    },
    {
      {-0.037643514573574066162f, -0.020946849137544631958f, 0.0093399379402399063110f},
      {-0.053639657795429229736f, 0.035953566431999206543f, -0.034600421786308288574f},
      {-0.0056154066696763038635f, 0.015662582591176033020f, -0.059423744678497314453f}
    },
    {
      {0.13673940300941467285f, 0.041521593928337097168f, -0.19232286512851715088f},
      {0.036117199808359146118f, -0.040310077369213104248f, -0.017852621152997016907f},
      {0.018664957955479621887f, -0.13712388277053833008f, -0.10954182595014572144f}
    },
    {
      {0.023680377751588821411f, -0.057369664311408996582f, -0.25507482886314392090f},
      {0.13472741842269897461f, 0.064158543944358825684f, 0.073345847427845001221f},
      {0.019720532000064849854f, -0.18182536959648132324f, 0.011002977378666400909f}
    }
  },
  {
    {
      {-0.14867495000362396240f, -0.10486506670713424683f, 0.10268462449312210083f},
      {-0.10090805590152740479f, -0.044089175760746002197f, 0.081822283565998077393f},
      {-0.073333218693733215332f, -0.078178375959396362305f, 0.10625137388706207275f}
    },
    {
      {-0.021730164065957069397f, -0.061148609966039657593f, -0.016953593119978904724f},
      {0.076104827225208282471f, 0.024691900238394737244f, 0.011762410402297973633f},
      {-0.024685120210051536560f, 0.052051130682229995728f, 0.13116776943206787109f}
    },
    {
      {-0.0073251789435744285583f, -0.15412600338459014893f, -0.072119370102882385254f},
      {0.00093166355509310960770f, -0.15393197536468505859f, -0.16085605323314666748f},
      {0.040441974997520446777f, 0.070640631020069122314f, -0.098387084901332855225f}
    },
    {
      {-0.014802456833422183990f, 0.028315812349319458008f, 0.094900690019130706787f},
      {-0.0096843335777521133423f, 0.11178816854953765869f, 0.15334109961986541748f},
      {-0.25180131196975708008f, -0.10640491545200347900f, 0.0043257120996713638306f}
    },
    {
      {0.029157310724258422852f, -0.042194787412881851196f, 0.16147799789905548096f},
      {0.036285627633333206177f, 0.0075119822286069393158f, 0.042971558868885040283f},
      {-0.12494932115077972412f, 0.16474956274032592773f, 0.074461586773395538330f}
    },
    {
      {-0.27840444445610046387f, -0.0015655938768759369850f, 0.15219283103942871094f},
      {-0.12812843918800354004f, -0.14795139431953430176f, 0.023500228300690650940f},
      {-0.10257210582494735718f, -0.18036772310733795166f, 0.20914410054683685303f}
    },
    {
      {-0.024585532024502754211f, -0.055126350373029708862f, -0.053916629403829574585f},
      {0.088146306574344635010f, -0.050422586500644683838f, -0.021400360390543937683f},
      {-0.030245035886764526367f, 0.10644339770078659058f, -0.085486650466918945312f}
    },
    {
      {0.070153824985027313232f, -0.084271080791950225830f, -0.17494626343250274658f},
      {0.070546045899391174316f, -0.060813065618276596069f, -0.15487723052501678467f},
      {0.018815357238054275513f, 0.027608763426542282104f, -0.23463493585586547852f}
    }
  },
  {
    {
      {0.060481112450361251831f, 0.14067383110523223877f, 0.0077370526269078254700f},
      {-0.037460539489984512329f, -0.052776616066694259644f, -0.10405767709016799927f},
      {0.071567267179489135742f, 0.011120972223579883575f, -0.010892740450799465179f}
    },
    {
      {0.014592606574296951294f, 0.0055698007345199584961f, -0.28035795688629150391f},
      {0.037235386669635772705f, 0.090993754565715789795f, -0.017047382891178131104f},
      {0.030411249026656150818f, 0.12048231065273284912f, -0.096847057342529296875f}
    },
    {
      {0.042857352644205093384f, -0.11181554943323135376f, -0.022151798009872436523f},
      {0.17401964962482452393f, -0.017349911853671073914f, -0.11018613725900650024f},
      {0.073239736258983612061f, -0.037181865423917770386f, -0.12922953069210052490f}
    },
    {
      {0.071232140064239501953f, 0.068883351981639862061f, -0.070867694914340972900f},
      {0.014027173630893230438f, 0.013429508544504642487f, -0.11030510067939758301f},
      {0.077272012829780578613f, 0.028766397386789321899f, -0.072054326534271240234f}
    },
    {
      {-0.048820048570632934570f, -0.015501570887863636017f, -0.24514248967170715332f},
      {0.093517862260341644287f, 0.20176622271537780762f, 0.075651191174983978271f},
      {0.0030341104138642549515f, -0.048903077840805053711f, -0.12314454466104507446f}
    },
    {
      {-0.051199123263359069824f, 0.10508247464895248413f, 0.013456116430461406708f},
      {-0.081878870725631713867f, -0.014376501552760601044f, -0.064731776714324951172f},
      {0.035366397351026535034f, 0.048276282846927642822f, 0.0044697541743516921997f}
    },
    {
      {0.058717116713523864746f, -0.11459852010011672974f, -0.11109001189470291138f},
      {0.11814588308334350586f, -0.016268797218799591064f, -0.30512374639511108398f},
      {0.054400339722633361816f, 0.018150843679904937744f, -0.12783096730709075928f}
    },
    {
      {0.047505185008049011230f, -0.023720182478427886963f, -0.048077549785375595093f},
      {0.071423634886741638184f, 0.096398361027240753174f, -0.10981374233961105347f},
      {0.053003262728452682495f, 0.030243830755352973938f, -0.067660644650459289551f}
    }
  },
  {
    {
      {-0.063916340470314025879f, 0.033394243568181991577f, 0.059993628412485122681f},
      {0.010907251387834548950f, 0.051441222429275512695f, -0.12413654476404190063f},
      {-0.10699628293514251709f, 0.040910732001066207886f, 0.031388431787490844727f}
    },
    {
      {-0.11129122227430343628f, 0.062544271349906921387f, 0.10147215425968170166f},
      {-0.17879208922386169434f, -0.050340548157691955566f, 0.12262476235628128052f},
      {-0.066772751510143280029f, -0.021742912009358406067f, 0.11244229972362518311f}
    },
    {
      {-0.040895279496908187866f, 0.0099514918401837348938f, -0.017751032486557960510f},
      {-0.26243597269058227539f, 0.14098231494426727295f, 0.10590237379074096680f},
      {-0.077680081129074096680f, 0.033016733825206756592f, 0.033472664654254913330f}
    },
    {
      {-0.15172299742698669434f, -0.026223143562674522400f, 0.11045157909393310547f},
      {-0.088693030178546905518f, -0.10930626839399337769f, 0.045021671801805496216f},
      {-0.030555082485079765320f, -0.0025229770690202713013f, 0.16540502011775970459f}
    },
    {
      {-0.082580961287021636963f, 0.019320942461490631104f, 0.024567237123847007751f},
      {-0.094451494514942169189f, -0.078382126986980438232f, 0.13827122747898101807f},
      {0.071516573429107666016f, 0.068008095026016235352f, 0.054947495460510253906f}
    },
    {
      {0.022172456607222557068f, 0.013493979349732398987f, -0.026168672367930412292f},
      {0.069027625024318695068f, -0.090585947036743164062f, -0.16813760995864868164f},
      {0.048317275941371917725f, 0.066374503076076507568f, -0.048522748053073883057f}
    },
    {
      {-0.11245632171630859375f, 0.065639123320579528809f, 0.071027375757694244385f},
      {-0.16884636878967285156f, 0.047156054526567459106f, 0.061058353632688522339f},
      {-0.017702585086226463318f, -0.035584326833486557007f, 0.052575789391994476318f}
    },
    {
      {-0.15294790267944335938f, -0.014182115904986858368f, 0.10598668456077575684f},
      {-0.11589770019054412842f, -0.094093650579452514648f, 0.15257817506790161133f},
      {0.030840879306197166443f, -0.10037748515605926514f, 0.088743969798088073730f}
    }
  },
  {
    {
      {-0.068421639502048492432f, -0.0027796267531812191010f, 0.15016549825668334961f},
      {-0.088311277329921722412f, 0.034212473779916763306f, 0.022046074271202087402f},
      {-0.075198031961917877197f, -0.022549876943230628967f, 0.049485307186841964722f}
    },
    {
      {-0.17470219731330871582f, -0.075903937220573425293f, -0.0027969565708190202713f},
      {-0.26413598656654357910f, -0.14629165828227996826f, -0.15471540391445159912f},
      {-0.092833653092384338379f, -0.069365799427032470703f, -0.15994600951671600342f}
    },
    {
      {-0.024504879489541053772f, -0.099717557430267333984f, 0.020321285352110862732f},
      {-0.10587740689516067505f, -0.11388314515352249146f, -0.13348712027072906494f},
      {0.0037228134460747241974f, -0.074494242668151855469f, 0.060467518866062164307f}
    },
    {
      {-0.088626801967620849609f, -0.11401664465665817261f, -0.090561665594577789307f},
      {-0.061400175094604492188f, -0.044808492064476013184f, -0.050629869103431701660f},
      {-0.0091250855475664138794f, 0.0089362924918532371521f, -0.030812976881861686707f}
    },
    {
      {0.062469281256198883057f, -0.010987257584929466248f, -0.00011305462248856201768f},
      {-0.14035040140151977539f, -0.076532870531082153320f, -0.084367789328098297119f},
      {-0.045862738043069839478f, -0.017819179221987724304f, -0.10433821380138397217f}
    },
    {
      {-0.040738467127084732056f, -0.0067809163592755794525f, 0.080117247998714447021f},
      {-0.098887391388416290283f, -0.053435951471328735352f, 0.010120944119989871979f},
      {-0.11476914584636688232f, 0.037559766322374343872f, 0.12059626728296279907f}
    },
    {
      {-0.13700325787067413330f, -0.11240722984075546265f, -0.097260765731334686279f},
      {-0.22644421458244323730f, -0.13376875221729278564f, -0.24428689479827880859f},
      {-0.20429255068302154541f, -0.090161003172397613525f, -0.051308412104845046997f}
    },
    {
      {0.079510368406772613525f, 0.025213973596692085266f, -0.035529531538486480713f},
      {-0.12923379242420196533f, -0.15372858941555023193f, -0.14976076781749725342f},
      {-0.17243097722530364990f, -0.15749981999397277832f, -0.072970390319824218750f}
    }
  },
  {
    {
      {0.20047894120216369629f, -0.21294188499450683594f, -0.17901857197284698486f},
      {0.047606505453586578369f, -0.090427637100219726562f, 0.025444976985454559326f},
      {-0.089099980890750885010f, 0.12234161049127578735f, 0.020700566470623016357f}
    },
    {
      {-0.14348569512367248535f, 0.039543870836496353149f, -0.029884647578001022339f},
      {-0.14529561996459960938f, 0.077002711594104766846f, -0.017598612233996391296f},
      {0.18003503978252410889f, -0.039042342454195022583f, 0.0041767382062971591949f}
    },
    {
      {-0.044907208532094955444f, 0.079922333359718322754f, 0.038829457014799118042f},
      {0.047303851693868637085f, 0.0049343146383762359619f, 0.0088978596031665802002f},
      {0.22893987596035003662f, -0.23723860085010528564f, -0.099245384335517883301f}
    },
    {
      {-0.054553259164094924927f, -0.12896321713924407959f, -0.040725078433752059937f},
      {-0.087181180715560913086f, -0.10950224846601486206f, 0.0025768666528165340424f},
      {0.010040689259767532349f, 0.057180427014827728271f, 0.062806457281112670898f}
    },
    {
      {-0.12441857159137725830f, 0.085882924497127532959f, -0.12464437633752822876f},
      {-0.19004803895950317383f, 0.049316223710775375366f, 0.039066564291715621948f},
      {0.11646009236574172974f, -0.0098796747624874114990f, 0.047899451106786727905f}
    },
    {
      {0.14502061903476715088f, 0.031765289604663848877f, 0.067283473908901214600f},
      {0.020995954051613807678f, 0.0031260740943253040314f, -0.012470003217458724976f},
      {-0.052503842860460281372f, -0.080090537667274475098f, -0.084271676838397979736f}
    },
    {
      {-0.17062601447105407715f, 0.039327919483184814453f, -0.063514918088912963867f},
      {0.099702909588813781738f, -0.0094068441540002822876f, -0.13699741661548614502f},
      {0.23302367329597473145f, -0.037412893027067184448f, 0.0047851055860519409180f}
    },
    {
      {-0.21542140841484069824f, 0.064151823520660400391f, 0.030322456732392311096f},
      {-0.083293557167053222656f, 0.080366231501102447510f, -0.017667857930064201355f},
      {0.11202652752399444580f, -0.017142182216048240662f, 0.016485845670104026794f}
    }
  },
  {
    {
      {0.072925068438053131104f, 0.15209016203880310059f, 0.25703305006027221680f},
      {0.018315065652132034302f, -0.15276466310024261475f, 0.039920020848512649536f},
      {-0.066333785653114318848f, -0.28871539235115051270f, -0.23916241526603698730f}
    },
    {
      {0.16694916784763336182f, 0.18409435451030731201f, 0.077862851321697235107f},
      {0.027792552486062049866f, -0.077022269368171691895f, -0.072092168033123016357f},
      {-0.097364977002143859863f, -0.079204283654689788818f, -0.20165543258190155029f}
    },
    {
      {-0.15884672105312347412f, -0.11434811353683471680f, 0.0042494889348745346069f},
      {0.080431766808032989502f, 0.10821081697940826416f, 0.092943891882896423340f},
      {0.058280348777770996094f, 0.077995702624320983887f, -0.066453881561756134033f}
    },
    {
      {0.099515736103057861328f, 0.069483883678913116455f, 0.028519956395030021667f},
      {0.031714398413896560669f, 0.016840988770127296448f, 0.054062135517597198486f},
      {-0.16850283741950988770f, -0.27055692672729492188f, -0.099479585886001586914f}
    },
    {
      {0.077786713838577270508f, 0.15391665697097778320f, 0.038420516997575759888f},
      {-0.11679514497518539429f, -0.14235390722751617432f, -0.026832556352019309998f},
      {-0.085205830633640289307f, -0.16965499520301818848f, -0.25100597739219665527f}
    },
    {
      {-0.16618165373802185059f, -0.14755365252494812012f, -0.074219860136508941650f},
      {-0.057420991361141204834f, -0.11061278730630874634f, -0.10135091096162796021f},
      {0.34872832894325256348f, 0.16317996382713317871f, 0.11115079373121261597f}
    },
    {
      {0.16838984191417694092f, 0.0017422738019376993179f, -0.0018396809464320540428f},
      {-0.25564211606979370117f, -0.20593772828578948975f, -0.34002992510795593262f},
      {0.044086776673793792725f, 0.088364169001579284668f, -0.0027325919363647699356f}
    },
    {
      {0.057975847274065017700f, -0.16134104132652282715f, -0.074087902903556823730f},
      {-0.12274808436632156372f, -0.094478100538253784180f, -0.11689486354589462280f},
      {0.013569092378020286560f, 0.10697781294584274292f, 0.00019449947285465896130f}
    }
  },
  {
    {
      {0.0078583629801869392395f, 0.11197537928819656372f, 0.038608584553003311157f},
      {-0.12072595953941345215f, -0.40757939219474792480f, -0.37174555659294128418f},
      {0.20348881185054779053f, -0.082792982459068298340f, 0.23676925897598266602f}
    },
    {
      {0.21422858536243438721f, 0.099074982106685638428f, -0.021647892892360687256f},
      {-0.32263153791427612305f, -0.17290145158767700195f, -0.27010962367057800293f},
      {0.026585206389427185059f, 0.0068961498327553272247f, -0.054311968386173248291f}
    },
    {
      {0.099056407809257507324f, 0.12671436369419097900f, 0.023042459040880203247f},
      {0.020039392635226249695f, 0.12785893678665161133f, 0.0042333705350756645203f},
      {-0.25732353329658508301f, -0.098855309188365936279f, -0.18503698706626892090f}
    },
    {
      {-0.073517926037311553955f, 0.041010882705450057983f, 0.017239781096577644348f},
      {-0.17000268399715423584f, -0.11085955053567886353f, -0.13335257768630981445f},
      {0.042295273393392562866f, 0.076895967125892639160f, 0.037359353154897689819f}
    },
    {
      {0.15933105349540710449f, -0.020761692896485328674f, -0.011101946234703063965f},
      {-0.12727378308773040771f, -0.21471674740314483643f, -0.31803959608078002930f},
      {-0.0097832763567566871643f, -0.093757256865501403809f, -0.057975184172391891479f}
    },
    {
      {0.10627442598342895508f, -0.0081567978486418724060f, -0.13237234950065612793f},
      {0.21038341522216796875f, 0.086489610373973846436f, 0.035719510167837142944f},
      {-0.10787135362625122070f, -0.13121829926967620850f, -0.20582135021686553955f}
    },
    {
      {-0.20468661189079284668f, -0.10036300867795944214f, -0.19334535300731658936f},
      {-0.054630357772111892700f, 0.022391473874449729919f, -0.058278355747461318970f},
      {0.13632601499557495117f, 0.13583773374557495117f, 0.20245718955993652344f}
    },
    {
      {-0.14689081907272338867f, -0.055641591548919677734f, -0.082569092512130737305f},
      {0.084809027612209320068f, 0.033531259745359420776f, -0.16785794496536254883f},
      {0.23794472217559814453f, 0.098720982670783996582f, 0.031117714941501617432f}
    }
  },
  {
    {
      {-0.063041925430297851562f, 0.093006126582622528076f, 0.029499264433979988098f},
      {-0.27996963262557983398f, 0.0046590282581746578217f, 0.022263845428824424744f},
      {-0.18283070623874664307f, -0.027961954474449157715f, 0.072238489985466003418f}
    },
    {
      {0.039384987205266952515f, 0.014344100840389728546f, 0.066421948373317718506f},
      {-0.0016510360874235630035f, 0.068117335438728332520f, 0.11670059710741043091f},
      {-0.043140530586242675781f, 0.065597817301750183105f, 0.15679159760475158691f}
    },
    {
      {-0.012586391530930995941f, -0.043510902673006057739f, -0.090167894959449768066f},
      {0.16948820650577545166f, 0.14276805520057678223f, -0.11896258592605590820f},
      {0.029218243435025215149f, -0.013315082527697086334f, -0.089069485664367675781f}
    },
    {
      {-0.056105270981788635254f, -0.0063572507351636886597f, 0.16994474828243255615f},
      {-0.30419528484344482422f, -0.047378659248352050781f, 0.11992806941270828247f},
      {-0.071118190884590148926f, 0.066764116287231445312f, 0.18648540973663330078f}
    },
    {
      {-0.046626076102256774902f, -0.022745188325643539429f, 0.059740416705608367920f},
      {0.13282008469104766846f, 0.22056481242179870605f, 0.29781910777091979980f},
      {-0.089099422097206115723f, -0.082933545112609863281f, -0.062218748033046722412f}
    },
    {
      {-0.023871164768934249878f, -0.055900294333696365356f, -0.047961402684450149536f},
      {0.11838154494762420654f, -0.010311058722436428070f, -0.065114580094814300537f},
      {0.024056624621152877808f, -0.047498311847448348999f, -0.0022167714778333902359f}
    },
    {
      {0.023683145642280578613f, 0.022953893989324569702f, 0.031781021505594253540f},
      {0.044409409165382385254f, 0.10023096948862075806f, -0.0034132003784179687500f},
      {0.066260933876037597656f, 0.036494228988885879517f, -0.075137406587600708008f}
    },
    {
      {-0.064309269189834594727f, -0.020219063386321067810f, 0.082201011478900909424f},
      {-0.017748260870575904846f, 0.028375774621963500977f, -0.038480564951896667480f},
      {0.14758260548114776611f, 0.067754834890365600586f, -0.071170821785926818848f}
    }
  },
  {
    {
      {0.047975726425647735596f, -0.25055944919586181641f, -0.31290647387504577637f},
      {-0.0042278310284018516541f, 0.092590123414993286133f, -0.0012604973744601011276f},
      {-0.13040138781070709229f, 0.29636752605438232422f, -0.14400671422481536865f}
    },
    {
      {-0.12345887720584869385f, -0.21545250713825225830f, -0.17989726364612579346f},
      {0.091373942792415618896f, -0.074174746870994567871f, -0.085816569626331329346f},
      {0.16965179145336151123f, 0.078741513192653656006f, 0.13506443798542022705f}
    },
    {
      {0.032881658524274826050f, 0.089905560016632080078f, 0.15394140779972076416f},
      {-0.10844754427671432495f, -0.074291639029979705811f, -0.053524497896432876587f},
      {0.0048525985330343246460f, -0.082141190767288208008f, -0.028129665181040763855f}
    },
    {
      {-0.061418864876031875610f, -0.23307396471500396729f, -0.29548856616020202637f},
      {0.10700774192810058594f, -0.0030136504210531711578f, -0.084537453949451446533f},
      {0.21820858120918273926f, 0.012566572986543178558f, 0.033951263874769210815f}
    },
    {
      {-0.083546951413154602051f, -0.16635356843471527100f, -0.27598154544830322266f},
      {-0.058629952371120452881f, -0.0017648513894528150558f, -0.098700411617755889893f},
      {0.15623950958251953125f, 0.14251691102981567383f, 0.017374794930219650269f}
    },
    {
      {0.31598985195159912109f, 0.17792844772338867188f, 0.13479554653167724609f},
      {-0.0044819898903369903564f, -0.047678202390670776367f, -0.10064752399921417236f},
      {-0.065943054854869842529f, -0.21443575620651245117f, -0.34471353888511657715f}
    },
    {
      {0.062183126807212829590f, 0.052780944854021072388f, -0.011084149591624736786f},
      {0.0068968902342021465302f, 0.11807249486446380615f, 0.13576830923557281494f},
      {-0.048352871090173721313f, -0.17207349836826324463f, -0.025190239772200584412f}
    },
    {
      {0.049118425697088241577f, 0.14771932363510131836f, 0.024225957691669464111f},
      {0.086382031440734863281f, 0.053890500217676162720f, -0.013788064010441303253f},
      {-0.12834626436233520508f, -0.069728218019008636475f, 0.010971909388899803162f}
    }
  },
  {
    {
      {0.013830129057168960571f, -0.059203185141086578369f, -0.11306266486644744873f},
      {0.10503166168928146362f, 0.022701803594827651978f, 0.13819514214992523193f},
      {0.047394130378961563110f, 0.091837190091609954834f, -0.049581781029701232910f}
    },
    {
      {-0.068014696240425109863f, -0.23403972387313842773f, -0.058672666549682617188f},
      {0.075318634510040283203f, 0.12566809356212615967f, -0.053774941712617874146f},
      {0.064493536949157714844f, -0.055811338126659393311f, 0.10535998642444610596f}
    },
    {
      {-0.17147879302501678467f, -0.10175392776727676392f, -0.084069974720478057861f},
      {0.044375542551279067993f, -0.065902046859264373779f, -0.12080672383308410645f},
      {-0.034406971186399459839f, 0.035699810832738876343f, 0.087115615606307983398f}
    },
    {
      {0.040878366678953170776f, -0.038551613688468933105f, -0.097271315753459930420f},
      {0.16608852148056030273f, 0.097466692328453063965f, 0.020456966012716293335f},
      {0.0074301534332334995270f, -0.0015079298755154013634f, 0.062034979462623596191f}
    },
    {
      {-0.0072646220214664936066f, -0.12583646178245544434f, -0.035364683717489242554f},
      {0.091811291873455047607f, -0.026056699454784393311f, 0.044273588806390762329f},
      {0.049289420247077941895f, -0.19576925039291381836f, 0.13674794137477874756f}
    },
    {
      {-0.079246819019317626953f, -0.14330749213695526123f, -0.22144864499568939209f},
      {-0.052030552178621292114f, -0.056247603148221969604f, -0.090471997857093811035f},
      {-0.021641969680786132812f, -0.037783216685056686401f, -0.034688837826251983643f}
    },
    {
      {-0.12771821022033691406f, -0.11917778849601745605f, -0.18031825125217437744f},
      {0.056222580373287200928f, -0.060774635523557662964f, -0.026903234422206878662f},
      {0.059514869004487991333f, 0.014104336500167846680f, 0.050685230642557144165f}
    },
    {
      {-0.066056035459041595459f, -0.17307141423225402832f, -0.22203551232814788818f},
      {-0.012034072540700435638f, -0.058814227581024169922f, -0.028900003060698509216f},
      {0.058829162269830703735f, 0.014676602557301521301f, 0.040830943733453750610f}
    }
  },
  {
    {
      {0.070539250969886779785f, 0.079704351723194122314f, 0.013607592321932315826f},
      {0.026488190516829490662f, 0.065265044569969177246f, 0.017697803676128387451f},
      {-0.11553204804658889771f, -0.028862189501523971558f, -0.086257830262184143066f}
    },
    {
      {-0.048102047294378280640f, -0.057703737169504165649f, -0.12349405884742736816f},
      {0.069046437740325927734f, 0.077739723026752471924f, -0.11212909221649169922f},
      {-0.0069719855673611164093f, 0.081029690802097320557f, 0.077570870518684387207f}
    },
    {
      {0.050033863633871078491f, -0.19138701260089874268f, -0.15184226632118225098f},
      {0.099863223731517791748f, 0.050057936459779739380f, -0.10059509426355361938f},
      {0.10117566585540771484f, 0.14059729874134063721f, -0.082249335944652557373f}
    },
    {
      {0.091986939311027526855f, 0.068761728703975677490f, -0.028873220086097717285f},
      {-0.011169402860105037689f, 0.034999288618564605713f, -0.010635746642947196960f},
      {-0.064247496426105499268f, -0.015836212784051895142f, -0.064308896660804748535f}
    },
    {
      {-0.031808130443096160889f, 0.045098956674337387085f, -0.11516461521387100220f},
      {-0.089151695370674133301f, -0.014943575486540794373f, -0.0046110549010336399078f},
      {-0.00074321671854704618454f, -0.096366293728351593018f, 0.065585523843765258789f}
    },
    {
      {-0.18443228304386138916f, -0.0097477277740836143494f, 0.0085452636703848838806f},
      {0.029798803851008415222f, 0.025309357792139053345f, 0.062008768320083618164f},
      {0.12868152558803558350f, -0.12394808232784271240f, -0.16006255149841308594f}
    },
    {
      {0.044695790857076644897f, -0.044132351875305175781f, -0.10117226094007492065f},
      {0.044875733554363250732f, 0.0018279469804838299751f, -0.072169192135334014893f},
      {0.0095608439296483993530f, 0.22491459548473358154f, 0.023547394201159477234f}
    },
    {
      {0.075991034507751464844f, 0.072122946381568908691f, 0.0031842712778598070145f},
      {-0.095291279256343841553f, -0.10793098807334899902f, -0.15584951639175415039f},
      {0.031487386673688888550f, 0.14543554186820983887f, 0.035028584301471710205f}
    }
  },
  {
    {
      {0.065030276775360107422f, -0.011608282104134559631f, 0.065523512661457061768f},
      {-0.041201859712600708008f, -0.025802075862884521484f, -0.074691295623779296875f},
      {0.011327527463436126709f, 0.046247389167547225952f, 0.095908828079700469971f}
    },
    {
      {0.081998549401760101318f, 0.071830116212368011475f, 0.11374235898256301880f},
      {-0.0085283722728490829468f, -0.048729509115219116211f, -0.065045468509197235107f},
      {0.010750383138656616211f, 0.080335669219493865967f, 0.055348314344882965088f}
    },
    {
      {-0.067619241774082183838f, -0.0027518123388290405273f, 0.12035274505615234375f},
      {0.073981434106826782227f, -0.030785404145717620850f, 0.10081137716770172119f},
      {-0.072944603860378265381f, -0.030718779191374778748f, -0.014698731712996959686f}
    },
    {
      {0.14393566548824310303f, 0.19955901801586151123f, 0.14579941332340240479f},
      {0.20835600793361663818f, 0.19413042068481445312f, 0.20556215941905975342f},
      {0.30231326818466186523f, 0.41887784004211425781f, 0.40323054790496826172f}
    },
    {
      {0.043073531240224838257f, -0.021530451253056526184f, 0.042163778096437454224f},
      {0.11352923512458801270f, 0.063772551715373992920f, 0.029788536950945854187f},
      {0.044605527073144912720f, -0.018342075869441032410f, 0.0050890571437776088715f}
    },
    {
      {0.010123338550329208374f, 0.061535362154245376587f, 0.0081257037818431854248f},
      {0.017913239076733589172f, 0.026429053395986557007f, -0.051602967083454132080f},
      {-0.030843043699860572815f, 0.018772199749946594238f, -0.023142401129007339478f}
    },
    {
      {-0.038023591041564941406f, -0.059434670954942703247f, 0.11555149406194686890f},
      {0.090924039483070373535f, -0.086292110383510589600f, 0.075960673391819000244f},
      {-0.012604769319295883179f, -0.077108621597290039062f, 0.00010275245585944503546f}
    },
    {
      {-0.0012711065355688333511f, 0.031794238835573196411f, 0.052413746714591979980f},
      {0.022112602367997169495f, -0.0013612916227430105209f, 0.13799668848514556885f},
      {-0.022704878821969032288f, -0.068826332688331604004f, -0.034498203545808792114f}
    }
  },
  {
    {
      {0.048305723816156387329f, 0.080134674906730651855f, 0.10266773402690887451f},
      {-0.054508443921804428101f, 0.015190637670457363129f, -0.010581172071397304535f},
      {-0.016171205788850784302f, 0.049170147627592086792f, 0.049405861645936965942f}
    },
    {
      {-0.024607013911008834839f, -0.14029371738433837891f, -0.11925075948238372803f},
      {0.086955323815345764160f, 0.042592771351337432861f, -0.018879687413573265076f},
      {0.052552774548530578613f, -0.094239912927150726318f, 0.050377424806356430054f}
    },
    {
      {-0.12320265173912048340f, -0.069173067808151245117f, -0.050469756126403808594f},
      {-0.045162968337535858154f, -0.077857680618762969971f, -0.11819295585155487061f},
      {0.15389770269393920898f, 0.15422594547271728516f, 0.048491273075342178345f}
    },
    {
      {0.094268821179866790771f, 0.089044153690338134766f, 0.039467748254537582397f},
      {0.035797778517007827759f, 0.049672324210405349731f, -0.043815698474645614624f},
      {-0.016587952151894569397f, -0.10123030096292495728f, -0.072922542691230773926f}
    },
    {
      {-0.10768671333789825439f, -0.15233635902404785156f, 0.017983539029955863953f},
      {-0.13880184292793273926f, 0.031244337558746337891f, -0.13416323065757751465f},
      {0.26526525616645812988f, 0.24326108396053314209f, 0.24082139134407043457f}
    },
    {
      {-0.098137199878692626953f, -0.0076894904486835002899f, -0.036708388477563858032f},
      {-0.024330733343958854675f, 0.013383745215833187103f, -0.058471594005823135376f},
      {0.14378139376640319824f, 0.028404200449585914612f, -0.072767406702041625977f}
    },
    {
      {-0.10309236496686935425f, -0.084756061434745788574f, -0.16446641087532043457f},
      {-0.0041324854828417301178f, 0.046551756560802459717f, -0.042504679411649703979f},
      {-0.032670363783836364746f, 0.13684654235839843750f, 0.12371766567230224609f}
    },
    {
      {-0.15107944607734680176f, -0.11008730530738830566f, -0.089740365743637084961f},
      {0.0097052166238427162170f, 0.10508789867162704468f, 0.058630630373954772949f},
      {0.060077246278524398804f, 0.10549954324960708618f, -0.012397644110023975372f}
    }
  }
};
static const float tensor_onnx__Conv_50[16] = 
{-0.022448502480983734131f, 0.20878040790557861328f, 0.063254594802856445312f, 0.51767086982727050781f, 0.039759010076522827148f, 0.039125636219978332520f, 1.4116394519805908203f, 0.0064652264118194580078f, 0.089568912982940673828f, 0.13857716321945190430f, -0.29473912715911865234f, -0.036205589771270751953f, 0.37039417028427124023f, -0.034822300076484680176f, -1.3829584121704101562f, -0.32423770427703857422f};
static const float tensor_onnx__Conv_52[32][16][3][3] = 
{
  {
    {
      {-0.092736862599849700928f, -0.17591200768947601318f, -0.061922740191221237183f},
      {-0.084037944674491882324f, -0.11627114564180374146f, -0.13154108822345733643f},
      {-0.12604318559169769287f, 0.10827503353357315063f, 0.074982330203056335449f}
    },
    {
      {0.076796159148216247559f, -0.036842983216047286987f, -0.053600307554006576538f},
      {-0.00065161008387804031372f, -0.10989560931921005249f, -0.031631447374820709229f},
      {0.0054362975060939788818f, 0.089621633291244506836f, -0.037043865770101547241f}
    },
    {
      {-0.036902543157339096069f, -0.12077680975198745728f, -0.072346389293670654297f},
      {-0.076773494482040405273f, -0.086955092847347259521f, -0.044907838106155395508f},
      {-0.036941546946763992310f, 0.096820369362831115723f, -0.019234091043472290039f}
    },
    {
      {0.026702519506216049194f, -0.093305997550487518311f, -0.058787833899259567261f},
      {0.063395872712135314941f, -0.0097695738077163696289f, 0.025820430368185043335f},
      {0.058094739913940429688f, 0.089522175490856170654f, 0.063525490462779998779f}
    },
    {
      {0.050700083374977111816f, -0.063218094408512115479f, -0.11648355424404144287f},
      {-0.082896128296852111816f, 0.024193005636334419250f, 0.044385462999343872070f},
      {0.054045066237449645996f, 0.10960375517606735229f, -0.023131586611270904541f}
    },
    {
      {-0.015456022694706916809f, -0.10486038774251937866f, 0.082543872296810150146f},
      {-0.062898814678192138672f, -0.033296346664428710938f, -0.12565726041793823242f},
      {0.071850374341011047363f, 0.0092030987143516540527f, 0.066447801887989044189f}
    },
    {
      {0.094508215785026550293f, 0.15968655049800872803f, 0.13194003701210021973f},
      {0.021697876974940299988f, 0.0072148554027080535889f, 0.12460507452487945557f},
      {-0.072262264788150787354f, -0.22523029148578643799f, -0.022341098636388778687f}
    },
    {
      {-0.046418074518442153931f, -0.093373812735080718994f, -0.025464423000812530518f},
      {-0.038205280900001525879f, -0.0021613943390548229218f, -0.028288150206208229065f},
      {-0.12464249879121780396f, 0.028858445584774017334f, -0.016655188053846359253f}
    },
    {
      {-0.061778977513313293457f, -0.24188730120658874512f, -0.10160975903272628784f},
      {0.067414417862892150879f, -0.033949263393878936768f, -0.12171901017427444458f},
      {-0.081773653626441955566f, -0.042660187929868698120f, -0.026400724425911903381f}
    },
    {
      {-0.030842112377285957336f, -0.091841898858547210693f, -0.096576787531375885010f},
      {-0.12096251547336578369f, -0.056607291102409362793f, -0.098472625017166137695f},
      {-0.036341506987810134888f, -0.065422423183917999268f, -0.11912263929843902588f}
    },
    {
      {-0.032689265906810760498f, -0.16736362874507904053f, -0.050865106284618377686f},
      {0.024249432608485221863f, 0.045442957431077957153f, -0.026343546807765960693f},
      {0.12210801243782043457f, 0.058921460062265396118f, 0.012948467396199703217f}
    },
    {
      {-0.10482706874608993530f, -0.044125095009803771973f, -0.11794719845056533813f},
      {-0.019320361316204071045f, -0.038913488388061523438f, -0.044242687523365020752f},
      {-0.11849232763051986694f, -0.0078287031501531600952f, -0.086990915238857269287f}
    },
    {
      {0.065149806439876556396f, 0.051799964159727096558f, -0.072796776890754699707f},
      {-0.040540114045143127441f, 0.083722420036792755127f, 0.033096864819526672363f},
      {-0.13281093537807464600f, 0.035837005823850631714f, 0.081033609807491302490f}
    },
    {
      {0.038196973502635955811f, -0.14095899462699890137f, -0.11562388390302658081f},
      {0.054564457386732101440f, 0.052751921117305755615f, -0.0094264550134539604187f},
      {-0.017276026308536529541f, 0.015243648551404476166f, 0.022003553807735443115f}
    },
    {
      {-0.014594030566513538361f, -0.016232399269938468933f, -0.0025772852823138237000f},
      {0.053622249513864517212f, 0.013383491896092891693f, 0.031903874129056930542f},
      {-0.037058029323816299438f, 0.13835223019123077393f, 0.10507920384407043457f}
    },
    {
      {-0.053924847394227981567f, -0.086209148168563842773f, 0.0071673402562737464905f},
      {-0.070615552365779876709f, 0.076488003134727478027f, 0.011495076119899749756f},
      {-0.094375498592853546143f, 0.044686388224363327026f, 0.14431795477867126465f}
    }
  },
  {
    {
      {0.0038256167899817228317f, 0.044016417115926742554f, -0.019111156463623046875f},
      {-0.11097169667482376099f, -0.14324457943439483643f, -0.10643167048692703247f},
      {0.034895010292530059814f, -0.10917117446660995483f, 0.020559672266244888306f}
    },
    {
      {-0.038146845996379852295f, 0.024289915338158607483f, -0.13907206058502197266f},
      {0.10038461536169052124f, -0.17049944400787353516f, 0.24502348899841308594f},
      {0.045637477189302444458f, -0.094206787645816802979f, 0.015063165687024593353f}
    },
    {
      {0.0023419132921844720840f, 0.043444063514471054077f, -0.090309262275695800781f},
      {-0.0011573462979868054390f, -0.056520495563745498657f, 0.074779078364372253418f},
      {0.13344873487949371338f, 0.016995271667838096619f, 0.029921375215053558350f}
    },
    {
      {-0.034343995153903961182f, 0.00072811235440894961357f, 0.055333744734525680542f},
      {0.064527839422225952148f, -0.26875352859497070312f, -0.013299912214279174805f},
      {0.013265945948660373688f, -0.12923756241798400879f, 0.061497915536165237427f}
    },
    {
      {-0.043236598372459411621f, 0.0010803715558722615242f, -0.067487694323062896729f},
      {0.082376226782798767090f, -0.23220701515674591064f, 0.069621235132217407227f},
      {0.047660566866397857666f, -0.015154361724853515625f, 0.045186143368482589722f}
    },
    {
      {0.025628367438912391663f, 0.032477576285600662231f, 0.0073940097354352474213f},
      {-0.13834345340728759766f, 0.035220425575971603394f, -0.033039122819900512695f},
      {-0.014821736142039299011f, 0.028349062427878379822f, 0.12723913788795471191f}
    },
    {
      {0.029262766242027282715f, -0.12829120457172393799f, -0.049072694033384323120f},
      {0.18575708568096160889f, -0.024218998849391937256f, -0.47462716698646545410f},
      {0.12807518243789672852f, 0.093355931341648101807f, -0.14373047649860382080f}
    },
    {
      {-0.039484750479459762573f, -0.23634442687034606934f, -0.12640020251274108887f},
      {-0.024906376376748085022f, -0.055971834808588027954f, 0.018434438854455947876f},
      {-0.0088835386559367179871f, 0.079558588564395904541f, 0.060795485973358154297f}
    },
    {
      {-0.0041745700873434543610f, 0.042672317475080490112f, -0.0048809866420924663544f},
      {-0.037564329802989959717f, -0.018202520906925201416f, 0.021632038056850433350f},
      {0.12065133452415466309f, -0.15126711130142211914f, -0.12411694228649139404f}
    },
    {
      {0.0080069759860634803772f, 0.089557707309722900391f, -0.052517808973789215088f},
      {-0.047158569097518920898f, 0.024568522348999977112f, -0.072809696197509765625f},
      {0.055721953511238098145f, 0.040390599519014358521f, -0.071549832820892333984f}
    },
    {
      {-0.17452597618103027344f, 0.038621962070465087891f, -0.095859967172145843506f},
      {-0.12808097898960113525f, 0.012925447896122932434f, -0.00099551735911518335342f},
      {-0.056809507310390472412f, 0.073691137135028839111f, 0.0054787881672382354736f}
    },
    {
      {0.016515240073204040527f, -0.16303555667400360107f, -0.24388352036476135254f},
      {0.0083770174533128738403f, -0.21474345028400421143f, -0.11881598085165023804f},
      {0.042169440537691116333f, 0.015523836947977542877f, -0.10119406878948211670f}
    },
    {
      {-0.061707898974418640137f, -0.0057998518459498882294f, 0.031807385385036468506f},
      {0.012357166036963462830f, -0.12649682164192199707f, -0.11675959080457687378f},
      {0.10088910162448883057f, -0.016115793958306312561f, -0.18713045120239257812f}
    },
    {
      {-0.098240934312343597412f, 0.046732202172279357910f, -0.048576641827821731567f},
      {-0.065319187939167022705f, -0.13719539344310760498f, 0.022869192063808441162f},
      {-0.011794157326221466064f, -0.10737986862659454346f, 0.035099182277917861938f}
    },
    {
      {-0.040024671703577041626f, 0.11147991567850112915f, -0.024116860702633857727f},
      {0.092547535896301269531f, 0.0039095208048820495605f, -0.12654829025268554688f},
      {-0.026513781398534774780f, -0.054625477641820907593f, -0.079767711460590362549f}
    },
    {
      {-0.067179679870605468750f, 0.0062435055151581764221f, 0.025710752233862876892f},
      {-0.0017204238101840019226f, -0.0043662008829414844513f, -0.058737128973007202148f},
      {0.0093312300741672515869f, 0.024890875443816184998f, -0.039865661412477493286f}
    }
  },
  {
    {
      {0.055595174431800842285f, 0.0014049287419766187668f, -0.020191114395856857300f},
      {-0.027148343622684478760f, -0.053340952843427658081f, 0.057410672307014465332f},
      {-0.060256373137235641479f, -0.072636418044567108154f, 0.016161266714334487915f}
    },
    {
      {0.016514193266630172729f, -0.048597399145364761353f, -0.0048981835134327411652f},
      {0.011886884458363056183f, -0.034641016274690628052f, -0.058914303779602050781f},
      {0.042579296976327896118f, 0.028981389477849006653f, -0.10028416663408279419f}
    },
    {
      {0.037222519516944885254f, -0.059727355837821960449f, 0.031779035925865173340f},
      {-0.050173379480838775635f, -0.070307493209838867188f, 0.066482663154602050781f},
      {-0.083448909223079681396f, -0.072709724307060241699f, -0.012898525223135948181f}
    },
    {
      {0.18451994657516479492f, -0.018430816009640693665f, 0.098344229161739349365f},
      {0.052007932215929031372f, -0.0056309048086404800415f, 0.0023978424724191427231f},
      {0.0056521478109061717987f, 0.083911947906017303467f, -0.077889159321784973145f}
    },
    {
      {0.040503393858671188354f, 0.0095223998650908470154f, 0.081020034849643707275f},
      {0.045812468975782394409f, -0.017528213560581207275f, 0.058650456368923187256f},
      {0.059655010700225830078f, 0.045695975422859191895f, -0.048167958855628967285f}
    },
    {
      {0.071483686566352844238f, 0.10305149853229522705f, 0.090370506048202514648f},
      {0.060416825115680694580f, 0.034485727548599243164f, 0.054561514407396316528f},
      {0.057930309325456619263f, -0.0049981772899627685547f, 0.018588202074170112610f}
    },
    {
      {0.035021077841520309448f, -0.0053998092189431190491f, -0.030148873105645179749f},
      {0.065722152590751647949f, 0.060931209474802017212f, 0.043289016932249069214f},
      {-0.012649494223296642303f, 0.092260010540485382080f, -0.0075769750401377677917f}
    },
    {
      {-0.016524512320756912231f, -0.021942062303423881531f, 0.037716157734394073486f},
      {-0.010094728320837020874f, -0.070358633995056152344f, -0.0086902892217040061951f},
      {0.066226400434970855713f, 0.014900435693562030792f, 0.050001226365566253662f}
    },
    {
      {0.024226333945989608765f, -0.0095488773658871650696f, -0.0060126245953142642975f},
      {-0.014890683814883232117f, -0.064893499016761779785f, 0.050238505005836486816f},
      {0.058460079133510589600f, -0.092957399785518646240f, -0.18182745575904846191f}
    },
    {
      {-0.023622553795576095581f, -0.025460148230195045471f, -0.042175475507974624634f},
      {0.017235472798347473145f, -0.027274506166577339172f, 0.067606598138809204102f},
      {0.0098482780158519744873f, -0.035725757479667663574f, 0.038317251950502395630f}
    },
    {
      {0.034564826637506484985f, -0.0062558436766266822815f, 0.065356783568859100342f},
      {-0.016321506351232528687f, -0.087771303951740264893f, 0.0097709111869335174561f},
      {0.060050472617149353027f, -0.0083366995677351951599f, -0.081370569765567779541f}
    },
    {
      {0.0080757467076182365417f, -0.010058872401714324951f, -0.030137857422232627869f},
      {0.11223271489143371582f, 0.044881470501422882080f, 0.010121963918209075928f},
      {0.028033118695020675659f, -0.018302047625184059143f, 0.059675022959709167480f}
    },
    {
      {0.089956134557723999023f, 0.094246625900268554688f, 0.044666301459074020386f},
      {-0.0076540992595255374908f, 0.018742062151432037354f, -0.018162965774536132812f},
      {-0.058283764868974685669f, -0.013606886379420757294f, -0.035545840859413146973f}
    },
    {
      {0.042105782777070999146f, -0.075928896665573120117f, -0.00050657975953072309494f},
      {0.051796287298202514648f, -0.027738649398088455200f, 0.069667197763919830322f},
      {0.14069809019565582275f, 0.067893296480178833008f, -0.065811641514301300049f}
    },
    {
      {0.015673227608203887939f, -0.023310333490371704102f, -0.059161648154258728027f},
      {-0.0061285663396120071411f, 0.017460601404309272766f, -0.054490465670824050903f},
      {-0.10256592929363250732f, -0.024082800373435020447f, -0.11243650317192077637f}
    },
    {
      {0.063496619462966918945f, -0.027275284752249717712f, 0.0096228420734405517578f},
      {0.012223117984831333160f, 0.032771538943052291870f, 0.092001467943191528320f},
      {0.16978207230567932129f, 0.064001202583312988281f, -0.0064726839773356914520f}
    }
  },
  {
    {
      {0.090660832822322845459f, -0.15055742859840393066f, -0.13252286612987518311f},
      {-0.034464728087186813354f, 0.016688916832208633423f, -0.042573161423206329346f},
      {-0.12265951931476593018f, -0.0070878379046916961670f, -0.064153611660003662109f}
    },
    {
      {0.054598223417997360229f, 0.013824142515659332275f, 0.041787553578615188599f},
      {0.051033895462751388550f, 0.031155150383710861206f, -0.034504089504480361938f},
      {-0.10168499499559402466f, -0.011095139198005199432f, -0.082960121333599090576f}
    },
    {
      {0.044603623449802398682f, -0.13078959286212921143f, -0.054959945380687713623f},
      {0.058466341346502304077f, 0.053495202213525772095f, -0.010954963974654674530f},
      {-0.15904363989830017090f, -0.023625625297427177429f, -0.0096698859706521034241f}
    },
    {
      {0.084861367940902709961f, -0.0016942616784945130348f, -0.11494395136833190918f},
      {0.065639734268188476562f, 0.021831851452589035034f, -0.051281198859214782715f},
      {-0.058850556612014770508f, 0.072373040020465850830f, 0.017938332632184028625f}
    },
    {
      {0.085340134799480438232f, 0.014444347470998764038f, -0.061330690979957580566f},
      {0.057000976055860519409f, -0.022308116778731346130f, 0.013902571983635425568f},
      {0.070029787719249725342f, 0.070496745407581329346f, 0.010294367559254169464f}
    },
    {
      {0.0056017013266682624817f, -0.18112200498580932617f, -0.24912109971046447754f},
      {0.12478193640708923340f, -0.032143991440534591675f, -0.17203231155872344971f},
      {0.041619785130023956299f, -0.10061263293027877808f, 0.0030309013091027736664f}
    },
    {
      {-0.063085205852985382080f, 0.12043674290180206299f, 0.22022077441215515137f},
      {0.0052795899100601673126f, -0.031007939949631690979f, 0.10602888464927673340f},
      {-0.20014403760433197021f, -0.22455003857612609863f, -0.055220130831003189087f}
    },
    {
      {-0.028519038110971450806f, -0.062193565070629119873f, -0.083916515111923217773f},
      {0.024072313681244850159f, -0.023648658767342567444f, -0.14897128939628601074f},
      {0.11495295166969299316f, -0.11470957100391387939f, -0.085962422192096710205f}
    },
    {
      {0.052692469209432601929f, -0.031315024942159652710f, 0.096440255641937255859f},
      {-0.015199849382042884827f, -0.026778459548950195312f, 0.041743714362382888794f},
      {0.12949290871620178223f, 0.18746680021286010742f, 0.13781858980655670166f}
    },
    {
      {0.038177989423274993896f, -0.077173568308353424072f, -0.11468555778264999390f},
      {-0.059102673083543777466f, -0.11170164495706558228f, -0.11344156414270401001f},
      {0.052827451378107070923f, 0.030356559902429580688f, 0.017501033842563629150f}
    },
    {
      {-0.0023368140682578086853f, -0.094702310860157012939f, -0.18211728334426879883f},
      {-0.0077850101515650749207f, -0.00087476853514090180397f, -0.037387639284133911133f},
      {0.062487013638019561768f, 0.092559754848480224609f, 0.0037384687457233667374f}
    },
    {
      {-0.057016819715499877930f, -0.014002957381308078766f, -0.045902315527200698853f},
      {0.022763006389141082764f, 0.00075771345291286706924f, -0.026503108441829681396f},
      {-0.020072245970368385315f, -0.097675949335098266602f, -0.030961634591221809387f}
    },
    {
      {0.022589866071939468384f, 0.12007106095552444458f, 0.0087020201608538627625f},
      {-0.10800628364086151123f, 0.036090530455112457275f, 0.079075530171394348145f},
      {-0.18938978016376495361f, -0.011837658472359180450f, 0.014480578713119029999f}
    },
    {
      {0.13088108599185943604f, 0.024518942460417747498f, -0.13862329721450805664f},
      {0.00021834764629602432251f, -0.0072621447034180164337f, -0.17063073813915252686f},
      {0.081311412155628204346f, 0.085153363645076751709f, 0.14394760131835937500f}
    },
    {
      {0.082239195704460144043f, 0.00084852741565555334091f, -0.0069200610741972923279f},
      {-0.040601860731840133667f, 0.013828339986503124237f, 0.020316990092396736145f},
      {-0.12563382089138031006f, -0.053210038691759109497f, -0.038371410220861434937f}
    },
    {
      {-0.00051763397641479969025f, 0.078560456633567810059f, -0.13926921784877777100f},
      {-0.051657438278198242188f, -0.033018641173839569092f, 0.059800125658512115479f},
      {-0.010891235433518886566f, -0.0048010828904807567596f, 0.085560478270053863525f}
    }
  },
  {
    {
      {0.027188559994101524353f, 0.028419300913810729980f, -0.034265063703060150146f},
      {-0.048537094146013259888f, 0.036147657781839370728f, -0.074594415724277496338f},
      {-0.12106253206729888916f, -0.091615863144397735596f, -0.037917893379926681519f}
    },
    {
      {0.028447667136788368225f, -0.070524878799915313721f, -0.10652517527341842651f},
      {0.068358771502971649170f, -0.11240072548389434814f, -0.024987267330288887024f},
      {-0.10303042083978652954f, -0.12964399158954620361f, 0.14650888741016387939f}
    },
    {
      {0.066915236413478851318f, 0.049314711242914199829f, -0.0040322011336684226990f},
      {0.0092925978824496269226f, -0.052258707582950592041f, -0.088631972670555114746f},
      {-0.019785273820161819458f, -0.073476992547512054443f, -0.040549930185079574585f}
    },
    {
      {0.035029321908950805664f, 0.083283677697181701660f, 0.10487934201955795288f},
      {-0.022960379719734191895f, 0.097053043544292449951f, 0.029311880469322204590f},
      {-0.19681964814662933350f, -0.19913882017135620117f, 0.035892870277166366577f}
    },
    {
      {0.026668580248951911926f, 0.0046749766916036605835f, -0.058590356260538101196f},
      {-0.028416477143764495850f, -0.053280264139175415039f, 0.061780963093042373657f},
      {-0.14801348745822906494f, -0.13202078640460968018f, 0.072339475154876708984f}
    },
    {
      {-0.078863836824893951416f, -0.16278769075870513916f, -0.19584749639034271240f},
      {-0.0040564681403338909149f, 0.030150452628731727600f, -0.028182795271277427673f},
      {0.012680031359195709229f, 0.048988781869411468506f, 0.10446613281965255737f}
    },
    {
      {-0.21488834917545318604f, -0.0070673907175660133362f, 0.21027891337871551514f},
      {-0.043861474841833114624f, -0.14388622343540191650f, -0.12804695963859558105f},
      {0.14952440559864044189f, 0.067384153604507446289f, -0.12846228480339050293f}
    },
    {
      {0.010784126818180084229f, -0.028435764834284782410f, -0.031512100249528884888f},
      {0.021246476098895072937f, -0.10841510444879531860f, -0.064261600375175476074f},
      {-0.10716747492551803589f, 0.036859109997749328613f, -0.069145925343036651611f}
    },
    {
      {-0.064578682184219360352f, -0.15437529981136322021f, -0.0053294729441404342651f},
      {0.069194093346595764160f, 0.20645156502723693848f, -0.11379400640726089478f},
      {0.097308270633220672607f, -0.11249929666519165039f, -0.037185158580541610718f}
    },
    {
      {0.027323445305228233337f, -0.16446492075920104980f, -0.14431637525558471680f},
      {-0.021782888099551200867f, 0.012854990549385547638f, 0.039782255887985229492f},
      {-0.014391428790986537933f, 0.10254850983619689941f, -0.033778686076402664185f}
    },
    {
      {0.10871817916631698608f, -0.022983836010098457336f, -0.0038952589966356754303f},
      {0.0010140039958059787750f, 0.010827528312802314758f, 0.067157201468944549561f},
      {-0.12492210417985916138f, 0.12116598337888717651f, 0.070665679872035980225f}
    },
    {
      {-0.021763756871223449707f, 0.14608299732208251953f, -0.12959294021129608154f},
      {0.072183586657047271729f, 0.017542794346809387207f, -0.079165548086166381836f},
      {-0.091025225818157196045f, 0.030872840434312820435f, -0.069242857396602630615f}
    },
    {
      {-0.025229625403881072998f, 0.33111494779586791992f, 0.18322299420833587646f},
      {-0.10488702356815338135f, -0.17160023748874664307f, -0.082178384065628051758f},
      {-0.098914638161659240723f, -0.24176746606826782227f, -0.35217276215553283691f}
    },
    {
      {0.035280082374811172485f, -0.088273607194423675537f, 0.086109429597854614258f},
      {-0.11712032556533813477f, 0.12403157353401184082f, 0.16104231774806976318f},
      {0.0048577045090496540070f, -0.049619939178228378296f, 0.014351488091051578522f}
    },
    {
      {0.10196697711944580078f, 0.16090941429138183594f, 0.11902789026498794556f},
      {-0.13992592692375183105f, -0.19343344867229461670f, -0.32506263256072998047f},
      {-0.035630691796541213989f, -0.022081144154071807861f, -0.093024350702762603760f}
    },
    {
      {-0.033991746604442596436f, 0.073223769664764404297f, -0.042650874704122543335f},
      {-0.12217741459608078003f, 0.039147268980741500854f, 0.062840312719345092773f},
      {0.058808255940675735474f, -0.047861929982900619507f, -0.095222100615501403809f}
    }
  },
  {
    {
      {-0.034763105213642120361f, -0.057280782610177993774f, 0.0085199438035488128662f},
      {-0.056086413562297821045f, 0.11226588487625122070f, -0.011212884448468685150f},
      {0.038518309593200683594f, -0.00027494365349411964417f, 0.056702107191085815430f}
    },
    {
      {-0.051558606326580047607f, 0.12103651463985443115f, -0.057709246873855590820f},
      {-0.011728870682418346405f, 0.044381283223628997803f, -0.034164324402809143066f},
      {-0.016014164313673973083f, -0.019391791895031929016f, 0.027067515999078750610f}
    },
    {
      {-0.12550978362560272217f, -0.011899581179022789001f, 0.026272404938936233521f},
      {0.010621442459523677826f, 0.050610661506652832031f, 0.0015229637501761317253f},
      {0.072028547525405883789f, 0.022674201056361198425f, 0.065670281648635864258f}
    },
    {
      {0.00035127086448483169079f, 0.060748226940631866455f, -0.070288844406604766846f},
      {-0.034675341099500656128f, -0.0098130218684673309326f, -0.023955032229423522949f},
      {-0.032481711357831954956f, 0.0066680200397968292236f, -0.057918876409530639648f}
    },
    {
      {0.025345074012875556946f, 0.065816722810268402100f, 0.017352709546685218811f},
      {-0.095013655722141265869f, -0.049758415669202804565f, 0.061832677572965621948f},
      {-0.077707149088382720947f, -0.023593928664922714233f, 0.041053313761949539185f}
    },
    {
      {0.16216586530208587646f, -0.019638817757368087769f, -0.19365566968917846680f},
      {0.12163305282592773438f, -0.030285516753792762756f, -0.051859647035598754883f},
      {-0.038315050303936004639f, -0.0095985289663076400757f, -0.070822358131408691406f}
    },
    {
      {-0.075890682637691497803f, 0.0088895279914140701294f, 0.10095726698637008667f},
      {-0.020066881552338600159f, -0.097462467849254608154f, -0.053713042289018630981f},
      {0.11767844110727310181f, -0.0080996267497539520264f, 0.016033567488193511963f}
    },
    {
      {-0.053764235228300094604f, -0.020277777686715126038f, -0.057416237890720367432f},
      {0.052251260727643966675f, -0.034004781395196914673f, 0.035680294036865234375f},
      {-0.013625527732074260712f, -0.042861726135015487671f, -0.062171831727027893066f}
    },
    {
      {0.0093935700133442878723f, -0.031486339867115020752f, -0.015712589025497436523f},
      {-0.036947704851627349854f, 0.0089437970891594886780f, 0.040288534015417098999f},
      {0.061262872070074081421f, -0.084578327834606170654f, 0.018178213387727737427f}
    },
    {
      {0.070564150810241699219f, -0.056202214211225509644f, -0.047240376472473144531f},
      {-0.036733776330947875977f, -0.026376217603683471680f, -0.0076564536429941654205f},
      {0.049936536699533462524f, 0.018792921677231788635f, -0.034424547106027603149f}
    },
    {
      {-0.0034066732041537761688f, 0.065083816647529602051f, -0.11406982690095901489f},
      {0.032552361488342285156f, -0.047562539577484130859f, -0.021454140543937683105f},
      {0.022940542548894882202f, 0.025758404284715652466f, 0.015316573902964591980f}
    },
    {
      {-0.014550358057022094727f, -0.017469936981797218323f, -0.057076353579759597778f},
      {0.070442922413349151611f, -0.093754030764102935791f, -0.035254620015621185303f},
      {0.094773814082145690918f, 0.013700467534363269806f, 0.065394021570682525635f}
    },
    {
      {-0.12234414368867874146f, -0.033461317420005798340f, -0.044530276209115982056f},
      {-0.096447020769119262695f, -0.12905649840831756592f, 0.0081130610778927803040f},
      {0.0069911614991724491119f, -0.084968604147434234619f, 0.0067710247822105884552f}
    },
    {
      {0.0083799744024872779846f, -0.015606274828314781189f, -0.032813083380460739136f},
      {-0.023353837430477142334f, -0.017573319375514984131f, 0.046137444674968719482f},
      {-0.020902553573250770569f, -0.074646376073360443115f, 0.011810369789600372314f}
    },
    {
      {-0.079664006829261779785f, -0.0016212535556405782700f, -0.067290827631950378418f},
      {0.00022847308719065040350f, -0.041557446122169494629f, 0.027513857930898666382f},
      {0.063105620443820953369f, 0.034934069961309432983f, 0.049085967242717742920f}
    },
    {
      {0.0011215308913961052895f, -0.085942849516868591309f, -0.034446559846401214600f},
      {-0.042259383946657180786f, 0.0014827556442469358444f, 0.11898418515920639038f},
      {0.043206494301557540894f, -0.051971193403005599976f, -0.019414488226175308228f}
    }
  },
  {
    {
      {0.060432836413383483887f, -0.017187481746077537537f, -0.069506853818893432617f},
      {-0.031665746122598648071f, 0.045008733868598937988f, 0.038886427879333496094f},
      {-0.0042830542661249637604f, 0.10027334839105606079f, -0.071514129638671875000f}
    },
    {
      {-0.018090231344103813171f, -0.13412687182426452637f, -0.12417213618755340576f},
      {0.011453807353973388672f, -0.0029013145249336957932f, -0.047798901796340942383f},
      {0.072478324174880981445f, 0.12484600394964218140f, -0.13053657114505767822f}
    },
    {
      {0.039650019258260726929f, 0.0082123503088951110840f, -0.065536029636859893799f},
      {0.067777022719383239746f, 0.0056794849224388599396f, -0.018750542774796485901f},
      {0.044477913528680801392f, 0.072717137634754180908f, -0.21847848594188690186f}
    },
    {
      {-0.041233338415622711182f, -0.024662259966135025024f, 0.087980292737483978271f},
      {-0.065719887614250183105f, 0.089932829141616821289f, -0.089412301778793334961f},
      {0.028220478445291519165f, 0.088541410863399505615f, -0.021015767008066177368f}
    },
    {
      {-0.045425754040479660034f, -0.059552434831857681274f, -0.055853392928838729858f},
      {0.014733199030160903931f, 0.045938272029161453247f, -0.076048851013183593750f},
      {0.087876059114933013916f, 0.051949545741081237793f, -0.072849392890930175781f}
    },
    {
      {-0.099563211202621459961f, -0.082252554595470428467f, -0.022468987852334976196f},
      {0.073555275797843933105f, -0.068219341337680816650f, 0.058015208691358566284f},
      {0.055453792214393615723f, 0.0058809951879084110260f, -0.13180272281169891357f}
    },
    {
      {0.16519698500633239746f, -0.0098376357927918434143f, -0.027083890512585639954f},
      {-0.015627881512045860291f, -0.094899117946624755859f, 0.061978902667760848999f},
      {0.021002223715186119080f, 0.068251937627792358398f, 0.15015463531017303467f}
    },
    {
      {0.13792335987091064453f, -0.014169426634907722473f, -0.074436038732528686523f},
      {-0.011691957712173461914f, 0.080372765660285949707f, 0.0064778835512697696686f},
      {0.015973839908838272095f, -0.0092399492859840393066f, -0.13370071351528167725f}
    },
    {
      {0.10903334617614746094f, 0.20849820971488952637f, 0.14615976810455322266f},
      {0.042856995016336441040f, -0.090057544410228729248f, -0.11586643755435943604f},
      {0.015496852807700634003f, 0.039814807474613189697f, 0.19551181793212890625f}
    },
    {
      {0.081443242728710174561f, 0.072451703250408172607f, 0.17681771516799926758f},
      {-0.10005005449056625366f, -0.029339555650949478149f, -0.10956401377916336060f},
      {-0.022298980504274368286f, 0.015338148921728134155f, 0.025178529322147369385f}
    },
    {
      {-0.055428557097911834717f, -0.055342238396406173706f, -0.0063894740305840969086f},
      {-0.019834864884614944458f, -0.018464302644133567810f, -0.034195393323898315430f},
      {0.088685289025306701660f, 0.018962867558002471924f, -0.12417273968458175659f}
    },
    {
      {0.086026482284069061279f, -0.037940353155136108398f, -0.069051034748554229736f},
      {-0.018464008346199989319f, 0.050305869430303573608f, 0.019378265365958213806f},
      {-0.024125378578901290894f, -0.094048202037811279297f, -0.11315017938613891602f}
    },
    {
      {0.055154174566268920898f, -0.083088882267475128174f, 0.048097249120473861694f},
      {0.0060001681558787822723f, -0.015671189874410629272f, -0.043704118579626083374f},
      {-0.0067391255870461463928f, 0.073533430695533752441f, 0.0045304102823138237000f}
    },
    {
      {-0.084246478974819183350f, -0.013171501457691192627f, 0.047531384974718093872f},
      {0.0020203662570565938950f, 0.072900563478469848633f, -0.20893131196498870850f},
      {0.10748270899057388306f, 0.010343060828745365143f, -0.047542750835418701172f}
    },
    {
      {0.00018342543626204133034f, -0.060454554855823516846f, -0.080592274665832519531f},
      {-0.057216662913560867310f, -0.00034169942955486476421f, -0.00041732151294127106667f},
      {0.019714718684554100037f, -0.063343375921249389648f, -0.075079806149005889893f}
    },
    {
      {0.014968657866120338440f, -0.013991004787385463715f, 0.062265709042549133301f},
      {-0.022841604426503181458f, 0.019949831068515777588f, -0.034374386072158813477f},
      {-0.0043843365274369716644f, 0.046855010092258453369f, -0.010025078430771827698f}
    }
  },
  {
    {
      {0.11854984611272811890f, 0.00036277482286095619202f, 0.018798138946294784546f},
      {0.035852707922458648682f, -0.032989952713251113892f, -0.033716183155775070190f},
      {-0.030422175303101539612f, -0.10301683098077774048f, -0.11009588837623596191f}
    },
    {
      {0.094634823501110076904f, -0.013747686520218849182f, -0.084263458847999572754f},
      {-0.052448466420173645020f, -0.034214671701192855835f, 0.028735738247632980347f},
      {-0.081167198717594146729f, 0.063871167600154876709f, 0.22790163755416870117f}
    },
    {
      {0.096072643995285034180f, -0.040165465325117111206f, -0.034141033887863159180f},
      {-0.037073846906423568726f, -0.16383396089076995850f, -0.17272478342056274414f},
      {0.064143694937229156494f, -0.077880695462226867676f, 0.15061748027801513672f}
    },
    {
      {0.0039266771636903285980f, -0.15223369002342224121f, 0.037984974682331085205f},
      {0.016870263963937759399f, 0.031749442219734191895f, 0.13116343319416046143f},
      {-0.0051160417497158050537f, 0.087365351617336273193f, 0.22426222264766693115f}
    },
    {
      {0.056493911892175674438f, -0.052355863153934478760f, -0.15331368148326873779f},
      {-0.048841740936040878296f, -0.11741667240858078003f, -0.12764240801334381104f},
      {-0.012769663706421852112f, -0.027448896318674087524f, 0.19306728243827819824f}
    },
    {
      {-0.00090790638932958245277f, -0.034740488976240158081f, 0.12411575019359588623f},
      {-0.10922548174858093262f, -0.26154923439025878906f, -0.14314201474189758301f},
      {-0.11687415838241577148f, 0.036190986633300781250f, 0.083590708673000335693f}
    },
    {
      {-0.0095832739025354385376f, -0.030599052086472511292f, 0.021246220916509628296f},
      {0.010035676881670951843f, -0.035415679216384887695f, -0.013299779035151004791f},
      {0.11942571401596069336f, 0.038898065686225891113f, 0.093836829066276550293f}
    },
    {
      {0.058328479528427124023f, -0.079591922461986541748f, -0.19225269556045532227f},
      {0.037662722170352935791f, 0.10999092459678649902f, -0.099320396780967712402f},
      {0.11749096214771270752f, -0.028012773022055625916f, -0.013202551752328872681f}
    },
    {
      {0.21617884933948516846f, 0.023711044341325759888f, -0.18709179759025573730f},
      {-0.010430607944726943970f, -0.12081617116928100586f, -0.065192587673664093018f},
      {-0.032193794846534729004f, -0.19956637918949127197f, -0.18685500323772430420f}
    },
    {
      {0.22145763039588928223f, 0.045043293386697769165f, -0.17658483982086181641f},
      {0.059920728206634521484f, 0.00029787028324790298939f, 0.012209039181470870972f},
      {-0.11199901252985000610f, -0.22190095484256744385f, -0.086262635886669158936f}
    },
    {
      {0.013834175653755664825f, -0.021029038354754447937f, 0.081311441957950592041f},
      {-0.058128286153078079224f, -0.33678299188613891602f, -0.21294802427291870117f},
      {-0.14179141819477081299f, -0.087396316230297088623f, -0.012463978491723537445f}
    },
    {
      {0.095800571143627166748f, -0.060510054230690002441f, -0.089272625744342803955f},
      {-0.057370245456695556641f, 0.034766580909490585327f, -0.13207705318927764893f},
      {0.073258951306343078613f, -0.070250183343887329102f, -0.014369728043675422668f}
    },
    {
      {0.062898896634578704834f, -0.0049418220296502113342f, 0.0021195791196078062057f},
      {0.0017647363711148500443f, 0.016331797465682029724f, -0.099534653127193450928f},
      {-0.077196896076202392578f, 0.026540363207459449768f, 0.0061226161196827888489f}
    },
    {
      {0.027830930426716804504f, 0.0066971709020435810089f, -0.084131427109241485596f},
      {0.016576264053583145142f, -0.087978199124336242676f, -0.11966127902269363403f},
      {-0.090985126793384552002f, 0.055700365453958511353f, 0.18206202983856201172f}
    },
    {
      {-0.010867250151932239532f, -0.060757856816053390503f, 0.13071946799755096436f},
      {-0.10548195242881774902f, -0.12942063808441162109f, 0.083375193178653717041f},
      {-0.086482666432857513428f, -0.040810823440551757812f, 0.057907879352569580078f}
    },
    {
      {0.099350281059741973877f, -0.018215389922261238098f, -0.061774469912052154541f},
      {-0.016200507059693336487f, -0.045173849910497665405f, 0.011523404158651828766f},
      {-0.025192350149154663086f, -0.16291810572147369385f, -0.0051515093073248863220f}
    }
  },
  {
    {
      {0.078907690942287445068f, 0.047771539539098739624f, 0.015341031365096569061f},
      {-0.036534655839204788208f, 0.013932754285633563995f, -0.10693737864494323730f},
      {0.11276552081108093262f, -0.17047639191150665283f, -0.071159787476062774658f}
    },
    {
      {-0.019162267446517944336f, -0.092291854321956634521f, -0.12462972849607467651f},
      {0.064552843570709228516f, -0.043786861002445220947f, -0.21224176883697509766f},
      {0.11936175823211669922f, 0.095107391476631164551f, -0.20801983773708343506f}
    },
    {
      {0.014548582024872303009f, -0.032058872282505035400f, 0.091688185930252075195f},
      {-0.088834546506404876709f, -0.17158140242099761963f, -0.26188361644744873047f},
      {0.13897739350795745850f, -0.078380689024925231934f, -0.066714778542518615723f}
    },
    {
      {0.066124461591243743896f, -0.12259513884782791138f, -0.11568439006805419922f},
      {-0.012207855470478534698f, -0.036282211542129516602f, -0.032049801200628280640f},
      {0.10071855038404464722f, 0.23145139217376708984f, 0.065742224454879760742f}
    },
    {
      {-0.055183384567499160767f, -0.11974548548460006714f, -0.033545687794685363770f},
      {0.022450141608715057373f, -0.15236091613769531250f, -0.067684084177017211914f},
      {0.062868714332580566406f, 0.032402288168668746948f, 0.012315927073359489441f}
    },
    {
      {-0.17348429560661315918f, 0.0031650729943066835403f, 0.10026074200868606567f},
      {-0.10060172528028488159f, 8.5822161054238677025e-05f, -0.011134633794426918030f},
      {-0.12250167131423950195f, -0.040713030844926834106f, 0.13416570425033569336f}
    },
    {
      {0.0058981007896363735199f, -0.11040480434894561768f, 0.068273462355136871338f},
      {-0.00012719463848043233156f, -0.12201656401157379150f, -0.078471258282661437988f},
      {0.18416838347911834717f, 0.25888082385063171387f, 0.066459946334362030029f}
    },
    {
      {-0.0013708362821489572525f, 0.14035175740718841553f, -0.015200234949588775635f},
      {0.064155474305152893066f, 0.022761950269341468811f, -0.084346547722816467285f},
      {-0.0086378687992691993713f, -0.094414636492729187012f, -0.10411021113395690918f}
    },
    {
      {-0.0090085621923208236694f, 0.084691539406776428223f, -0.0092186387628316879272f},
      {-0.10898223519325256348f, -0.070816427469253540039f, -0.080772019922733306885f},
      {-0.097009032964706420898f, -0.098450072109699249268f, 0.055169817060232162476f}
    },
    {
      {0.12001120299100875854f, 0.092514730989933013916f, 0.065533526241779327393f},
      {-0.045502383261919021606f, -0.013769948855042457581f, 0.14993247389793395996f},
      {-0.21227820217609405518f, -0.25027075409889221191f, -0.040432766079902648926f}
    },
    {
      {-0.18121206760406494141f, -0.054191675037145614624f, -0.085022807121276855469f},
      {-0.033843766897916793823f, -0.14115804433822631836f, 0.022306002676486968994f},
      {0.049198016524314880371f, -0.019468886777758598328f, 0.055636353790760040283f}
    },
    {
      {0.0082145594060420989990f, 0.068929165601730346680f, 0.13570287823677062988f},
      {0.054672975093126296997f, -0.022148119285702705383f, 0.050290603190660476685f},
      {-0.12073978781700134277f, -0.14533999562263488770f, 0.0087675722315907478333f}
    },
    {
      {-0.044919457286596298218f, -0.044514827430248260498f, -0.16806761920452117920f},
      {0.059214893728494644165f, -0.048328492790460586548f, 0.063669748604297637939f},
      {0.088506855070590972900f, 0.078340344130992889404f, 0.20198474824428558350f}
    },
    {
      {-0.072727911174297332764f, 0.0072028134018182754517f, -0.073974452912807464600f},
      {-0.031071081757545471191f, -0.21108335256576538086f, 0.0033311392180621623993f},
      {-0.066413119435310363770f, -0.15648576617240905762f, 0.17944917082786560059f}
    },
    {
      {-0.21455569565296173096f, -0.062539443373680114746f, -0.11930008232593536377f},
      {0.0068575111217796802521f, 0.17813374102115631104f, 0.096078492701053619385f},
      {0.088897280395030975342f, 0.10854350030422210693f, 0.14381729066371917725f}
    },
    {
      {-0.064610771834850311279f, -0.046679805964231491089f, -0.040570154786109924316f},
      {-0.030244642868638038635f, -0.19333080947399139404f, 0.051166553050279617310f},
      {-0.11414920538663864136f, -0.046902444213628768921f, 0.13790194690227508545f}
    }
  },
  {
    {
      {-0.012014719657599925995f, -0.020545296370983123779f, 0.063321687281131744385f},
      {0.0098269945010542869568f, -0.12444812059402465820f, -0.016349118202924728394f},
      {0.039386820048093795776f, -0.040140315890312194824f, -3.3471955248387530446e-05f}
    },
    {
      {0.0032141266856342554092f, 0.14112929999828338623f, -0.051516484469175338745f},
      {-0.096790768206119537354f, 0.21966579556465148926f, 0.14282888174057006836f},
      {-0.17165353894233703613f, 0.038386270403861999512f, 0.081082798540592193604f}
    },
    {
      {0.0097693344578146934509f, -0.031032884493470191956f, 0.027701949700713157654f},
      {0.075436361134052276611f, 0.056356761604547500610f, 0.039040267467498779297f},
      {-0.10338804870843887329f, -0.078857116401195526123f, -0.066576540470123291016f}
    },
    {
      {0.012292350642383098602f, 0.049669008702039718628f, -0.045924630016088485718f},
      {0.034117631614208221436f, 0.19248065352439880371f, -0.014002692885696887970f},
      {0.0043620155192911624908f, 0.099403142929077148438f, 0.18204984068870544434f}
    },
    {
      {-0.031193809583783149719f, -0.0061184815131127834320f, -0.041958712041378021240f},
      {-0.033030562102794647217f, 0.079080969095230102539f, 0.011703580617904663086f},
      {0.058338683098554611206f, 0.074277281761169433594f, 0.14615376293659210205f}
    },
    {
      {-0.0021728605497628450394f, -0.040180388838052749634f, 0.079967498779296875000f},
      {0.049341674894094467163f, 0.019308401271700859070f, 0.13776095211505889893f},
      {-0.036703728139400482178f, -0.028828365728259086609f, 0.019416751340031623840f}
    },
    {
      {0.027368204668164253235f, 0.019663840532302856445f, -0.045033056288957595825f},
      {0.015053571201860904694f, 0.15608122944831848145f, 0.20615200698375701904f},
      {-0.053232859820127487183f, 0.11190482228994369507f, 0.13344898819923400879f}
    },
    {
      {0.077234014868736267090f, 0.027178864926099777222f, -0.040058039128780364990f},
      {0.0045888870954513549805f, -0.023256517946720123291f, 0.00026598517433740198612f},
      {-0.067115180194377899170f, -0.072575300931930541992f, -0.023920942097902297974f}
    },
    {
      {-0.022796016186475753784f, -0.10673684626817703247f, -0.044325511902570724487f},
      {-0.0056392597034573554993f, -0.086405515670776367188f, -0.054628442972898483276f},
      {-0.015021566301584243774f, -0.0068369065411388874054f, -0.048458959907293319702f}
    },
    {
      {0.011372785083949565887f, -0.00080556987086310982704f, 0.026100426912307739258f},
      {-0.043126612901687622070f, -0.042643979191780090332f, 0.042402684688568115234f},
      {0.056910730898380279541f, -0.068278148770332336426f, -0.049323741346597671509f}
    },
    {
      {0.054504398256540298462f, -0.10773351788520812988f, 0.052223268896341323853f},
      {0.10182718932628631592f, -0.045152466744184494019f, -0.024183038622140884399f},
      {0.064868897199630737305f, 0.069048605859279632568f, -0.0092436335980892181396f}
    },
    {
      {0.12293834984302520752f, 0.054945517331361770630f, -0.046706732362508773804f},
      {-0.0033378764055669307709f, -0.052564140409231185913f, 0.024762323126196861267f},
      {-0.024359891191124916077f, -0.11985350400209426880f, 0.11490848660469055176f}
    },
    {
      {-0.017278065904974937439f, -0.061727199703454971313f, 0.019879762083292007446f},
      {-0.060386564582586288452f, 0.0034881394822150468826f, -0.010305996052920818329f},
      {-0.052978374063968658447f, 0.048341363668441772461f, 0.053783603012561798096f}
    },
    {
      {-0.015286182053387165070f, -0.093850962817668914795f, -0.028056472539901733398f},
      {-0.036497175693511962891f, 0.017538800835609436035f, -0.11950906366109848022f},
      {0.061544410884380340576f, 0.10800827294588088989f, 0.0053500514477491378784f}
    },
    {
      {0.042093165218830108643f, 0.068923279643058776855f, 0.079244196414947509766f},
      {-0.020127495750784873962f, -0.080925397574901580811f, 0.098857544362545013428f},
      {-0.025368018075823783875f, -0.11930800229310989380f, -0.032137989997863769531f}
    },
    {
      {0.11712055653333663940f, -0.077804200351238250732f, 0.0011547961039468646049f},
      {-0.075859352946281433105f, 0.0025235901121050119400f, 0.0019079204648733139038f},
      {0.013788803480565547943f, 0.039485950022935867310f, 0.053139444440603256226f}
    }
  },
  {
    {
      {-0.023810647428035736084f, 0.012778869830071926117f, 0.017210332676768302917f},
      {0.046264130622148513794f, 0.056306775659322738647f, 0.044154617935419082642f},
      {-0.043668810278177261353f, 0.040808334946632385254f, 0.053414065390825271606f}
    },
    {
      {-0.077209025621414184570f, 0.022797074168920516968f, 0.046414148062467575073f},
      {-0.10263829678297042847f, 0.064323417842388153076f, 0.019581787288188934326f},
      {0.066226974129676818848f, 0.24378037452697753906f, -0.10134261846542358398f}
    },
    {
      {0.0079699931666254997253f, 0.012139125727117061615f, 0.049748860299587249756f},
      {-0.0040345839224755764008f, 0.083458855748176574707f, -0.038350600749254226685f},
      {0.018014047294855117798f, 0.18978706002235412598f, -0.054718270897865295410f}
    },
    {
      {-0.031738799065351486206f, -0.0094824088737368583679f, 0.045859917998313903809f},
      {-0.099173180758953094482f, 0.042067348957061767578f, -0.026052204892039299011f},
      {-0.024398228153586387634f, 0.17063549160957336426f, -0.0064500276930630207062f}
    },
    {
      {-0.022120140492916107178f, 0.028223166242241859436f, -0.0055034826509654521942f},
      {-0.10530781745910644531f, 0.029979033395648002625f, 0.096291422843933105469f},
      {0.023561663925647735596f, 0.098683454096317291260f, 0.069249607622623443604f}
    },
    {
      {-0.031810756772756576538f, 0.070490948855876922607f, -0.14275586605072021484f},
      {-0.036890603601932525635f, 0.016687739640474319458f, 0.044356841593980789185f},
      {0.020086511969566345215f, -0.054506793618202209473f, 0.10794586688280105591f}
    },
    {
      {0.10168432444334030151f, -0.036047600209712982178f, 0.055319309234619140625f},
      {0.081885054707527160645f, -0.053622663021087646484f, 0.042633224278688430786f},
      {-0.13768991827964782715f, -0.13061092793941497803f, -0.011698277667164802551f}
    },
    {
      {-0.014776798896491527557f, 0.011597150005400180817f, -0.071334116160869598389f},
      {0.015836801379919052124f, 0.011516063474118709564f, -0.0024136360734701156616f},
      {0.0058125578798353672028f, 0.036543816328048706055f, 0.048961788415908813477f}
    },
    {
      {-0.044535998255014419556f, -0.095940969884395599365f, -0.048449836671352386475f},
      {-0.0067274551838636398315f, -0.10087569057941436768f, 0.019862817600369453430f},
      {0.099343456327915191650f, -0.079306975007057189941f, -0.078478626906871795654f}
    },
    {
      {0.054397083818912506104f, 0.0071964086964726448059f, 0.11961005628108978271f},
