/*
 * Copyright (C) 2015
 *
 * This file is part of Paparazzi.
 *
 * Paparazzi is free software; you can redistribute it and/or modify
 * it under the terms of the GNU General Public License as published by
 * the Free Software Foundation; either version 2, or (at your option)
 * any later version.
 *
 * Paparazzi is distributed in the hope that it will be useful,
 * but WITHOUT ANY WARRANTY; without even the implied warranty of
 * MERCHANTABILITY or FITNESS FOR A PARTICULAR PURPOSE.  See the
 * GNU General Public License for more details.
 *
 * You should have received a copy of the GNU General Public License
 * along with Paparazzi; see the file COPYING.  If not, write to
 * the Free Software Foundation, 59 Temple Place - Suite 330,
 * Boston, MA 02111-1307, USA.
 */

/**
 * @file modules/computer_vision/cnn.c
 */

// Own header
#include "modules/computer_vision/cnn.h"
#include <stdio.h>

// Include the image library -> used to alter the incoming image
#include "modules/computer_vision/lib/vision/image.h"

// Include the ABI library -> used to send messages to the ground station
#include "modules/core/abi.h"

#ifndef CNN_FPS
#define CNN_FPS 0 ///< Default FPS (zero means run at camera fps)
#endif

uint8_t white[4] = {127, 255, 127, 255};

// Function
static struct image_t *cnn_func(struct image_t *img, uint8_t camera_id __attribute__((unused)))
{
  // TODO: freeing of images ?
  // convert to grayscale, but also keep original for live feed
  struct image_t gray;
  image_create(&gray, img->w, img->h, IMAGE_GRAYSCALE);
  image_to_grayscale(img, &gray);

  // Convert image to tensor
  float tensor_output[1][3];
  float tensor_input[1][1][TENSOR_HEIGHT][TENSOR_WIDTH];
  convert_image_to_tensor(&gray, tensor_input);

  // Perform inference
  entry(tensor_input, tensor_output);

  // Softmax on the output
  // TODO: include in the model instead?
  float sum_exp = exp(tensor_output[0][0]) + exp(tensor_output[0][1]) + exp(tensor_output[0][2]);
  tensor_output[0][0] = exp(tensor_output[0][0]) / sum_exp;
  tensor_output[0][1] = exp(tensor_output[0][1]) / sum_exp;
  tensor_output[0][2] = exp(tensor_output[0][2]) / sum_exp;
  
  // draw rectangles on the original image corresponding to the outputs
  // TODO: improve code
  int x_min_right = 10;
  int x_max_right = 10 + (int)(tensor_output[0][0] * 40);
  int y_min_rigth = 10;
  int y_max_right = 30;
  image_draw_rectangle(img, x_min_right, x_max_right, y_min_rigth, y_max_right, white);

  int x_min_left = 10;
  int x_max_left = 10 + (int)(tensor_output[0][1] * 40);
  int y_min_left = 40;
  int y_max_left = 60;
  image_draw_rectangle(img, x_min_left, x_max_left, y_min_left, y_max_left, white);

  int x_min_forward = 10;
  int x_max_forward = 10 + (int)(tensor_output[0][2] * 40);
  int y_min_forward = 70;
  int y_max_forward = 90;
  image_draw_rectangle(img, x_min_forward, x_max_forward, y_min_forward, y_max_forward, white);

  // // Print outputs
  // printf("tensor_output: %f, %f, %f\n", tensor_output[0][0], tensor_output[0][1], tensor_output[0][2]);

  // Send outputs
  AbiSendMsgCNN_CONTROL_INPUTS(CNN_CONTROL_INPUTS_ID, tensor_output[0][0], tensor_output[0][1], tensor_output[0][2]);

  return img;
}

void cnn_init(void)
{
  cv_add_to_device(&CNN_CAMERA, cnn_func, CNN_FPS, 0);
}

void convert_image_to_tensor(struct image_t *image, float tensor_input_1[1][1][TENSOR_HEIGHT][TENSOR_WIDTH]) {
    // Extract pixel values from the image buffer
    uint8_t *pixel_values = (uint8_t *)(image->buf);

    // Start from the first pixel of the cropped region (want to crop top and bottom 25%)
    pixel_values += (image->w * (image->h / 4));

    // Iterate through the cropped region and scale down to fit tensor dimensions
    for (int i = 0; i < TENSOR_HEIGHT; i++) {
        for (int j = 0; j < TENSOR_WIDTH; j++) {
            // Calculate the corresponding pixel position in the original image
            int original_row = (i * 2) + (image->h / 4);
            int original_col = (j * 4);
            // Map to the pixel value in the original image
            uint8_t pixel_value = pixel_values[(original_row * image->w) + original_col];
            // Scale down the pixel value to fit the range [0, 1] for the tensor
            tensor_input_1[0][0][i][j] = (float)pixel_value / 255.0f;
        }
    }

    // // for debugging: save tensor_input_1 to a file
    // FILE *f = fopen("tensor_input_1.txt", "w");
    // if (f == NULL)
    // {
    //     printf("Error opening file!\n");
    //     exit(1);
    // }
    // for (int i = 0; i < TENSOR_HEIGHT; i++)
    // {
    //     for (int j = 0; j < TENSOR_WIDTH; j++)
    //     {
    //         fprintf(f, "%f ", tensor_input_1[0][0][i][j]);
    //     }
    //     fprintf(f, "\n");
    // }
}

// AUTOGENERATED FILE BELOW

// This file is computer-generated by onnx2c 
// (TODO: add creating command line here)
// (TODO: print creation date here )

// ONNX model:
// produced by pytorch, version 2.2.1
// ONNX IR version: 17
// Model documentation: 
/*

*/

#include <float.h>
#include <math.h>
#include <stdbool.h>
#include <stdint.h>
#include <string.h>
#define MAX(X,Y) ( X > Y ? X : Y)
#define MIN(X,Y) ( X < Y ? X : Y)
#define CLIP(X,L) ( MAX(MIN(X,L), -L) )

static const float tensor_0_weight[6][1][5][5] = 
{
  {
    {
      {0.17858892679214477539f, 0.16381530463695526123f, 0.086023196578025817871f, 0.13382489979267120361f, -0.32167685031890869141f},
      {0.19277483224868774414f, 0.036794465035200119019f, -0.043502029031515121460f, -0.096452005207538604736f, -0.29375320672988891602f},
      {0.28675201535224914551f, -0.075807392597198486328f, 0.32203906774520874023f, 0.073373220860958099365f, -0.072966754436492919922f},
      {0.048227731138467788696f, 0.33127501606941223145f, 0.30137544870376586914f, 0.14855730533599853516f, -0.029403699561953544617f},
      {0.26849552989006042480f, -0.0059705181047320365906f, 0.30702111124992370605f, 0.14290222525596618652f, 0.058365285396575927734f}
    }
  },
  {
    {
      {0.19941119849681854248f, 0.024864375591278076172f, 0.0068720718845725059509f, 0.14200010895729064941f, -0.016022246330976486206f},
      {0.20666082203388214111f, 0.041175510734319686890f, 0.19145742058753967285f, 0.24514645338058471680f, 0.033145803958177566528f},
      {0.24650014936923980713f, 0.18612079322338104248f, 0.25538653135299682617f, 0.28631737828254699707f, 0.20875626802444458008f},
      {0.079493246972560882568f, 0.22745440900325775146f, 0.036416951566934585571f, 0.059463914483785629272f, 0.14483797550201416016f},
      {0.16947507858276367188f, -0.10077448189258575439f, 0.10890606790781021118f, 0.19551973044872283936f, 0.19766938686370849609f}
    }
  },
  {
    {
      {0.090309470891952514648f, 0.26014357805252075195f, -0.052331112325191497803f, -0.10089797526597976685f, 0.024576753377914428711f},
      {0.21799540519714355469f, 0.25713747739791870117f, -0.029005466029047966003f, 0.050389364361763000488f, 0.041511218994855880737f},
      {0.27768734097480773926f, 0.16232037544250488281f, 0.34301555156707763672f, 0.29814177751541137695f, 0.13687874376773834229f},
      {0.31971007585525512695f, 0.17482657730579376221f, 0.10127667337656021118f, 0.27255642414093017578f, -0.021863164380192756653f},
      {-0.12189213931560516357f, -0.013217522762715816498f, 0.25610032677650451660f, 0.23638707399368286133f, 0.026201361790299415588f}
    }
  },
  {
    {
      {-0.10627420246601104736f, -0.025081587955355644226f, 0.13092127442359924316f, -0.12597046792507171631f, 0.018155479803681373596f},
      {-0.058010172098875045776f, -0.0021449804771691560745f, -0.19247603416442871094f, 0.13244430720806121826f, 0.011162734590470790863f},
      {0.17871443927288055420f, -0.15274369716644287109f, 0.0064218523912131786346f, -0.10703616589307785034f, 0.056566931307315826416f},
      {-0.15055905282497406006f, -0.13446500897407531738f, -0.061665058135986328125f, 0.17645525932312011719f, 0.010503268800675868988f},
      {0.050809480249881744385f, -0.12534753978252410889f, 0.12239553779363632202f, 0.051367569714784622192f, 0.0012320996029302477837f}
    }
  },
  {
    {
      {-0.16095314919948577881f, -0.025759149342775344849f, -0.14591281116008758545f, -0.17186756432056427002f, 0.11274454742670059204f},
      {-0.036917932331562042236f, 0.085176765918731689453f, 0.043433405458927154541f, 0.10220742225646972656f, 0.0088047450408339500427f},
      {0.098331823945045471191f, -0.050952978432178497314f, -0.10302542895078659058f, 0.13466882705688476562f, -0.032685536891222000122f},
      {0.13959939777851104736f, -0.10595022141933441162f, -0.10494693368673324585f, -0.15499849617481231689f, 0.068837001919746398926f},
      {-0.13440790772438049316f, 0.026654437184333801270f, -0.050821043550968170166f, -0.13898423314094543457f, -0.11623032391071319580f}
    }
  },
  {
    {
      {-0.19443495571613311768f, -0.072032690048217773438f, -0.16928927600383758545f, 0.031461954116821289062f, 0.051362942904233932495f},
      {-0.018146138638257980347f, -0.11081530898809432983f, 0.17187482118606567383f, -0.050673507153987884521f, 0.19939322769641876221f},
      {-0.19823937118053436279f, 0.15212401747703552246f, -0.11026817560195922852f, 0.12133014202117919922f, -0.14138221740722656250f},
      {-0.028714274987578392029f, -0.11474674940109252930f, 0.0057351393625140190125f, 0.13814443349838256836f, -0.15858152508735656738f},
      {0.19842393696308135986f, 0.062410239130258560181f, 0.0052080834284424781799f, -0.11383213847875595093f, -0.045315980911254882812f}
    }
  }
};
static const float tensor_0_bias[6] = 
{-0.30259451270103454590f, -0.44216549396514892578f, -0.83767521381378173828f, -0.13564236462116241455f, -0.020585231482982635498f, -0.096618905663490295410f};
static const float tensor_4_weight[5][6][5][5] = 
{
  {
    {
      {0.014461721293628215790f, 0.17732818424701690674f, 0.23015181720256805420f, 0.18750548362731933594f, 0.045742012560367584229f},
      {0.10028043389320373535f, 0.11805914342403411865f, 0.29736846685409545898f, 0.18023741245269775391f, 0.063107490539550781250f},
      {-0.027348026633262634277f, 0.12765790522098541260f, 0.12229567021131515503f, 0.27773532271385192871f, 0.048801276832818984985f},
      {0.023814439773559570312f, 0.050330635160207748413f, 0.083033643662929534912f, 0.20833893120288848877f, 0.12156206369400024414f},
      {-0.12148078531026840210f, -0.0030346983112394809723f, 0.089627325534820556641f, -0.027028128504753112793f, -0.0021139965392649173737f}
    },
    {
      {0.010800145566463470459f, 0.072922207415103912354f, 0.11674630641937255859f, -0.0049938941374421119690f, -0.073855459690093994141f},
      {-0.020662952214479446411f, 0.25368726253509521484f, 0.21866005659103393555f, 0.15382736921310424805f, -0.041983533650636672974f},
      {0.046290129423141479492f, 0.16769741475582122803f, 0.32291093468666076660f, 0.097267277538776397705f, -0.041335467249155044556f},
      {0.021749565377831459045f, 0.029348436743021011353f, 0.25736704468727111816f, -0.0036113371606916189194f, -0.044909305870532989502f},
      {-0.10367275029420852661f, 0.11490461975336074829f, -0.043640390038490295410f, 0.045747991651296615601f, -0.11024025827646255493f}
    },
    {
      {0.058732029050588607788f, 0.15824580192565917969f, 0.19569809734821319580f, 0.13905844092369079590f, -0.022839177399873733521f},
      {0.11397624015808105469f, 0.24978131055831909180f, 0.31397479772567749023f, 0.21177519857883453369f, 0.13702777028083801270f},
      {0.0099979806691408157349f, 0.12964636087417602539f, 0.34066310524940490723f, 0.17732962965965270996f, 0.014980937354266643524f},
      {0.044655334204435348511f, 0.15078811347484588623f, 0.29114723205566406250f, 0.098638072609901428223f, 0.072415843605995178223f},
      {-0.11307834088802337646f, 0.12618818879127502441f, -0.012702902778983116150f, 0.011934086680412292480f, -0.049837272614240646362f}
    },
    {
      {0.047356769442558288574f, -0.0044217854738235473633f, 0.012093153782188892365f, 0.064672932028770446777f, 0.0036796333733946084976f},
      {-0.031574998050928115845f, -0.081041991710662841797f, 0.077601663768291473389f, 0.027111319825053215027f, 0.052685003727674484253f},
      {-0.055975779891014099121f, 0.012745194137096405029f, 0.0090064397081732749939f, -0.068643599748611450195f, 0.014372121542692184448f},
      {-0.034993901848793029785f, 0.025991823524236679077f, -0.030303610488772392273f, -0.0081421136856079101562f, -0.015870003029704093933f},
      {-0.031419456005096435547f, -0.0045284633524715900421f, 0.0092502320185303688049f, -0.00016529257118236273527f, 0.053618546575307846069f}
    },
    {
      {0.078521519899368286133f, 0.056530620902776718140f, -0.049070615321397781372f, 0.074238970875740051270f, -0.0078926179558038711548f},
      {0.045464478433132171631f, 0.0046025542542338371277f, -0.073204144835472106934f, 0.078638076782226562500f, 0.021743925288319587708f},
      {0.037768699228763580322f, -0.0035168421454727649689f, 0.074859060347080230713f, 0.022241048514842987061f, 0.041578866541385650635f},
      {0.060082659125328063965f, 0.018928384408354759216f, -0.016458669677376747131f, -0.00092578242765739560127f, -0.016766780987381935120f},
      {-0.044212248176336288452f, 0.042366940528154373169f, 0.013880896382033824921f, -0.010867143981158733368f, -0.017720488831400871277f}
    },
    {
      {0.017981994897127151489f, 0.026867769658565521240f, 0.025138078257441520691f, -0.042323522269725799561f, -0.074356630444526672363f},
      {-0.055574871599674224854f, -0.039444148540496826172f, -0.054320380091667175293f, 0.049086801707744598389f, -0.066851712763309478760f},
      {-0.064970120787620544434f, -0.0090273767709732055664f, -0.060500185936689376831f, -0.022286804392933845520f, 0.062083251774311065674f},
      {-0.046432152390480041504f, -0.0093423202633857727051f, -0.064019359648227691650f, 0.037755325436592102051f, -0.069328442215919494629f},
      {-0.058353696018457412720f, -0.069215700030326843262f, -0.027977298945188522339f, 0.078278213739395141602f, -0.072677679359912872314f}
    }
  },
  {
    {
      {0.068219073116779327393f, 0.097721636295318603516f, -0.0019709763582795858383f, 0.00072127970634028315544f, 0.085950776934623718262f},
      {-0.031765621155500411987f, 0.14317479729652404785f, 0.072764657437801361084f, -0.045732319355010986328f, -0.051513992249965667725f},
      {0.062229912728071212769f, -0.033207412809133529663f, 0.021103121340274810791f, 0.029702063649892807007f, 0.014468597248196601868f},
      {0.13098590075969696045f, -0.054315909743309020996f, 0.043705549091100692749f, 0.012774535454809665680f, -0.046530425548553466797f},
      {0.034954283386468887329f, -0.027957662940025329590f, -0.0095936153084039688110f, -0.0099016642197966575623f, -0.080390587449073791504f}
    },
    {
      {0.25170606374740600586f, 0.0021068057976663112640f, 0.0029808047693222761154f, -0.021951192989945411682f, -0.031278643757104873657f},
      {0.070050276815891265869f, 0.19740658998489379883f, 0.0042652655392885208130f, 0.057302080094814300537f, 0.040300894528627395630f},
      {0.15061092376708984375f, 0.029037449508905410767f, 0.030146205797791481018f, -0.041019126772880554199f, -0.057047672569751739502f},
      {0.0074374251998960971832f, 0.035689596086740493774f, -0.0021821579430252313614f, -0.090464003384113311768f, -0.091275028884410858154f},
      {0.016477400436997413635f, 0.066949754953384399414f, -0.036685716360807418823f, -0.065807022154331207275f, -0.083040542900562286377f}
    },
    {
      {0.11484420299530029297f, 0.017199601978063583374f, -0.058134756982326507568f, 0.0026684415061026811600f, -0.10525076091289520264f},
      {0.016902782022953033447f, 0.083703406155109405518f, 0.056265600025653839111f, 0.019276075065135955811f, 0.017129305750131607056f},
      {-0.033197306096553802490f, -0.076747961342334747314f, -0.078592129051685333252f, -0.032161150127649307251f, -0.070448048412799835205f},
      {0.0024870855268090963364f, 0.035051357001066207886f, 0.025612507015466690063f, -0.12739682197570800781f, -0.017591070383787155151f},
      {0.050407130271196365356f, 0.016879046335816383362f, -0.058678828179836273193f, -0.086588241159915924072f, -0.11206039041280746460f}
    },
    {
      {-0.037036251276731491089f, 0.028895908966660499573f, 0.051175452768802642822f, 0.054443188011646270752f, -0.069916762411594390869f},
      {0.078269205987453460693f, 0.059034120291471481323f, -0.023059159517288208008f, -0.050651066005229949951f, 0.025950776413083076477f},
      {0.014904314652085304260f, -0.050610527396202087402f, 0.070603273808956146240f, 0.011527379974722862244f, -0.078536644577980041504f},
      {-0.023758824914693832397f, -0.010856651701033115387f, -0.078602463006973266602f, -0.0036744843237102031708f, -0.038262348622083663940f},
      {5.9704663726733997464e-05f, -0.076192975044250488281f, -0.053188726305961608887f, 0.012900149449706077576f, -0.016565047204494476318f}
    },
    {
      {0.046948440372943878174f, 0.042382594197988510132f, 0.030049005523324012756f, 0.038749758154153823853f, -0.051731687039136886597f},
      {-0.054078079760074615479f, -0.0035662187729030847549f, 0.038317456841468811035f, 0.018960105255246162415f, -0.060467246919870376587f},
      {0.064893156290054321289f, 0.0037128825206309556961f, 0.026020653545856475830f, -0.045572206377983093262f, -0.024058097973465919495f},
      {-0.064044259488582611084f, 0.074812561273574829102f, -0.049088340252637863159f, -0.044169694185256958008f, -0.050069201737642288208f},
      {0.079046688973903656006f, 0.050164472311735153198f, -0.029766190797090530396f, -0.022874312475323677063f, -0.014596738852560520172f}
    },
    {
      {-0.060032047331333160400f, -0.0056609343737363815308f, -0.038424711674451828003f, 0.025890614837408065796f, -0.060259945690631866455f},
      {-0.036263573914766311646f, -0.066504165530204772949f, 0.012216933071613311768f, 0.035921260714530944824f, -0.0056048417463898658752f},
      {0.022352116182446479797f, -0.074589669704437255859f, 0.047612465918064117432f, -0.043400522321462631226f, -0.038081735372543334961f},
      {-0.011863630264997482300f, -0.030784927308559417725f, -0.077106878161430358887f, -0.0016249518375843763351f, 0.013657543808221817017f},
      {0.066431075334548950195f, -0.0057977666147053241730f, 0.073229700326919555664f, -0.0044176778756082057953f, -0.0047837998718023300171f}
    }
  },
  {
    {
      {-0.058107707649469375610f, -0.036124449223279953003f, -0.075779296457767486572f, -0.057129129767417907715f, 0.063969835638999938965f},
      {0.034190952777862548828f, -0.023142879828810691833f, -0.083956070244312286377f, -0.014908462762832641602f, -0.061694324016571044922f},
      {0.035249423235654830933f, 0.016838377341628074646f, -0.073229767382144927979f, -0.078664138913154602051f, -0.038666054606437683105f},
      {-0.043617464601993560791f, 0.028531560674309730530f, 0.014212345704436302185f, 0.064539857208728790283f, 0.060934208333492279053f},
      {0.054985493421554565430f, 0.031917653977870941162f, -0.077863745391368865967f, -0.014669000171124935150f, -0.084356345236301422119f}
    },
    {
      {0.055635239928960800171f, -0.0032729601953178644180f, 0.047442886978387832642f, 0.046956200152635574341f, -0.043605268001556396484f},
      {-0.028837157413363456726f, -0.015075908973813056946f, 0.045304350554943084717f, 0.055063735693693161011f, 0.063183858990669250488f},
      {-0.071965485811233520508f, -0.029605759307742118835f, -0.047657012939453125000f, -0.044114295393228530884f, -0.034319762140512466431f},
      {-0.053039126098155975342f, 0.037419710308313369751f, 0.025857616215944290161f, -0.016209471970796585083f, 0.058204159140586853027f},
      {0.037828207015991210938f, -0.050177600234746932983f, -0.046876884996891021729f, 0.0018895262619480490685f, 0.035032957792282104492f}
    },
    {
      {-0.046603590250015258789f, -0.066036373376846313477f, -0.0044558206573128700256f, -0.076831169426441192627f, -0.031513843685388565063f},
      {-0.022505512461066246033f, -0.071973107755184173584f, 0.040550921112298965454f, 0.0051512634381651878357f, -0.031260125339031219482f},
      {-0.038524392992258071899f, -0.033327117562294006348f, -0.076219022274017333984f, -0.010697709396481513977f, 0.024777123704552650452f},
      {-0.031334470957517623901f, 0.0038389228284358978271f, 0.068030335009098052979f, -0.0015458944253623485565f, -0.055277951061725616455f},
      {0.0022086615208536386490f, -0.011988405138254165649f, 0.067704327404499053955f, -0.044503390789031982422f, 0.055265922099351882935f}
    },
    {
      {-0.054529309272766113281f, -0.049819521605968475342f, -0.044560614973306655884f, -0.053003784269094467163f, -0.032458312809467315674f},
      {0.077588468790054321289f, -0.057545084506273269653f, -0.079804673790931701660f, 0.024252269417047500610f, 0.061067447066307067871f},
      {0.030237929895520210266f, 0.073271304368972778320f, -0.012831616215407848358f, -0.066447854042053222656f, -0.019844422116875648499f},
      {0.012577312067151069641f, 0.064986571669578552246f, -0.00088524282909929752350f, 0.028453262522816658020f, 0.045083310455083847046f},
      {0.018151132389903068542f, -0.063160032033920288086f, 0.073436617851257324219f, -0.013484231196343898773f, -0.048330184072256088257f}
    },
    {
      {-0.040936511009931564331f, 0.029048498719930648804f, 0.066081672906875610352f, 0.029708093032240867615f, -0.044478535652160644531f},
      {-0.063874170184135437012f, 0.070128522813320159912f, -0.064255692064762115479f, 0.065497584640979766846f, -0.038306429982185363770f},
      {-0.015093687921762466431f, -0.0021569016389548778534f, -0.0045106317847967147827f, -0.051900405436754226685f, 0.054634030908346176147f},
      {0.048433449119329452515f, 0.051925878971815109253f, 0.024971626698970794678f, -0.022360544651746749878f, -0.025396732613444328308f},
      {0.054326981306076049805f, -0.052862465381622314453f, 0.027630848810076713562f, 0.0020460672676563262939f, 0.043778490275144577026f}
    },
    {
      {-0.026291601359844207764f, -0.034701354801654815674f, -0.0062578450888395309448f, 0.013014555908739566803f, 0.067724384367465972900f},
      {-0.0075722332112491130829f, -0.026808172464370727539f, 0.080906420946121215820f, 0.040392659604549407959f, 0.018370131030678749084f},
      {0.0055825319141149520874f, 0.064166508615016937256f, -0.015638289973139762878f, 0.079002797603607177734f, 0.069874562323093414307f},
      {0.036037109792232513428f, -0.053658742457628250122f, -0.076959185302257537842f, 0.0076178051531314849854f, -0.067698657512664794922f},
      {0.046414233744144439697f, 0.047207400202751159668f, -0.034058541059494018555f, -0.013389485888183116913f, 0.076415449380874633789f}
    }
  },
  {
    {
      {-0.031602874398231506348f, 0.042398639023303985596f, -0.019242817535996437073f, -0.022240705788135528564f, 0.013713243417441844940f},
      {0.022841280326247215271f, 0.066394828259944915771f, -0.055065479129552841187f, -0.072904817759990692139f, -0.024350740015506744385f},
      {-0.053747572004795074463f, -0.080767326056957244873f, -0.013550497591495513916f, 0.073292978107929229736f, -0.079366132616996765137f},
      {-0.051368650048971176147f, 0.024793736636638641357f, 0.0052315276116132736206f, -0.014459215104579925537f, -0.022517578676342964172f},
      {0.022320870310068130493f, 0.018979853019118309021f, -0.022658195346593856812f, -0.080449402332305908203f, -0.047781992703676223755f}
    },
    {
      {0.071520350873470306396f, -0.078090943396091461182f, -0.076074331998825073242f, -0.040998559445142745972f, -0.068324416875839233398f},
      {0.0081631559878587722778f, -0.040970787405967712402f, -0.018304454162716865540f, 0.064988404512405395508f, -0.0053588487207889556885f},
      {-0.024165943264961242676f, 0.076720118522644042969f, -0.065116204321384429932f, 0.00066677789436653256416f, 0.046384330838918685913f},
      {-0.062815621495246887207f, 0.041156250983476638794f, -0.080321930348873138428f, -0.033739496022462844849f, 0.058927711099386215210f},
      {0.030989205464720726013f, -0.014669284224510192871f, -0.043497387319803237915f, -0.063185445964336395264f, -0.017755897715687751770f}
    },
    {
      {-0.019900990650057792664f, 0.068405196070671081543f, -0.041187684983015060425f, 0.043236441910266876221f, 0.023786902427673339844f},
      {0.0078464765101671218872f, -0.0016156696947291493416f, 0.056511882692575454712f, 0.049885656684637069702f, 0.082196354866027832031f},
      {-0.014068544842302799225f, -0.028626739978790283203f, -0.044342450797557830811f, 0.049640867859125137329f, -0.030164744704961776733f},
      {-0.052644867449998855591f, -0.061623606830835342407f, -0.012304830364882946014f, -0.066241085529327392578f, 0.0021991985850036144257f},
      {-0.053468979895114898682f, 0.0046347933821380138397f, 0.063303224742412567139f, -0.068244867026805877686f, -0.030396666377782821655f}
    },
    {
      {-0.059781488031148910522f, -0.061656724661588668823f, -0.024925442412495613098f, 0.018300432711839675903f, 0.044248875230550765991f},
      {-0.031325746327638626099f, -0.079969964921474456787f, 0.0036508322227746248245f, -0.040227804332971572876f, -0.0091815339401364326477f},
      {-0.034224223345518112183f, 0.031454525887966156006f, 0.073130697011947631836f, 0.061601206660270690918f, -0.075209714472293853760f},
      {-0.058071944862604141235f, 0.0014599318383261561394f, 0.012356432154774665833f, 0.029554266482591629028f, 0.059179585427045822144f},
      {0.029817000031471252441f, -0.017036970704793930054f, -0.069541499018669128418f, -0.0078129889443516731262f, 0.074237875640392303467f}
    },
    {
      {-0.075720980763435363770f, -0.069128960371017456055f, -0.037587150931358337402f, 0.074916921555995941162f, 0.036976538598537445068f},
      {-0.013301710598170757294f, 0.0032149609178304672241f, -0.074601754546165466309f, -0.042265616357326507568f, 0.0079776393249630928040f},
      {-0.012901531532406806946f, 0.080819137394428253174f, -0.037744130939245223999f, -0.036911372095346450806f, -0.027424491941928863525f},
      {-0.046100828796625137329f, 0.075613796710968017578f, -0.0060453065671026706696f, -0.040229525417089462280f, 0.028144655749201774597f},
      {0.041154656559228897095f, 0.076191194355487823486f, 0.026335772126913070679f, -0.056238297373056411743f, 0.010927491821348667145f}
    },
    {
      {0.00041188820614479482174f, 0.070982724428176879883f, -0.038203228265047073364f, -0.017947860062122344971f, -0.018186192959547042847f},
      {-0.034743014723062515259f, 0.020873272791504859924f, 0.037760116159915924072f, 0.046805839985609054565f, 0.073572449386119842529f},
      {-0.00054938218090683221817f, 0.064662620425224304199f, -0.057024814188480377197f, 0.014536061324179172516f, -0.062027685344219207764f},
      {-0.072906062006950378418f, -0.015154063701629638672f, 0.034838587045669555664f, 0.048140734434127807617f, -0.026914082467555999756f},
      {0.019800856709480285645f, -0.058958530426025390625f, -0.015590820461511611938f, -0.035000026226043701172f, -0.013893929310142993927f}
    }
  },
  {
    {
      {-0.069234341382980346680f, 0.082454197108745574951f, 0.12176404893398284912f, 0.16207602620124816895f, 0.13305838406085968018f},
      {0.022205870598554611206f, 0.051820445805788040161f, 0.11044751852750778198f, 0.16119654476642608643f, 0.15149003267288208008f},
      {-0.058702595531940460205f, 0.065425269305706024170f, 0.070353358983993530273f, 0.042100887745618820190f, 0.083944417536258697510f},
      {-0.047142848372459411621f, 0.028745571151375770569f, -0.030262436717748641968f, 0.12318841367959976196f, -0.0066606737673282623291f},
      {-0.064086452126502990723f, 0.028480311855673789978f, -0.034141715615987777710f, 0.054361455142498016357f, 0.059546791017055511475f}
    },
    {
      {-0.044021703302860260010f, 0.10013659298419952393f, -0.041618857532739639282f, -0.036698583513498306274f, 0.13266333937644958496f},
      {-0.048551689833402633667f, 0.0018160317558795213699f, 0.083320394158363342285f, 0.17962191998958587646f, 0.12642394006252288818f},
      {-0.061735160648822784424f, 0.095759101212024688721f, 0.14933544397354125977f, 0.070196211338043212891f, 0.11279056966304779053f},
      {-0.093214921653270721436f, 0.045641325414180755615f, 0.14051769673824310303f, 0.026094289496541023254f, 0.059748277068138122559f},
      {-0.019147358834743499756f, -0.073114469647407531738f, -0.053803488612174987793f, -0.042790967971086502075f, 0.0044737802818417549133f}
    },
    {
      {0.12824524939060211182f, 0.19355741143226623535f, 0.21538755297660827637f, 0.095053493976593017578f, 0.090307839214801788330f},
      {0.025465071201324462891f, 0.065319821238517761230f, 0.15211442112922668457f, 0.14423954486846923828f, 0.17367543280124664307f},
      {0.14346340298652648926f, 0.21530432999134063721f, 0.25772494077682495117f, 0.23791712522506713867f, 0.22095815837383270264f},
      {0.087186217308044433594f, 0.17001128196716308594f, 0.14573125541210174561f, 0.23780760169029235840f, 0.15108628571033477783f},
      {0.014198373071849346161f, -0.0076320199295878410339f, 0.11662701517343521118f, 0.18484745919704437256f, 0.10474023967981338501f}
    },
    {
      {0.079259388148784637451f, -0.064852096140384674072f, 0.015573339536786079407f, -0.025889543816447257996f, 0.0045040813274681568146f},
      {0.032513074576854705811f, 0.063246011734008789062f, -0.075665742158889770508f, -0.054887488484382629395f, -0.041077606379985809326f},
      {-0.059692274779081344604f, -0.080048523843288421631f, -0.020056707784533500671f, -0.013095663860440254211f, -0.079940989613533020020f},
      {0.067109502851963043213f, -0.039949428290128707886f, 0.020880095660686492920f, 0.075545214116573333740f, 0.040744725614786148071f},
      {-0.0054713864810764789581f, -0.075091719627380371094f, -0.011096794158220291138f, 0.0068607996217906475067f, -0.022394923493266105652f}
    },
    {
      {0.035218246281147003174f, 0.0053179198876023292542f, 0.064971603453159332275f, 0.010658518411219120026f, -0.015889888629317283630f},
      {0.032804343849420547485f, -0.040782283991575241089f, 0.023475037887692451477f, 0.022742133587598800659f, 0.0038403705693781375885f},
      {-0.013346601277589797974f, -0.073806092143058776855f, -0.0025109150446951389313f, -0.078828237950801849365f, -0.012958481907844543457f},
      {-0.078983791172504425049f, 0.017988789826631546021f, -0.0092915697023272514343f, 0.056610591709613800049f, -0.071647427976131439209f},
      {-0.021952316164970397949f, 0.060426153242588043213f, -0.072598308324813842773f, -0.074149280786514282227f, -0.0064774695783853530884f}
    },
    {
      {-0.070975810289382934570f, 0.026410164311528205872f, 0.048968471586704254150f, -0.045907825231552124023f, 0.040557816624641418457f},
      {-0.079976655542850494385f, -0.080760985612869262695f, 0.031223582103848457336f, -0.023683955892920494080f, -0.032791003584861755371f},
      {-0.057360813021659851074f, -0.045279592275619506836f, -0.070809431374073028564f, 0.0056536830961704254150f, -0.042889799922704696655f},
      {-0.027110744267702102661f, -0.0095948334783315658569f, -0.060437161475419998169f, -0.032135494053363800049f, -0.011175332590937614441f},
      {-0.069350503385066986084f, -0.0051809805445373058319f, -0.0016962880035862326622f, -0.059058092534542083740f, 0.045914337038993835449f}
    }
  }
};
static const float tensor_4_bias[5] = 
{0.0016962186200544238091f, 0.13587197661399841309f, -0.059596400707960128784f, -0.078264072537422180176f, -0.23623725771903991699f};
static const float tensor_8_weight[5][5][5][5] = 
{
  {
    {
      {0.0015920381993055343628f, -0.027253784239292144775f, -0.019550772383809089661f, -0.073067151010036468506f, -0.075078874826431274414f},
      {0.57835757732391357422f, 0.0011770813725888729095f, -0.044328618794679641724f, -0.077177904546260833740f, -0.084356389939785003662f},
      {-0.047342278063297271729f, 0.26239845156669616699f, -0.016183927655220031738f, -0.056097172200679779053f, -0.066798411309719085693f},
      {0.30825448036193847656f, -0.022079788148403167725f, -0.047674700617790222168f, -0.081670135259628295898f, -0.089418716728687286377f},
      {-0.015240013599395751953f, -0.061608429998159408569f, -0.063944585621356964111f, -0.10899601131677627563f, -0.092360049486160278320f}
    },
    {
      {0.098034545779228210449f, 0.064894147217273712158f, 0.079704351723194122314f, -0.066312126815319061279f, -0.083243519067764282227f},
      {0.10562899708747863770f, 0.10080777108669281006f, 0.020711626857519149780f, -0.074668847024440765381f, -0.025781000033020973206f},
      {0.087108381092548370361f, 0.10471610724925994873f, 0.10753729939460754395f, 0.076731361448764801025f, -0.031191712245345115662f},
      {0.11066796630620956421f, 0.16322971880435943604f, 0.073365151882171630859f, 0.026803102344274520874f, -0.034543462097644805908f},
      {0.090166695415973663330f, 0.096737340092658996582f, -0.030746120959520339966f, -0.013812452554702758789f, -0.080347441136837005615f}
    },
    {
      {-0.0083903912454843521118f, 0.071647167205810546875f, -0.070927627384662628174f, 0.085682347416877746582f, 0.055046647787094116211f},
      {0.048800200223922729492f, -0.067717239260673522949f, 0.079485081136226654053f, 0.079320572316646575928f, -0.066072136163711547852f},
      {-0.081919908523559570312f, -0.075120046734809875488f, 0.015587947331368923187f, -0.0015347455628216266632f, 0.022492604330182075500f},
      {-0.036489471793174743652f, 0.068307936191558837891f, 0.020472371950745582581f, 0.059352848678827285767f, -0.0099812652915716171265f},
      {0.064363792538642883301f, -0.041218489408493041992f, 0.060048483312129974365f, -0.019414605572819709778f, 0.048568513244390487671f}
    },
    {
      {-0.077110521495342254639f, -0.067513331770896911621f, -0.016668977215886116028f, -0.074808694422245025635f, 0.023266779258847236633f},
      {-0.023145465180277824402f, -0.041613440960645675659f, 0.071110472083091735840f, -0.081832803785800933838f, 0.031307276338338851929f},
      {-0.076575390994548797607f, -0.066757269203662872314f, -0.072432070970535278320f, 0.0029079557862132787704f, -0.054632071405649185181f},
      {-0.087315000593662261963f, -0.083920896053314208984f, -0.088676109910011291504f, 0.025789549574255943298f, -0.083156511187553405762f},
      {0.075478821992874145508f, -0.086663514375686645508f, 0.023206323385238647461f, -0.029428228735923767090f, -0.046431522816419601440f}
    },
    {
      {0.030245391651988029480f, -0.049773294478654861450f, -0.056406252086162567139f, -0.11210738867521286011f, -0.067421197891235351562f},
      {0.0088681643828749656677f, -0.041677135974168777466f, -0.083503849804401397705f, -0.12444224953651428223f, -0.10996320098638534546f},
      {0.021865883842110633850f, 0.020630821585655212402f, -0.067964784801006317139f, -0.096344925463199615479f, -0.058829348534345626831f},
      {-0.047235663980245590210f, -0.042272988706827163696f, -0.11222615092992782593f, -0.12301562726497650146f, -0.13068695366382598877f},
      {-0.0093659050762653350830f, -0.084921807050704956055f, -0.10019471496343612671f, -0.13712705671787261963f, -0.16387507319450378418f}
    }
  },
  {
    {
      {-0.020991750061511993408f, -0.046296458691358566284f, -0.12372066825628280640f, -0.21239160001277923584f, -0.17071826756000518799f},
      {0.0045073651708662509918f, 0.016303587704896926880f, -0.070370785892009735107f, -0.15307320654392242432f, -0.15752746164798736572f},
      {-0.049852639436721801758f, 0.12324286252260208130f, -0.11721595376729965210f, -0.098599568009376525879f, -0.055795755237340927124f},
      {-0.015799365937709808350f, -0.037818830460309982300f, 0.43969935178756713867f, 0.077422805130481719971f, -0.010916919447481632233f},
      {0.014507074840366840363f, 0.15390674769878387451f, 0.18715874850749969482f, 0.25069174170494079590f, -0.014779182150959968567f}
    },
    {
      {0.041214425116777420044f, -0.040204536169767379761f, -0.0093371877446770668030f, -0.049189116805791854858f, 0.039396427571773529053f},
      {-0.035352781414985656738f, 0.082298628985881805420f, 0.095270335674285888672f, -0.0044662803411483764648f, -0.073506772518157958984f},
      {-0.019572287797927856445f, 0.081005074083805084229f, 0.070391602814197540283f, -0.020734973251819610596f, -0.016628010198473930359f},
      {-0.015617331489920616150f, -0.015122839249670505524f, -0.028889935463666915894f, -0.018160115927457809448f, 0.027318902313709259033f},
      {0.0096530467271804809570f, 0.012043786235153675079f, 0.14311395585536956787f, 0.18559764325618743896f, 0.022074555978178977966f}
    },
    {
      {0.073088064789772033691f, -0.070313118398189544678f, -0.019639970734715461731f, -0.015009275637567043304f, 0.022619623690843582153f},
      {0.013706744648516178131f, 0.065967895090579986572f, 0.015266670845448970795f, -0.0079716145992279052734f, 0.065563142299652099609f},
      {-0.041119571775197982788f, -0.066414356231689453125f, 0.0035987095907330513000f, 0.084236592054367065430f, 0.063654668629169464111f},
      {-0.0062252813950181007385f, -0.058137539774179458618f, 0.0043523907661437988281f, -0.037263631820678710938f, 0.021618559956550598145f},
      {0.088410913944244384766f, 0.087805978953838348389f, 0.019146516919136047363f, -0.015396735630929470062f, 0.057064116001129150391f}
    },
    {
      {-0.031007317826151847839f, -0.088105022907257080078f, 0.014158412814140319824f, 0.041280582547187805176f, -0.038544196635484695435f},
      {-0.055160604417324066162f, 0.083503119647502899170f, 0.087008804082870483398f, -0.074083216488361358643f, 0.039396971464157104492f},
      {0.0099077671766281127930f, 0.031053412705659866333f, 0.045435734093189239502f, -0.010231152176856994629f, 0.014225041493773460388f},
      {0.031816352158784866333f, -0.046915613114833831787f, -0.055910650640726089478f, 0.011452988721430301666f, 0.031228031963109970093f},
      {-0.0049553224816918373108f, 0.026262532919645309448f, 0.014292354695498943329f, 0.062882512807846069336f, 0.040518283843994140625f}
    },
    {
      {-0.055606573820114135742f, -0.10410363972187042236f, -0.23463796079158782959f, -0.26758825778961181641f, -0.26922687888145446777f},
      {0.0035904459655284881592f, -0.055695973336696624756f, -0.15229220688343048096f, -0.22193405032157897949f, -0.25406119227409362793f},
      {-0.064900785684585571289f, 0.070717826485633850098f, -0.072468094527721405029f, -0.073866076767444610596f, -0.16167387366294860840f},
      {0.021484155207872390747f, 0.12618236243724822998f, 0.18786886334419250488f, 0.051752086728811264038f, -0.050059150904417037964f},
      {-0.022925216704607009888f, 0.085632152855396270752f, 0.14732536673545837402f, 0.12464330345392227173f, -0.078719250857830047607f}
    }
  },
  {
    {
      {0.25863036513328552246f, 0.15060532093048095703f, 0.17890261113643646240f, 0.45890730619430541992f, 0.060420274734497070312f},
      {0.069074109196662902832f, 0.044818162918090820312f, 0.023124892264604568481f, 0.026774015277624130249f, 0.016835413873195648193f},
      {0.067669555544853210449f, -0.074403695762157440186f, -0.049470920115709304810f, -0.025780159980058670044f, -0.094460546970367431641f},
      {-0.084740437567234039307f, -0.24851749837398529053f, -0.20884937047958374023f, -0.19282540678977966309f, -0.13380362093448638916f},
      {-0.13563808798789978027f, -0.28233751654624938965f, -0.30068117380142211914f, -0.24011489748954772949f, -0.17788204550743103027f}
    },
    {
      {0.10874338448047637939f, 0.071849957108497619629f, -0.017204057425260543823f, 0.087015733122825622559f, 0.0024788703303784132004f},
      {0.11159592866897583008f, 0.038736980408430099487f, -0.0096481693908572196960f, 0.11505797505378723145f, 0.10663074254989624023f},
      {0.10230438411235809326f, 0.033518429845571517944f, 0.068559624254703521729f, -0.033187113702297210693f, 0.10432287305593490601f},
      {0.029344834387302398682f, -0.0075953118503093719482f, -0.11041892319917678833f, 0.016775615513324737549f, 0.033187847584486007690f},
      {0.013129722326993942261f, -0.026312140747904777527f, -0.10631594806909561157f, -0.058258939534425735474f, -0.060397073626518249512f}
    },
    {
      {-0.030922781676054000854f, 0.015541153028607368469f, -0.030344558879733085632f, -0.052719186991453170776f, 0.046363346278667449951f},
      {0.0095921754837036132812f, -0.059618640691041946411f, 0.029104236513376235962f, 0.042618390172719955444f, -0.077398858964443206787f},
      {-0.0070811016485095024109f, -0.032618638128042221069f, 0.012263516895473003387f, 0.043853990733623504639f, 0.076760090887546539307f},
      {0.024620484560728073120f, 0.043301917612552642822f, -0.050174262374639511108f, 0.054095767438411712646f, 0.082626655697822570801f},
      {0.0058905100449919700623f, 0.038988228887319564819f, 0.033873822540044784546f, 0.039940085262060165405f, -0.017111051827669143677f}
    },
    {
      {0.042320776730775833130f, 0.085019998252391815186f, -0.066441647708415985107f, 0.037865251302719116211f, -0.046511925756931304932f},
      {-0.021861150860786437988f, 0.060965515673160552979f, 0.033849280327558517456f, 0.085219211876392364502f, -0.044030789285898208618f},
      {-0.024305528029799461365f, -0.042697574943304061890f, 0.081800147891044616699f, 0.036765385419130325317f, 0.030291790142655372620f},
      {-0.071162782609462738037f, -0.00046861520968377590179f, 0.081833571195602416992f, 0.069259881973266601562f, 0.016627149656414985657f},
      {0.041697017848491668701f, 0.024615770205855369568f, 0.061884354799985885620f, -0.029033889994025230408f, 0.068040639162063598633f}
    },
    {
      {0.18842783570289611816f, 0.12096823006868362427f, 0.083502128720283508301f, 0.11340730637311935425f, 0.032487530261278152466f},
      {0.039754468947649002075f, 0.047533277422189712524f, 0.015863798558712005615f, -0.011397528462111949921f, -0.033807262778282165527f},
      {-0.045450050383806228638f, -0.049204040318727493286f, -0.0023789578117430210114f, -0.14311991631984710693f, -0.14174306392669677734f},
      {-0.099641710519790649414f, -0.18947364389896392822f, -0.19110044836997985840f, -0.18770556151866912842f, -0.14483301341533660889f},
      {-0.16606438159942626953f, -0.16002324223518371582f, -0.13744607567787170410f, -0.16881956160068511963f, -0.20636323094367980957f}
    }
  },
  {
    {
      {0.055822804570198059082f, -0.068578250706195831299f, -0.051008421927690505981f, 0.016819601878523826599f, 0.0081688994541764259338f},
      {-0.0076772905886173248291f, 0.046557918190956115723f, -0.043821483850479125977f, 0.018725326284766197205f, -0.059944577515125274658f},
      {-0.0028287097811698913574f, 0.075714454054832458496f, -0.063620306551456451416f, -0.032387010753154754639f, -0.087046638131141662598f},
      {-0.0066070477478206157684f, -0.0090499445796012878418f, -0.051000189036130905151f, -0.033212356269359588623f, -0.029204986989498138428f},
      {-0.019438756629824638367f, 0.078339070081710815430f, -0.045632161200046539307f, -0.051867198199033737183f, -0.027087694033980369568f}
    },
    {
      {0.097786396741867065430f, -0.025117395445704460144f, 0.0042847474105656147003f, -0.040258783847093582153f, 0.024764614179730415344f},
      {0.096823602914810180664f, 0.067486330866813659668f, 0.012544462457299232483f, 0.086023949086666107178f, 0.0034866437781602144241f},
      {0.017821282148361206055f, -0.025778587907552719116f, -0.079366534948348999023f, -0.035076644271612167358f, -0.00099358987063169479370f},
      {0.056674785912036895752f, 0.0086199548095464706421f, 0.046967718750238418579f, 0.046351823955774307251f, 0.0022175863850861787796f},
      {0.094963520765304565430f, 0.054231677204370498657f, -0.041460450738668441772f, -0.0092695914208889007568f, 0.028402322903275489807f}
    },
    {
      {0.046503026038408279419f, 0.066994689404964447021f, 0.0073583205230534076691f, -0.027079170569777488708f, -0.074309408664703369141f},
      {0.0016250158660113811493f, -0.040430154651403427124f, -0.015841577202081680298f, 0.085938200354576110840f, 0.010817563161253929138f},
      {0.048018768429756164551f, -0.079517453908920288086f, 0.074277758598327636719f, 0.020452966913580894470f, -0.040550593286752700806f},
      {-0.0045343367382884025574f, 0.058960575610399246216f, -0.016472859308123588562f, 0.062965147197246551514f, -0.057347670197486877441f},
      {-0.058293554931879043579f, -0.017895245924592018127f, 0.058240894228219985962f, -0.011493669822812080383f, -0.031270861625671386719f}
    },
    {
      {0.011035668663680553436f, -0.011795172467827796936f, -0.077853456139564514160f, 0.051846358925104141235f, 0.030479658395051956177f},
      {-0.032267794013023376465f, -0.019048336893320083618f, 0.088909000158309936523f, 0.028763478621840476990f, 0.045259393751621246338f},
      {0.049184966832399368286f, 0.013835074380040168762f, -0.025614850223064422607f, -0.018960755318403244019f, -0.031947501003742218018f},
      {-0.030673241242766380310f, 0.083879768848419189453f, -0.021562337875366210938f, 0.041804514825344085693f, 0.075718164443969726562f},
      {-0.088687144219875335693f, -0.088549666106700897217f, -0.088556244969367980957f, -0.044810421764850616455f, -0.010730085894465446472f}
    },
    {
      {-0.069838196039199829102f, -0.0036237740423530340195f, 0.00011627086496446281672f, 0.0064138863235712051392f, 0.078704178333282470703f},
      {0.031071260571479797363f, 0.021415445953607559204f, 0.0032875721808522939682f, -0.031430605798959732056f, -0.034959517419338226318f},
      {-0.037121571600437164307f, -0.028949193656444549561f, -0.068201348185539245605f, -0.0088696004822850227356f, -0.026526426896452903748f},
      {0.026089781895279884338f, 0.056509993970394134521f, 0.035828884690999984741f, -0.050399865955114364624f, -0.035982504487037658691f},
      {0.052417833358049392700f, -0.012290881946682929993f, 0.076374277472496032715f, -0.089730329811573028564f, 0.013498207554221153259f}
    }
  },
  {
    {
      {0.22862583398818969727f, -0.018685983493924140930f, -0.014205362647771835327f, 0.11522108316421508789f, 0.18985846638679504395f},
      {0.020589571446180343628f, -0.077750630676746368408f, -0.041956048458814620972f, -0.064193762838840484619f, 0.58637881278991699219f},
      {-0.10700701922178268433f, -0.13677127659320831299f, -0.12355874478816986084f, -0.080514520406723022461f, -0.0047733723185956478119f},
      {-0.10491814464330673218f, -0.13144969940185546875f, -0.13912196457386016846f, -0.068928398191928863525f, -0.030447743833065032959f},
      {-0.038973525166511535645f, -0.10014080256223678589f, -0.063485652208328247070f, 0.017243187874555587769f, 0.25958350300788879395f}
    },
    {
      {0.047304134815931320190f, 0.082689985632896423340f, 0.053074952214956283569f, -0.029533842578530311584f, -0.063062794506549835205f},
      {0.089524209499359130859f, -0.024324813857674598694f, -0.015150100924074649811f, -0.072747789323329925537f, -0.062825381755828857422f},
      {0.034912787377834320068f, -0.015275569632649421692f, -0.034313183277845382690f, -0.025453658774495124817f, 0.036405757069587707520f},
      {-0.044199991971254348755f, -0.042105279862880706787f, -0.077897287905216217041f, -0.031200980767607688904f, -0.0075093586929142475128f},
      {-0.066723942756652832031f, -0.057353585958480834961f, 0.016747174784541130066f, -0.12159192562103271484f, -0.075728677213191986084f}
    },
    {
      {0.032286524772644042969f, 0.030088150873780250549f, -0.074704430997371673584f, 0.057875875383615493774f, 0.079411424696445465088f},
      {-0.070901222527027130127f, 0.087361253798007965088f, 0.020083557814359664917f, 0.011265078559517860413f, -0.017406430095434188843f},
      {-0.060337744653224945068f, -0.032808415591716766357f, 0.020197520032525062561f, -0.082091540098190307617f, 0.032219830900430679321f},
      {-0.072746694087982177734f, -0.045566011220216751099f, -0.065376684069633483887f, 0.024652132764458656311f, 0.024530462920665740967f},
      {0.010305571369826793671f, 0.046731896698474884033f, 0.0045201061293482780457f, -0.054209608584642410278f, -0.079949505627155303955f}
    },
    {
      {-0.022643879055976867676f, 0.023037876933813095093f, 0.030183715745806694031f, 0.055998329073190689087f, 0.048391327261924743652f},
      {-0.051739398390054702759f, 0.065708190202713012695f, 0.037451840937137603760f, 0.023443315178155899048f, -0.051310542970895767212f},
      {0.077059753239154815674f, 0.046369705349206924438f, -0.0056495862081646919250f, 0.050182260572910308838f, 0.069493494927883148193f},
      {-0.057235650718212127686f, -0.014209114946424961090f, -0.038646105676889419556f, -0.013468494638800621033f, 0.0053035188466310501099f},
      {0.026022898033261299133f, -0.046696648001670837402f, -0.051355905830860137939f, -0.065760627388954162598f, 0.0053443782962858676910f}
    },
    {
      {0.12584263086318969727f, -0.093114003539085388184f, 0.034272078424692153931f, 0.098516911268234252930f, 0.063058920204639434814f},
      {-0.029344443231821060181f, -0.12969002127647399902f, -0.049404967576265335083f, 0.089905045926570892334f, 0.20127461850643157959f},
      {-0.13229021430015563965f, -0.19483445584774017334f, -0.13428752124309539795f, -0.023293646052479743958f, -0.032481569796800613403f},
      {-0.15074670314788818359f, -0.22929626703262329102f, -0.18326310813426971436f, -0.042598992586135864258f, 0.10724389553070068359f},
      {-0.031493112444877624512f, -0.14090989530086517334f, -0.017685247585177421570f, 0.0082073574885725975037f, 0.23686295747756958008f}
    }
  }
};
static const float tensor_8_bias[5] = 
{0.40576615929603576660f, -0.0032116794027388095856f, 0.30134648084640502930f, -0.046153284609317779541f, -0.15287424623966217041f};
static const float tensor_13_weight[3][350] = 
{
  {0.033238299190998077393f, 0.058362152427434921265f, -0.0027169652748852968216f, 0.027177881449460983276f, 0.12401739507913589478f, -0.042051907628774642944f, -0.086454845964908599854f, 0.032988499850034713745f, -0.021059835329651832581f, 0.048746369779109954834f, -0.12154260277748107910f, -0.056327614933252334595f, 0.011480363085865974426f, -0.067182153463363647461f, 0.030409850180149078369f, -0.11309452354907989502f, -0.042016759514808654785f, -0.042965769767761230469f, -0.017377676442265510559f, -0.013609308749437332153f, -0.15790641307830810547f, -0.014400525949895381927f, -0.063147380948066711426f, -0.0019863161724060773849f, -0.059378962963819503784f, -0.087877087295055389404f, -0.039088699966669082642f, -0.058526497334241867065f, 0.047039087861776351929f, 0.0087462356314063072205f, -0.023221718147397041321f, -0.059023547917604446411f, -0.15341705083847045898f, -0.039940375834703445435f, 0.042943425476551055908f, -0.038573306053876876831f, -0.096831902861595153809f, -0.073160611093044281006f, 0.026157552376389503479f, 0.033588442951440811157f, 0.011445350013673305511f, -0.0041024130769073963165f, 0.014926925301551818848f, 0.0082603748887777328491f, 0.080115363001823425293f, 0.079378947615623474121f, 0.075441062450408935547f, 0.068468086421489715576f, -0.047667331993579864502f, 0.027073316276073455811f, 0.049549855291843414307f, -0.010893868282437324524f, -0.014235444366931915283f, -0.052048780024051666260f, 0.038471467792987823486f, 0.080599501729011535645f, 0.047651372849941253662f, -0.030213264748454093933f, -0.012537501752376556396f, 0.075803257524967193604f, -0.057258818298578262329f, 0.083004839718341827393f, -0.024000266566872596741f, -0.022964356467127799988f, 0.072732768952846527100f, 0.0064123594202101230621f, 0.16037876904010772705f, 0.077528394758701324463f, 0.17457652091979980469f, 0.00037599127972498536110f, -0.010087112896144390106f, 0.027792535722255706787f, 0.012215229682624340057f, 0.0096127130091190338135f, 0.045987106859683990479f, 0.043933119624853134155f, -0.026721246540546417236f, -0.012936957180500030518f, -0.067085109651088714600f, 0.081691503524780273438f, 0.011152175255119800568f, -0.094972975552082061768f, -0.0011453720508143305779f, 0.019785614684224128723f, 0.041999213397502899170f, -0.096922203898429870605f, -0.014132997021079063416f, -0.031825844198465347290f, -0.065356604754924774170f, 0.048108395189046859741f, -0.063285715878009796143f, 0.037506867200136184692f, -0.048620007932186126709f, -0.024955134838819503784f, 0.041698805987834930420f, 0.0017250824021175503731f, 0.076176226139068603516f, 0.028387330472469329834f, 0.081571482121944427490f, 0.019508915022015571594f, -0.018233241513371467590f, 0.042697660624980926514f, -0.0011906470172107219696f, -0.0091479420661926269531f, -0.050809156149625778198f, -0.0078908242285251617432f, 0.035480234771966934204f, 0.028236964717507362366f, -0.015428008511662483215f, -0.015561156906187534332f, 0.15100072324275970459f, 0.052799474447965621948f, 0.013368753716349601746f, 0.033775571733713150024f, -0.0041644102893769741058f, 0.040625263005495071411f, -0.0094717973843216896057f, 0.051870077848434448242f, 0.15685097873210906982f, -0.055206067860126495361f, 0.060551766306161880493f, 0.0035944269038736820221f, 0.017916023731231689453f, 0.087441995739936828613f, 0.015010610222816467285f, 0.043211966753005981445f, -0.019134381785988807678f, -0.058329757302999496460f, -0.080145113170146942139f, -0.13304939866065979004f, -0.032473187893629074097f, 0.032796815037727355957f, 0.028241584077477455139f, -0.063264951109886169434f, 0.0051587293855845928192f, -0.075912103056907653809f, -0.051445771008729934692f, -0.090608566999435424805f, -0.064069196581840515137f, -0.16820478439331054688f, 0.064717523753643035889f, 0.049369409680366516113f, -0.017712347209453582764f, -0.10150960087776184082f, -0.030409840866923332214f, 0.11977806687355041504f, 0.099624678492546081543f, -0.040220458060503005981f, -0.013778400607407093048f, -0.021713184192776679993f, 0.15428018569946289062f, 0.071705363690853118896f, 0.011842708103358745575f, -0.047457635402679443359f, -0.098347365856170654297f, 0.12320514023303985596f, 0.12342020869255065918f, 0.084327019751071929932f, -0.019838424399495124817f, -0.030130440369248390198f, 0.0011905856663361191750f, 0.050236776471138000488f, 0.033791568130254745483f, 0.010552724823355674744f, -0.10246421396732330322f, -0.074846200644969940186f, 0.10577841103076934814f, 0.070806905627250671387f, 0.029964109882712364197f, 0.034269426017999649048f, 0.062618821859359741211f, 0.11375749111175537109f, 0.14453160762786865234f, 0.11150900274515151978f, 0.045626845210790634155f, -0.030131144449114799500f, -0.048614080995321273804f, 0.020149957388639450073f, -0.048953939229249954224f, -0.10473755002021789551f, -0.097442224621772766113f, -0.033225804567337036133f, 0.10859785974025726318f, -0.033231630921363830566f, 0.015675883740186691284f, -0.060757588595151901245f, 0.0024536957498639822006f, 0.030204080045223236084f, -0.033996973186731338501f, 0.10419724136590957642f, -0.10412279516458511353f, -0.068027526140213012695f, -0.12440170347690582275f, -0.017187455669045448303f, 0.11250290274620056152f, -0.10738122463226318359f, -0.053841266781091690063f, -0.077210038900375366211f, 0.062120601534843444824f, 0.052664611488580703735f, -0.085209026932716369629f, -0.0039706653915345668793f, -0.020650543272495269775f, 0.071835815906524658203f, 0.055486146360635757446f, -0.088941708207130432129f, -0.0010109178256243467331f, -0.0017363942461088299751f, 0.0094173932448029518127f, -0.091637589037418365479f, 0.029148124158382415771f, -0.054902836680412292480f, 0.011635950766503810883f, 0.040355443954467773438f, -0.019596032798290252686f, -0.025354517623782157898f, 0.030454169958829879761f, -0.047480341047048568726f, -0.029251571744680404663f, -0.014039743691682815552f, 0.014020561240613460541f, -0.034587442874908447266f, 0.017841637134552001953f, -0.050126407295465469360f, 0.039073292165994644165f, 0.016230957582592964172f, 0.0049108937382698059082f, 0.029648473486304283142f, -0.046330809593200683594f, 0.016398390755057334900f, -0.044309858232736587524f, 0.024089774116873741150f, 0.029000468552112579346f, -0.019985884428024291992f, -0.034631934016942977905f, 0.015537505969405174255f, 0.031510703265666961670f, 0.019332822412252426147f, -0.040707837790250778198f, -0.017758643254637718201f, -0.027913266792893409729f, -0.00048329276614822447300f, 0.013081874698400497437f, -0.0098991934210062026978f, -0.00046030379598960280418f, 0.036594185978174209595f, 0.041321653872728347778f, -0.012731010094285011292f, 0.020810315385460853577f, 0.011347861960530281067f, 0.0062600271776318550110f, 0.047744300216436386108f, 0.034932821989059448242f, -0.045104607939720153809f, -0.0068869544193148612976f, 0.011342409998178482056f, -0.0020922347903251647949f, 0.021986419335007667542f, 0.054112587124109268188f, 0.058357425034046173096f, -0.032184511423110961914f, 0.056691173464059829712f, 0.0029347736854106187820f, -0.0054330499842762947083f, -0.047609616070985794067f, -0.028425248339772224426f, 0.014382642693817615509f, 0.0064947749488055706024f, -0.015158397145569324493f, -0.051003526896238327026f, 0.037800084799528121948f, 0.049853302538394927979f, -0.042689606547355651855f, 0.044102631509304046631f, 0.032287690788507461548f, 0.0042693098075687885284f, -0.024570776149630546570f, 0.034735422581434249878f, 0.0055235172621905803680f, 0.031734041869640350342f, -0.086743548512458801270f, 0.098026931285858154297f, 0.11110020428895950317f, 0.038056820631027221680f, 0.0044592455960810184479f, -0.16725265979766845703f, 0.068312838673591613770f, -0.0088781714439392089844f, -0.036061003804206848145f, -0.032860282808542251587f, -0.13961267471313476562f, 0.077024936676025390625f, 0.073632135987281799316f, -0.064341768622398376465f, -0.073680803179740905762f, -0.090025357902050018311f, -0.077260412275791168213f, 0.058089755475521087646f, 0.083112515509128570557f, -0.035072196274995803833f, -0.11283379793167114258f, -0.072193086147308349609f, 0.035076711326837539673f, 0.11014378070831298828f, 0.033541202545166015625f, -0.044308070093393325806f, -0.014675032347440719604f, -0.086329132318496704102f, 0.074780434370040893555f, 0.11134288460016250610f, -0.073202878236770629883f, -0.011528758332133293152f, -0.12214298546314239502f, -0.12107951939105987549f, -0.067930638790130615234f, -0.025991197675466537476f, -0.039419755339622497559f, -0.080517292022705078125f, 0.013932073488831520081f, 0.056231565773487091064f, -0.014692489989101886749f, 0.024956466630101203918f, 0.041141875088214874268f, -0.0085118878632783889771f, 0.11537972092628479004f, 0.046454407274723052979f, 0.060822382569313049316f, 0.075267672538757324219f, 0.0036866501905024051666f, 0.16065196692943572998f, 0.10025773942470550537f, 0.022173613309860229492f, 0.043445162475109100342f, -0.029484597966074943542f, 0.10363948345184326172f, 0.053942952305078506470f, 0.00043547005043365061283f, -0.021356606855988502502f, -0.048165772110223770142f, -0.030148275196552276611f, 0.15018853545188903809f, -0.015228718519210815430f, -0.063056141138076782227f, -0.0088550234213471412659f, 0.0055435011163353919983f, 0.059717830270528793335f, -0.016485160216689109802f, -0.020476164296269416809f, 0.033620532602071762085f, -0.033809289336204528809f},
  {-0.066933639347553253174f, -0.10935469716787338257f, -0.14196988940238952637f, -0.084437884390354156494f, -0.14378118515014648438f, 0.011372052133083343506f, -0.083595186471939086914f, -0.087202593684196472168f, -0.011874863877892494202f, -0.12426499277353286743f, 0.0092632817104458808899f, -0.026233902201056480408f, -0.028924610465764999390f, -0.018842697143554687500f, -0.090694926679134368896f, 0.038842771202325820923f, -0.042958118021488189697f, 0.036589097231626510620f, 0.027807995676994323730f, -0.017834542319178581238f, 0.0070881661958992481232f, -0.0050709093920886516571f, -0.0025726498570293188095f, 0.052013628184795379639f, -0.035082343965768814087f, 0.011398938484489917755f, 0.028776185587048530579f, 0.039689186960458755493f, -0.0017592844087630510330f, -0.11839968711137771606f, -0.026925245299935340881f, 0.11813895404338836670f, 0.15362015366554260254f, -0.033709280192852020264f, -0.10330184549093246460f, 0.045979417860507965088f, 0.14939054846763610840f, 0.16987287998199462891f, 0.047265179455280303955f, -0.053420316427946090698f, 0.023177450522780418396f, 0.087670601904392242432f, 0.15348632633686065674f, 0.077850706875324249268f, -0.043837126344442367554f, 0.0081793516874313354492f, -0.025948660448193550110f, 0.049145974218845367432f, 0.040973972529172897339f, -0.059025727212429046631f, 0.048448733985424041748f, -0.010153917595744132996f, 0.019455377012491226196f, 0.052573934197425842285f, 0.036998987197875976562f, 0.13746115565299987793f, 0.018982376903295516968f, 0.059995263814926147461f, 0.040930356830358505249f, -0.092744633555412292480f, 0.064597606658935546875f, -0.053006734699010848999f, -0.013722185045480728149f, 0.052404046058654785156f, -0.15766575932502746582f, -0.064145319163799285889f, -0.077313356101512908936f, -0.15961961448192596436f, -0.10099099576473236084f, -0.20706765353679656982f, -0.046766173094511032104f, 0.0030651453416794538498f, -0.013837409205734729767f, -0.049550734460353851318f, 0.019287690520286560059f, -0.015027753077447414398f, 0.090573944151401519775f, 0.094209462404251098633f, -0.015290693379938602448f, 0.0078798178583383560181f, 0.11931968480348587036f, 0.083440326154232025146f, 0.10551992058753967285f, -0.080821342766284942627f, -0.025307370349764823914f, 0.12496435642242431641f, 0.074960067868232727051f, 0.075627185404300689697f, 0.043774582445621490479f, -0.10672367364168167114f, 0.079179786145687103271f, 0.046460367739200592041f, 0.066758058965206146240f, 0.00081855471944436430931f, -0.10248931497335433960f, 0.017315557226538658142f, -0.095460347831249237061f, -0.096255749464035034180f, -0.15623448789119720459f, -0.086385510861873626709f, 0.13655155897140502930f, 0.020413186401128768921f, -0.080536738038063049316f, 0.081072852015495300293f, 0.14293171465396881104f, 0.086926281452178955078f, 0.10302966833114624023f, -0.12753814458847045898f, 0.010644107125699520111f, 0.15249212086200714111f, -0.11493289470672607422f, -0.050318524241447448730f, -0.16774795949459075928f, -0.076663672924041748047f, 0.014165713451802730560f, 0.015673974528908729553f, -0.10399689525365829468f, -0.12436754256486892700f, -0.027927288785576820374f, -0.025337956845760345459f, -0.14105613529682159424f, -0.026177931576967239380f, -0.076581545174121856689f, -0.023046160116791725159f, 0.076271705329418182373f, -0.25830897688865661621f, -0.090906612575054168701f, -0.057577438652515411377f, -0.034343142062425613403f, 0.040619540959596633911f, -0.15931232273578643799f, -0.069429300725460052490f, -0.011589630506932735443f, 0.059709668159484863281f, 0.052690625190734863281f, -0.12133150547742843628f, 0.10978578031063079834f, 0.11798214167356491089f, 0.0016550299478694796562f, 0.10913676023483276367f, -0.052096609026193618774f, -0.079576566815376281738f, 0.051266349852085113525f, 0.054278451949357986450f, 0.021512521430850028992f, -0.10788576304912567139f, -0.10625321418046951294f, 0.10828053206205368042f, 0.11743666231632232666f, 0.11870641261339187622f, -0.087780468165874481201f, -0.16239117085933685303f, -0.052476827055215835571f, 0.11114475131034851074f, 0.074871927499771118164f, -0.17017814517021179199f, -0.19662445783615112305f, -0.14584612846374511719f, 0.082248166203498840332f, 0.17273698747158050537f, -0.0082466732710599899292f, -0.11633218079805374146f, -0.12129453569650650024f, -0.0093297706916928291321f, 0.034470625221729278564f, -0.033792648464441299438f, -0.10376264154911041260f, -0.091073088347911834717f, -0.0065210098400712013245f, -0.032095760107040405273f, -0.11813879013061523438f, -0.18504844605922698975f, -0.22022145986557006836f, -0.10927978157997131348f, 0.033956088125705718994f, 0.096218258142471313477f, 0.073581159114837646484f, -0.098169796168804168701f, 0.029563169926404953003f, 0.16946034133434295654f, 0.085776671767234802246f, -0.022476049140095710754f, -0.096390210092067718506f, 0.047710623592138290405f, 0.11506188660860061646f, 0.050846043974161148071f, -0.14627085626125335693f, -0.12461973726749420166f, -0.035088744014501571655f, -0.059828113764524459839f, 0.041059304028749465942f, -0.046436749398708343506f, 0.058433312922716140747f, 0.10165496915578842163f, -0.030108232051134109497f, -0.020084233954548835754f, 0.076183438301086425781f, 0.097806595265865325928f, 0.12178542464971542358f, 0.029171217232942581177f, -0.055712677538394927979f, 0.037140145897865295410f, 0.019794840365648269653f, -0.065137244760990142822f, -0.086409218609333038330f, 0.10790102183818817139f, 0.049487266689538955688f, 0.15685831010341644287f, 0.085025906562805175781f, 0.12224093079566955566f, -0.028823392465710639954f, -0.0076084784232079982758f, -0.042369704693555831909f, -0.017193058505654335022f, -0.023616859689354896545f, 0.031701903790235519409f, 0.047202233225107192993f, 0.016628591343760490417f, -0.010017497465014457703f, -0.0021673806477338075638f, -0.011905979365110397339f, -0.038198594003915786743f, 0.059073984622955322266f, -0.0069989380426704883575f, -0.0019211580511182546616f, -0.043414458632469177246f, -0.015482645481824874878f, 0.0051930164918303489685f, 0.0017009662697091698647f, -0.042473137378692626953f, -0.060288429260253906250f, 0.037285998463630676270f, 0.055196020752191543579f, 0.0066349320113658905029f, -0.022663882002234458923f, 0.016948778182268142700f, -0.040215052664279937744f, 0.059567790478467941284f, 0.013863359577953815460f, -0.018881442025303840637f, -0.033968120813369750977f, 0.0030403262935578823090f, 0.035003807395696640015f, 0.046112827956676483154f, 0.016111006960272789001f, -0.053287733346223831177f, -0.021285118535161018372f, -0.013163410127162933350f, 0.057077959179878234863f, 0.017629250884056091309f, 0.013043280690908432007f, 0.019112937152385711670f, -0.035800550132989883423f, -0.021914750337600708008f, 0.037001725286245346069f, 0.022267069667577743530f, -0.060195539146661758423f, -0.00070502702146768569946f, 0.053990252315998077393f, -0.047819320112466812134f, -0.00050243141595274209976f, -0.0077744154259562492371f, 0.0089942589402198791504f, -0.044921383261680603027f, 0.043445885181427001953f, -0.0094884894788265228271f, -0.013690444640815258026f, 0.044116985052824020386f, 0.018077712506055831909f, -0.0023231031373143196106f, -0.020845688879489898682f, -0.027746504172682762146f, 0.052843879908323287964f, 0.026877304539084434509f, 0.041750527918338775635f, -0.012603858485817909241f, 0.045508507639169692993f, -0.020961208269000053406f, -0.0022210043389350175858f, -0.028869409114122390747f, -0.012954682111740112305f, -0.044822346419095993042f, -0.065483674407005310059f, -0.088203340768814086914f, 0.021456178277730941772f, 0.022661415860056877136f, -0.071171201765537261963f, 0.047675423324108123779f, 0.0068277809768915176392f, 0.035702511668205261230f, 0.0047094784677028656006f, -0.11225300282239913940f, -0.077286042273044586182f, -0.054934814572334289551f, -0.034673288464546203613f, -0.0083065098151564598083f, 0.034760963171720504761f, -0.094325423240661621094f, -0.10090459138154983521f, -0.031970415264368057251f, 0.066096819937229156494f, 0.043767560273408889771f, -0.0044053616002202033997f, -0.11015105247497558594f, -0.10067863017320632935f, 0.019630735740065574646f, 0.094994798302650451660f, 0.043405588716268539429f, -0.012069461867213249207f, -0.12349653989076614380f, -0.036059934645891189575f, 0.053058609366416931152f, 0.13269938528537750244f, 0.054052207618951797485f, -0.17938084900379180908f, -0.020403631031513214111f, 0.060509145259857177734f, 0.089225932955741882324f, 0.017589392140507698059f, -0.018805816769599914551f, -0.0021480002906173467636f, -0.027948154136538505554f, -0.073454171419143676758f, -0.099432580173015594482f, -0.10962998121976852417f, -0.0095403483137488365173f, 0.011302624829113483429f, -0.097674943506717681885f, -0.071473091840744018555f, -0.19600358605384826660f, 0.034677218645811080933f, 0.0015005019959062337875f, -0.075050346553325653076f, 0.049383927136659622192f, -0.013123174197971820831f, 0.025430137291550636292f, -0.0080037564039230346680f, -0.079827062785625457764f, -0.10626844316720962524f, 0.11296649277210235596f, 0.038139287382364273071f, 0.055422015488147735596f, -0.031646765768527984619f, -0.035491209477186203003f, 0.067365221679210662842f, 0.039154946804046630859f, -0.12817692756652832031f, -0.12657368183135986328f, -0.0056520593352615833282f, -0.0023391351569443941116f},
  {0.048352874815464019775f, 0.11285173147916793823f, 0.10989444702863693237f, 0.17936664819717407227f, -0.098158605396747589111f, 0.023399440571665763855f, 0.13899491727352142334f, 0.030175039544701576233f, 0.092512242496013641357f, -0.015868609771132469177f, 0.034868992865085601807f, 0.12358518689870834351f, 0.023033609613776206970f, -0.010755311697721481323f, 0.028925118967890739441f, 0.10089188069105148315f, -0.010890463367104530334f, 0.026044854894280433655f, -0.0086682587862014770508f, 0.058206371963024139404f, 0.050763402134180068970f, 0.00047406510566361248493f, -0.016022626310586929321f, 0.014203751459717750549f, 0.065472722053527832031f, 0.090263739228248596191f, 0.063722267746925354004f, 0.0048837922513484954834f, 0.032859675586223602295f, 0.026181699708104133606f, 0.027343511581420898438f, -0.015421036630868911743f, 0.026113862171769142151f, 0.043435469269752502441f, 0.14413040876388549805f, -0.033777140080928802490f, -0.11478447914123535156f, -0.096038475632667541504f, 0.016596317291259765625f, 0.026573788374662399292f, -0.052580211311578750610f, -0.078475326299667358398f, -0.16591806709766387939f, -0.069005690515041351318f, -0.15426117181777954102f, -0.10783804953098297119f, 0.011364978738129138947f, -0.070819228887557983398f, 0.0090817306190729141235f, -0.0025901838671416044235f, -0.16695943474769592285f, 0.012346497736871242523f, -0.041158333420753479004f, -0.011965795420110225677f, -0.044268958270549774170f, -0.14457935094833374023f, -0.067548625171184539795f, -0.058245796710252761841f, -0.048975896090269088745f, -0.033618461340665817261f, -0.071117065846920013428f, -0.077604003250598907471f, 0.021846998482942581177f, -0.053861301392316818237f, 0.051737010478973388672f, 0.021587831899523735046f, -0.045134179294109344482f, -0.018810199573636054993f, 0.030008785426616668701f, 0.20029833912849426270f, 0.061022564768791198730f, 0.041964299976825714111f, 0.048810806125402450562f, -0.016550574451684951782f, 0.0026932114269584417343f, -0.0051380521617829799652f, 0.0028063564095646142960f, -0.019051134586334228516f, 0.048773050308227539062f, -0.11067371815443038940f, -0.10650981217622756958f, -0.047120854258537292480f, -0.071392066776752471924f, 0.022589866071939468384f, 0.038782108575105667114f, -0.13110029697418212891f, -0.13192236423492431641f, -0.022792609408497810364f, 0.022359348833560943604f, 0.11438044160604476929f, 0.035304889082908630371f, 0.0048736473545432090759f, -0.090555623173713684082f, -0.034309014678001403809f, 0.079415149986743927002f, 0.022790601477026939392f, 0.044258788228034973145f, 0.033329632133245468140f, 0.097278013825416564941f, 0.11677462607622146606f, -0.073958702385425567627f, 0.016355322673916816711f, 0.039098359644412994385f, 0.036614466458559036255f, -0.014236279763281345367f, -0.12154504656791687012f, -0.054709468036890029907f, 0.11469370126724243164f, -0.029789065942168235779f, -0.14683929085731506348f, 0.035946033895015716553f, 0.070022039115428924561f, 0.20631082355976104736f, 0.076383866369724273682f, 0.022180015221238136292f, 0.047270391136407852173f, 0.068653747439384460449f, 0.029075607657432556152f, -0.037210982292890548706f, 0.0021131022367626428604f, 0.0011027381988242268562f, 0.072797775268554687500f, 0.092555478215217590332f, -0.018743725493550300598f, 0.0099389897659420967102f, 0.10196087509393692017f, 0.15341384708881378174f, 0.092301078140735626221f, 0.022467738017439842224f, 0.028546590358018875122f, 0.10290491580963134766f, 0.056475769728422164917f, -0.035952292382717132568f, -0.044322822242975234985f, 0.062807440757751464844f, 0.14313893020153045654f, -0.083120696246623992920f, -0.044101428240537643433f, 0.0076702255755662918091f, 0.019278053194284439087f, -0.046561930328607559204f, -0.0034231836907565593719f, -0.085504911839962005615f, -0.011155571788549423218f, -0.025099318474531173706f, -0.10132727026939392090f, -0.012660377658903598785f, -0.15277124941349029541f, -0.066653124988079071045f, -0.083399966359138488770f, -0.034426201134920120239f, -0.050219289958477020264f, 0.018075965344905853271f, -0.052848059684038162231f, -0.066436029970645904541f, 0.018725316971540451050f, 0.062428683042526245117f, -0.018040623515844345093f, -0.10712655633687973022f, -0.11574091017246246338f, 0.056124739348888397217f, 0.059569783508777618408f, 0.062853798270225524902f, 0.0078798029571771621704f, 0.021627662703394889832f, 0.071604937314987182617f, 0.015015752986073493958f, -0.0015282471431419253349f, 0.024287907406687736511f, -0.0030623858328908681870f, 0.14790531992912292480f, 0.12344633042812347412f, 0.037395264953374862671f, -0.060568999499082565308f, -0.15714387595653533936f, 0.0082299737259745597839f, 0.038321617990732192993f, 0.065709188580513000488f, -0.0078689204528927803040f, -0.017981199547648429871f, 0.0089946463704109191895f, -0.036759287118911743164f, 0.027400741353631019592f, -0.077459082007408142090f, -0.051335904747247695923f, 0.061941463500261306763f, 0.069888390600681304932f, 0.086985208094120025635f, 0.017264541238546371460f, -0.059306837618350982666f, 0.052241779863834381104f, 0.10269865393638610840f, 0.044351387768983840942f, -0.051165319979190826416f, -0.092159613966941833496f, 0.073785826563835144043f, 0.085661321878433227539f, -0.076723098754882812500f, -0.13780331611633300781f, -0.10530766099691390991f, 0.072243049740791320801f, -0.0056760134175419807434f, -0.043782960623502731323f, -0.053915798664093017578f, 0.056007351726293563843f, 0.052656669169664382935f, -0.051084768027067184448f, -0.056774694472551345825f, -0.067777037620544433594f, -0.013063612394034862518f, 0.054522097110748291016f, -0.026390263810753822327f, -0.039331577718257904053f, 0.011616383679211139679f, 0.047275997698307037354f, -0.014327544718980789185f, -0.034625805914402008057f, -0.012724651955068111420f, -0.025625668466091156006f, 0.040538061410188674927f, -0.0066801398061215877533f, -0.00058597500901669263840f, 0.033191237598657608032f, 0.018145121634006500244f, -0.039856612682342529297f, -0.039685893803834915161f, 0.0010774559341371059418f, 0.016550153493881225586f, -0.037482291460037231445f, -0.041151709854602813721f, -0.0033759593497961759567f, -0.028539339080452919006f, 0.011131932027637958527f, 0.032462425529956817627f, 0.051040023565292358398f, 0.0075780441984534263611f, 0.046895004808902740479f, -0.038900718092918395996f, -0.026526173576712608337f, -0.020159369334578514099f, -0.013352835550904273987f, -0.031950958073139190674f, -0.045844394713640213013f, -0.015713972970843315125f, -0.010624512098729610443f, 0.033636156469583511353f, -0.026997018605470657349f, -0.012819660827517509460f, -0.043772317469120025635f, -0.039930172264575958252f, -0.036352578550577163696f, -0.032384995371103286743f, 0.033973183482885360718f, -0.035387758165597915649f, -0.049771107733249664307f, -0.024423673748970031738f, -0.0049142572097480297089f, -0.018673945218324661255f, -0.017836125567555427551f, 0.031057825312018394470f, 0.026161165907979011536f, -0.011297637596726417542f, -0.046857252717018127441f, -0.046981398016214370728f, 0.027341023087501525879f, -0.043565507978200912476f, -0.015447671525180339813f, 0.024885734543204307556f, -0.026222616434097290039f, 0.0090879099443554878235f, -0.0016971827717497944832f, -0.014369187876582145691f, 0.042880211025476455688f, -0.030935507267713546753f, -0.023138010874390602112f, 0.024675441905856132507f, 0.037289306521415710449f, 0.042901910841464996338f, -0.030816996470093727112f, 0.058478567749261856079f, 0.10426062345504760742f, -0.023957028985023498535f, 0.050094787031412124634f, -0.030109381303191184998f, -0.046424340456724166870f, 0.11692036688327789307f, 0.017571523785591125488f, -0.014241764321923255920f, -0.013415678404271602631f, -0.026643285527825355530f, 0.10046449303627014160f, 0.070053979754447937012f, -0.0060065723955631256104f, 0.066350385546684265137f, 0.029956856742501258850f, 0.13201335072517395020f, -0.056751728057861328125f, -0.085475333034992218018f, -0.061861310154199600220f, 0.023336274549365043640f, 0.033603731542825698853f, 0.020684886723756790161f, -0.0019582011736929416656f, -0.073110707104206085205f, 0.057854611426591873169f, 0.0078836400061845779419f, -0.038996845483779907227f, -0.011949338018894195557f, -0.071378059685230255127f, 0.11207956820726394653f, 0.0091929370537400245667f, -0.046713329851627349854f, 0.014481453225016593933f, 0.015348811633884906769f, 0.16917942464351654053f, -0.045989628881216049194f, -0.067457996308803558350f, 0.0041495440527796745300f, -0.019107388332486152649f, 0.039230275899171829224f, 0.0084481574594974517822f, -0.042407717555761337280f, 0.10046277195215225220f, 0.12849487364292144775f, 0.044724486768245697021f, -0.093104116618633270264f, -0.068830065429210662842f, 0.037263616919517517090f, 0.079962976276874542236f, 0.078858479857444763184f, -0.095713555812835693359f, 0.0024858112446963787079f, 0.0049359244294464588165f, 0.032553732395172119141f, -0.084491997957229614258f, -0.20227122306823730469f, 0.038556572049856185913f, 0.069052204489707946777f, 0.066272437572479248047f, -0.086034923791885375977f, -0.12112572044134140015f, 0.028602236881852149963f, 0.0087307728826999664307f, 0.058145020157098770142f, -0.015576958656311035156f, -0.098377637565135955811f, 0.11281261593103408813f, 0.090239800512790679932f, 0.017100315541028976440f, -0.052944999188184738159f}
};
static const float tensor_13_bias[3] = 
{-0.19378015398979187012f, 0.38897365331649780273f, -0.23261681199073791504f};
union tensor_union_0 {
float tensor__0_Conv_output_0[1][6][128][58];
float tensor__2_MaxPool_output_0[1][6][64][29];
float tensor__5_Relu_output_0[1][5][62][27];
float tensor__8_Conv_output_0[1][5][29][11];
float tensor__10_MaxPool_output_0[1][5][14][5];
};
static union tensor_union_0 tu0;

union tensor_union_1 {
float tensor__1_Relu_output_0[1][6][128][58];
float tensor__4_Conv_output_0[1][5][62][27];
float tensor__6_MaxPool_output_0[1][5][31][13];
float tensor__9_Relu_output_0[1][5][29][11];
float tensor__12_Flatten_output_0[1][350];
};
static union tensor_union_1 tu1;


/*
 * Operand:           Conv
 * Name in ONNX file: /0/Conv
 */
static inline void node__0_Conv( const float x[1][1][130][60], const float w[6][1][5][5], const float bias[6], float y[1][6][128][58] )
{
	/* Conv
	 *
	 * auto_pad: NOTSET
	 * dilations: 1 1 
	 * group: 1
	 * kernel_shape: 5 5 
	 * pads: 1 1 1 1 
	 * strides: 1 1 
	 */
	for( uint32_t b=0; b<1; b++ ) {
	for( uint32_t m=0; m<6; m++) {
		for( int32_t o0=0, i0=-1; o0<128; o0++, i0+=1) {
		for( int32_t o1=0, i1=-1; o1<58; o1++, i1+=1) {
			y[b][m][o0][o1] = bias[m];
			for( int32_t c=0; c<1; c++ ) {
			for( uint32_t k0=0; k0<5; k0++ ) {
			for( uint32_t k1=0; k1<5; k1++ ) {
				int ii0 = i0+k0 * 1;
				if( ii0<0) continue;
				if( ii0>=130) continue;
				int ii1 = i1+k1 * 1;
				if( ii1<0) continue;
				if( ii1>=60) continue;
				y[b][m][o0][o1] += x[b][c][ii0][ii1] *w[m][c][k0][k1];
			} /* k */
			} /* k */
			} /* c */
		} /* o */
		} /* o */
	} /* m */
	} /* b */
}

/*
 * Operand:           Relu
 * Name in ONNX file: /1/Relu
 */
static inline void node__1_Relu( const float X[1][6][128][58], float Y[1][6][128][58] )
{
	/*Relu*/
	float *X_ptr = (float*)X;
	float *Y_ptr = (float*)Y;
	for( uint32_t i=0; i<44544; i++ )
		Y_ptr[i] = X_ptr[i] > 0 ? X_ptr[i] : 0;

}

/*
 * Operand:           MaxPool
 * Name in ONNX file: /2/MaxPool
 */
static inline void node__2_MaxPool( const float x[1][6][128][58], float y[1][6][64][29] )
{
	/* MaxPool
	 *
	 * auto_pad: NOTSET
	 * dilations: 1 1 
	 * group: 1
	 * kernel_shape: 2 2 
	 * pads: 0 0 0 0 
	 * strides: 2 2 
	 */
	for( uint32_t b=0; b<1; b++ ) {
	for( uint32_t m=0, c=0; m<6; m++, c=m) {
		for( int32_t o0=0, i0=0; o0<64; o0++, i0+=2) {
		for( int32_t o1=0, i1=0; o1<29; o1++, i1+=2) {
			float curmax = -FLT_MAX;
			for( uint32_t k0=0; k0<2; k0++ ) {
			for( uint32_t k1=0; k1<2; k1++ ) {
				int ii0 = i0+k0 * 1;
				if( ii0<0) continue;
				if( ii0>=128) continue;
				int ii1 = i1+k1 * 1;
				if( ii1<0) continue;
				if( ii1>=58) continue;
				if( curmax < x[b][c][ii0][ii1]) {
				curmax = MAX( curmax, x[b][c][ii0][ii1]);
				}
			} /* k */
			} /* k */
			y[b][m][o0][o1]= curmax;
		} /* o */
		} /* o */
	} /* m */
	} /* b */
}

/*
 * Operand:           Conv
 * Name in ONNX file: /4/Conv
 */
static inline void node__4_Conv( const float x[1][6][64][29], const float w[5][6][5][5], const float bias[5], float y[1][5][62][27] )
{
	/* Conv
	 *
	 * auto_pad: NOTSET
	 * dilations: 1 1 
	 * group: 1
	 * kernel_shape: 5 5 
	 * pads: 1 1 1 1 
	 * strides: 1 1 
	 */
	for( uint32_t b=0; b<1; b++ ) {
	for( uint32_t m=0; m<5; m++) {
		for( int32_t o0=0, i0=-1; o0<62; o0++, i0+=1) {
		for( int32_t o1=0, i1=-1; o1<27; o1++, i1+=1) {
			y[b][m][o0][o1] = bias[m];
			for( int32_t c=0; c<6; c++ ) {
			for( uint32_t k0=0; k0<5; k0++ ) {
			for( uint32_t k1=0; k1<5; k1++ ) {
				int ii0 = i0+k0 * 1;
				if( ii0<0) continue;
				if( ii0>=64) continue;
				int ii1 = i1+k1 * 1;
				if( ii1<0) continue;
				if( ii1>=29) continue;
				y[b][m][o0][o1] += x[b][c][ii0][ii1] *w[m][c][k0][k1];
			} /* k */
			} /* k */
			} /* c */
		} /* o */
		} /* o */
	} /* m */
	} /* b */
}

/*
 * Operand:           Relu
 * Name in ONNX file: /5/Relu
 */
static inline void node__5_Relu( const float X[1][5][62][27], float Y[1][5][62][27] )
{
	/*Relu*/
	float *X_ptr = (float*)X;
	float *Y_ptr = (float*)Y;
	for( uint32_t i=0; i<8370; i++ )
		Y_ptr[i] = X_ptr[i] > 0 ? X_ptr[i] : 0;

}

/*
 * Operand:           MaxPool
 * Name in ONNX file: /6/MaxPool
 */
static inline void node__6_MaxPool( const float x[1][5][62][27], float y[1][5][31][13] )
{
	/* MaxPool
	 *
	 * auto_pad: NOTSET
	 * dilations: 1 1 
	 * group: 1
	 * kernel_shape: 2 2 
	 * pads: 0 0 0 0 
	 * strides: 2 2 
	 */
	for( uint32_t b=0; b<1; b++ ) {
	for( uint32_t m=0, c=0; m<5; m++, c=m) {
		for( int32_t o0=0, i0=0; o0<31; o0++, i0+=2) {
		for( int32_t o1=0, i1=0; o1<13; o1++, i1+=2) {
			float curmax = -FLT_MAX;
			for( uint32_t k0=0; k0<2; k0++ ) {
			for( uint32_t k1=0; k1<2; k1++ ) {
				int ii0 = i0+k0 * 1;
				if( ii0<0) continue;
				if( ii0>=62) continue;
				int ii1 = i1+k1 * 1;
				if( ii1<0) continue;
				if( ii1>=27) continue;
				if( curmax < x[b][c][ii0][ii1]) {
				curmax = MAX( curmax, x[b][c][ii0][ii1]);
				}
			} /* k */
			} /* k */
			y[b][m][o0][o1]= curmax;
		} /* o */
		} /* o */
	} /* m */
	} /* b */
}

/*
 * Operand:           Conv
 * Name in ONNX file: /8/Conv
 */
static inline void node__8_Conv( const float x[1][5][31][13], const float w[5][5][5][5], const float bias[5], float y[1][5][29][11] )
{
	/* Conv
	 *
	 * auto_pad: NOTSET
	 * dilations: 1 1 
	 * group: 1
	 * kernel_shape: 5 5 
	 * pads: 1 1 1 1 
	 * strides: 1 1 
	 */
	for( uint32_t b=0; b<1; b++ ) {
	for( uint32_t m=0; m<5; m++) {
		for( int32_t o0=0, i0=-1; o0<29; o0++, i0+=1) {
		for( int32_t o1=0, i1=-1; o1<11; o1++, i1+=1) {
			y[b][m][o0][o1] = bias[m];
			for( int32_t c=0; c<5; c++ ) {
			for( uint32_t k0=0; k0<5; k0++ ) {
			for( uint32_t k1=0; k1<5; k1++ ) {
				int ii0 = i0+k0 * 1;
				if( ii0<0) continue;
				if( ii0>=31) continue;
				int ii1 = i1+k1 * 1;
				if( ii1<0) continue;
				if( ii1>=13) continue;
				y[b][m][o0][o1] += x[b][c][ii0][ii1] *w[m][c][k0][k1];
			} /* k */
			} /* k */
			} /* c */
		} /* o */
		} /* o */
	} /* m */
	} /* b */
}

/*
 * Operand:           Relu
 * Name in ONNX file: /9/Relu
 */
static inline void node__9_Relu( const float X[1][5][29][11], float Y[1][5][29][11] )
{
	/*Relu*/
	float *X_ptr = (float*)X;
	float *Y_ptr = (float*)Y;
	for( uint32_t i=0; i<1595; i++ )
		Y_ptr[i] = X_ptr[i] > 0 ? X_ptr[i] : 0;

}

/*
 * Operand:           MaxPool
 * Name in ONNX file: /10/MaxPool
 */
static inline void node__10_MaxPool( const float x[1][5][29][11], float y[1][5][14][5] )
{
	/* MaxPool
	 *
	 * auto_pad: NOTSET
	 * dilations: 1 1 
	 * group: 1
	 * kernel_shape: 2 2 
	 * pads: 0 0 0 0 
	 * strides: 2 2 
	 */
	for( uint32_t b=0; b<1; b++ ) {
	for( uint32_t m=0, c=0; m<5; m++, c=m) {
		for( int32_t o0=0, i0=0; o0<14; o0++, i0+=2) {
		for( int32_t o1=0, i1=0; o1<5; o1++, i1+=2) {
			float curmax = -FLT_MAX;
			for( uint32_t k0=0; k0<2; k0++ ) {
			for( uint32_t k1=0; k1<2; k1++ ) {
				int ii0 = i0+k0 * 1;
				if( ii0<0) continue;
				if( ii0>=29) continue;
				int ii1 = i1+k1 * 1;
				if( ii1<0) continue;
				if( ii1>=11) continue;
				if( curmax < x[b][c][ii0][ii1]) {
				curmax = MAX( curmax, x[b][c][ii0][ii1]);
				}
			} /* k */
			} /* k */
			y[b][m][o0][o1]= curmax;
		} /* o */
		} /* o */
	} /* m */
	} /* b */
}

/*
 * Operand:           Flatten
 * Name in ONNX file: /12/Flatten
 */
static inline void node__12_Flatten( const float input[1][5][14][5], float output[1][350] )
{
	/* Flatten*/
	float *input_ = (float*)input;
	float *output_ = (float*)output;
	for( uint32_t i=0; i<350; i++ )
		output_[i] = input_[i];

}

/*
 * Operand:           Gemm
 * Name in ONNX file: /13/Gemm
 */
static inline void node__13_Gemm( const float A[1][350], const float B[3][350], const float C[3], float Y[1][3] )
{
	/* Gemm */
	/* alpha   = 1.0000000000000000000
	   beta    = 1.0000000000000000000
	   transA  = 0
	   transB  = 1
	 */
	const int M = 1;
	const int K = 350;
	const int N = 3;
	float alpha = 1.0000000000000000000;
	float beta = 1.0000000000000000000;
	float (*C_)[3]  = (float(*)[3])C;
	for( uint32_t r=0; r<M; r++ )
		for( uint32_t c=0; c<N; c++ ) {
			float ABrc = 0;
			for( uint32_t i=0; i<K; i++ ) {
				float B_el = B[c][i];
				ABrc += A[r][i] * B_el;
			}
			float tmp = ABrc * alpha;
			tmp += C_[0][c] * beta;
			Y[r][c] = tmp;
	}
}


void entry(const float tensor_input_1[1][1][130][60], float tensor_19[1][3]){
	node__0_Conv( tensor_input_1, tensor_0_weight, tensor_0_bias, tu0.tensor__0_Conv_output_0);
	node__1_Relu( tu0.tensor__0_Conv_output_0, tu1.tensor__1_Relu_output_0);
	node__2_MaxPool( tu1.tensor__1_Relu_output_0, tu0.tensor__2_MaxPool_output_0);
	node__4_Conv( tu0.tensor__2_MaxPool_output_0, tensor_4_weight, tensor_4_bias, tu1.tensor__4_Conv_output_0);
	node__5_Relu( tu1.tensor__4_Conv_output_0, tu0.tensor__5_Relu_output_0);
	node__6_MaxPool( tu0.tensor__5_Relu_output_0, tu1.tensor__6_MaxPool_output_0);
	node__8_Conv( tu1.tensor__6_MaxPool_output_0, tensor_8_weight, tensor_8_bias, tu0.tensor__8_Conv_output_0);
	node__9_Relu( tu0.tensor__8_Conv_output_0, tu1.tensor__9_Relu_output_0);
	node__10_MaxPool( tu1.tensor__9_Relu_output_0, tu0.tensor__10_MaxPool_output_0);
	node__12_Flatten( tu0.tensor__10_MaxPool_output_0, tu1.tensor__12_Flatten_output_0);
	node__13_Gemm( tu1.tensor__12_Flatten_output_0, tensor_13_weight, tensor_13_bias, tensor_19);
}