/*
 * Copyright (C) 2015
 *
 * This file is part of Paparazzi.
 *
 * Paparazzi is free software; you can redistribute it and/or modify
 * it under the terms of the GNU General Public License as published by
 * the Free Software Foundation; either version 2, or (at your option)
 * any later version.
 *
 * Paparazzi is distributed in the hope that it will be useful,
 * but WITHOUT ANY WARRANTY; without even the implied warranty of
 * MERCHANTABILITY or FITNESS FOR A PARTICULAR PURPOSE.  See the
 * GNU General Public License for more details.
 *
 * You should have received a copy of the GNU General Public License
 * along with Paparazzi; see the file COPYING.  If not, write to
 * the Free Software Foundation, 59 Temple Place - Suite 330,
 * Boston, MA 02111-1307, USA.
 */

/**
 * @file modules/computer_vision/cnn.c
 */

// Own header
#include "modules/computer_vision/cnn.h"
#include <stdio.h>

// Include the image library -> used to alter the incoming image
#include "modules/computer_vision/lib/vision/image.h"

// Include the ABI library -> used to send messages to the ground station
#include "modules/core/abi.h"

#include "mcu_periph/sys_time.h"

#ifndef CNN_FPS
#define CNN_FPS 0 ///< Default FPS (zero means run at camera fps)
#endif

uint8_t white[4] = {127, 255, 127, 255};

// Function
static struct image_t *cnn_func(struct image_t *img, uint8_t camera_id __attribute__((unused)))
{
  // convert to grayscale, but also keep original for live feed
  struct image_t gray;
  image_create(&gray, img->w, img->h, IMAGE_GRAYSCALE);
  image_to_grayscale(img, &gray);

  // Convert image to tensor
  float tensor_output[1][3];
  float tensor_input[1][1][TENSOR_HEIGHT][TENSOR_WIDTH];
  convert_image_to_tensor(&gray, tensor_input);

  // Perform inference
  entry(tensor_input, tensor_output);

  // Softmax on the output
  float sum_exp = exp(tensor_output[0][0]) + exp(tensor_output[0][1]) + exp(tensor_output[0][2]);
  tensor_output[0][0] = exp(tensor_output[0][0]) / sum_exp;
  tensor_output[0][1] = exp(tensor_output[0][1]) / sum_exp;
  tensor_output[0][2] = exp(tensor_output[0][2]) / sum_exp;
  
  // draw rectangles on the original image corresponding to the outputs
  // TODO: improve code
  int x_min_left = 10;
  int x_max_left = 10 + (int)(tensor_output[0][0] * 40);
  int y_min_left = 10;
  int y_max_left = 30;
  image_draw_rectangle(img, x_min_left, x_max_left, y_min_left, y_max_left, white);

  int x_min_forward = 10;
  int x_max_forward = 10 + (int)(tensor_output[0][1] * 40);
  int y_min_forward = 35;
  int y_max_forward = 55;
  image_draw_rectangle(img, x_min_forward, x_max_forward, y_min_forward, y_max_forward, white);

  int x_min_right = 10;
  int x_max_right = 10 + (int)(tensor_output[0][2] * 40);
  int y_min_rigth = 60;
  int y_max_right = 80;
  image_draw_rectangle(img, x_min_right, x_max_right, y_min_rigth, y_max_right, white);

  // // Print outputs
  // printf("Right: %f, Forward: %f, Left: %f\n", tensor_output[0][0], tensor_output[0][1], tensor_output[0][2]);

  // // Print
  // float time = get_sys_time_float();
  // fprintf(stderr, "Processed image at time %f\n", time);

  // Send outputs
  AbiSendMsgCNN_CONTROL_INPUTS(CNN_CONTROL_INPUTS_ID, tensor_output[0][0], tensor_output[0][1], tensor_output[0][2]);

  return img;
}

void cnn_init(void)
{
  cv_add_to_device(&CNN_CAMERA, cnn_func, CNN_FPS, 0);
}

void convert_image_to_tensor(struct image_t *image, float tensor_input_1[1][1][TENSOR_HEIGHT][TENSOR_WIDTH]) {
    // Extract pixel values from the image buffer
    uint8_t *pixel_values = (uint8_t *)(image->buf);

    // TODO: IMPROVE BELOW -> THIS IS TERRIBLE, BUT IT WORKS FOR NOW
    // first store the image in a tensor
    float intermediate[1][1][520][240];
    for (int i = 0; i < 520; i++) {
        for (int j = 0; j < 240; j++) {
            intermediate[0][0][i][j] = (float)pixel_values[(i * image->w) + j] / 255.0f;
          }
        }

    // then extract the region of interest
    for (int i = 0; i < TENSOR_HEIGHT; i++) {
        for (int j = 0; j < TENSOR_WIDTH; j++) {
            int row_idx = i * (520 / TENSOR_HEIGHT);
            int col_idx = j * (120 / TENSOR_WIDTH) + 60;
            tensor_input_1[0][0][i][j] = (intermediate[0][0][row_idx][col_idx] - 0.3046516478061676) / 0.1654612421989441;
        }
    }

    // // for debugging: save tensor_input_1 to a file
    // FILE *f = fopen("tensor_input_1.txt", "w");
    // if (f == NULL)
    // {
    //     printf("Error opening file!\n");
    //     exit(1);
    // }
    // for (int i = 0; i < TENSOR_HEIGHT; i++)
    // {
    //     for (int j = 0; j < TENSOR_WIDTH; j++)
    //     {
    //         // printf("i: %d, j: %d, value: %f\n", i, j, tensor_input_1[0][0][i][j]);
    //         fprintf(f, "%f ", tensor_input_1[0][0][i][j]);
    //     }
    //     fprintf(f, "\n");
    // }
}

// Auto generated code below

// This file is computer-generated by onnx2c 
// (TODO: add creating command line here)
// (TODO: print creation date here )

// ONNX model:
// produced by pytorch, version 2.2.1
// ONNX IR version: 17
// Model documentation: 
/*

*/

#include <float.h>
#include <math.h>
#include <stdbool.h>
#include <stdint.h>
#include <string.h>
#define MAX(X,Y) ( X > Y ? X : Y)
#define MIN(X,Y) ( X < Y ? X : Y)
#define CLIP(X,L) ( MAX(MIN(X,L), -L) )

static const float tensor_fc_weight[3][128] = 
{
  {0.21926707029342651367f, -0.21575169265270233154f, -0.10500707477331161499f, 0.042007401585578918457f, -0.053181849420070648193f, 0.070378482341766357422f, 0.0050276974216103553772f, 0.0066956509836018085480f, 0.12419609725475311279f, -0.63754796981811523438f, -0.0016305138124153017998f, -0.70585358142852783203f, -0.24180512130260467529f, 0.28937906026840209961f, 0.22118739783763885498f, -0.33897706866264343262f, -0.32186511158943176270f, 0.44552141427993774414f, 0.029354892671108245850f, 0.24553740024566650391f, 0.63785517215728759766f, 0.20354521274566650391f, -0.12031959742307662964f, 0.088039852678775787354f, -0.11253012716770172119f, 0.37883329391479492188f, 0.21678955852985382080f, -0.42980343103408813477f, 0.17166633903980255127f, 0.024363458156585693359f, -0.29634547233581542969f, 0.50704681873321533203f, 0.34294924139976501465f, 0.11516535282135009766f, -0.10158038139343261719f, 0.29745447635650634766f, -0.16101665794849395752f, 0.15847657620906829834f, 0.030178394168615341187f, -0.20587956905364990234f, 0.45761522650718688965f, -0.33166992664337158203f, -0.40179240703582763672f, 0.50907009840011596680f, 0.11385998129844665527f, -0.47980791330337524414f, 0.19462051987648010254f, -0.20856228470802307129f, 0.39363971352577209473f, -0.40571242570877075195f, 0.56598371267318725586f, -0.12891747057437896729f, -0.18654736876487731934f, -0.021782115101814270020f, 0.40180766582489013672f, -0.33708038926124572754f, 0.040502905845642089844f, 0.032351527363061904907f, -0.19548024237155914307f, -0.46245521306991577148f, -0.31877517700195312500f, 0.31833219528198242188f, 0.29817789793014526367f, -0.40047380328178405762f, -0.39952448010444641113f, 0.31088945269584655762f, 0.38483425974845886230f, -0.46275135874748229980f, -0.45161241292953491211f, 0.46513018012046813965f, -0.099206604063510894775f, -0.041592940688133239746f, -0.12661285698413848877f, -0.25146996974945068359f, 0.11824657768011093140f, -0.099653407931327819824f, -0.34402740001678466797f, 0.26351815462112426758f, -0.037662502378225326538f, 0.42890739440917968750f, -0.31020483374595642090f, 0.19205994904041290283f, -0.24678297340869903564f, -0.023545907810330390930f, 0.086476810276508331299f, -0.24597899615764617920f, 0.092441514134407043457f, 0.49285864830017089844f, 0.30065539479255676270f, -0.30389994382858276367f, -0.41457831859588623047f, 0.32456976175308227539f, -0.48611533641815185547f, 0.43100136518478393555f, 0.27765059471130371094f, -0.25989627838134765625f, 0.46573293209075927734f, -0.034799639135599136353f, -0.50548416376113891602f, 0.27894297242164611816f, 0.14273065328598022461f, 0.18613468110561370850f, 0.022051380947232246399f, -0.18342542648315429688f, -0.44751003384590148926f, 0.44755250215530395508f, -0.013596598990261554718f, 0.091369837522506713867f, -0.23245759308338165283f, 0.41633757948875427246f, 0.23238991200923919678f, -0.41434454917907714844f, -0.38478428125381469727f, 0.28041899204254150391f, -0.54428601264953613281f, 0.56070953607559204102f, 0.22563141584396362305f, -0.11496575176715850830f, -0.029362117871642112732f, -0.045812301337718963623f, -0.32999557256698608398f, 0.54286789894104003906f, -0.43916368484497070312f, 0.45620426535606384277f, 0.13256709277629852295f, -0.34433579444885253906f, -0.34285447001457214355f, 0.0085596945136785507202f},
  {0.26360303163528442383f, -0.26676607131958007812f, -0.29857531189918518066f, 0.38137814402580261230f, -0.22528623044490814209f, 0.41745948791503906250f, 0.079098485410213470459f, -0.29928770661354064941f, -0.082030251622200012207f, 0.66229170560836791992f, 0.14076389372348785400f, -0.15734986960887908936f, 0.00065758405253291130066f, 0.15134309232234954834f, 0.041243661195039749146f, -0.082869850099086761475f, 0.35565516352653503418f, -0.68398541212081909180f, -0.19164869189262390137f, 0.26845353841781616211f, -0.10290828347206115723f, -0.0042781643569469451904f, 0.30790245532989501953f, -0.44252774119377136230f, -0.072067230939865112305f, -0.35210213065147399902f, -0.012153414078056812286f, 0.14383329451084136963f, -0.46660163998603820801f, 0.21345625817775726318f, -0.0099755534902215003967f, -0.23854872584342956543f, -0.17477649450302124023f, 0.075494602322578430176f, -0.44264027476310729980f, 0.11726588010787963867f, 0.44838628172874450684f, -0.28444415330886840820f, 0.19144822657108306885f, 0.41632378101348876953f, -0.24457927048206329346f, 0.36267417669296264648f, 0.37481585144996643066f, -0.50979453325271606445f, -0.10123411566019058228f, 0.38087117671966552734f, -0.52025383710861206055f, 0.55336999893188476562f, -0.33014702796936035156f, 0.39006230235099792480f, -0.54840946197509765625f, 0.49476319551467895508f, -0.050635829567909240723f, 0.40164127945899963379f, -0.27087119221687316895f, 0.25401693582534790039f, 0.16845844686031341553f, -0.36110374331474304199f, -0.070891886949539184570f, 0.53464680910110473633f, -0.11985792964696884155f, 0.071395158767700195312f, -0.32136514782905578613f, -0.042145039886236190796f, 0.054852142930030822754f, -0.079343125224113464355f, 0.074956104159355163574f, 0.18990510702133178711f, 0.13582356274127960205f, -0.11579256504774093628f, 0.32439854741096496582f, -0.28158470988273620605f, 0.39483049511909484863f, -0.10781063139438629150f, -0.56479096412658691406f, 0.44083875417709350586f, -0.061222728341817855835f, 0.19952143728733062744f, -0.18556681275367736816f, -0.19508180022239685059f, -0.20645590126514434814f, 0.32095265388488769531f, 0.56076157093048095703f, -0.33491763472557067871f, 0.36784082651138305664f, -0.27921399474143981934f, -0.27439063787460327148f, 0.075847998261451721191f, -0.14214490354061126709f, 0.12093310803174972534f, 0.31730395555496215820f, -0.23873336613178253174f, 0.041003514081239700317f, -0.13895124197006225586f, 0.11438233405351638794f, -0.016636380925774574280f, -0.24925923347473144531f, -0.41208261251449584961f, 0.33512338995933532715f, -0.75766646862030029297f, -0.18469513952732086182f, -0.51385867595672607422f, -0.48441949486732482910f, 0.0082321129739284515381f, 0.21019671857357025146f, -0.37563541531562805176f, -0.36962586641311645508f, 0.24066871404647827148f, 0.087395489215850830078f, -0.091990478336811065674f, -0.083402946591377258301f, 0.0021351599134504795074f, 0.21185648441314697266f, -0.35971656441688537598f, 0.091690130531787872314f, -0.44302368164062500000f, -0.26543343067169189453f, 0.27361175417900085449f, 0.30064499378204345703f, -0.23801721632480621338f, 0.14046807587146759033f, -0.010841493494808673859f, 0.042134787887334823608f, -0.048655457794666290283f, -0.039800468832254409790f, 0.43212220072746276855f, 0.078347049653530120850f, 0.38434761762619018555f},
  {-0.30039760470390319824f, 0.45934796333312988281f, 0.38379076123237609863f, -0.49461063742637634277f, 0.18045453727245330811f, -0.39108741283416748047f, -0.16960225999355316162f, 0.40467596054077148438f, -0.023689473047852516174f, -0.060682415962219238281f, -0.047357730567455291748f, 0.62248790264129638672f, 0.37187391519546508789f, -0.43148630857467651367f, -0.34584030508995056152f, 0.45625075697898864746f, -0.019333094358444213867f, -0.066601254045963287354f, 0.31216320395469665527f, -0.50536841154098510742f, -0.32548311352729797363f, -0.26311680674552917480f, -0.059560842812061309814f, 0.24473607540130615234f, 0.11939963698387145996f, -0.031387157738208770752f, -0.28209909796714782715f, 0.25964170694351196289f, 0.38228252530097961426f, -0.37334993481636047363f, 0.44769820570945739746f, -0.30272334814071655273f, -0.23582817614078521729f, -0.28189632296562194824f, 0.48184472322463989258f, -0.45886233448982238770f, -0.26093277335166931152f, 0.17631433904170989990f, -0.40030413866043090820f, -0.25899940729141235352f, -0.21870069205760955811f, -0.12557995319366455078f, 0.063644357025623321533f, 0.13159200549125671387f, 0.010036066174507141113f, 0.0085929622873663902283f, 0.24199724197387695312f, -0.30213069915771484375f, -0.0041663269512355327606f, -0.036360483616590499878f, -0.082741536200046539307f, -0.23863179981708526611f, 0.22293397784233093262f, -0.38166940212249755859f, -0.15786506235599517822f, 0.14127258956432342529f, -0.13127093017101287842f, 0.33089920878410339355f, 0.23039621114730834961f, -0.18905220925807952881f, 0.27252361178398132324f, -0.38495755195617675781f, 0.018704503774642944336f, 0.35187721252441406250f, 0.46129560470581054688f, -0.31002107262611389160f, -0.29306820034980773926f, 0.16472363471984863281f, 0.24472424387931823730f, -0.35216277837753295898f, -0.10448928177356719971f, 0.38202267885208129883f, -0.34338206052780151367f, 0.38064447045326232910f, 0.33619147539138793945f, -0.53682273626327514648f, 0.31183880567550659180f, -0.53439128398895263672f, 0.22524820268154144287f, -0.29199981689453125000f, 0.39166411757469177246f, -0.31645756959915161133f, -0.30882138013839721680f, 0.24676488339900970459f, -0.25802129507064819336f, 0.44091692566871643066f, 0.20410066843032836914f, -0.73158776760101318359f, -0.088829472661018371582f, 0.18242806196212768555f, 0.12873671948909759521f, 0.053920153528451919556f, 0.28104716539382934570f, -0.22547835111618041992f, -0.59106737375259399414f, 0.12848649919033050537f, -0.20294407010078430176f, 0.41370296478271484375f, 0.10726883262395858765f, 0.29573774337768554688f, 0.074005737900733947754f, 0.30457079410552978516f, 0.40726551413536071777f, 0.017803158611059188843f, 0.15612155199050903320f, 0.017143113538622856140f, 0.52591150999069213867f, -0.38100510835647583008f, 0.18061536550521850586f, -0.27453371882438659668f, -0.13773192465305328369f, 0.34693494439125061035f, 0.15932352840900421143f, 0.11342510581016540527f, 0.40851664543151855469f, -0.18652755022048950195f, 0.21580983698368072510f, -0.28251278400421142578f, -0.26292115449905395508f, 0.37965115904808044434f, 0.13613821566104888916f, -0.33098188042640686035f, 0.34836304187774658203f, -0.50580847263336181641f, -0.26950383186340332031f, -0.23220185935497283936f, 0.30736228823661804199f, -0.35735270380973815918f}
};
static const float tensor_fc_bias[3] = 
{0.087048716843128204346f, -0.10257010161876678467f, 0.069473430514335632324f};
static const float tensor_onnx__Conv_46[8][1][3][3] = 
{
  {
    {
      {0.091239921748638153076f, 0.27173763513565063477f, -0.061148319393396377563f},
      {-0.041027568280696868896f, 0.34105765819549560547f, -0.016702666878700256348f},
      {0.060874149203300476074f, 0.28952458500862121582f, -0.20845137536525726318f}
    }
  },
  {
    {
      {-0.47611775994300842285f, -0.097434014081954956055f, 0.37233725190162658691f},
      {-0.31416276097297668457f, -0.096821084618568420410f, 0.30919033288955688477f},
      {-0.72260969877243041992f, 0.38380521535873413086f, 0.32397839426994323730f}
    }
  },
  {
    {
      {-0.16215279698371887207f, -0.37007990479469299316f, 0.016224097460508346558f},
      {0.035124734044075012207f, 0.011256005614995956421f, -0.028847128152847290039f},
      {-0.18056312203407287598f, -0.49960723519325256348f, 0.036252751946449279785f}
    }
  },
  {
    {
      {-0.20122092962265014648f, -0.58473610877990722656f, 0.14112974703311920166f},
      {0.18662741780281066895f, 0.24654012918472290039f, 0.58955222368240356445f},
      {0.0050461688078939914703f, -1.0927289724349975586f, -0.074255280196666717529f}
    }
  },
  {
    {
      {0.19091250002384185791f, 0.19736474752426147461f, -0.18822111189365386963f},
      {0.26088103652000427246f, 0.19961337745189666748f, -0.12144809216260910034f},
      {0.22022147476673126221f, 0.23261064291000366211f, -0.13981765508651733398f}
    }
  },
  {
    {
      {0.18861724436283111572f, -0.13998259603977203369f, -0.19191484153270721436f},
      {0.75522840023040771484f, -0.72298800945281982422f, -0.086833149194717407227f},
      {0.88721489906311035156f, -0.44847062230110168457f, -0.56381005048751831055f}
    }
  },
  {
    {
      {0.19683590531349182129f, 0.41362312436103820801f, -0.14935778081417083740f},
      {-0.023431519046425819397f, 0.31072911620140075684f, -0.038787640631198883057f},
      {0.038897573947906494141f, 0.044892270117998123169f, -0.069053128361701965332f}
    }
  },
  {
    {
      {0.66746193170547485352f, 0.045180317014455795288f, 0.33194604516029357910f},
      {-0.25663784146308898926f, -0.23177421092987060547f, -0.054633077234029769897f},
      {-0.38243526220321655273f, -0.33601939678192138672f, 0.13492523133754730225f}
    }
  }
};
static const float tensor_onnx__Conv_47[8] = 
{0.20129981637001037598f, 0.38010641932487487793f, -0.74983251094818115234f, -0.47848770022392272949f, 0.26640868186950683594f, -0.076591081917285919189f, 0.071469135582447052002f, -0.040225159376859664917f};
static const float tensor_onnx__Conv_49[16][8][3][3] = 
{
  {
    {
      {-0.055335164070129394531f, -0.066683910787105560303f, -0.10713227838277816772f},
      {0.061149701476097106934f, 0.27474746108055114746f, 0.16344927251338958740f},
      {-0.12756283581256866455f, -0.0078785503283143043518f, 0.017381327226758003235f}
    },
    {
      {0.049064345657825469971f, 0.010966135188937187195f, -0.0071747382171452045441f},
      {0.12967278063297271729f, -0.36546230316162109375f, -0.11643997579813003540f},
      {0.12042561173439025879f, -0.075257346034049987793f, -0.17083318531513214111f}
    },
    {
      {0.031302120536565780640f, -0.0096816215664148330688f, -0.012855768203735351562f},
      {-0.17059120535850524902f, -0.063550613820552825928f, -0.068294756114482879639f},
      {0.0013760263100266456604f, 0.055318970233201980591f, 0.020120041444897651672f}
    },
    {
      {-0.030491424724459648132f, -0.11828012019395828247f, -0.23716245591640472412f},
      {-0.049886252731084823608f, -0.13701328635215759277f, 0.023585360497236251831f},
      {0.13258123397827148438f, -0.10492441803216934204f, -0.0010824812343344092369f}
    },
    {
      {-0.089258737862110137939f, 0.0076113906688988208771f, -0.060586038976907730103f},
      {0.045633845031261444092f, 0.18113268911838531494f, -0.031395122408866882324f},
      {-0.22208534181118011475f, -0.014988397248089313507f, -0.10526494681835174561f}
    },
    {
      {0.052737150341272354126f, 0.13772507011890411377f, 0.029414584860205650330f},
      {-0.14712311327457427979f, -0.18999911844730377197f, -0.24405649304389953613f},
      {-0.030923711135983467102f, -0.059219896793365478516f, -0.0023975716903805732727f}
    },
    {
      {-0.054647352546453475952f, 0.0040604383684694766998f, -0.086741499602794647217f},
      {0.087021127343177795410f, 0.14004705846309661865f, 0.14714823663234710693f},
      {-0.052318021655082702637f, 0.047583851963281631470f, -0.025420481339097023010f}
    },
    {
      {0.011627284809947013855f, -0.13111321628093719482f, -0.38466012477874755859f},
      {-0.027520174160599708557f, -0.087981238961219787598f, -0.11305733025074005127f},
      {0.12358012795448303223f, 0.067302644252777099609f, -0.0042714676819741725922f}
    }
  },
  {
    {
      {-0.046905260533094406128f, -0.086903177201747894287f, -0.027677267789840698242f},
      {0.059380542486906051636f, -0.048320531845092773438f, -0.030601903796195983887f},
      {0.093077652156352996826f, -0.038536932319402694702f, -0.013514787890017032623f}
    },
    {
      {-0.25887069106101989746f, -0.043228600174188613892f, 0.051678951829671859741f},
      {-0.20160877704620361328f, -0.16831496357917785645f, 0.15141323208808898926f},
      {0.087159506976604461670f, -0.11712526530027389526f, 0.031538099050521850586f}
    },
    {
      {-0.083009257912635803223f, -0.0065139159560203552246f, 0.12627515196800231934f},
      {-0.14461462199687957764f, 0.038531716912984848022f, 0.25597366690635681152f},
      {-0.066168837249279022217f, 0.077734425663948059082f, 0.14380256831645965576f}
    },
    {
      {0.010047624818980693817f, -0.015901019796729087830f, 0.11200359463691711426f},
      {0.033839274197816848755f, 0.17400871217250823975f, 0.12146157771348953247f},
      {-0.034036051481962203979f, -0.0040468326769769191742f, -0.019398925825953483582f}
    },
    {
      {0.10383488982915878296f, -0.11026088148355484009f, -0.040305245667695999146f},
      {0.075129710137844085693f, -0.10039141029119491577f, -0.097644150257110595703f},
      {0.078378140926361083984f, 0.0078127803280949592590f, -0.044984869658946990967f}
    },
    {
      {0.11120519042015075684f, -0.064639031887054443359f, -0.13400296866893768311f},
      {-0.038400210440158843994f, 0.12793916463851928711f, -0.038659386336803436279f},
      {-0.00036978366551920771599f, 0.077401697635650634766f, -0.047923501580953598022f}
    },
    {
      {0.0025358062703162431717f, -0.045448686927556991577f, -0.054749328643083572388f},
      {0.037702541798353195190f, -0.036730378866195678711f, -0.10156320780515670776f},
      {0.071554116904735565186f, 0.026527307927608489990f, -0.037995897233486175537f}
    },
    {
      {-0.063804782927036285400f, 0.043196164071559906006f, 0.036032829433679580688f},
      {-0.081064298748970031738f, -0.045832458883523941040f, -0.075195848941802978516f},
      {0.048549097031354904175f, 0.10404832661151885986f, 0.046617917716503143311f}
    }
  },
  {
    {
      {0.090530075132846832275f, 0.080387264490127563477f, 0.087777517735958099365f},
      {-0.098580747842788696289f, -0.14918227493762969971f, -0.15003536641597747803f},
      {-0.20503176748752593994f, -0.18031302094459533691f, -0.069582559168338775635f}
    },
    {
      {-0.095002248883247375488f, -0.061781160533428192139f, -0.040632452815771102905f},
      {-0.054691810160875320435f, -0.14730980992317199707f, 0.027802549302577972412f},
      {0.079356394708156585693f, 0.0051732775755226612091f, 0.090439364314079284668f}
    },
    {
      {-0.089058615267276763916f, -0.093961246311664581299f, -0.052270464599132537842f},
      {-0.11287041008472442627f, -0.18431645631790161133f, -0.21469013392925262451f},
      {0.048633247613906860352f, -0.064867913722991943359f, -0.13086445629596710205f}
    },
    {
      {-0.12280803918838500977f, 0.067692033946514129639f, 0.041577819734811782837f},
      {-0.065973550081253051758f, -0.17084418237209320068f, -0.13361234962940216064f},
      {-0.031118074432015419006f, -0.010013093240559101105f, 0.030977806076407432556f}
    },
    {
      {0.10098879784345626831f, 0.084037296473979949951f, 0.023124076426029205322f},
      {-0.076000444591045379639f, -0.11708417534828186035f, -0.15600194036960601807f},
      {-0.13700117170810699463f, -0.12522244453430175781f, -0.035843506455421447754f}
    },
    {
      {0.046614736318588256836f, 0.023175595328211784363f, -0.077208869159221649170f},
      {-0.092134691774845123291f, -0.11823730915784835815f, -0.17983798682689666748f},
      {-0.0060987882316112518311f, -0.015553437173366546631f, -0.12041445821523666382f}
    },
    {
      {0.10835029184818267822f, 0.040281984955072402954f, 0.049342524260282516479f},
      {-0.024132115766406059265f, -0.099785886704921722412f, -0.074463471770286560059f},
      {-0.24262461066246032715f, -0.21846717596054077148f, -0.24063958227634429932f}
    },
    {
      {-0.045050837099552154541f, -0.058706685900688171387f, -0.071851275861263275146f},
      {0.088879399001598358154f, 0.023918537423014640808f, -0.027308428660035133362f},
      {0.053768422454595565796f, -0.17031940817832946777f, -0.10006999224424362183f}
    }
  },
  {
    {
      {0.072580322623252868652f, -0.11788514256477355957f, 0.085087463259696960449f},
      {0.14254893362522125244f, -0.013099295087158679962f, -0.20343451201915740967f},
      {0.17240141332149505615f, -0.027096865698695182800f, -0.15138676762580871582f}
    },
    {
      {-0.20873410999774932861f, -0.033677175641059875488f, 0.17883457243442535400f},
      {-0.057475894689559936523f, -0.11096942424774169922f, -0.084061972796916961670f},
      {-0.0098849823698401451111f, -0.15081535279750823975f, 0.038030069321393966675f}
    },
    {
      {-0.13005946576595306396f, -0.017314167693257331848f, 0.20392172038555145264f},
      {-0.42636927962303161621f, -0.24964013695716857910f, -0.0010743392631411552429f},
      {-0.34835693240165710449f, -0.069070786237716674805f, 0.072517387568950653076f}
    },
    {
      {-0.054290045052766799927f, -0.13622112572193145752f, -0.11256209760904312134f},
      {-0.22270679473876953125f, -0.033015456050634384155f, -0.076806306838989257812f},
      {-0.31791093945503234863f, -0.0028906459920108318329f, 0.031004643067717552185f}
    },
    {
      {0.10783948749303817749f, -0.13445667922496795654f, 0.00014524550351779907942f},
      {0.048685993999242782593f, -0.054582431912422180176f, -0.097179010510444641113f},
      {0.16391271352767944336f, 0.037021957337856292725f, -0.13035225868225097656f}
    },
    {
      {-0.020801253616809844971f, -0.00089662388199940323830f, 0.034546226263046264648f},
      {0.10824199765920639038f, -0.11764839291572570801f, 0.20704391598701477051f},
      {0.20305484533309936523f, -0.15196527540683746338f, 0.20430095493793487549f}
    },
    {
      {0.097265981137752532959f, -0.080471500754356384277f, 0.11313872039318084717f},
      {0.090906940400600433350f, -0.081002719700336456299f, -0.033968977630138397217f},
      {0.12423191964626312256f, 0.0038134576752781867981f, -0.15496607124805450439f}
    },
    {
      {-0.15824680030345916748f, 0.073444142937660217285f, 0.043718021363019943237f},
      {-0.25926157832145690918f, -0.15961630642414093018f, 0.11734898388385772705f},
      {-0.38437873125076293945f, -0.094571590423583984375f, 0.32130712270736694336f}
    }
  },
  {
    {
      {-0.093291886150836944580f, -0.027172964066267013550f, -0.0066633308306336402893f},
      {0.20952352881431579590f, -0.034400343894958496094f, -0.18345203995704650879f},
      {0.17236873507499694824f, -0.18081936240196228027f, -0.076632432639598846436f}
    },
    {
      {0.0030657863244414329529f, 0.0048763453960418701172f, 0.083467647433280944824f},
      {-0.35905405879020690918f, -0.35336327552795410156f, -0.067637324333190917969f},
      {-0.15830907225608825684f, -0.0087706409394741058350f, 0.10752097517251968384f}
    },
    {
      {-0.33414599299430847168f, -0.15829503536224365234f, 0.016529731452465057373f},
      {-0.12248815596103668213f, -0.051258783787488937378f, 0.17711356282234191895f},
      {-0.073533713817596435547f, -0.042330682277679443359f, 0.17172063887119293213f}
    },
    {
      {0.070517688989639282227f, 0.13412924110889434814f, 0.060245465487241744995f},
      {-0.10029014945030212402f, -0.22391924262046813965f, -0.034945406019687652588f},
      {-0.025977663695812225342f, -0.037226054817438125610f, -0.017209449782967567444f}
    },
    {
      {-0.10182996094226837158f, -0.062046300619840621948f, -0.053803291171789169312f},
      {0.23593062162399291992f, 0.11109446734189987183f, -0.23908890783786773682f},
      {0.16458426415920257568f, -0.16853943467140197754f, -0.10150924324989318848f}
    },
    {
      {-0.0047781285829842090607f, -0.18651643395423889160f, 0.033162437379360198975f},
      {-0.063382633030414581299f, 0.042055033147335052490f, 0.24075676500797271729f},
      {-0.063885547220706939697f, 0.037203323096036911011f, -0.0056766876950860023499f}
    },
    {
      {-0.16688023507595062256f, -0.045704346150159835815f, 0.0043508545495569705963f},
      {0.17546501755714416504f, 0.064640000462532043457f, -0.15554700791835784912f},
      {0.12774410843849182129f, -0.087443917989730834961f, -0.16682282090187072754f}
    },
    {
      {-0.14652933180332183838f, -0.10768382251262664795f, 0.023366183042526245117f},
      {-0.049093294888734817505f, -0.067667528986930847168f, 0.085273608565330505371f},
      {0.047341570258140563965f, -0.026648180559277534485f, -0.095912896096706390381f}
    }
  },
  {
    {
      {0.14971868693828582764f, 0.021254178136587142944f, 0.082970567047595977783f},
      {0.016155477613210678101f, -0.048736836761236190796f, 0.016340825706720352173f},
      {0.063412636518478393555f, -0.072202630341053009033f, -0.051277913153171539307f}
    },
    {
      {0.069592595100402832031f, -0.12261207401752471924f, 0.019346673041582107544f},
      {-0.18353702127933502197f, -0.043997146189212799072f, 0.18099495768547058105f},
      {-0.17228953540325164795f, -0.087321147322654724121f, 0.18707121908664703369f}
    },
    {
      {0.057681400328874588013f, 0.057877540588378906250f, -0.028000798076391220093f},
      {0.0072757592424750328064f, -0.0045396471396088600159f, -0.092822887003421783447f},
      {0.027463993057608604431f, 0.016174906864762306213f, -0.019897101446986198425f}
    },
    {
      {0.0038983724080026149750f, 0.045269221067428588867f, -0.12122312188148498535f},
      {-0.10617408156394958496f, 0.10200580209493637085f, -0.012924442999064922333f},
      {-0.043714877218008041382f, -0.020018348470330238342f, 0.043026100844144821167f}
    },
    {
      {0.068669505417346954346f, 0.040289048105478286743f, 0.032419797033071517944f},
      {0.0066630579531192779541f, -0.058698404580354690552f, -0.086740382015705108643f},
      {0.078490227460861206055f, 0.029111240059137344360f, -0.072218902409076690674f}
    },
    {
      {-0.10664447396993637085f, -0.11169658601284027100f, -0.15148729085922241211f},
      {-0.028916077688336372375f, 0.027957858517765998840f, -0.13328631222248077393f},
      {0.12015976756811141968f, 0.069252893328666687012f, -0.086601220071315765381f}
    },
    {
      {0.11628769338130950928f, 0.026853593066334724426f, 0.033080127090215682983f},
      {0.083160303533077239990f, 0.021478442475199699402f, 0.066387444734573364258f},
      {0.022186886519193649292f, -0.062868379056453704834f, -0.12302127480506896973f}
    },
    {
      {0.019720939919352531433f, 0.064442887902259826660f, 0.0098069217056035995483f},
      {-0.15650075674057006836f, -0.019299250096082687378f, -0.10193370282649993896f},
      {-0.12859101593494415283f, -0.038606826215982437134f, 0.10813899338245391846f}
    }
  },
  {
    {
      {-0.097139298915863037109f, -0.10413064807653427124f, 0.018667953088879585266f},
      {-0.25074693560600280762f, -0.16651205718517303467f, -0.053441047668457031250f},
      {0.031566493213176727295f, -0.11556527763605117798f, 0.11097169667482376099f}
    },
    {
      {-0.10522582381963729858f, 0.0096637038514018058777f, 0.093012407422065734863f},
      {-0.11823989450931549072f, -0.14509630203247070312f, 0.054162010550498962402f},
      {0.12011260539293289185f, -0.014814941212534904480f, -0.0028607989661395549774f}
    },
    {
      {-0.016780260950326919556f, -0.23669955134391784668f, -0.15576438605785369873f},
      {-0.045153740793466567993f, -0.12006589025259017944f, -0.22333309054374694824f},
      {-0.13241037726402282715f, -0.10881072282791137695f, -0.13646081089973449707f}
    },
    {
      {-0.13157826662063598633f, -0.22849515080451965332f, 0.13685443997383117676f},
      {-0.16380934417247772217f, -0.18366909027099609375f, 0.0052230870351195335388f},
      {-0.26609981060028076172f, 0.13472408056259155273f, 0.10266096889972686768f}
    },
    {
      {0.00014011100574862211943f, -0.058225143700838088989f, -0.064943142235279083252f},
      {-0.19749023020267486572f, -0.20179948210716247559f, -0.068699836730957031250f},
      {0.023709760978817939758f, 0.0062756449915468692780f, 0.023530481383204460144f}
    },
    {
      {0.024801153689622879028f, -0.10162393748760223389f, -0.13076551258563995361f},
      {-0.063411772251129150391f, -0.22321839630603790283f, -0.23297280073165893555f},
      {-0.0012228608829900622368f, 0.23167583346366882324f, 0.085322432219982147217f}
    },
    {
      {-0.021000962704420089722f, -0.10259272158145904541f, 0.093084722757339477539f},
      {-0.23999419808387756348f, -0.096021480858325958252f, -0.15541218221187591553f},
      {-0.11205057054758071899f, -0.16104635596275329590f, -0.0034803256858140230179f}
    },
    {
      {-0.0090385237708687782288f, 0.038845002651214599609f, -0.016995938494801521301f},
      {-0.29107904434204101562f, -0.28858491778373718262f, 0.076020203530788421631f},
      {-0.060953531414270401001f, -0.072210788726806640625f, 0.097316943109035491943f}
    }
  },
  {
    {
      {-0.041075844317674636841f, -0.052844960242509841919f, -0.048389066010713577271f},
      {0.096485160291194915771f, 0.075254261493682861328f, 0.044886022806167602539f},
      {-0.096721760928630828857f, 0.042300738394260406494f, -0.033718850463628768921f}
    },
    {
      {0.00050569023005664348602f, -0.19448006153106689453f, 0.14460019767284393311f},
      {0.21940310299396514893f, -0.089687258005142211914f, 0.13622288405895233154f},
      {0.021207619458436965942f, -0.0080303950235247612000f, 0.029869325459003448486f}
    },
    {
      {0.27289906144142150879f, 0.27875187993049621582f, 0.18683256208896636963f},
      {0.095691077411174774170f, 0.19756068289279937744f, 0.099542006850242614746f},
      {0.20203264057636260986f, 0.099408648908138275146f, 0.056509181857109069824f}
    },
    {
      {-0.091940358281135559082f, -0.084193304181098937988f, 0.0044680959545075893402f},
      {0.10873876512050628662f, -0.019991761073470115662f, 0.057679723948240280151f},
      {-0.10981618613004684448f, -0.052274901419878005981f, 0.045601133257150650024f}
    },
    {
      {-0.077946729958057403564f, 0.0069310837425291538239f, -0.031601272523403167725f},
      {-0.057683683931827545166f, 0.093854278326034545898f, 0.054935574531555175781f},
      {-0.084051668643951416016f, -0.040865644812583923340f, 0.032100375741720199585f}
    },
    {
      {-0.014093694277107715607f, 0.060630373656749725342f, 0.056446325033903121948f},
      {-0.084360919892787933350f, 0.21818251907825469971f, 0.18441928923130035400f},
      {-0.032177124172449111938f, -0.016962170600891113281f, 0.092068523168563842773f}
    },
    {
      {-0.067415513098239898682f, -0.058872554451227188110f, -0.096752546727657318115f},
      {0.0088828960433602333069f, 0.13093723356723785400f, 0.038335174322128295898f},
      {-0.080703660845756530762f, 0.030697187408804893494f, 0.012789080850780010223f}
    },
    {
      {-0.068533428013324737549f, -0.0096929306164383888245f, -0.0061514889821410179138f},
      {0.12374032288789749146f, 0.11971824616193771362f, 0.098002851009368896484f},
      {-0.048908192664384841919f, -0.087893709540367126465f, -0.095573514699935913086f}
    }
  },
  {
    {
      {-0.067897863686084747314f, 0.0062593193724751472473f, -0.051282584667205810547f},
      {-0.072647191584110260010f, -0.084839433431625366211f, -0.077983088791370391846f},
      {-0.14805456995964050293f, -0.12719024717807769775f, -0.033265952020883560181f}
    },
    {
      {0.019387269392609596252f, -0.0086312480270862579346f, -0.017375964671373367310f},
      {-0.047613680362701416016f, -0.019260128960013389587f, -0.22800816595554351807f},
      {0.010725361295044422150f, 0.11099640280008316040f, 0.089684732258319854736f}
    },
    {
      {0.022324003279209136963f, 0.056327369064092636108f, -0.030676953494548797607f},
      {0.16026082634925842285f, 0.15212398767471313477f, 0.064982376992702484131f},
      {0.025868749246001243591f, -0.018849369138479232788f, -0.10941690206527709961f}
    },
    {
      {0.088736936450004577637f, 0.072616361081600189209f, 0.067388154566287994385f},
      {-0.032265055924654006958f, 0.024367399513721466064f, -0.053709905594587326050f},
      {-0.0014901118120178580284f, 0.058982439339160919189f, -0.0088299568742513656616f}
    },
    {
      {-0.038066897541284561157f, -0.066261351108551025391f, -0.10091660171747207642f},
      {-0.029280789196491241455f, -0.089767619967460632324f, -0.056408740580081939697f},
      {-0.040750231593847274780f, -0.11448121815919876099f, -0.0064451484940946102142f}
    },
    {
      {-0.057479772716760635376f, 0.12356192618608474731f, -0.057805776596069335938f},
      {-0.039435051381587982178f, -0.013031089678406715393f, -0.068766601383686065674f},
      {0.012695127166807651520f, 0.0066081099212169647217f, -0.033414885401725769043f}
    },
    {
      {-0.044985838234424591064f, 0.018232049420475959778f, -0.017836395651102066040f},
      {-0.089879676699638366699f, -0.068806521594524383545f, -0.016735127195715904236f},
      {-0.17324027419090270996f, -0.17418198287487030029f, -0.10885494947433471680f}
    },
    {
      {0.041286692023277282715f, 0.058924075216054916382f, 0.062398791313171386719f},
      {-0.095304816961288452148f, -0.042592767626047134399f, -0.19182395935058593750f},
      {-0.17451873421669006348f, -0.075222074985504150391f, -0.21788364648818969727f}
    }
  },
  {
    {
      {-0.081045649945735931396f, -0.16223821043968200684f, -0.073338635265827178955f},
      {0.038511503487825393677f, -0.028959777206182479858f, 0.066639363765716552734f},
      {-0.11913792043924331665f, -0.084595896303653717041f, 0.097361020743846893311f}
    },
    {
      {0.041719648987054824829f, 0.0045041507109999656677f, -0.15034872293472290039f},
      {0.035610336810350418091f, -0.066091448068618774414f, 0.10918837785720825195f},
      {0.061955742537975311279f, -0.12199529260396957397f, -0.29341572523117065430f}
    },
    {
      {0.066264308989048004150f, 0.055385001003742218018f, -0.010698944330215454102f},
      {-0.011679716408252716064f, -0.033436857163906097412f, -0.077661067247390747070f},
      {-0.017257722094655036926f, 0.015012903138995170593f, -0.0077522941865026950836f}
    },
    {
      {0.15075226128101348877f, -0.027514223009347915649f, -0.010636175982654094696f},
      {0.080461971461772918701f, 0.010048047639429569244f, -0.074461884796619415283f},
      {-0.056266639381647109985f, -0.082232631742954254150f, 0.082977540791034698486f}
    },
    {
      {-0.12185345590114593506f, -0.064663037657737731934f, 0.14657649397850036621f},
      {0.14071021974086761475f, 0.15347979962825775146f, 0.26776063442230224609f},
      {0.063207164406776428223f, 0.077609747648239135742f, 0.28519940376281738281f}
    },
    {
      {0.0024391585029661655426f, 0.079109288752079010010f, 0.077917769551277160645f},
      {0.016721801832318305969f, -0.11160208284854888916f, -0.084233894944190979004f},
      {-0.060745052993297576904f, -0.12041842192411422729f, -0.085983857512474060059f}
    },
    {
      {-0.092941701412200927734f, -0.10978238284587860107f, -0.039629988372325897217f},
      {0.013405875302851200104f, -0.0056774523109197616577f, 0.0098949279636144638062f},
      {-0.037279553711414337158f, -0.048608284443616867065f, -0.016882909461855888367f}
    },
    {
      {0.018209729343652725220f, 0.14426285028457641602f, -0.0043989391997456550598f},
      {-0.085075952112674713135f, -0.010563828051090240479f, -0.10709265619516372681f},
      {0.077014438807964324951f, -0.062837779521942138672f, -0.10307363420724868774f}
    }
  },
  {
    {
      {0.020038386806845664978f, 0.00016959656204562634230f, 0.021694397553801536560f},
      {0.027810364961624145508f, -0.031186275184154510498f, 0.018267996609210968018f},
      {-0.0066091669723391532898f, 0.045302476733922958374f, 0.0083469394594430923462f}
    },
    {
      {-0.081966295838356018066f, -0.030553402379155158997f, 0.041798703372478485107f},
      {0.058462023735046386719f, -0.049330469220876693726f, 0.041649017482995986938f},
      {-0.024102151393890380859f, -0.092399194836616516113f, -0.013144853524863719940f}
    },
    {
      {-0.024184696376323699951f, 0.020569890737533569336f, -0.011475926265120506287f},
      {-0.054788079112768173218f, -0.085649676620960235596f, -0.034838352352380752563f},
      {-0.063944049179553985596f, -0.057206206023693084717f, -0.057054612785577774048f}
    },
    {
      {0.040158864110708236694f, 0.076640225946903228760f, 0.12644746899604797363f},
      {0.15420050919055938721f, 0.31163188815116882324f, 0.11435478180646896362f},
      {0.0041821268387138843536f, 0.14509373903274536133f, 0.14145487546920776367f}
    },
    {
      {-0.034436151385307312012f, -0.022725174203515052795f, -0.015819814056158065796f},
      {-0.0068603269755840301514f, 0.0092107523232698440552f, 0.060550965368747711182f},
      {-0.096994586288928985596f, -0.013888966292142868042f, -0.012158860452473163605f}
    },
    {
      {0.074448429048061370850f, -0.035286545753479003906f, -0.0055521968752145767212f},
      {0.0026986482553184032440f, -0.064116634428501129150f, -0.054724160581827163696f},
      {-0.065310880541801452637f, -0.12118889391422271729f, -0.041925389319658279419f}
    },
    {
      {0.032612517476081848145f, 0.081008039414882659912f, 0.093293257057666778564f},
      {0.015944946557283401489f, -0.018528666347265243530f, -0.038777586072683334351f},
      {0.049779411405324935913f, 0.061627674847841262817f, 0.010039288550615310669f}
    },
    {
      {-0.047237172722816467285f, 0.0030152907129377126694f, -0.012687179259955883026f},
      {-0.10176587849855422974f, 0.024675576016306877136f, 0.014432875439524650574f},
      {0.060334336012601852417f, 0.12929512560367584229f, 0.039588678628206253052f}
    }
  },
  {
    {
      {-0.031013317406177520752f, -0.046236451715230941772f, -0.064807780086994171143f},
      {0.092389732599258422852f, 0.073639325797557830811f, 0.085143394768238067627f},
      {-0.0026646724436432123184f, -0.061790596693754196167f, -0.079491987824440002441f}
    },
    {
      {0.11998405307531356812f, -0.048325985670089721680f, 0.022933995351195335388f},
      {-0.025743445381522178650f, -0.086448848247528076172f, -0.037965163588523864746f},
      {0.10941207408905029297f, -0.056434243917465209961f, 0.076926752924919128418f}
    },
    {
      {0.12930463254451751709f, 0.069342270493507385254f, -0.030941626057028770447f},
      {-0.17862007021903991699f, -0.23962332308292388916f, -0.23125362396240234375f},
      {0.059046499431133270264f, 0.035620767623186111450f, -0.025100693106651306152f}
    },
    {
      {0.052845913916826248169f, 0.0078783202916383743286f, -0.092151463031768798828f},
      {0.041279930621385574341f, 0.041255228221416473389f, -0.075680077075958251953f},
      {-0.015489392913877964020f, -0.017044572159647941589f, -0.072080641984939575195f}
    },
    {
      {-0.047041449695825576782f, 0.025172311812639236450f, -0.032707825303077697754f},
      {0.080247104167938232422f, 0.037990577518939971924f, -0.00038216495886445045471f},
      {0.0063983327709138393402f, 0.0027561893220990896225f, -0.030663585290312767029f}
    },
    {
      {-0.21685761213302612305f, -0.12163495272397994995f, -0.20460821688175201416f},
      {-0.010050271637737751007f, 0.016738556325435638428f, -0.20989097654819488525f},
      {0.086404472589492797852f, 0.21230565011501312256f, 0.069889388978481292725f}
    },
    {
      {-0.083755627274513244629f, -0.062808923423290252686f, -0.14543984830379486084f},
      {0.057912822812795639038f, 0.11597102135419845581f, 0.085249990224838256836f},
      {-0.020527739077806472778f, -0.011310985311865806580f, -0.011184965260326862335f}
    },
    {
      {-0.20512402057647705078f, -0.10625791549682617188f, -0.21088106930255889893f},
      {0.10377535969018936157f, 0.12695622444152832031f, 0.090991608798503875732f},
      {-0.015745513141155242920f, 0.031848579645156860352f, 0.050638403743505477905f}
    }
  },
  {
    {
      {0.11175715178251266479f, 0.020980145782232284546f, 0.039788104593753814697f},
      {-0.020487906411290168762f, -0.076848730444908142090f, -0.055123094469308853149f},
      {0.035847343504428863525f, -0.15455792844295501709f, 0.0090762944892048835754f}
    },
    {
      {0.064709156751632690430f, -0.13719718158245086670f, 0.035087592899799346924f},
      {-0.075281240046024322510f, -0.31868916749954223633f, 0.20408873260021209717f},
      {-0.023497916758060455322f, 0.040777295827865600586f, 0.019241053611040115356f}
    },
    {
      {-0.021416945382952690125f, 0.050979439169168472290f, -0.029186287894845008850f},
      {-0.19052179157733917236f, 0.040157876908779144287f, -0.040005657821893692017f},
      {-0.060773156583309173584f, 0.062286686152219772339f, -0.023963708430528640747f}
    },
    {
      {-0.062812604010105133057f, 0.044707037508487701416f, 0.065317526459693908691f},
      {-0.13116818666458129883f, 0.12097802013158798218f, -0.0088219391182065010071f},
      {-0.11879616975784301758f, 0.12895469367504119873f, -0.061859562993049621582f}
    },
    {
      {0.059920102357864379883f, 0.096713818609714508057f, 0.079385980963706970215f},
      {0.0038310145027935504913f, -0.0017019439255818724632f, -0.13346414268016815186f},
      {-0.0096455113962292671204f, -0.14135795831680297852f, -0.016500839963555335999f}
    },
    {
      {-0.092915236949920654297f, 0.084260612726211547852f, 0.10807580500841140747f},
      {-0.065206922590732574463f, 0.073097504675388336182f, -0.21232721209526062012f},
      {0.040767341852188110352f, 0.055530577898025512695f, -0.23204842209815979004f}
    },
    {
      {0.10227646678686141968f, 0.017080007120966911316f, -0.0011442266404628753662f},
      {0.020960206165909767151f, -0.0078871045261621475220f, -0.018112108111381530762f},
      {-0.018296750262379646301f, -0.17138899862766265869f, -0.085663951933383941650f}
    },
    {
      {-0.022791780531406402588f, 0.050599656999111175537f, 0.036950986832380294800f},
      {-0.12437220662832260132f, 0.083393171429634094238f, 0.14000134170055389404f},
      {-0.054384972900152206421f, 0.069251291453838348389f, -0.049650043249130249023f}
    }
  },
  {
    {
      {-0.093174383044242858887f, -0.10143601149320602417f, -0.10767734795808792114f},
      {-0.11111012846231460571f, -0.093961805105209350586f, -0.068569794297218322754f},
      {0.042649317532777786255f, 0.014078771695494651794f, 0.077165193855762481689f}
    },
    {
      {-0.13110367953777313232f, 0.021582067012786865234f, 0.097868494689464569092f},
      {-0.13181006908416748047f, 0.10515949875116348267f, -0.029821638017892837524f},
      {-0.058874644339084625244f, 0.088775776326656341553f, 0.097681172192096710205f}
    },
    {
      {0.0048983856104314327240f, 0.11189439147710800171f, -0.0076798223890364170074f},
      {-0.15006825327873229980f, 0.046119082719087600708f, -0.14519067108631134033f},
      {-0.14333273470401763916f, 0.0091314464807510375977f, -0.062564440071582794189f}
    },
    {
      {0.020096499472856521606f, 0.075990863144397735596f, 0.050491362810134887695f},
      {-0.024110998958349227905f, 0.014167504385113716125f, -0.18827016651630401611f},
      {0.12227572500705718994f, 0.20565871894359588623f, -0.053044397383928298950f}
    },
    {
      {-0.034716490656137466431f, -0.12054884433746337891f, -0.11629755795001983643f},
      {0.049764506518840789795f, -0.073310159146785736084f, -0.052938230335712432861f},
      {0.099198751151561737061f, -0.075827717781066894531f, 0.023655163124203681946f}
    },
    {
      {0.017985187470912933350f, -0.055998094379901885986f, -0.18243142962455749512f},
      {0.015973726287484169006f, -0.015419446863234043121f, 0.080056257545948028564f},
      {0.067084647715091705322f, -0.11192769557237625122f, -0.20936447381973266602f}
    },
    {
      {-0.036361720412969589233f, -0.066337577998638153076f, -0.13551153242588043213f},
      {-0.090279057621955871582f, -0.11637634783983230591f, -0.13702861964702606201f},
      {-0.016430497169494628906f, 0.098210327327251434326f, 0.080503493547439575195f}
    },
    {
      {-0.099660746753215789795f, -0.096461050212383270264f, -0.13263174891471862793f},
      {0.093227192759513854980f, 0.21144486963748931885f, -0.033679515123367309570f},
      {0.12865908443927764893f, 0.17336823046207427979f, -0.012980993837118148804f}
    }
  },
  {
    {
      {-0.094701550900936126709f, 0.024146614596247673035f, 0.085655294358730316162f},
      {-0.20917449891567230225f, -0.051704797893762588501f, 0.17013669013977050781f},
      {-0.11500734090805053711f, 0.062603339552879333496f, 0.12081783264875411987f}
    },
    {
      {0.047052372246980667114f, -0.036191310733556747437f, 0.056335993111133575439f},
      {0.12950095534324645996f, 0.053954862058162689209f, -0.027951970696449279785f},
      {0.093114674091339111328f, 0.019606869667768478394f, -0.13589207828044891357f}
    },
    {
      {0.080223754048347473145f, -0.012190331704914569855f, -0.12617790699005126953f},
      {-0.029165854677557945251f, -0.039248775690793991089f, -0.18088677525520324707f},
      {-0.10484933108091354370f, -0.25289842486381530762f, -0.33842211961746215820f}
    },
    {
      {0.0068007581867277622223f, -0.010847560130059719086f, -0.063919372856616973877f},
      {0.028603803366422653198f, 0.054941687732934951782f, -0.16825772821903228760f},
      {0.091978929936885833740f, 0.034827955067157745361f, 0.0035024089738726615906f}
    },
    {
      {-0.084364145994186401367f, -0.087436556816101074219f, 0.056697919964790344238f},
      {-0.29228708148002624512f, -0.086682192981243133545f, 0.16959631443023681641f},
      {-0.14349506795406341553f, 0.058797687292098999023f, 0.14502553641796112061f}
    },
    {
      {0.012076378799974918365f, 0.039565425366163253784f, -0.090690791606903076172f},
      {-0.080598898231983184814f, 0.15735328197479248047f, 0.069156646728515625000f},
      {-0.0085067870095372200012f, 0.061493489891290664673f, 0.17667475342750549316f}
    },
    {
      {-0.048113677650690078735f, -0.057518027722835540771f, 0.040682200342416763306f},
      {-0.14551793038845062256f, -0.10186960548162460327f, 0.16550059616565704346f},
      {-0.18510517477989196777f, 0.040045771747827529907f, 0.19623638689517974854f}
    },
    {
      {0.17027941346168518066f, 0.017215197905898094177f, -0.22933757305145263672f},
      {-0.0034418243449181318283f, 0.0042233299463987350464f, -0.15988962352275848389f},
      {-0.051447227597236633301f, 0.021828025579452514648f, 0.054764062166213989258f}
    }
  },
  {
    {
      {-0.12770818173885345459f, 0.089024767279624938965f, 0.057037524878978729248f},
      {-0.24562093615531921387f, -0.11433269083499908447f, 0.0095670428127050399780f},
      {-0.14962784945964813232f, 0.053338162600994110107f, 0.035298045724630355835f}
    },
    {
      {0.026765896007418632507f, 0.12541928887367248535f, -0.051683455705642700195f},
      {-0.15939870476722717285f, 0.032659616321325302124f, -0.0047134971246123313904f},
      {0.070540174841880798340f, 0.049206320196390151978f, 0.0048416582867503166199f}
    },
    {
      {0.17059470713138580322f, 0.31261625885963439941f, -0.011363922618329524994f},
      {0.11377018690109252930f, 0.19574004411697387695f, 0.0077186082489788532257f},
      {-0.099291130900382995605f, -0.039180539548397064209f, -0.16305260360240936279f}
    },
    {
      {0.0060707479715347290039f, -0.044164560735225677490f, 0.031016476452350616455f},
      {0.021075006574392318726f, 0.080985501408576965332f, 0.085643783211708068848f},
      {0.073691591620445251465f, -0.035379793494939804077f, 0.038195643573999404907f}
    },
    {
      {-0.043467584997415542603f, -0.14446897804737091064f, 0.068607978522777557373f},
      {-0.00045405246783047914505f, -0.32508489489555358887f, -0.010892065241932868958f},
      {0.054477415978908538818f, -0.10383718460798263550f, 0.086626604199409484863f}
    },
    {
      {0.035856969654560089111f, -0.29820266366004943848f, -0.33971181511878967285f},
      {0.16550907492637634277f, -0.0040916437283158302307f, -0.14375598728656768799f},
      {-0.0050234934315085411072f, -0.099650479853153228760f, 0.017536852508783340454f}
    },
    {
      {-0.15541589260101318359f, 0.040953680872917175293f, 0.091546379029750823975f},
      {-0.25532105565071105957f, -0.13166959583759307861f, -0.0020268964581191539764f},
      {-0.20417848229408264160f, 0.043395884335041046143f, 0.096886806190013885498f}
    },
    {
      {0.015802046284079551697f, 0.055397607386112213135f, 0.038516592234373092651f},
      {-0.067043744027614593506f, -0.057525388896465301514f, -0.011879681609570980072f},
      {-0.0061229267157614231110f, -0.043308310210704803467f, 0.090773604810237884521f}
    }
  }
};
static const float tensor_onnx__Conv_50[16] = 
{0.29320955276489257812f, 0.027900576591491699219f, 1.1639599800109863281f, 0.10666608810424804688f, 0.48894309997558593750f, 0.11598635464906692505f, 0.94591182470321655273f, -0.92641770839691162109f, 0.36540102958679199219f, -0.60874938964843750000f, -0.23348376154899597168f, -0.044643402099609375000f, 0.10376155376434326172f, 0.21381321549415588379f, -0.22944402694702148438f, 0.25769785046577453613f};
static const float tensor_onnx__Conv_52[32][16][3][3] = 
{
  {
    {
      {0.018682882189750671387f, -0.081179417669773101807f, 0.085400380194187164307f},
      {-0.013485522940754890442f, 0.025167556479573249817f, -0.041353106498718261719f},
      {-0.0034001651220023632050f, -0.078534379601478576660f, 0.0053517939522862434387f}
    },
    {
      {0.062610164284706115723f, 0.16019827127456665039f, 0.058085341006517410278f},
      {0.057673793286085128784f, 0.10214016586542129517f, -0.027334788814187049866f},
      {-0.075984045863151550293f, -0.13074901700019836426f, -0.16080078482627868652f}
    },
    {
      {-0.066162928938865661621f, 0.093981690704822540283f, 0.17315916717052459717f},
      {0.11066554486751556396f, 0.012584807351231575012f, -0.070941187441349029541f},
      {0.022573800757527351379f, -0.025003757327795028687f, -0.030283277854323387146f}
    },
    {
      {-0.047950245440006256104f, 0.080519437789916992188f, -0.032917518168687820435f},
      {0.045113340020179748535f, 0.067671544849872589111f, -0.11059153079986572266f},
      {0.028669103980064392090f, -0.063091650605201721191f, -0.042219880968332290649f}
    },
    {
      {0.14898619055747985840f, -0.010614748112857341766f, -0.086885184049606323242f},
      {0.0055572511628270149231f, 0.023671604692935943604f, -0.018886322155594825745f},
      {0.0021465690806508064270f, -0.097534127533435821533f, -0.047293286770582199097f}
    },
    {
      {0.034980479627847671509f, -0.054780248552560806274f, 0.027007466182112693787f},
      {0.048278022557497024536f, -0.049135234206914901733f, -0.056310173124074935913f},
      {0.055016983300447463989f, 0.13856770098209381104f, 0.041838608682155609131f}
    },
    {
      {0.0024701224174350500107f, -0.11108057945966720581f, -0.17433427274227142334f},
      {-0.035525582730770111084f, -0.18488931655883789062f, -0.059521820396184921265f},
      {0.065938048064708709717f, -0.020983679220080375671f, 0.063621170818805694580f}
    },
    {
      {0.16914102435111999512f, 0.061404045671224594116f, 0.019874993711709976196f},
      {-0.059565003961324691772f, -0.032558448612689971924f, -0.00033737678313627839088f},
      {-0.023610511794686317444f, -0.099608719348907470703f, -0.039593521505594253540f}
    },
    {
      {0.037149924784898757935f, 0.013177818618714809418f, 0.12775935232639312744f},
      {-0.011048999615013599396f, -0.070626258850097656250f, -0.0022151151206344366074f},
      {0.037500362843275070190f, 0.0075552775524556636810f, -0.045251037925481796265f}
    },
    {
      {0.067641556262969970703f, -0.16108413040637969971f, -0.089331582188606262207f},
      {0.0089372778311371803284f, -0.15346077084541320801f, -0.021495021879673004150f},
      {0.042562279850244522095f, -0.016472583636641502380f, 0.022425360977649688721f}
    },
    {
      {0.10982666164636611938f, 0.0043904092162847518921f, -0.023071682080626487732f},
      {-0.013654523529112339020f, -0.029673323035240173340f, 0.018071772530674934387f},
      {-0.087657615542411804199f, -0.066867806017398834229f, -0.10821571946144104004f}
    },
    {
      {0.18552273511886596680f, 0.12099429219961166382f, 0.063423976302146911621f},
      {0.10570845752954483032f, 0.068599961698055267334f, 0.0037479260936379432678f},
      {0.051873620599508285522f, 0.010045493021607398987f, 0.085392326116561889648f}
    },
    {
      {0.10847666859626770020f, 0.030918445438146591187f, 0.025188060477375984192f},
      {0.20445944368839263916f, -0.032488558441400527954f, -0.10069670528173446655f},
      {-0.033192317932844161987f, 0.085612155497074127197f, -0.058862078934907913208f}
    },
    {
      {0.057314861565828323364f, 0.16579185426235198975f, -0.037374887615442276001f},
      {0.041373368352651596069f, -0.035578213632106781006f, -0.072813190519809722900f},
      {-0.045550003647804260254f, -0.060530338436365127563f, -0.21326245367527008057f}
    },
    {
      {0.10731242597103118896f, -0.015191312879323959351f, -0.10321391373872756958f},
      {-0.062299661338329315186f, 0.0047708014026284217834f, -0.076453872025012969971f},
      {0.096032522618770599365f, 0.017906775698065757751f, 0.052560072392225265503f}
    },
    {
      {0.010118952021002769470f, 0.13560818135738372803f, -0.016909375786781311035f},
      {-0.11077423393726348877f, -0.038426257669925689697f, 0.075003392994403839111f},
      {-0.0097902407869696617126f, 0.031723454594612121582f, -0.094496160745620727539f}
    }
  },
  {
    {
      {0.16669550538063049316f, 0.058361224830150604248f, 0.18347318470478057861f},
      {-0.12569759786128997803f, -0.074507966637611389160f, -0.010597362183034420013f},
      {0.098674520850181579590f, 0.12244170159101486206f, -0.11157754063606262207f}
    },
    {
      {0.087644979357719421387f, 0.0020419033244252204895f, -0.11489543318748474121f},
      {0.066843710839748382568f, 0.20845571160316467285f, 0.051971841603517532349f},
      {-0.068955324590206146240f, 0.017357764765620231628f, 0.10874619334936141968f}
    },
    {
      {0.27245864272117614746f, 0.046667698770761489868f, -0.25046426057815551758f},
      {0.24058841168880462646f, -0.078636623919010162354f, -0.24549067020416259766f},
      {0.093789584934711456299f, 0.11255484074354171753f, -0.077238008379936218262f}
    },
    {
      {-0.14437428116798400879f, -0.048509411513805389404f, 0.033892810344696044922f},
      {0.014571091160178184509f, -0.074945367872714996338f, 0.022036215290427207947f},
      {0.0084865363314747810364f, -0.079896651208400726318f, 0.065060615539550781250f}
    },
    {
      {-0.048029996454715728760f, -0.16208142042160034180f, -0.029920535162091255188f},
      {-0.12155993282794952393f, 0.14106522500514984131f, -0.037616003304719924927f},
      {0.041693512350320816040f, -0.089963115751743316650f, 0.072711706161499023438f}
    },
    {
      {0.20691502094268798828f, 0.023353356868028640747f, -0.060228623449802398682f},
      {-0.048923559486865997314f, -0.021133193746209144592f, 0.10523690283298492432f},
      {-0.025271896272897720337f, -0.11081037670373916626f, 0.083369158208370208740f}
    },
    {
      {0.078770346939563751221f, -0.12562631070613861084f, -0.20619964599609375000f},
      {0.080425336956977844238f, 0.19013972580432891846f, -0.10725509375333786011f},
      {0.17000773549079895020f, 0.12456550449132919312f, -0.030571520328521728516f}
    },
    {
      {-0.0091831255704164505005f, 0.045398760586977005005f, 0.034127488732337951660f},
      {0.10733146220445632935f, 0.021574283018708229065f, 0.18120999634265899658f},
      {-0.062074564397335052490f, 0.023481339216232299805f, -0.092771179974079132080f}
    },
    {
      {0.10352472960948944092f, 0.12662674486637115479f, 0.20586073398590087891f},
      {0.12468104809522628784f, 0.064232952892780303955f, 0.11995448172092437744f},
      {-0.072209805250167846680f, -0.0035896468907594680786f, 0.10605747252702713013f}
    },
    {
      {0.057462982833385467529f, 0.10231079906225204468f, 0.17516136169433593750f},
      {-0.10871511697769165039f, -0.037465922534465789795f, 0.036142386496067047119f},
      {0.069903321564197540283f, 0.15964649617671966553f, 0.045243810862302780151f}
    },
    {
      {-0.028506396338343620300f, 0.10498365014791488647f, 0.13899798691272735596f},
      {-0.16093023121356964111f, 0.10515195131301879883f, 0.18397322297096252441f},
      {-0.13067199289798736572f, -0.082462213933467864990f, 0.061825834214687347412f}
    },
    {
      {0.17528101801872253418f, 0.053427718579769134521f, 0.13210105895996093750f},
      {0.0064453925006091594696f, -0.10738795250654220581f, 0.16093879938125610352f},
      {0.13780798017978668213f, 0.085939362645149230957f, -0.035879656672477722168f}
    },
    {
      {0.21354132890701293945f, 0.022553281858563423157f, -0.074240535497665405273f},
      {-0.048914916813373565674f, 0.10592521727085113525f, -0.0026090515311807394028f},
      {0.024887746199965476990f, 0.12117428332567214966f, 0.017125912010669708252f}
    },
    {
      {0.026107328012585639954f, -0.026369167491793632507f, 0.096813924610614776611f},
      {-0.043456200510263442993f, 0.020150547847151756287f, 0.11155731230974197388f},
      {0.11090849339962005615f, -0.012182742357254028320f, 0.12285529822111129761f}
    },
    {
      {0.090657502412796020508f, 0.095119036734104156494f, 0.097186945378780364990f},
      {-0.20316201448440551758f, -0.053580831736326217651f, 0.082691714167594909668f},
      {-0.073631383478641510010f, 0.031681988388299942017f, -0.088325157761573791504f}
    },
    {
      {0.037830237299203872681f, 0.030631138011813163757f, 0.028325954452157020569f},
      {0.012614821083843708038f, 0.15518847107887268066f, 0.26406165957450866699f},
      {-0.14063854515552520752f, -0.033014453947544097900f, -0.039728652685880661011f}
    }
  },
  {
    {
      {0.22550107538700103760f, 0.046297807246446609497f, -0.28987842798233032227f},
      {-0.044437069445848464966f, -0.090188138186931610107f, -0.17880778014659881592f},
      {-0.10192756354808807373f, -0.22518044710159301758f, -0.25855368375778198242f}
    },
    {
      {-0.049345664680004119873f, 0.10367310792207717896f, -0.068958073854446411133f},
      {0.013523637317121028900f, 0.13284814357757568359f, 0.029654009267687797546f},
      {-0.032558985054492950439f, -0.075539633631706237793f, -0.10954687744379043579f}
    },
    {
      {0.10313520580530166626f, -0.11667183041572570801f, 0.056584123522043228149f},
      {-0.0041419598273932933807f, 0.019683839753270149231f, -0.0081884022802114486694f},
      {-0.030947104096412658691f, 0.14712364971637725830f, 0.19166269898414611816f}
    },
    {
      {0.031213829293847084045f, 0.16416667401790618896f, 0.13614419102668762207f},
      {-0.23784932494163513184f, -0.023638207465410232544f, -0.19512911140918731689f},
      {-0.15555445849895477295f, 0.0061877700500190258026f, 0.063262864947319030762f}
    },
    {
      {0.030666695907711982727f, 0.19059631228446960449f, 0.099278800189495086670f},
      {0.015866300091147422791f, 0.033372230827808380127f, -0.20222721993923187256f},
      {-0.14241066575050354004f, 0.0016037614550441503525f, 0.013831869699060916901f}
    },
    {
      {0.059797722846269607544f, 0.096645273268222808838f, 0.14955715835094451904f},
      {-0.021507268771529197693f, 0.018149862065911293030f, -0.030782956629991531372f},
      {-0.25449329614639282227f, -0.086049556732177734375f, 0.027039866894483566284f}
    },
    {
      {-0.087871327996253967285f, -0.12378633022308349609f, 0.0031542074866592884064f},
      {0.12996591627597808838f, 0.097676128149032592773f, -0.017836077138781547546f},
      {-0.013856632634997367859f, 0.064822636544704437256f, 0.27023714780807495117f}
    },
    {
      {-0.018329693004488945007f, 0.047681145370006561279f, -0.092051640152931213379f},
      {0.11781609803438186646f, 0.14472804963588714600f, 0.013857473619282245636f},
      {-0.00076366832945495843887f, 0.046179141849279403687f, -0.13994403183460235596f}
    },
    {
      {-0.064754873514175415039f, -0.064274117350578308105f, 0.11960288882255554199f},
      {0.16824628412723541260f, 0.0035426313988864421844f, 0.037724431604146957397f},
      {0.24631464481353759766f, 0.15233144164085388184f, 0.0084081934764981269836f}
    },
    {
      {0.14126200973987579346f, -0.065325550734996795654f, -0.20579183101654052734f},
      {-5.2374613005667924881e-05f, -0.11602970957756042480f, -0.18501815199851989746f},
      {-0.030713938176631927490f, -0.053693354129791259766f, -0.12303093820810317993f}
    },
    {
      {0.064035028219223022461f, -0.066953584551811218262f, -0.085017554461956024170f},
      {0.018179038539528846741f, 0.011633485555648803711f, 0.11280076205730438232f},
      {0.0089402124285697937012f, 0.023281035944819450378f, -0.12371509522199630737f}
    },
    {
      {0.032910328358411788940f, -0.038882523775100708008f, -0.17088730633258819580f},
      {-0.033033873885869979858f, -0.071605265140533447266f, -0.0077181956730782985687f},
      {-0.021181872114539146423f, -0.11509606987237930298f, -0.0087003922089934349060f}
    },
    {
      {0.057589519768953323364f, 0.0056608160957694053650f, 0.18806648254394531250f},
      {-0.039081066846847534180f, 0.10565859824419021606f, -0.11853770911693572998f},
      {-0.25009086728096008301f, 0.047561243176460266113f, -0.095595359802246093750f}
    },
    {
      {-0.10604942589998245239f, -0.12882964313030242920f, 0.085475593805313110352f},
      {-0.046543776988983154297f, 0.016513179987668991089f, 0.12520031630992889404f},
      {0.0020178460981696844101f, -0.040288966149091720581f, 0.017619196325540542603f}
    },
    {
      {0.016716213896870613098f, -0.071615025401115417480f, 0.044622495770454406738f},
      {0.017877856269478797913f, -0.15497736632823944092f, -0.057911861687898635864f},
      {0.024077452719211578369f, -0.064035989344120025635f, 0.053609143942594528198f}
    },
    {
      {0.0015028013149276375771f, 0.040224753320217132568f, 0.10595478117465972900f},
      {0.044573646038770675659f, -0.090505629777908325195f, 0.093584686517715454102f},
      {0.19039283692836761475f, 0.078984811902046203613f, 0.032182995229959487915f}
    }
  },
  {
    {
      {-0.098547704517841339111f, -0.34426492452621459961f, -0.21751129627227783203f},
      {-0.027360768988728523254f, -0.057620964944362640381f, 0.023400627076625823975f},
      {0.020366756245493888855f, 0.053434263914823532104f, 0.18349821865558624268f}
    },
    {
      {0.27805620431900024414f, 0.031184142455458641052f, -0.13002155721187591553f},
      {-0.014982597902417182922f, 0.071985051035881042480f, 0.025123415514826774597f},
      {0.052747178822755813599f, 0.047479771077632904053f, -0.056720193475484848022f}
    },
    {
      {-0.12366875261068344116f, -0.038000680506229400635f, 0.089465819299221038818f},
      {-0.12158246338367462158f, -0.17867864668369293213f, 0.026784533634781837463f},
      {-0.056300748139619827271f, 0.020051874220371246338f, -0.15408234298229217529f}
    },
    {
      {0.15446083247661590576f, -0.045316003262996673584f, -0.082162432372570037842f},
      {0.19757519662380218506f, -0.014115436002612113953f, 0.093069538474082946777f},
      {0.11838470399379730225f, -0.0045350836589932441711f, -0.096943095326423645020f}
    },
    {
      {0.058060850948095321655f, -0.048263303935527801514f, -0.098062813282012939453f},
      {0.089771188795566558838f, 0.044247448444366455078f, 0.10175934433937072754f},
      {-0.040068056434392929077f, 0.0080442130565643310547f, 0.082631960511207580566f}
    },
    {
      {0.063896417617797851562f, -0.016942717134952545166f, -0.17887239158153533936f},
      {-0.013888779096305370331f, -0.092672795057296752930f, -0.0094430800527334213257f},
      {0.088600985705852508545f, 0.13129031658172607422f, -0.013702912256121635437f}
    },
    {
      {0.081778928637504577637f, 0.020054569467902183533f, 0.093560062348842620850f},
      {-0.015105179511010646820f, 0.011521611362695693970f, -0.050547663122415542603f},
      {-0.26051366329193115234f, -0.17399109899997711182f, -0.13726477324962615967f}
    },
    {
      {0.086508691310882568359f, -0.051192849874496459961f, -0.055577922612428665161f},
      {-0.030091073364019393921f, -0.090048357844352722168f, 0.039834894239902496338f},
      {-0.030577188357710838318f, -0.031156912446022033691f, 0.074612937867641448975f}
    },
    {
      {0.10847066342830657959f, 0.19686031341552734375f, 0.039093375205993652344f},
      {-0.14664985239505767822f, -0.060687266290187835693f, 0.046603135764598846436f},
      {-0.23298569023609161377f, -0.098582893610000610352f, -0.082654654979705810547f}
    },
    {
      {-0.10016126185655593872f, -0.13215588033199310303f, -0.11242572963237762451f},
      {0.035907831043004989624f, 0.00036360646481625735760f, 0.076622880995273590088f},
      {-0.018828062340617179871f, 0.059448279440402984619f, 0.067362315952777862549f}
    },
    {
      {-0.0055243689566850662231f, -0.0080057298764586448669f, 0.058296214789152145386f},
      {0.089200623333454132080f, -0.063749425113201141357f, 0.048596866428852081299f},
      {0.034809209406375885010f, -0.014205233193933963776f, -0.090810611844062805176f}
    },
    {
      {-0.033306397497653961182f, -0.31172186136245727539f, -0.14652717113494873047f},
      {0.015276496298611164093f, 0.075223587453365325928f, 0.065932929515838623047f},
      {0.023722197860479354858f, 0.021633580327033996582f, 0.11944951862096786499f}
    },
    {
      {0.012767906300723552704f, 0.020989259704947471619f, -0.077586270868778228760f},
      {0.0017849683063104748726f, -0.17523391544818878174f, -0.022875119000673294067f},
      {0.088002681732177734375f, 0.073565736413002014160f, -0.10099878907203674316f}
    },
    {
      {0.072268038988113403320f, -0.096643365919589996338f, -0.036370694637298583984f},
      {0.064273640513420104980f, 0.0031161149963736534119f, 0.010003756731748580933f},
      {0.043005488812923431396f, 0.061756730079650878906f, 0.020734069868922233582f}
    },
    {
      {-0.056055743247270584106f, -0.14079889655113220215f, -0.0047919247299432754517f},
      {0.043998956680297851562f, -0.071104690432548522949f, 0.027026688680052757263f},
      {0.024891026318073272705f, 0.039739206433296203613f, 0.021342728286981582642f}
    },
    {
      {0.12689794600009918213f, 0.19700804352760314941f, 0.16626860201358795166f},
      {-0.091209620237350463867f, -0.088590450584888458252f, -0.039926793426275253296f},
      {-0.15968933701515197754f, -0.055799409747123718262f, 0.046245578676462173462f}
    }
  },
  {
    {
      {-0.15059442818164825439f, -0.040362365543842315674f, 0.14278593659400939941f},
      {-0.040293782949447631836f, 0.0077760498970746994019f, 0.010965291410684585571f},
      {-0.040483929216861724854f, 0.029207456856966018677f, -0.088567793369293212891f}
    },
    {
      {-0.16770417988300323486f, -0.21127702295780181885f, 0.22967435419559478760f},
      {-0.15293812751770019531f, -0.089741572737693786621f, 0.032348357141017913818f},
      {-0.049717236310243606567f, -0.10007230192422866821f, 0.028882190585136413574f}
    },
    {
      {-0.087271481752395629883f, 0.037219330668449401855f, -0.13706342875957489014f},
      {-0.095439858734607696533f, -0.069384381175041198730f, 0.13094179332256317139f},
      {0.21877351403236389160f, 0.17913371324539184570f, 0.28294119238853454590f}
    },
    {
      {0.051573403179645538330f, -0.17879328131675720215f, 0.19725511968135833740f},
      {-0.092314608395099639893f, -0.047197930514812469482f, 0.061736665666103363037f},
      {-0.14727336168289184570f, 0.0031997130718082189560f, 0.0028328048065304756165f}
    },
    {
      {-0.036593832075595855713f, 0.10540554672479629517f, 0.21679373085498809814f},
      {-0.056537263095378875732f, 0.081375956535339355469f, -0.12402733415365219116f},
      {-0.019702849909663200378f, 0.063704825937747955322f, 0.0096766958013176918030f}
    },
    {
      {0.076869755983352661133f, 0.30795559287071228027f, 0.12383515387773513794f},
      {-0.21937806904315948486f, -0.087259218096733093262f, -0.010715223848819732666f},
      {0.11088121682405471802f, -0.15908625721931457520f, -0.10790926963090896606f}
    },
    {
      {0.021950272843241691589f, -0.054455224424600601196f, 0.042571198195219039917f},
      {-0.089218981564044952393f, 0.13142566382884979248f, -0.10417151451110839844f},
      {0.086839154362678527832f, 0.12798583507537841797f, 0.051955822855234146118f}
    },
    {
      {-0.18854640424251556396f, -0.12106097489595413208f, 0.17157031595706939697f},
      {0.10035198926925659180f, -0.015833688899874687195f, 0.041436549276113510132f},
      {-0.058183472603559494019f, 0.022196553647518157959f, -0.12213424593210220337f}
    },
    {
      {-0.010447681881487369537f, -0.23236101865768432617f, -0.090844452381134033203f},
      {0.0030540097504854202271f, -0.085960812866687774658f, 0.069228015840053558350f},
      {0.15948170423507690430f, -0.078170947730541229248f, 0.052989758551120758057f}
    },
    {
      {-0.17473794519901275635f, 0.0059557436034083366394f, -0.046729028224945068359f},
      {-0.022067258134484291077f, 0.20218157768249511719f, 0.045475203543901443481f},
      {0.057967148721218109131f, -0.026343146339058876038f, -0.060082077980041503906f}
    },
    {
      {-0.074314177036285400391f, 0.012189196422696113586f, 0.083844713866710662842f},
      {0.030404161661863327026f, -0.039505232125520706177f, -0.10918796062469482422f},
      {0.013900211080908775330f, -0.043778084218502044678f, -0.031324245035648345947f}
    },
    {
      {-0.056433800607919692993f, 0.11978545039892196655f, 0.055918298661708831787f},
      {0.11809102445840835571f, -0.079204335808753967285f, 0.047181796282529830933f},
      {-0.065187186002731323242f, 0.032153196632862091064f, -0.033164881169795989990f}
    },
    {
      {0.053726959973573684692f, 0.076919145882129669189f, 0.11825982481241226196f},
      {0.13558672368526458740f, -0.14408597350120544434f, -0.018863826990127563477f},
      {0.19149595499038696289f, -0.13174450397491455078f, 0.14326345920562744141f}
    },
    {
      {-0.0054465369321405887604f, 0.084808543324470520020f, -0.32307609915733337402f},
      {-0.087554670870304107666f, 0.25188720226287841797f, -0.11153774708509445190f},
      {0.022651828825473785400f, -0.012687124311923980713f, 0.18784390389919281006f}
    },
    {
      {-0.031953305006027221680f, 0.21392624080181121826f, 0.17412179708480834961f},
      {-0.21411478519439697266f, 0.10443565249443054199f, -0.021027559414505958557f},
      {-0.072932511568069458008f, -0.19733193516731262207f, -0.21118406951427459717f}
    },
    {
      {0.17260795831680297852f, 0.21690057218074798584f, -0.25934362411499023438f},
      {-0.094909071922302246094f, -0.29125878214836120605f, 0.0039730118587613105774f},
      {0.058249119669198989868f, 0.11473922431468963623f, 0.15776477754116058350f}
    }
  },
  {
    {
      {0.018687486648559570312f, 0.089352056384086608887f, -0.15049089491367340088f},
      {0.15220212936401367188f, 0.0082678766921162605286f, -0.099321737885475158691f},
      {-0.042220026254653930664f, -0.090367004275321960449f, -0.14954543113708496094f}
    },
    {
      {-0.060800604522228240967f, 0.0073121311143040657043f, -0.063683114945888519287f},
      {-0.074991002678871154785f, 0.0017424068646505475044f, 0.032830536365509033203f},
      {-0.029620308429002761841f, -0.12920142710208892822f, -0.24471405148506164551f}
    },
    {
      {0.0086556551977992057800f, -0.068268664181232452393f, 0.073887482285499572754f},
      {-0.21111503243446350098f, 0.31487056612968444824f, 0.19285155832767486572f},
      {-0.10605579614639282227f, 0.27657431364059448242f, 0.13621118664741516113f}
    },
    {
      {-0.0070609552785754203796f, -0.0067574596032500267029f, -0.010101069696247577667f},
      {-0.055408634245395660400f, 0.062124766409397125244f, 0.070918284356594085693f},
      {0.059313338249921798706f, 0.025799693539738655090f, -0.11751817911863327026f}
    },
    {
      {-0.025643730536103248596f, 0.12040594220161437988f, -0.049828756600618362427f},
      {0.17927075922489166260f, 0.087337054312229156494f, 0.043219722807407379150f},
      {-0.024706002324819564819f, 0.037569236010313034058f, -0.16358596086502075195f}
    },
    {
      {-0.013716605491936206818f, -0.011972683481872081757f, 0.015940396115183830261f},
      {-0.14384070038795471191f, 0.082576788961887359619f, 0.063133098185062408447f},
      {0.25427666306495666504f, -0.016214806586503982544f, -0.12309694290161132812f}
    },
    {
      {0.10692622512578964233f, 0.20646974444389343262f, 0.050010595470666885376f},
      {-0.17080467939376831055f, 0.10853392630815505981f, 0.37206405401229858398f},
      {-0.041519030928611755371f, 0.072960361838340759277f, 0.21283705532550811768f}
    },
    {
      {-0.14369319379329681396f, 0.039443250745534896851f, -0.061408884823322296143f},
      {-0.0082875844091176986694f, 0.16887684166431427002f, -0.17577484250068664551f},
      {-0.016128854826092720032f, -0.15684536099433898926f, -0.097773738205432891846f}
    },
    {
      {-0.013506915420293807983f, -0.11539028584957122803f, 0.25179770588874816895f},
      {-0.16309419274330139160f, -0.050018783658742904663f, 0.068810753524303436279f},
      {-0.013546301051974296570f, 0.0024029037449508905411f, 0.12586398422718048096f}
    },
    {
      {-0.049903646111488342285f, 0.067267268896102905273f, -0.23216816782951354980f},
      {0.23076136410236358643f, -0.052167590707540512085f, -0.17976498603820800781f},
      {0.012974232435226440430f, -0.16602474451065063477f, -0.030267842113971710205f}
    },
    {
      {0.085071854293346405029f, -0.10065623372793197632f, -0.095679678022861480713f},
      {0.28881284594535827637f, -0.13616317510604858398f, -0.16646108031272888184f},
      {-0.071738310158252716064f, -0.23880764842033386230f, -0.24405528604984283447f}
    },
    {
      {0.032935153692960739136f, 0.17236955463886260986f, 0.048862792551517486572f},
      {0.16060896217823028564f, -0.11378624290227890015f, -0.056689899414777755737f},
      {0.092026568949222564697f, -0.014246088452637195587f, -0.10047749429941177368f}
    },
    {
      {0.0039284727536141872406f, 0.032182689756155014038f, -0.089620277285575866699f},
      {-0.18386559188365936279f, 0.042208950966596603394f, -0.10895290225744247437f},
      {0.049846507608890533447f, 0.18664352595806121826f, -0.14571978151798248291f}
    },
    {
      {-0.0013655003858730196953f, -0.049365751445293426514f, -0.027853976935148239136f},
      {0.11794094741344451904f, -0.038375679403543472290f, 0.14551484584808349609f},
      {0.11741705983877182007f, 0.030126089230179786682f, -0.27060025930404663086f}
    },
    {
      {-0.043672621250152587891f, 0.10019832104444503784f, -0.13497385382652282715f},
      {0.064644619822502136230f, -0.021430678665637969971f, -0.20915386080741882324f},
      {-0.056605596095323562622f, -0.051159743219614028931f, -0.17830820381641387939f}
    },
    {
      {-0.011637693271040916443f, -0.11883636564016342163f, 0.076652422547340393066f},
      {-0.020240137353539466858f, -0.096166916191577911377f, -0.066953025758266448975f},
      {-0.022537896409630775452f, 0.031957484781742095947f, -0.11765369772911071777f}
    }
  },
  {
    {
      {0.11826809495687484741f, -0.080520406365394592285f, -0.17115730047225952148f},
      {0.16069397330284118652f, 0.083432838320732116699f, 0.012139388360083103180f},
      {0.053527224808931350708f, 0.19224458932876586914f, 0.069145180284976959229f}
    },
    {
      {-3.8935377233428880572e-05f, 0.10605498403310775757f, 0.074658498167991638184f},
      {-0.15122060477733612061f, -0.19301584362983703613f, 0.10531341284513473511f},
      {0.056679844856262207031f, -0.20239223539829254150f, -0.083500534296035766602f}
    },
    {
      {-0.068781666457653045654f, -0.23433367908000946045f, -0.21196155250072479248f},
      {0.17173084616661071777f, 0.072233729064464569092f, -0.015066380612552165985f},
      {0.17657488584518432617f, 0.12481090426445007324f, 0.091659337282180786133f}
    },
    {
      {-0.083779208362102508545f, -0.024958072230219841003f, 0.082113042473793029785f},
      {-0.21017806231975555420f, -0.15262296795845031738f, 0.040986936539411544800f},
      {-0.067742004990577697754f, -0.12485861033201217651f, -0.11603032797574996948f}
    },
    {
      {0.050157621502876281738f, 0.097237356007099151611f, 0.26837655901908874512f},
      {-0.088306985795497894287f, -0.18688781559467315674f, -0.070262156426906585693f},
      {0.020617187023162841797f, -0.19208347797393798828f, -0.068730361759662628174f}
    },
    {
      {0.073544532060623168945f, -0.035232331603765487671f, -0.064304716885089874268f},
      {0.046173390001058578491f, -0.12510375678539276123f, -0.11721463501453399658f},
      {0.11400308459997177124f, 0.022418206557631492615f, -0.0010718946577981114388f}
    },
    {
      {-0.029199544340372085571f, 0.012618195265531539917f, 0.20732077956199645996f},
      {0.032848894596099853516f, 0.22123181819915771484f, 0.27488481998443603516f},
      {0.17934975028038024902f, 0.22447840869426727295f, 0.21141788363456726074f}
    },
    {
      {-0.0034031050745397806168f, 0.16691109538078308105f, 0.16652609407901763916f},
      {-0.17194280028343200684f, -0.038689605891704559326f, 0.15889006853103637695f},
      {0.051904626190662384033f, -0.047949507832527160645f, 0.084670126438140869141f}
    },
    {
      {-0.11862494796514511108f, -0.028461512178182601929f, 0.043173067271709442139f},
      {0.12373098731040954590f, -0.027005871757864952087f, -0.16534547507762908936f},
      {0.21465972065925598145f, 0.13064531981945037842f, 0.053508065640926361084f}
    },
    {
      {0.10350308567285537720f, -0.022593697533011436462f, -0.14932197332382202148f},
      {0.087321557104587554932f, 0.16184407472610473633f, 0.072832636535167694092f},
      {0.00062254932709038257599f, 0.19081340730190277100f, -0.055769644677639007568f}
    },
    {
      {-0.013770489022135734558f, -0.0097166858613491058350f, -0.067725710570812225342f},
      {-0.070769608020782470703f, 0.20029212534427642822f, -0.11501853913068771362f},
      {0.060099519789218902588f, 0.14832563698291778564f, -0.0043891007080674171448f}
    },
    {
      {-0.052838105708360671997f, 0.048652745783329010010f, -0.21054759621620178223f},
      {0.057298306375741958618f, 0.0069246278144419193268f, -0.16735337674617767334f},
      {0.055059902369976043701f, 0.16278304159641265869f, 0.011334605515003204346f}
    },
    {
      {0.34256714582443237305f, -0.017138686031103134155f, 0.00080216076457872986794f},
      {-0.0062162298709154129028f, -0.030779773369431495667f, 0.061831939965486526489f},
      {0.050387430936098098755f, -0.056415986269712448120f, -0.045047417283058166504f}
    },
    {
      {-0.12657825648784637451f, 0.14820197224617004395f, 0.070673741400241851807f},
      {-0.093635320663452148438f, -0.010592221282422542572f, -0.024168390780687332153f},
      {0.0057308762334287166595f, -0.081639721989631652832f, -0.097930289804935455322f}
    },
    {
      {0.14726714789867401123f, -0.033191211521625518799f, 0.030956143513321876526f},
      {0.057139661163091659546f, 0.046512492001056671143f, 0.044487673789262771606f},
      {-0.021141519770026206970f, -0.045168332755565643311f, -0.025508413091301918030f}
    },
    {
      {0.066735841333866119385f, -0.081774234771728515625f, 0.10273632407188415527f},
      {-0.047010142356157302856f, -0.10598143190145492554f, -0.23169690370559692383f},
      {0.11606393009424209595f, 0.071166098117828369141f, 0.069373503327369689941f}
    }
  },
  {
    {
      {-0.11629121005535125732f, -0.060318354517221450806f, 0.039242543280124664307f},
      {-0.021264689043164253235f, -0.0013297747354954481125f, 0.075522266328334808350f},
      {0.25047478079795837402f, 0.18563860654830932617f, 0.054028268903493881226f}
    },
    {
      {0.10520421713590621948f, 0.045078508555889129639f, -0.080721355974674224854f},
      {-0.094580888748168945312f, -0.075600720942020416260f, 0.020487541332840919495f},
      {-0.079992949962615966797f, -0.36482536792755126953f, -0.064890138804912567139f}
    },
    {
      {0.014351607300341129303f, 0.26302856206893920898f, 0.018093258142471313477f},
      {-0.021895971149206161499f, 0.036525245755910873413f, -0.14001449942588806152f},
      {-0.22399969398975372314f, 0.018566563725471496582f, -0.23929342627525329590f}
    },
    {
      {0.12872381508350372314f, -0.0063046999275684356689f, -0.042673204094171524048f},
      {-0.12676320970058441162f, -0.13616481423377990723f, 0.027850134298205375671f},
      {-0.074663721024990081787f, -0.28942808508872985840f, -0.041778828948736190796f}
    },
    {
      {0.078673802316188812256f, -0.043260436505079269409f, 0.087692216038703918457f},
      {-0.13694527745246887207f, -0.24110269546508789062f, 0.13421091437339782715f},
      {-0.12377824634313583374f, -0.37592115998268127441f, -0.23011645674705505371f}
    },
    {
      {0.045987904071807861328f, -0.0065894252620637416840f, -0.083016820251941680908f},
      {0.066172413527965545654f, 0.067734457552433013916f, -0.11804132908582687378f},
      {0.061113990843296051025f, -0.089401014149188995361f, 0.11287260800600051880f}
    },
    {
      {0.038864340633153915405f, 0.18407356739044189453f, 0.12889552116394042969f},
      {0.036854822188615798950f, 0.21031570434570312500f, -0.077233783900737762451f},
      {-0.17633108794689178467f, -0.10442303866147994995f, -0.16168406605720520020f}
    },
    {
      {0.059895582497119903564f, 0.12855534255504608154f, 0.064959540963172912598f},
      {-0.14365012943744659424f, -0.044142626225948333740f, 0.083452515304088592529f},
      {-0.23577976226806640625f, -0.058685705065727233887f, -0.045416776090860366821f}
    },
    {
      {0.10106945782899856567f, 0.023935532197356224060f, -0.17896230518817901611f},
      {0.19070003926753997803f, 0.042311251163482666016f, -0.098869264125823974609f},
      {-0.060565058141946792603f, -0.10753024369478225708f, -0.082914762198925018311f}
    },
    {
      {-0.066440097987651824951f, -0.056766640394926071167f, 0.016250720247626304626f},
      {0.023141335695981979370f, 0.010670603252947330475f, -0.054867405444383621216f},
      {0.17926561832427978516f, 0.19923807680606842041f, 0.13043206930160522461f}
    },
    {
      {0.057629775255918502808f, 0.040627751499414443970f, 0.096481472253799438477f},
      {-0.12269063293933868408f, -0.10605343431234359741f, 0.00090645445743575692177f},
      {0.11171919852495193481f, -0.0097220195457339286804f, -0.069256104528903961182f}
    },
    {
      {-0.037070814520120620728f, 0.0082546416670083999634f, -0.072845309972763061523f},
      {0.070416949689388275146f, 0.012778168544173240662f, -0.050975266844034194946f},
      {0.18138359487056732178f, 0.065596543252468109131f, 0.093853630125522613525f}
    },
    {
      {0.12129184603691101074f, 0.065125450491905212402f, -0.054184220731258392334f},
      {-0.050147257745265960693f, 0.074745699763298034668f, -0.053380586206912994385f},
      {-0.20051929354667663574f, -0.078771062195301055908f, -0.024333596229553222656f}
    },
    {
      {-0.036638852208852767944f, 0.10682673007249832153f, 0.041408434510231018066f},
      {0.039952833205461502075f, 0.021282328292727470398f, -0.19267900288105010986f},
      {0.056496422737836837769f, -0.066776305437088012695f, -0.099668130278587341309f}
    },
    {
      {0.12037502974271774292f, -0.026868835091590881348f, 0.098209254443645477295f},
      {0.0022445386275649070740f, -0.18804557621479034424f, -0.16272939741611480713f},
      {0.058829460293054580688f, -0.15284644067287445068f, -0.076652720570564270020f}
    },
    {
      {-0.025203846395015716553f, 0.10165973007678985596f, 0.052073247730731964111f},
      {0.13292804360389709473f, -0.068592712283134460449f, -0.10602772980928421021f},
      {0.22420795261859893799f, -0.21797457337379455566f, -0.17077679932117462158f}
    }
  },
  {
    {
      {0.051104385405778884888f, -0.14197164773941040039f, -0.21503549814224243164f},
      {-0.096909068524837493896f, 0.13431994616985321045f, -0.059063743799924850464f},
      {0.089414834976196289062f, 0.11772520840167999268f, -0.020109204575419425964f}
    },
    {
      {0.13134610652923583984f, 0.23988498747348785400f, -0.17256236076354980469f},
      {-0.16979655623435974121f, -0.17162966728210449219f, -0.052562091499567031860f},
      {-0.0010273841908201575279f, -0.25046157836914062500f, 0.0060153095982968807220f}
    },
    {
      {-0.075710862874984741211f, -0.072645321488380432129f, -0.081559285521507263184f},
      {-0.35886847972869873047f, -0.16757805645465850830f, -0.053301155567169189453f},
      {-0.15836247801780700684f, -0.015296525321900844574f, -0.094909682869911193848f}
    },
    {
      {-0.056219995021820068359f, 0.058246664702892303467f, -0.13729934394359588623f},
      {0.12452550232410430908f, -0.044459473341703414917f, 0.041680283844470977783f},
      {-0.051371537148952484131f, -0.075702175498008728027f, 0.18718267977237701416f}
    },
    {
      {-0.051725130528211593628f, 0.099763214588165283203f, -0.061893817037343978882f},
      {-0.019495356827974319458f, -0.060675926506519317627f, 0.086972884833812713623f},
      {0.00023750599939376115799f, -0.060461927205324172974f, 0.064398385584354400635f}
    },
    {
      {-0.036100603640079498291f, -0.085738003253936767578f, -0.30386507511138916016f},
      {0.053864218294620513916f, -0.11760613322257995605f, 0.11681298911571502686f},
      {0.073819041252136230469f, -0.037118047475814819336f, 0.093329869210720062256f}
    },
    {
      {0.035054758191108703613f, 0.0094840778037905693054f, -0.038154311478137969971f},
      {-0.23903542757034301758f, -0.16874843835830688477f, 0.017813138663768768311f},
      {-0.28947076201438903809f, 0.094764836132526397705f, 0.17768040299415588379f}
    },
    {
      {0.067938804626464843750f, -0.040234901010990142822f, 0.059360250830650329590f},
      {-0.075379110872745513916f, 0.0022567748092114925385f, -0.12709346413612365723f},
      {-0.17026361823081970215f, -0.079403027892112731934f, -0.056378107517957687378f}
    },
    {
      {0.027092793956398963928f, -0.048944599926471710205f, 0.13113395869731903076f},
      {-0.26948437094688415527f, -0.13060250878334045410f, -0.080812938511371612549f},
      {-0.24357210099697113037f, -0.30064901709556579590f, -0.19594791531562805176f}
    },
    {
      {0.016889715567231178284f, -0.035751096904277801514f, 0.022093830630183219910f},
      {-0.032333079725503921509f, -0.051621098071336746216f, -0.013564039021730422974f},
      {-0.073279745876789093018f, 0.026518605649471282959f, -0.14794658124446868896f}
    },
    {
      {0.037838488817214965820f, -0.023906785994768142700f, -0.082367315888404846191f},
      {-0.068186119198799133301f, -0.055980440229177474976f, -0.0080128954723477363586f},
      {-0.073042251169681549072f, -0.076588109135627746582f, -0.0022225182037800550461f}
    },
    {
      {0.046947725117206573486f, 0.055929474532604217529f, 0.028760289773344993591f},
      {0.11543212085962295532f, 0.046485077589750289917f, -0.10506251454353332520f},
      {0.0044731502421200275421f, 0.0088773109018802642822f, -0.10213790088891983032f}
    },
    {
      {0.043996755033731460571f, -0.052166838198900222778f, -0.10152050107717514038f},
      {-0.047545142471790313721f, -0.026142496615648269653f, -0.016073891893029212952f},
      {-0.015761503949761390686f, -0.14499138295650482178f, 0.093790128827095031738f}
    },
    {
      {-0.050817038863897323608f, 0.0089624356478452682495f, 0.10345857590436935425f},
      {-0.12528719007968902588f, -0.28108802437782287598f, -0.098024576902389526367f},
      {0.032429561018943786621f, -0.21906423568725585938f, 0.033052988350391387939f}
    },
    {
      {-0.062833897769451141357f, -0.050994839519262313843f, 0.074147537350654602051f},
      {0.11469353735446929932f, 0.015243244357407093048f, 0.14255638420581817627f},
      {-0.080662474036216735840f, -0.017621085047721862793f, -0.034145414829254150391f}
    },
    {
      {-0.17807406187057495117f, -0.011497018858790397644f, 0.19329398870468139648f},
      {-0.15384024381637573242f, -0.27928867936134338379f, 0.051945265382528305054f},
      {-0.25929653644561767578f, -0.29796662926673889160f, 0.23904483020305633545f}
    }
  },
  {
    {
      {0.20918127894401550293f, -0.15695132315158843994f, 0.024801233783364295959f},
      {-0.18046331405639648438f, 0.16257265210151672363f, -0.020407108590006828308f},
      {-0.18598616123199462891f, 0.12019964307546615601f, -0.063766926527023315430f}
    },
    {
      {-0.023852646350860595703f, -0.028423339128494262695f, 0.23369395732879638672f},
      {-0.12231347709894180298f, 0.021894544363021850586f, 0.027088727802038192749f},
      {0.13413605093955993652f, -0.056248046457767486572f, 0.042353630065917968750f}
    },
    {
      {0.25314223766326904297f, -0.020996902137994766235f, -0.16107265651226043701f},
      {0.23647336661815643311f, -0.25311979651451110840f, -0.19958038628101348877f},
      {0.30728787183761596680f, -0.38183757662773132324f, -0.24696142971515655518f}
    },
    {
      {-0.10042855143547058105f, 0.19792844355106353760f, 0.090441517531871795654f},
      {-0.064855419099330902100f, 0.024840293452143669128f, 0.14114262163639068604f},
      {0.064680479466915130615f, -0.091485068202018737793f, 0.051028847694396972656f}
    },
    {
      {-0.062376707792282104492f, -0.0015622444916516542435f, 0.11092535406351089478f},
      {-0.16710175573825836182f, 0.021924234926700592041f, -0.13618469238281250000f},
      {0.17625819146633148193f, -0.099358305335044860840f, 0.072754643857479095459f}
    },
    {
      {-0.026266595348715782166f, 0.070167377591133117676f, -0.14133530855178833008f},
      {0.048014417290687561035f, -0.0018005684250965714455f, 0.0044586593285202980042f},
      {0.10222113877534866333f, -0.20428401231765747070f, -0.019629515707492828369f}
    },
    {
      {0.40324184298515319824f, 0.026571646332740783691f, -0.16244919598102569580f},
      {0.061889868229627609253f, 0.031919546425342559814f, -0.059495013207197189331f},
      {0.40301421284675598145f, -0.24156892299652099609f, -0.047523465007543563843f}
    },
    {
      {0.17746323347091674805f, 0.14502117037773132324f, -0.045919142663478851318f},
      {0.014054726809263229370f, -0.11582358181476593018f, -0.055185571312904357910f},
      {-0.047672949731349945068f, -0.028800686821341514587f, -0.00040202977834269404411f}
    },
    {
      {-0.023096401244401931763f, -0.26703768968582153320f, -0.021031439304351806641f},
      {-0.15236459672451019287f, -0.25688272714614868164f, -0.11034736037254333496f},
      {0.067377775907516479492f, -0.20114362239837646484f, 0.12649735808372497559f}
    },
    {
      {0.050894569605588912964f, -0.012150882743299007416f, 0.16309332847595214844f},
      {-0.11053860187530517578f, 0.029513321816921234131f, -0.062940880656242370605f},
      {-0.13853012025356292725f, 0.10594547539949417114f, 0.015194930136203765869f}
    },
    {
      {0.10532530397176742554f, -0.17054949700832366943f, 0.051397766917943954468f},
      {0.080230422317981719971f, -0.10784666985273361206f, -0.046438321471214294434f},
      {0.12318401038646697998f, -0.069232992827892303467f, -0.14127621054649353027f}
    },
    {
      {0.043154310435056686401f, 0.10093199461698532104f, -0.044909760355949401855f},
      {-0.057976666837930679321f, -0.067872822284698486328f, 0.016200672835111618042f},
      {0.081295132637023925781f, -0.0048244348727166652679f, -0.035571470856666564941f}
    },
    {
      {0.0065410318784415721893f, -0.045200627297163009644f, -0.24183914065361022949f},
      {-0.058126747608184814453f, -0.051480587571859359741f, 0.081059239804744720459f},
      {0.18820555508136749268f, -0.059325307607650756836f, 0.19120281934738159180f}
    },
    {
      {-0.023929117247462272644f, 0.040391180664300918579f, 0.14701898396015167236f},
      {0.099339574575424194336f, 0.073537290096282958984f, -0.26678699254989624023f},
      {-0.019329745322465896606f, -0.17173026502132415771f, -0.091029666364192962646f}
    },
    {
      {0.098004661500453948975f, -0.13438242673873901367f, 0.031865037977695465088f},
      {-0.042032256722450256348f, 0.021142991259694099426f, -0.096123754978179931641f},
      {0.011020476929843425751f, 0.17552657425403594971f, -0.22613653540611267090f}
    },
    {
      {-0.12917032837867736816f, -0.036002349108457565308f, 0.12827865779399871826f},
      {-0.029095528647303581238f, -0.072927817702293395996f, -0.070351868867874145508f},
      {0.015834763646125793457f, 0.095076821744441986084f, -0.041243266314268112183f}
    }
  },
  {
    {
      {0.079186484217643737793f, -0.053932189941406250000f, -0.11370999366044998169f},
      {0.11081203818321228027f, -0.057573702186346054077f, -0.17422401905059814453f},
      {-0.20997840166091918945f, -0.054860591888427734375f, -0.28031760454177856445f}
    },
    {
      {-0.072474032640457153320f, -0.078404828906059265137f, -0.11128842830657958984f},
      {0.086122907698154449463f, -0.14005562663078308105f, 0.056822381913661956787f},
      {0.0097826533019542694092f, -0.12715165317058563232f, -0.059288453310728073120f}
    },
    {
      {0.033965978771448135376f, -0.10680321604013442993f, -0.088153891265392303467f},
      {0.10511130839586257935f, 0.10860401391983032227f, 0.13057763874530792236f},
      {0.073246076703071594238f, 0.052625376731157302856f, 0.13065686821937561035f}
    },
    {
      {0.11049067229032516479f, -0.040213748812675476074f, -0.032787974923849105835f},
      {-0.065939567983150482178f, -0.30277216434478759766f, -0.14828066527843475342f},
      {0.016449524089694023132f, -0.19006514549255371094f, -0.053574666380882263184f}
    },
    {
      {-0.0054877195507287979126f, 0.0032528534065932035446f, -0.042810939252376556396f},
      {0.12542149424552917480f, -0.13462810218334197998f, -0.011957966722548007965f},
      {0.041347827762365341187f, -0.060475714504718780518f, 0.091785669326782226562f}
    },
    {
      {-0.072635583579540252686f, -0.096292234957218170166f, -0.018877036869525909424f},
      {-0.12175887078046798706f, -0.027742419391870498657f, 0.065235100686550140381f},
      {0.035849109292030334473f, 0.12412297725677490234f, 0.17160908877849578857f}
    },
    {
      {-0.033479455858469009399f, -0.0024073077365756034851f, 0.11352293193340301514f},
      {-0.041786994785070419312f, -0.040721461176872253418f, 0.16928592324256896973f},
      {0.046404767781496047974f, 0.16742748022079467773f, 0.34103366732597351074f}
    },
    {
      {0.032796356827020645142f, 0.15570396184921264648f, 0.0010736888507381081581f},
      {-0.045308344066143035889f, 0.12644769251346588135f, 0.092397935688495635986f},
      {0.020276920869946479797f, 0.055618558079004287720f, 0.11687915027141571045f}
    },
    {
      {0.14526607096195220947f, 0.18602502346038818359f, 0.11452300101518630981f},
      {0.23810315132141113281f, 0.11008889973163604736f, -0.015505849383771419525f},
      {0.23326618969440460205f, 0.19884844124317169189f, 0.17382830381393432617f}
    },
    {
      {0.087776005268096923828f, 0.010835752822458744049f, -0.14542779326438903809f},
      {0.0037869571242481470108f, -0.072423338890075683594f, -0.068907536566257476807f},
      {-0.084320470690727233887f, -0.15681101381778717041f, -0.16734369099140167236f}
    },
    {
      {0.015894372016191482544f, -0.0080178407952189445496f, -0.031867474317550659180f},
