/*
 * Copyright (C) 2015
 *
 * This file is part of Paparazzi.
 *
 * Paparazzi is free software; you can redistribute it and/or modify
 * it under the terms of the GNU General Public License as published by
 * the Free Software Foundation; either version 2, or (at your option)
 * any later version.
 *
 * Paparazzi is distributed in the hope that it will be useful,
 * but WITHOUT ANY WARRANTY; without even the implied warranty of
 * MERCHANTABILITY or FITNESS FOR A PARTICULAR PURPOSE.  See the
 * GNU General Public License for more details.
 *
 * You should have received a copy of the GNU General Public License
 * along with Paparazzi; see the file COPYING.  If not, write to
 * the Free Software Foundation, 59 Temple Place - Suite 330,
 * Boston, MA 02111-1307, USA.
 */

/**
 * @file modules/computer_vision/cnn.c
 */

// Own header
#include "modules/computer_vision/cnn.h"
#include <stdio.h>

// Include the image library -> used to alter the incoming image
#include "modules/computer_vision/lib/vision/image.h"

// Include the ABI library -> used to send messages to the ground station
#include "modules/core/abi.h"

#ifndef CNN_FPS
#define CNN_FPS 0 ///< Default FPS (zero means run at camera fps)
#endif

uint8_t white[4] = {127, 255, 127, 255};

// Function
static struct image_t *cnn_func(struct image_t *img, uint8_t camera_id __attribute__((unused)))
{
  // TODO: freeing of images ?
  // convert to grayscale, but also keep original for live feed
  struct image_t gray;
  image_create(&gray, img->w, img->h, IMAGE_GRAYSCALE);
  image_to_grayscale(img, &gray);

  // Convert image to tensor
  // IMPORTANT: order is now [right, forward, left]
  float tensor_output[1][3];
  float tensor_input[1][1][TENSOR_HEIGHT][TENSOR_WIDTH];
  convert_image_to_tensor(&gray, tensor_input);

  // Perform inference
  entry(tensor_input, tensor_output);

  // Softmax on the output
  // TODO: include in the model instead?
  float sum_exp = exp(tensor_output[0][0]) + exp(tensor_output[0][1]) + exp(tensor_output[0][2]);
  tensor_output[0][0] = exp(tensor_output[0][0]) / sum_exp;
  tensor_output[0][1] = exp(tensor_output[0][1]) / sum_exp;
  tensor_output[0][2] = exp(tensor_output[0][2]) / sum_exp;
  
  // draw rectangles on the original image corresponding to the outputs
  // TODO: improve code
  int x_min_left = 10;
  int x_max_left = 10 + (int)(tensor_output[0][0] * 40);
  int y_min_left = 10;
  int y_max_left = 30;
  image_draw_rectangle(img, x_min_left, x_max_left, y_min_left, y_max_left, white);

  int x_min_forward = 10;
  int x_max_forward = 10 + (int)(tensor_output[0][1] * 40);
  int y_min_forward = 35;
  int y_max_forward = 55;
  image_draw_rectangle(img, x_min_forward, x_max_forward, y_min_forward, y_max_forward, white);

  int x_min_right = 10;
  int x_max_right = 10 + (int)(tensor_output[0][2] * 40);
  int y_min_rigth = 60;
  int y_max_right = 80;
  image_draw_rectangle(img, x_min_right, x_max_right, y_min_rigth, y_max_right, white);

  // // Print outputs
  // printf("Right: %f, Forward: %f, Left: %f\n", tensor_output[0][0], tensor_output[0][1], tensor_output[0][2]);

  // Print
  printf("Processed image!");

  // Send outputs
  AbiSendMsgCNN_CONTROL_INPUTS(CNN_CONTROL_INPUTS_ID, tensor_output[0][0], tensor_output[0][1], tensor_output[0][2]);

  return img;
}

void cnn_init(void)
{
  cv_add_to_device(&CNN_CAMERA, cnn_func, CNN_FPS, 0);
}

void convert_image_to_tensor(struct image_t *image, float tensor_input_1[1][1][TENSOR_HEIGHT][TENSOR_WIDTH]) {
    // Extract pixel values from the image buffer
    uint8_t *pixel_values = (uint8_t *)(image->buf);

    // TODO: IMPROVE BELOW -> THIS IS TERRIBLE, BUT IT WORKS FOR NOW
    // first store the image in a tensor
    float intermediate[1][1][520][240];
    for (int i = 0; i < 520; i++) {
        for (int j = 0; j < 240; j++) {
            intermediate[0][0][i][j] = (float)pixel_values[(i * image->w) + j] / 255.0f;
          }
        }

    // then extract the region of interest
    for (int i = 0; i < TENSOR_HEIGHT; i++) {
        for (int j = 0; j < TENSOR_WIDTH; j++) {
            int row_idx = i * 20;
            int col_idx = j * 10 + 60;
            tensor_input_1[0][0][i][j] = intermediate[0][0][row_idx][col_idx];
        }
    }

    // // for debugging: save tensor_input_1 to a file
    // FILE *f = fopen("tensor_input_1.txt", "w");
    // if (f == NULL)
    // {
    //     printf("Error opening file!\n");
    //     exit(1);
    // }
    // for (int i = 0; i < TENSOR_HEIGHT; i++)
    // {
    //     for (int j = 0; j < TENSOR_WIDTH; j++)
    //     {
    //         printf("i: %d, j: %d, value: %f\n", i, j, tensor_input_1[0][0][i][j]);
    //         fprintf(f, "%f ", tensor_input_1[0][0][i][j]);
    //     }
    //     fprintf(f, "\n");
    // }
}

// Auto generated code

// This file is computer-generated by onnx2c 
// (TODO: add creating command line here)
// (TODO: print creation date here )

// ONNX model:
// produced by pytorch, version 2.2.1
// ONNX IR version: 17
// Model documentation: 
/*

*/

#include <float.h>
#include <math.h>
#include <stdbool.h>
#include <stdint.h>
#include <string.h>
#define MAX(X,Y) ( X > Y ? X : Y)
#define MIN(X,Y) ( X < Y ? X : Y)
#define CLIP(X,L) ( MAX(MIN(X,L), -L) )

static const float tensor_model_16_weight[3][48] = 
{
  {-0.34482222795486450195f, 0.16964647173881530762f, 0.045355096459388732910f, 0.19939339160919189453f, -0.39663112163543701172f, 0.13071569800376892090f, -0.19777490198612213135f, -0.25028339028358459473f, 0.15627905726432800293f, 0.055319186300039291382f, -0.28357359766960144043f, -0.13266889750957489014f, 0.21633277833461761475f, -0.17475010454654693604f, -0.15815199911594390869f, 0.060575250536203384399f, 0.26907011866569519043f, -0.060434978455305099487f, -0.21664014458656311035f, -0.078889101743698120117f, 0.36377680301666259766f, 0.41299411654472351074f, -0.021226400509476661682f, -0.19008851051330566406f, -0.092324733734130859375f, 0.20624564588069915771f, 0.098768331110477447510f, -0.25148147344589233398f, -0.098167225718498229980f, 0.32062619924545288086f, -0.10689099133014678955f, -0.0044406135566532611847f, -0.35346117615699768066f, 0.21296423673629760742f, 0.093722753226757049561f, 0.031048579141497612000f, -0.33260864019393920898f, 0.23139826953411102295f, 0.16959927976131439209f, -0.20978692173957824707f, -0.21418944001197814941f, 0.080259375274181365967f, -0.12600249052047729492f, 0.19237451255321502686f, -0.28993889689445495605f, 0.38957422971725463867f, 0.13996367156505584717f, -0.075118251144886016846f},
  {0.30386278033256530762f, -0.23717132210731506348f, 0.19283533096313476562f, 0.17261889576911926270f, 0.048397906124591827393f, 0.056424394249916076660f, 0.16594234108924865723f, 0.26703423261642456055f, -0.42217957973480224609f, 0.23429346084594726562f, 0.32604983448982238770f, -0.087307199835777282715f, -0.051488593220710754395f, 0.36151582002639770508f, 0.046115513890981674194f, -0.013997637666761875153f, -0.44167804718017578125f, -0.16041693091392517090f, -0.034403361380100250244f, 0.28197365999221801758f, 0.026171874254941940308f, -0.056926131248474121094f, 0.11480716615915298462f, -0.16907289624214172363f, -0.098242171108722686768f, -0.28272914886474609375f, 0.37163159251213073730f, -0.16422328352928161621f, -0.097779609262943267822f, -0.29572531580924987793f, -0.10696715861558914185f, -0.17934319376945495605f, 0.19390994310379028320f, -0.27404791116714477539f, 0.35202640295028686523f, 0.034630998969078063965f, 0.081683844327926635742f, -0.42395815253257751465f, -0.041353859007358551025f, 0.29083538055419921875f, 0.37271907925605773926f, -0.092624001204967498779f, -0.24277782440185546875f, -0.11596091091632843018f, -0.023993169888854026794f, -0.16408930718898773193f, 0.083797574043273925781f, -0.0047362535260617733002f},
  {0.014604932628571987152f, 0.081356965005397796631f, -0.18382351100444793701f, -0.29002407193183898926f, 0.23748633265495300293f, -0.13869568705558776855f, 0.16035714745521545410f, 0.16592651605606079102f, 0.24692460894584655762f, -0.23257409036159515381f, -0.18622559309005737305f, 0.28386470675468444824f, 0.10815998911857604980f, -0.22982753813266754150f, 0.030181182548403739929f, 0.086192153394222259521f, 0.14518198370933532715f, 0.023455258458852767944f, -0.068885751068592071533f, 0.088887825608253479004f, -0.19351375102996826172f, -0.15074513852596282959f, -0.060800038278102874756f, 0.31973314285278320312f, -0.050156462937593460083f, 0.13022655248641967773f, -0.44771432876586914062f, 0.31796970963478088379f, -0.10686162114143371582f, -0.18945412337779998779f, 0.061108153313398361206f, 0.21142885088920593262f, 0.18561470508575439453f, 0.10684827715158462524f, -0.45774269104003906250f, -0.038712941110134124756f, 0.23259605467319488525f, 0.13400915265083312988f, -0.45688152313232421875f, -0.21430622041225433350f, -0.26427704095840454102f, 0.034690130501985549927f, 0.13401558995246887207f, -0.32070389389991760254f, 0.16457888484001159668f, -0.12112182378768920898f, -0.26593261957168579102f, -0.11730886250734329224f}
};
static const float tensor_model_16_bias[3] = 
{0.038401309400796890259f, -0.12579007446765899658f, 0.14362767338752746582f};
static const float tensor_onnx__Conv_39[32][1][3][3] = 
{
  {
    {
      {1.9255986213684082031f, -0.41430610418319702148f, -2.4875450134277343750f},
      {-0.17263671755790710449f, -0.52572447061538696289f, 0.076105155050754547119f},
      {2.7766156196594238281f, 1.6620442867279052734f, -1.6588931083679199219f}
    }
  },
  {
    {
      {-1.0647345781326293945f, -3.6251757144927978516f, 0.12068399786949157715f},
      {-1.1672161817550659180f, 2.6778216361999511719f, -0.52976721525192260742f},
      {-0.042569927871227264404f, -1.3640288114547729492f, -0.24695193767547607422f}
    }
  },
  {
    {
      {-1.1797192096710205078f, -0.45096653699874877930f, 1.4588793516159057617f},
      {-3.5924618244171142578f, -0.79169386625289916992f, 4.4150409698486328125f},
      {-0.27087488770484924316f, 0.48748862743377685547f, -0.28723096847534179688f}
    }
  },
  {
    {
      {0.95412963628768920898f, 1.4591206312179565430f, 0.37471771240234375000f},
      {-0.18055167794227600098f, -0.28128910064697265625f, 1.6912988424301147461f},
      {-1.6649223566055297852f, -1.3204884529113769531f, -2.6887974739074707031f}
    }
  },
  {
    {
      {-2.4262104034423828125f, -1.1019289493560791016f, -0.74026483297348022461f},
      {0.90994679927825927734f, 2.1011564731597900391f, 2.2406051158905029297f},
      {0.97918945550918579102f, -0.63530021905899047852f, -0.58940112590789794922f}
    }
  },
  {
    {
      {0.67850202322006225586f, -0.81321829557418823242f, 0.87824630737304687500f},
      {-0.57685649394989013672f, -2.5731098651885986328f, -1.6941372156143188477f},
      {-0.81978613138198852539f, -0.33662745356559753418f, -0.26409479975700378418f}
    }
  },
  {
    {
      {-1.1113895177841186523f, -0.56099718809127807617f, 0.17032161355018615723f},
      {-1.3567105531692504883f, -2.9691414833068847656f, -0.37270447611808776855f},
      {1.9147557020187377930f, -0.18153631687164306641f, -0.49935474991798400879f}
    }
  },
  {
    {
      {-0.67093932628631591797f, -1.9536654949188232422f, -0.53829556703567504883f},
      {-0.16278542578220367432f, -2.8702521324157714844f, 0.36094632744789123535f},
      {-1.1960234642028808594f, -0.27020236849784851074f, 2.8211472034454345703f}
    }
  },
  {
    {
      {-0.024909531697630882263f, 1.6507053375244140625f, -2.2509567737579345703f},
      {-0.59758985042572021484f, 3.4930489063262939453f, -2.5293061733245849609f},
      {0.20407328009605407715f, 1.5385737419128417969f, -2.0151863098144531250f}
    }
  },
  {
    {
      {-0.44095265865325927734f, 1.2915693521499633789f, 0.69239658117294311523f},
      {-0.35337707400321960449f, -1.7577693462371826172f, 0.079390540719032287598f},
      {-0.68855708837509155273f, -2.4079194068908691406f, -1.5035957098007202148f}
    }
  },
  {
    {
      {2.5804038047790527344f, 2.8389542102813720703f, -4.5419702529907226562f},
      {-2.5902004241943359375f, -2.0993669033050537109f, 4.7721538543701171875f},
      {-1.2058080434799194336f, 2.4692432880401611328f, -3.9714570045471191406f}
    }
  },
  {
    {
      {2.5544290542602539062f, 1.7643281221389770508f, -0.82423603534698486328f},
      {-3.1749875545501708984f, -4.1477346420288085938f, 1.6588389873504638672f},
      {2.8995211124420166016f, -1.0285735130310058594f, -0.94219738245010375977f}
    }
  },
  {
    {
      {-1.4714134931564331055f, 1.6395115852355957031f, -2.8535811901092529297f},
      {-1.0948092937469482422f, 1.8499846458435058594f, -0.94851350784301757812f},
      {-2.9608347415924072266f, 2.7870643138885498047f, 0.16987265646457672119f}
    }
  },
  {
    {
      {-2.0783903598785400391f, -4.1933574676513671875f, 7.0523791313171386719f},
      {3.9273676872253417969f, 2.0567955970764160156f, -6.5012168884277343750f},
      {0.049389824271202087402f, 0.040599178522825241089f, 0.22429673373699188232f}
    }
  },
  {
    {
      {4.4682974815368652344f, -5.4312100410461425781f, -2.2763085365295410156f},
      {-3.0638155937194824219f, -0.49896091222763061523f, 1.2150559425354003906f},
      {-2.6238656044006347656f, 3.3099532127380371094f, 0.62005311250686645508f}
    }
  },
  {
    {
      {-1.1114782094955444336f, -0.93721574544906616211f, -1.5133055448532104492f},
      {2.3721385002136230469f, 2.5661387443542480469f, 1.6452044248580932617f},
      {-2.5378434658050537109f, -1.2904350757598876953f, 0.56638669967651367188f}
    }
  },
  {
    {
      {-1.9976451396942138672f, -0.97620803117752075195f, 0.12348728626966476440f},
      {-0.0016364743933081626892f, 1.1150960922241210938f, 1.1277341842651367188f},
      {0.66913402080535888672f, 1.9343576431274414062f, 0.89062440395355224609f}
    }
  },
  {
    {
      {3.4840390682220458984f, -1.3797562122344970703f, -2.6724438667297363281f},
      {3.3760063648223876953f, -3.9286301136016845703f, 1.1783660650253295898f},
      {0.25973415374755859375f, -0.26937025785446166992f, 0.26521122455596923828f}
    }
  },
  {
    {
      {-0.99332833290100097656f, -1.1038564443588256836f, 2.9476728439331054688f},
      {1.8913816213607788086f, -0.74790042638778686523f, -0.94304788112640380859f},
      {-1.9789541959762573242f, -3.8283462524414062500f, 0.36131781339645385742f}
    }
  },
  {
    {
      {-1.4169254302978515625f, -0.50894260406494140625f, 1.6213833093643188477f},
      {-0.46868833899497985840f, 1.8641405105590820312f, 1.8179581165313720703f},
      {-1.8169301748275756836f, -1.3263503313064575195f, -1.0866537094116210938f}
    }
  },
  {
    {
      {-2.3695976734161376953f, -2.1791660785675048828f, 0.010052230209112167358f},
      {2.7217328548431396484f, -0.48826897144317626953f, 0.36825925111770629883f},
      {0.028514841571450233459f, -3.3607444763183593750f, 3.5263993740081787109f}
    }
  },
  {
    {
      {0.90804153680801391602f, -1.1470893621444702148f, 0.59747833013534545898f},
      {0.13247533142566680908f, 2.0234854221343994141f, 0.79542374610900878906f},
      {-1.6364365816116333008f, -3.2943022251129150391f, 2.9605596065521240234f}
    }
  },
  {
    {
      {0.21188306808471679688f, 1.3017078638076782227f, 0.32844197750091552734f},
      {-0.94093185663223266602f, 1.1166272163391113281f, 1.3732721805572509766f},
      {-2.1499052047729492188f, 0.67512488365173339844f, 1.3032147884368896484f}
    }
  },
  {
    {
      {-3.1158778667449951172f, -0.85468494892120361328f, -1.6444330215454101562f},
      {1.1518611907958984375f, 1.5209350585937500000f, -1.0287814140319824219f},
      {1.8527522087097167969f, 0.51650351285934448242f, 0.77131867408752441406f}
    }
  },
  {
    {
      {-0.56235218048095703125f, -1.5521143674850463867f, 0.69029271602630615234f},
      {-1.7430759668350219727f, -1.3650553226470947266f, -0.33178490400314331055f},
      {0.031153511255979537964f, -1.0448114871978759766f, 0.24394559860229492188f}
    }
  },
  {
    {
      {1.1533852815628051758f, 0.56730097532272338867f, 1.0963089466094970703f},
      {1.9966225624084472656f, 1.4412516355514526367f, -1.2203866243362426758f},
      {-1.3929773569107055664f, 1.1496615409851074219f, -1.1698628664016723633f}
    }
  },
  {
    {
      {-1.3726832866668701172f, -1.7299702167510986328f, -2.8803188800811767578f},
      {-0.51617437601089477539f, 0.41501885652542114258f, 2.0320374965667724609f},
      {-0.081940844655036926270f, -1.5025525093078613281f, 0.69248414039611816406f}
    }
  },
  {
    {
      {-0.24636356532573699951f, -0.94733363389968872070f, 0.0034243306145071983337f},
      {-0.49236485362052917480f, -1.8315691947937011719f, -1.0701315402984619141f},
      {-0.23035922646522521973f, -1.1693402528762817383f, 0.028721885755658149719f}
    }
  },
  {
    {
      {-0.19787687063217163086f, -0.23685586452484130859f, 0.043587986379861831665f},
      {-0.74478733539581298828f, -2.7613477706909179688f, -0.43685185909271240234f},
      {-1.3746186494827270508f, 0.36591657996177673340f, -0.49667420983314514160f}
    }
  },
  {
    {
      {-0.28988629579544067383f, 0.60155540704727172852f, 1.0396941900253295898f},
      {0.69479650259017944336f, 1.0488498210906982422f, 0.57814705371856689453f},
      {0.24347962439060211182f, 0.58855658769607543945f, 0.67556482553482055664f}
    }
  },
  {
    {
      {1.9610962867736816406f, 1.2016927003860473633f, -4.0162167549133300781f},
      {3.0697221755981445312f, -3.4736216068267822266f, 2.7706234455108642578f},
      {-0.67286723852157592773f, -3.3876674175262451172f, 1.4129265546798706055f}
    }
  },
  {
    {
      {0.60903495550155639648f, 1.0567229986190795898f, -0.44596818089485168457f},
      {-0.33620128035545349121f, 1.7602895498275756836f, 1.6427947282791137695f},
      {2.9223136901855468750f, -2.4177505970001220703f, -0.84032261371612548828f}
    }
  }
};
static const float tensor_onnx__Conv_40[32] = 
{-0.70454806089401245117f, 1.4568405151367187500f, 0.015570953488349914551f, 0.28778403997421264648f, -0.57689481973648071289f, 1.4965384006500244141f, 1.3854624032974243164f, 1.0818908214569091797f, -0.019743546843528747559f, 1.1560056209564208984f, 0.018141239881515502930f, 0.30647391080856323242f, 0.44100964069366455078f, -0.51426351070404052734f, 0.86672294139862060547f, -0.36537972092628479004f, -0.94696033000946044922f, -0.29827558994293212891f, 1.0712471008300781250f, 0.32304051518440246582f, 0.26622048020362854004f, -0.80890798568725585938f, -0.81372386217117309570f, 0.076747126877307891846f, 1.6388391256332397461f, -1.5420355796813964844f, 0.92537611722946166992f, 1.7038153409957885742f, 1.6013395786285400391f, -2.0238089561462402344f, 0.15731132030487060547f, -1.3983761072158813477f};
static const float tensor_onnx__Conv_42[16][32][3][3] = 
{
  {
    {
      {-0.021661164239048957825f, -0.011057697236537933350f, -0.061610672622919082642f},
      {-0.016346376389265060425f, 0.088889829814434051514f, -0.022616093978285789490f},
      {-0.10940787941217422485f, 0.045366682112216949463f, -0.12902961671352386475f}
    },
    {
      {0.0045054140500724315643f, -0.028452634811401367188f, -0.025740299373865127563f},
      {-0.081521846354007720947f, 0.010426298715174198151f, 0.00023989278997760266066f},
      {-0.16301527619361877441f, -0.075176142156124114990f, -0.080663040280342102051f}
    },
    {
      {-0.016090642660856246948f, -0.016171731054782867432f, 0.061971940100193023682f},
      {0.047738283872604370117f, -0.019926549866795539856f, 0.072140917181968688965f},
      {0.027380205690860748291f, -0.025646906346082687378f, 0.077008366584777832031f}
    },
    {
      {-0.048486027866601943970f, 0.061846770346164703369f, 0.064880289137363433838f},
      {0.022560317069292068481f, -0.046852141618728637695f, -0.050787456333637237549f},
      {0.043020952492952346802f, 0.013005726039409637451f, -0.011747173964977264404f}
    },
    {
      {-0.055369880050420761108f, -0.022382611408829689026f, -0.014425412751734256744f},
      {-0.087741836905479431152f, -0.037732325494289398193f, -0.076630294322967529297f},
      {0.030675111338496208191f, 0.0032777613960206508636f, -0.13394133746623992920f}
    },
    {
      {0.068824052810668945312f, -0.023791693150997161865f, 0.015153254382312297821f},
      {-0.045777153223752975464f, -0.0011412788880988955498f, -0.013737989589571952820f},
      {-0.014352349564433097839f, -0.012015424668788909912f, 0.081474646925926208496f}
    },
    {
      {-0.053434308618307113647f, -0.016318595036864280701f, -0.0039273896254599094391f},
      {0.048175357282161712646f, 0.025760369375348091125f, 0.069038726389408111572f},
      {-0.092529669404029846191f, 0.0056838877499103546143f, 0.11561699956655502319f}
    },
    {
      {-0.11565338075160980225f, 0.022935597226023674011f, -0.019850477576255798340f},
      {-0.092841088771820068359f, -0.0053745890036225318909f, 0.010466123931109905243f},
      {-0.067467615008354187012f, -0.017648542299866676331f, 0.099425151944160461426f}
    },
    {
      {0.042661931365728378296f, 9.2893686087336391211e-05f, 0.015247813425958156586f},
      {-0.083424352109432220459f, 0.044376756995916366577f, -0.013052045367658138275f},
      {-0.0020447436254471540451f, 0.022908376529812812805f, 0.010025297291576862335f}
    },
    {
      {-0.059740595519542694092f, 0.074747577309608459473f, 0.055258762091398239136f},
      {-0.047957643866539001465f, -0.0070817139931023120880f, 0.025583207607269287109f},
      {0.041706070303916931152f, 0.034760870039463043213f, 0.11436095833778381348f}
    },
    {
      {-0.074061363935470581055f, -0.048780601471662521362f, 0.020912047475576400757f},
      {0.057856962084770202637f, 0.046083033084869384766f, -0.019828831776976585388f},
      {0.010329145006835460663f, -0.026735501363873481750f, -0.084876418113708496094f}
    },
    {
      {0.042314782738685607910f, 0.054890185594558715820f, -0.028853431344032287598f},
      {0.054567255079746246338f, 0.12893208861351013184f, -0.0028218843508511781693f},
      {0.010891906917095184326f, -0.094287224113941192627f, -0.083343245089054107666f}
    },
    {
      {0.10898637771606445312f, 0.027699317783117294312f, 0.0095007428899407386780f},
      {0.0072171287611126899719f, -0.0096580721437931060791f, -0.022544670850038528442f},
      {-0.031219942495226860046f, 0.028254797682166099548f, 0.045776251703500747681f}
    },
    {
      {-0.038863636553287506104f, -0.047355737537145614624f, 0.036137029528617858887f},
      {-0.12681545317173004150f, -0.061477124691009521484f, -0.043584663420915603638f},
      {-0.11141851544380187988f, -0.049692571163177490234f, -0.11598368734121322632f}
    },
    {
      {-0.020374001935124397278f, 0.015754505991935729980f, 0.024626448750495910645f},
      {0.0036925859749317169189f, 0.0069543346762657165527f, 0.021517690271139144897f},
      {-0.084674201905727386475f, -0.11305163800716400146f, -0.0029407620895653963089f}
    },
    {
      {-0.013688306324183940887f, -0.043648183345794677734f, 0.012486776337027549744f},
      {0.023842019960284233093f, 0.033565785735845565796f, -0.065887957811355590820f},
      {0.059929944574832916260f, -0.035788409411907196045f, -0.12308617681264877319f}
    },
    {
      {-0.060269858688116073608f, -0.029783792793750762939f, 0.085935048758983612061f},
      {0.0019821424502879381180f, -0.033404186367988586426f, -0.018330344930291175842f},
      {0.028640236705541610718f, 0.058508649468421936035f, 0.040613438934087753296f}
    },
    {
      {0.0022638188675045967102f, -0.077953971922397613525f, -0.0086351437494158744812f},
      {-0.080994337797164916992f, 0.086567342281341552734f, -0.046947840601205825806f},
      {-0.15056455135345458984f, -0.0013480870984494686127f, -0.15135456621646881104f}
    },
    {
      {-0.072261728346347808838f, 0.10027167201042175293f, 0.020235102623701095581f},
      {-0.039523005485534667969f, 0.081455916166305541992f, -0.031510382890701293945f},
      {-0.038273084908723831177f, 0.11220496892929077148f, 0.0077207069844007492065f}
    },
    {
      {0.017656911164522171021f, 0.0035327933728694915771f, 0.046629026532173156738f},
      {0.091660052537918090820f, 0.022018721327185630798f, 0.079269289970397949219f},
      {0.017744788900017738342f, 0.0019976433832198381424f, 0.019661985337734222412f}
    },
    {
      {-0.091276653110980987549f, -0.00032887829001992940903f, -0.047636110335588455200f},
      {-0.075429372489452362061f, 0.11190206557512283325f, 0.012563833966851234436f},
      {0.057914372533559799194f, 0.10482116043567657471f, -0.10939954221248626709f}
    },
    {
      {0.0081936316564679145813f, 0.046217426657676696777f, 0.053407676517963409424f},
      {0.037740342319011688232f, 0.044214468449354171753f, -0.048044145107269287109f},
      {0.043860271573066711426f, 0.035474348813295364380f, -0.027796154841780662537f}
    },
    {
      {0.016152525320649147034f, 0.00028913482674397528172f, 0.14915630221366882324f},
      {0.027634602040052413940f, -5.3383879276225343347e-05f, 0.11841669678688049316f},
      {0.060738395899534225464f, 0.025779504328966140747f, 0.022494904696941375732f}
    },
    {
      {-0.010747565887868404388f, -0.034893527626991271973f, 0.0034170106519013643265f},
      {-0.0010211020708084106445f, -0.014191767200827598572f, -0.083320125937461853027f},
      {0.058596450835466384888f, 0.10742099583148956299f, -0.049799956381320953369f}
    },
    {
      {-0.12078224122524261475f, -0.0016883419593796133995f, 0.024323448538780212402f},
      {-0.10330602526664733887f, -0.0042109522037208080292f, 0.065513730049133300781f},
      {-0.11836754530668258667f, 0.011055965907871723175f, 0.057906750589609146118f}
    },
    {
      {0.016873706132173538208f, 0.025092208757996559143f, 0.032929152250289916992f},
      {-0.029789173975586891174f, -0.0097869262099266052246f, -0.018264539539813995361f},
      {-0.041392758488655090332f, 0.011117182672023773193f, -0.0019204450072720646858f}
    },
    {
      {-0.034787692129611968994f, 0.097574353218078613281f, -0.10760286450386047363f},
      {-0.036034017801284790039f, 0.13359397649765014648f, -0.036054294556379318237f},
      {-0.027104977518320083618f, -0.012920322827994823456f, -0.054264601320028305054f}
    },
    {
      {-0.057976800948381423950f, -0.035730741918087005615f, -0.00055453123059123754501f},
      {-0.076830543577671051025f, -0.0047795344144105911255f, 0.042646646499633789062f},
      {-0.083708837628364562988f, -0.015187530778348445892f, 0.082215517759323120117f}
    },
    {
      {0.011827916838228702545f, -0.031807091087102890015f, -0.024131944403052330017f},
      {-0.028373708948493003845f, -0.0044153244234621524811f, 0.064701668918132781982f},
      {-0.053830835968255996704f, -0.052470382302999496460f, 0.10210896283388137817f}
    },
    {
      {-0.033877968788146972656f, 0.027400860562920570374f, 0.055237721651792526245f},
      {-0.078957594931125640869f, -0.096340931951999664307f, -0.00060686346841976046562f},
      {0.0013303232844918966293f, 0.020008414983749389648f, 0.0023518332745879888535f}
    },
    {
      {0.030574671924114227295f, -0.017814641818404197693f, 0.040082637220621109009f},
      {0.017647247761487960815f, -0.019010219722986221313f, -0.023492474108934402466f},
      {-0.084423832595348358154f, -0.087480202317237854004f, -0.057169388979673385620f}
    },
    {
      {0.020545424893498420715f, 0.042949914932250976562f, 0.028905211016535758972f},
      {-0.10072363913059234619f, -0.049565825611352920532f, -0.035581309348344802856f},
      {0.017490075901150703430f, -0.052628003060817718506f, -0.041113480925559997559f}
    }
  },
  {
    {
      {-0.030563652515411376953f, -0.059085283428430557251f, 0.033207621425390243530f},
      {0.022346984595060348511f, -0.12107528001070022583f, 0.039309035986661911011f},
      {0.071534961462020874023f, -0.044776212424039840698f, 0.0073869023472070693970f}
    },
    {
      {-0.058805868029594421387f, -0.050478838384151458740f, 0.038369901478290557861f},
      {-0.032599195837974548340f, -0.034089684486389160156f, -0.029707668349146842957f},
      {-0.0039774174802005290985f, -0.066082336008548736572f, -0.022298522293567657471f}
    },
    {
      {-0.17987819015979766846f, 0.0049464087933301925659f, 0.096621230244636535645f},
      {-0.16157160699367523193f, -0.0017982989083975553513f, 0.017419900745153427124f},
      {-0.082293294370174407959f, 0.036077629774808883667f, 0.011289882473647594452f}
    },
    {
      {-0.00054541771532967686653f, 0.013331622816622257233f, 0.030971167609095573425f},
      {0.080080777406692504883f, 0.050740074366331100464f, -0.010234932415187358856f},
      {0.030801225453615188599f, -0.034558132290840148926f, 0.020071819424629211426f}
    },
    {
      {0.043098978698253631592f, -0.036299753934144973755f, 0.0046688164584338665009f},
      {-0.013338916935026645660f, -0.044836007058620452881f, -0.064605891704559326172f},
      {0.021377835422754287720f, 0.035055071115493774414f, 0.013927510008215904236f}
    },
    {
      {-0.10558386892080307007f, -0.095584399998188018799f, -0.026274718344211578369f},
      {-0.019383482635021209717f, 0.032130561769008636475f, -0.098701402544975280762f},
      {0.050692103803157806396f, 0.0069949962198734283447f, -0.018717531114816665649f}
    },
    {
      {-0.017110038548707962036f, 0.015765987336635589600f, -0.010316231288015842438f},
      {-0.043701607733964920044f, -0.037123475223779678345f, -0.051741778850555419922f},
      {0.018532205373048782349f, 0.013833692297339439392f, 0.058196768164634704590f}
    },
    {
      {-0.020846027880907058716f, 0.10718449205160140991f, -0.010534638538956642151f},
      {-0.098412618041038513184f, -0.0011183113092556595802f, -0.0092177474871277809143f},
      {-0.0093991560861468315125f, 0.010520455427467823029f, 0.045696526765823364258f}
    },
    {
      {-0.036306235939264297485f, 0.020214824005961418152f, 0.014595371671020984650f},
      {-0.070355311036109924316f, 0.038690388202667236328f, 0.010504465550184249878f},
      {-0.092665508389472961426f, -0.040937177836894989014f, -0.019993435591459274292f}
    },
    {
      {-0.082404159009456634521f, -0.045079510658979415894f, -0.044287621974945068359f},
      {-0.0046058185398578643799f, 0.0069454442709684371948f, -2.6629411877365782857e-05f},
      {0.033892504870891571045f, 0.058208286762237548828f, -0.013036071322858333588f}
    },
    {
      {-0.0030179265886545181274f, 0.081534326076507568359f, 0.022543633356690406799f},
      {-0.13908590376377105713f, -0.12035232037305831909f, 0.016050389036536216736f},
      {-0.053375478833913803101f, 0.040283951908349990845f, 0.031077699735760688782f}
    },
    {
      {-0.0015476800035685300827f, 0.011375375092029571533f, 0.014786447398364543915f},
      {0.047759965062141418457f, -0.027642704546451568604f, -0.023608900606632232666f},
      {0.022199142724275588989f, -0.0014165419852361083031f, 0.066903077065944671631f}
    },
    {
      {0.032673891633749008179f, 0.021507099270820617676f, -0.054452393203973770142f},
      {0.13873039186000823975f, 0.024317441508173942566f, -0.040106795728206634521f},
      {-0.0052852034568786621094f, -0.069955684244632720947f, -0.032447505742311477661f}
    },
    {
      {-0.12538194656372070312f, 0.054856378585100173950f, 0.048199534416198730469f},
      {-0.093423031270503997803f, -0.067268311977386474609f, -0.070274211466312408447f},
      {-0.046079229563474655151f, 0.0052919485606253147125f, -0.043272919952869415283f}
    },
    {
      {-0.039865907281637191772f, 0.0036156848073005676270f, 0.016941102221608161926f},
      {-0.081488721072673797607f, -0.14097148180007934570f, 0.12651558220386505127f},
      {-0.00033206393709406256676f, -0.059680085629224777222f, 0.042223282158374786377f}
    },
    {
      {0.036948304623365402222f, -0.063159026205539703369f, -0.0080307330936193466187f},
      {0.027341585606336593628f, -0.045458264648914337158f, -0.058473750948905944824f},
      {0.024721456691622734070f, -0.027626907452940940857f, 0.0027524824254214763641f}
    },
    {
      {0.044104099273681640625f, 0.028963716700673103333f, 0.0075102071277797222137f},
      {-0.029658149927854537964f, -0.045885421335697174072f, -0.016837090253829956055f},
      {0.036626305431127548218f, -0.011226014234125614166f, -0.037021487951278686523f}
    },
    {
      {-0.037658691406250000000f, 0.017462005838751792908f, -0.026185713708400726318f},
      {-0.017808118835091590881f, -0.13555657863616943359f, 0.045774281024932861328f},
      {0.025517517700791358948f, -0.073203325271606445312f, 0.064181394875049591064f}
    },
    {
      {-0.16434033215045928955f, 0.020888153463602066040f, 0.083558782935142517090f},
      {0.043444897979497909546f, 0.035161361098289489746f, -0.031355198472738265991f},
      {0.069570690393447875977f, -0.012537353672087192535f, -0.033098358660936355591f}
    },
    {
      {-0.018708197399973869324f, -0.011162775568664073944f, 0.055616538971662521362f},
      {0.078832067549228668213f, 0.069400809705257415771f, 0.033296596258878707886f},
      {-0.013203577138483524323f, 0.017535395920276641846f, 0.040264982730150222778f}
    },
    {
      {0.039477676153182983398f, 0.023892110213637351990f, 0.011052466928958892822f},
      {0.016824547201395034790f, -0.0021109504159539937973f, 0.058876462280750274658f},
      {-0.0086133759468793869019f, 0.0076163713820278644562f, 0.064156562089920043945f}
    },
    {
      {-0.057186655700206756592f, -0.077555492520332336426f, -0.035635866224765777588f},
      {-0.060904201120138168335f, -0.051824394613504409790f, 0.011802040040493011475f},
      {0.035268556326627731323f, -0.051911547780036926270f, -0.016026953235268592834f}
    },
    {
      {-0.0083058737218379974365f, 0.013271970674395561218f, 0.051246944814920425415f},
      {0.024308530613780021667f, 0.033043902367353439331f, 0.025860127061605453491f},
      {0.052429363131523132324f, 0.027344228699803352356f, 0.055991735309362411499f}
    },
    {
      {0.018537119030952453613f, -0.038107849657535552979f, 0.018451731652021408081f},
      {0.053448624908924102783f, -0.0082743354141712188721f, -0.0021302120294421911240f},
      {-0.0098685314878821372986f, 0.0041525638662278652191f, -0.046932466328144073486f}
    },
    {
      {-0.058154053986072540283f, 0.025088947266340255737f, -0.13602644205093383789f},
      {-0.036225181072950363159f, -0.0096675166860222816467f, -0.12073534727096557617f},
      {0.051654510200023651123f, 0.064805895090103149414f, -0.025620223954319953918f}
    },
    {
      {0.0033719507046043872833f, -0.075305111706256866455f, -0.055503606796264648438f},
      {-0.048738032579421997070f, -0.080541655421257019043f, -0.042073208838701248169f},
      {0.046276286244392395020f, -0.086289435625076293945f, -0.012444410473108291626f}
    },
    {
      {-0.017088487744331359863f, 0.034123986959457397461f, 0.068482115864753723145f},
      {0.023972062394022941589f, 0.033618446439504623413f, 0.034140773117542266846f},
      {-0.0050718588754534721375f, 0.0028105017263442277908f, -0.057894214987754821777f}
    },
    {
      {-0.079333104193210601807f, -0.072211608290672302246f, -0.16906672716140747070f},
      {-0.034424997866153717041f, -0.047687292098999023438f, -0.089866995811462402344f},
      {0.025966012850403785706f, 0.021917328238487243652f, 0.010932400822639465332f}
    },
    {
      {-0.089746601879596710205f, -0.048895400017499923706f, -0.12651200592517852783f},
      {-0.032000955194234848022f, -0.020658181980252265930f, -0.057316035032272338867f},
      {0.043934687972068786621f, -0.0058042868040502071381f, 0.051592823117971420288f}
    },
    {
      {0.0039771697483956813812f, -0.11663459986448287964f, -0.068466342985630035400f},
      {-0.063423387706279754639f, -0.13247253000736236572f, -0.052086446434259414673f},
      {0.048212476074695587158f, 0.013272830285131931305f, 0.019030660390853881836f}
    },
    {
      {-0.038688786327838897705f, 0.073557294905185699463f, -0.031596012413501739502f},
      {-0.010428695008158683777f, 0.025616044178605079651f, 0.028268968686461448669f},
      {-0.071178965270519256592f, -0.089578710496425628662f, 0.038322433829307556152f}
    },
    {
      {-0.050783973187208175659f, -0.16318789124488830566f, -0.024103388190269470215f},
      {-0.0077132242731750011444f, -0.089567571878433227539f, -0.069040417671203613281f},
      {0.0064188227988779544830f, 0.030240876600146293640f, 0.052929341793060302734f}
    }
  },
  {
    {
      {0.091455064713954925537f, -0.055453002452850341797f, -0.024856310337781906128f},
      {0.11183334887027740479f, -0.013441418297588825226f, -0.056486301124095916748f},
      {0.031621739268302917480f, 0.017896780744194984436f, -0.020555894821882247925f}
    },
    {
      {0.015454875305294990540f, 0.0052085313946008682251f, -0.051970265805721282959f},
      {-0.046799551695585250854f, 0.073599338531494140625f, 0.10193245112895965576f},
      {-0.071868874132633209229f, -0.051105827093124389648f, -0.033315151929855346680f}
    },
    {
      {-0.062781229615211486816f, 0.00067651469726115465164f, 0.10341384261846542358f},
      {-0.085126683115959167480f, 0.0065035843290388584137f, 0.056950151920318603516f},
      {0.035261042416095733643f, 0.016945620998740196228f, 0.039480395615100860596f}
    },
    {
      {-0.11371738463640213013f, 0.021468723192811012268f, 0.022706942632794380188f},
      {0.048188533633947372437f, 0.039096411317586898804f, 0.019493669271469116211f},
      {0.065295904874801635742f, 0.027298239991068840027f, 0.065181344747543334961f}
    },
    {
      {0.011251606978476047516f, 0.036223202943801879883f, 0.0099667711183428764343f},
      {-0.025564625859260559082f, -0.012003490701317787170f, -0.0026944261044263839722f},
      {0.015460257418453693390f, -0.016332235187292098999f, -0.022556453943252563477f}
    },
    {
      {0.084498263895511627197f, 0.034703925251960754395f, 0.034919552505016326904f},
      {-0.059911005198955535889f, 0.049822159111499786377f, -0.017425736412405967712f},
      {-0.026909457519650459290f, 0.040462777018547058105f, 0.0082695968449115753174f}
    },
    {
      {0.032374303787946701050f, 0.0080914376303553581238f, 0.0075360033661127090454f},
      {-0.0085716871544718742371f, 0.074422419071197509766f, -0.062383279204368591309f},
      {0.028308678418397903442f, 0.011988707818090915680f, -0.0069121094420552253723f}
    },
    {
      {-0.053149066865444183350f, -0.036903701722621917725f, -0.0012560227187350392342f},
      {-0.023866303265094757080f, 0.015156451612710952759f, 0.062867969274520874023f},
      {-0.041929770261049270630f, 0.012234488502144813538f, 0.0016119139036163687706f}
    },
    {
      {0.047728955745697021484f, 0.0021891433279961347580f, 0.012787831947207450867f},
      {0.092938378453254699707f, 0.025015741586685180664f, -0.024525199085474014282f},
      {0.068200141191482543945f, 0.023764397948980331421f, -0.057988774031400680542f}
    },
    {
      {0.046129211783409118652f, 0.086390607059001922607f, 0.070426747202873229980f},
      {-0.046582330018281936646f, 0.034995924681425094604f, 0.037719115614891052246f},
      {0.066265411674976348877f, -0.0011176378466188907623f, 0.083163879811763763428f}
    },
    {
      {0.086207829415798187256f, -0.070749595761299133301f, -0.011977296322584152222f},
      {0.10698860883712768555f, -0.010290925391018390656f, -0.067128375172615051270f},
      {0.012320876121520996094f, -0.0030058179982006549835f, -0.079926796257495880127f}
    },
    {
      {-0.11382119357585906982f, -0.0017903520492836833000f, -0.0030995004344731569290f},
      {-0.090751096606254577637f, 0.052874136716127395630f, -0.00025114283198490738869f},
      {-0.035356387495994567871f, 0.045459657907485961914f, -0.017204027622938156128f}
    },
    {
      {-0.013186606578528881073f, 0.00081274664262309670448f, -0.084802687168121337891f},
      {0.063778251409530639648f, 0.0047908546403050422668f, -0.0056983917020261287689f},
      {0.030342631042003631592f, -0.028307903558015823364f, 0.018005497753620147705f}
    },
    {
      {0.0096105663105845451355f, 0.016629800200462341309f, 0.016385519877076148987f},
      {0.0029014307074248790741f, 0.023243153467774391174f, 0.010087996721267700195f},
      {-0.0049969851970672607422f, -0.048714358359575271606f, -0.059422250837087631226f}
    },
    {
      {0.013437241315841674805f, 0.023510137572884559631f, 0.044007498770952224731f},
      {-0.0024528268259018659592f, 0.020253716036677360535f, 0.073172494769096374512f},
      {-0.045070640742778778076f, 0.12491872906684875488f, -0.028704645112156867981f}
    },
    {
      {-0.037196516990661621094f, 0.0027511913795024156570f, 0.056000195443630218506f},
      {-0.091774754226207733154f, 0.095447286963462829590f, 0.044213440269231796265f},
      {0.011453024111688137054f, -0.014373479411005973816f, -0.034234352409839630127f}
    },
    {
      {0.037408925592899322510f, -0.032188329845666885376f, -0.017244610935449600220f},
      {-0.0055061709135770797729f, -0.0023214011453092098236f, 0.063714407384395599365f},
      {0.052849639207124710083f, 0.028645997866988182068f, 0.021431101486086845398f}
    },
    {
      {-0.027588540688157081604f, -0.0085489619523286819458f, 0.0021022071596235036850f},
      {0.042126562446355819702f, 0.037675693631172180176f, -0.050890732556581497192f},
      {0.074538141489028930664f, -0.010814214125275611877f, -0.041590668261051177979f}
    },
    {
      {-0.073060780763626098633f, 0.047797463834285736084f, 0.056597724556922912598f},
      {0.042773492634296417236f, 0.046210132539272308350f, 9.6730276709422469139e-05f},
      {-0.079751335084438323975f, -0.0086389146745204925537f, 0.016244050115346908569f}
    },
    {
      {-0.083429828286170959473f, 0.048781547695398330688f, 0.11629781126976013184f},
      {-0.10097984224557876587f, -0.012384048663079738617f, 0.034313771873712539673f},
      {0.026517633348703384399f, -0.043489333242177963257f, 0.016829611733555793762f}
    },
    {
      {-0.012946149334311485291f, 0.0058180186897516250610f, -0.00050714344251900911331f},
      {-0.062767744064331054688f, 0.027256065979599952698f, -0.0036791132297366857529f},
      {0.0093240654096007347107f, -0.082459479570388793945f, -0.068089738488197326660f}
    },
    {
      {-0.057666100561618804932f, 0.021380100399255752563f, 0.062873803079128265381f},
      {-0.096226386725902557373f, 0.037604726850986480713f, -0.0037217268254607915878f},
      {0.033120024949312210083f, -0.015345193445682525635f, 0.0022646610159426927567f}
    },
    {
      {-0.064810916781425476074f, -0.015541986562311649323f, -0.020248405635356903076f},
      {-0.0039785671979188919067f, 0.038453903049230575562f, 0.024033585563302040100f},
      {0.079059340059757232666f, -0.028407115489244461060f, 0.031269814819097518921f}
    },
    {
      {0.019546430557966232300f, 0.014027879573404788971f, -0.041353818029165267944f},
      {0.059705708175897598267f, 0.038448885083198547363f, 0.0064457659609615802765f},
      {0.077794119715690612793f, -0.00015012962103355675936f, -0.023558029904961585999f}
    },
    {
      {0.067033171653747558594f, -0.0098183900117874145508f, -0.0062105348333716392517f},
      {-0.047645695507526397705f, -0.0045993598178029060364f, -0.010746000334620475769f},
      {-0.094041608273983001709f, 0.020634286105632781982f, 0.033248100429773330688f}
    },
    {
      {0.032293368130922317505f, -0.067288242280483245850f, -0.0059928684495389461517f},
      {0.061900582164525985718f, -0.0075149973854422569275f, 0.00030790839809924364090f},
      {0.047555964440107345581f, -0.023706045001745223999f, 0.036156632006168365479f}
    },
    {
      {0.022510843351483345032f, 0.0056924717500805854797f, 0.053391717374324798584f},
      {-0.033891256898641586304f, 0.098822765052318572998f, 0.10641317069530487061f},
      {0.0023175263777375221252f, -0.015868864953517913818f, 0.017429666593670845032f}
    },
    {
      {0.064874202013015747070f, 0.011342661455273628235f, -0.0086661446839570999146f},
      {0.0057078935205936431885f, 0.014505612663924694061f, 0.0047904509119689464569f},
      {-0.045711118727922439575f, 0.081615366041660308838f, 0.036471985280513763428f}
    },
    {
      {0.089831352233886718750f, 0.034222971647977828979f, 0.059722572565078735352f},
      {-0.025180533528327941895f, -0.028520358726382255554f, -0.012610254809260368347f},
      {-0.016245087608695030212f, 0.0014680547174066305161f, 0.056535013020038604736f}
    },
    {
      {-0.0056668068282306194305f, -0.025989526882767677307f, 0.014348329976201057434f},
      {0.062041919678449630737f, -0.063343890011310577393f, -0.010070666670799255371f},
      {-0.026584964245557785034f, -0.039375845342874526978f, 0.017669893801212310791f}
    },
    {
      {-0.10682108998298645020f, 0.0010876902379095554352f, 0.034762348979711532593f},
      {-0.032838840037584304810f, 0.038800723850727081299f, -0.011203003115952014923f},
      {0.12769597768783569336f, 0.012685244902968406677f, -0.066323675215244293213f}
    },
    {
      {-0.00013776638661511242390f, 0.016681546345353126526f, -0.0049164150841534137726f},
      {0.046005018055438995361f, -0.034610409289598464966f, 0.023882241919636726379f},
      {0.064724802970886230469f, 0.0062106773257255554199f, 0.036509808152914047241f}
    }
  },
  {
    {
      {-0.058191005140542984009f, -0.041650462895631790161f, -0.079289861023426055908f},
      {0.051379062235355377197f, -0.024097049608826637268f, 0.013032527640461921692f},
      {-0.036655988544225692749f, 0.0095253661274909973145f, 0.072950743138790130615f}
    },
    {
      {0.033122897148132324219f, 0.044001471251249313354f, 0.0019818653818219900131f},
      {0.010791577398777008057f, -0.0085209440439939498901f, 0.11328820139169692993f},
      {0.037721205502748489380f, 0.033104185014963150024f, -0.027255550026893615723f}
    },
    {
      {0.014251799322664737701f, -0.098825335502624511719f, 0.032978031784296035767f},
      {-0.045509759336709976196f, -0.0073309731669723987579f, 0.073650680482387542725f},
      {0.0071729193441569805145f, -0.037781473249197006226f, 0.13699750602245330811f}
    },
    {
      {-0.0090940305963158607483f, -0.0023483654949814081192f, 0.040145531296730041504f},
      {0.060343228280544281006f, -0.013215713202953338623f, 0.017701955512166023254f},
      {-0.017266524955630302429f, -0.017081899568438529968f, 0.056956980377435684204f}
    },
    {
      {-0.010216389782726764679f, -0.046308752149343490601f, 0.0020443445537239313126f},
      {-0.016345193609595298767f, 0.0018205393571406602859f, 0.011600794270634651184f},
      {0.027415985241532325745f, 0.018717009574174880981f, -0.041606180369853973389f}
    },
    {
      {0.0061024953611195087433f, 0.00075176672544330358505f, 0.13781666755676269531f},
      {0.034490335732698440552f, -0.021634805947542190552f, 0.032046400010585784912f},
      {-0.016961002722382545471f, -0.030371170490980148315f, 0.011079516261816024780f}
    },
    {
      {0.019868001341819763184f, -0.0092020276933908462524f, 0.026046842336654663086f},
      {0.037713598459959030151f, -0.028290681540966033936f, 0.065381757915019989014f},
      {0.0015289632137864828110f, -0.032761860638856887817f, -0.0047785644419491291046f}
    },
    {
      {-0.034310847520828247070f, 0.025532385334372520447f, 0.060081306844949722290f},
      {-0.0074685504660010337830f, 0.024694900959730148315f, 0.068190954625606536865f},
      {-0.051161561161279678345f, 0.0083065032958984375000f, 0.078975185751914978027f}
    },
    {
      {-0.030045125633478164673f, -0.014165016822516918182f, -0.0040862876921892166138f},
      {-0.068390168249607086182f, 0.058784984052181243896f, 0.035330288112163543701f},
      {-0.078884281218051910400f, 0.054960735142230987549f, 0.052809357643127441406f}
    },
    {
      {-0.016971614211797714233f, -0.020833298563957214355f, 0.068499162793159484863f},
      {0.081108376383781433105f, -0.015893371775746345520f, 0.081457205116748809814f},
      {0.026890279725193977356f, 0.00043070447281934320927f, 0.042574718594551086426f}
    },
    {
      {-0.0012507310602813959122f, 0.045217093080282211304f, -0.047348573803901672363f},
      {-0.078480377793312072754f, 0.081701390445232391357f, -0.0052893674001097679138f},
      {0.11253672093152999878f, 0.13237273693084716797f, 0.016248678788542747498f}
    },
    {
      {-0.040513951331377029419f, 0.014847910962998867035f, -0.020151991397142410278f},
      {0.047403119504451751709f, -0.034128859639167785645f, -0.054663896560668945312f},
      {0.031999833881855010986f, -0.045618511736392974854f, -0.062268823385238647461f}
    },
    {
      {0.0070224250666797161102f, 0.0017028666334226727486f, 0.060820840299129486084f},
      {0.035353168845176696777f, -0.013884877786040306091f, 0.14805141091346740723f},
      {0.021135896444320678711f, 0.058811616152524948120f, -0.048266537487506866455f}
    },
    {
      {-0.053719304502010345459f, 0.055969201028347015381f, -0.026690199971199035645f},
      {-0.0084608625620603561401f, -0.0053801988251507282257f, 0.0092679625377058982849f},
      {-0.054220803081989288330f, 0.028480818495154380798f, 0.012788106687366962433f}
    },
    {
      {0.014093985781073570251f, -0.0056843478232622146606f, 0.097466811537742614746f},
      {-0.032574735581874847412f, -0.063875943422317504883f, 0.042185544967651367188f},
      {0.031675688922405242920f, -0.00099699501879513263702f, 0.027925530448555946350f}
    },
    {
      {-0.045713417232036590576f, -0.063385337591171264648f, 0.010140052996575832367f},
      {0.0024986127391457557678f, -0.010819526389241218567f, -0.0055274935439229011536f},
      {-0.067095078527927398682f, 0.0020017186179757118225f, 0.0082117086276412010193f}
    },
    {
      {-0.035739101469516754150f, -0.022547200322151184082f, 0.045853696763515472412f},
      {0.028778832405805587769f, -0.0027828693855553865433f, 0.049584589898586273193f},
      {-0.047757718712091445923f, 0.023293677717447280884f, 0.068324811756610870361f}
    },
    {
      {0.0084407627582550048828f, 0.042643748223781585693f, -0.050107408314943313599f},
      {-0.036546986550092697144f, -0.085979312658309936523f, 0.12491378933191299438f},
      {-0.11747235804796218872f, -0.025358382612466812134f, 0.084676921367645263672f}
    },
    {
      {-0.079586587846279144287f, 0.013063626363873481750f, -0.013669494539499282837f},
      {0.035911086946725845337f, 0.0027185396756976842880f, 0.048370927572250366211f},
      {0.026535226032137870789f, -0.033738810569047927856f, 0.033402379602193832397f}
    },
    {
      {0.038888514041900634766f, -0.054910462349653244019f, 0.041992384940385818481f},
      {-0.077993988990783691406f, -0.073004946112632751465f, 0.043705884367227554321f},
      {-0.025570169091224670410f, -0.041963052004575729370f, 0.084011688828468322754f}
    },
    {
      {0.047436583787202835083f, -0.0069524762220680713654f, 0.069627411663532257080f},
      {-0.021151663735508918762f, 0.022568335756659507751f, 0.066574633121490478516f},
      {-0.13616278767585754395f, 0.024809775874018669128f, 0.0026764515787363052368f}
    },
    {
      {-0.088117010891437530518f, -0.055616725236177444458f, 0.091785579919815063477f},
      {-0.011344128288328647614f, -0.0065804393962025642395f, 0.070062711834907531738f},
      {0.017423853278160095215f, -0.00035677669802680611610f, -0.0035470037255436182022f}
    },
    {
      {-0.041077826172113418579f, -0.088186934590339660645f, 0.069764658808708190918f},
      {-0.032066240906715393066f, -0.041542641818523406982f, 0.092310294508934020996f},
      {0.035177525132894515991f, -0.024231789633631706238f, 0.046182204037904739380f}
    },
    {
      {0.061706926673650741577f, 0.010035792365670204163f, 0.042438544332981109619f},
      {0.030659254640340805054f, 0.021004840731620788574f, 0.022961458191275596619f},
      {-0.047398943454027175903f, 0.041529521346092224121f, -0.049549844115972518921f}
    },
    {
      {0.035868424922227859497f, 0.020422829315066337585f, 0.072885408997535705566f},
      {-0.0053328997455537319183f, 0.0096544390544295310974f, 0.065577052533626556396f},
      {0.081546850502490997314f, -0.0063506243750452995300f, 0.058338925242424011230f}
    },
    {
      {0.0052422569133341312408f, -0.017802577465772628784f, 0.053460389375686645508f},
      {-0.0095579847693443298340f, -0.069398008286952972412f, 0.056606639176607131958f},
      {-0.030116138979792594910f, -0.024609541520476341248f, 0.038225147873163223267f}
    },
    {
      {0.047674484550952911377f, 0.021149920299649238586f, 0.11950193345546722412f},
      {-0.032685793936252593994f, -0.024595616385340690613f, 7.4835501436609774828e-05f},
      {0.00043943186756223440170f, -0.089840583503246307373f, 0.043912496417760848999f}
    },
    {
      {0.063609652221202850342f, 0.022972268983721733093f, 0.087249569594860076904f},
      {0.063615322113037109375f, -0.0015495957341045141220f, 0.058489296585321426392f},
      {0.060572601854801177979f, 0.022440040484070777893f, 0.055115219205617904663f}
    },
    {
      {0.031178623437881469727f, 0.016466164961457252502f, 0.068608179688453674316f},
      {0.080625571310520172119f, 0.035385839641094207764f, 0.037212282419204711914f},
      {0.036886833608150482178f, -0.034538403153419494629f, 0.040782697498798370361f}
    },
    {
      {-0.059938807040452957153f, -0.058859318494796752930f, 0.090588904917240142822f},
      {0.0065650376491248607635f, -0.074327781796455383301f, 0.011981645599007606506f},
      {0.073557399213314056396f, 0.035231221467256546021f, 0.024321071803569793701f}
    },
    {
      {0.0017770198173820972443f, 0.048101712018251419067f, -0.036773853003978729248f},
      {0.019932566210627555847f, -0.034171402454376220703f, 0.048936150968074798584f},
      {-0.075021415948867797852f, -0.025671977549791336060f, 0.016365900635719299316f}
    },
    {
      {0.045972980558872222900f, 0.0020551232155412435532f, 0.0058572939597070217133f},
      {-0.042206075042486190796f, -0.032591369003057479858f, 0.0020046667195856571198f},
      {0.044641572982072830200f, -0.0013828939991071820259f, 0.015352779068052768707f}
    }
  },
  {
    {
      {0.071660950779914855957f, -0.062680244445800781250f, 0.021978544071316719055f},
      {0.10902508348226547241f, -0.064852707087993621826f, 0.013126739300787448883f},
      {-0.029929902404546737671f, -0.045945335179567337036f, -0.063433215022087097168f}
    },
    {
      {-0.030028352513909339905f, -0.073524430394172668457f, 0.028616661205887794495f},
      {-0.018156869336962699890f, -0.015036472119390964508f, -0.013173549436032772064f},
      {0.028417162597179412842f, -0.021087301895022392273f, -0.058186586946249008179f}
    },
    {
      {0.048593521118164062500f, 0.032393027096986770630f, 0.046170212328433990479f},
      {0.0069288429804146289825f, 0.062175005674362182617f, -0.065288871526718139648f},
      {0.033480126410722732544f, -0.028827561065554618835f, 0.013701903633773326874f}
    },
    {
      {-0.055211618542671203613f, -0.019918050616979598999f, 0.0057303332723677158356f},
      {0.013137894682586193085f, 0.049055129289627075195f, 0.063376158475875854492f},
      {0.074166297912597656250f, -0.030048891901969909668f, -0.049965851008892059326f}
    },
    {
      {-0.055208664387464523315f, -0.024804772809147834778f, -0.021591482684016227722f},
      {0.035758346319198608398f, 0.0044476785697042942047f, -0.0086057223379611968994f},
      {0.063182525336742401123f, 0.012933849357068538666f, -0.11055165529251098633f}
    },
    {
      {-0.10514421015977859497f, 0.0021682931110262870789f, 0.019416870549321174622f},
      {-0.011122791096568107605f, -0.032283227890729904175f, 0.031913854181766510010f},
      {0.023940216749906539917f, 0.037124939262866973877f, 0.10833045840263366699f}
    },
    {
      {-0.13660421967506408691f, -0.046469189226627349854f, 0.0035196908283978700638f},
      {-0.027226338163018226624f, -0.068060941994190216064f, -0.016727060079574584961f},
      {0.0037435460835695266724f, -0.051316905766725540161f, 0.019703555852174758911f}
    },
    {
      {-0.062442477792501449585f, -0.00024747051065787672997f, -0.084281750023365020752f},
      {0.017029110342264175415f, 0.025683522224426269531f, -0.096974149346351623535f},
      {-0.0039750365540385246277f, -0.052975624799728393555f, -0.053485512733459472656f}
    },
    {
      {0.12427718937397003174f, -0.016852099448442459106f, 0.047286622226238250732f},
      {0.049281880259513854980f, 0.040842667222023010254f, 0.038597092032432556152f},
      {0.0092005431652069091797f, -0.028916226699948310852f, -0.040239237248897552490f}
    },
    {
      {-0.062680952250957489014f, -0.048808529973030090332f, 0.026665003970265388489f},
      {0.026781901717185974121f, 0.030740361660718917847f, 0.0048325420357286930084f},
      {0.033647350966930389404f, 0.0023332638666033744812f, 0.032131657004356384277f}
    },
    {
      {-0.091842502355575561523f, -0.067998304963111877441f, -0.074788749217987060547f},
      {0.067646220326423645020f, 0.087912105023860931396f, 0.030444560572504997253f},
      {0.098790228366851806641f, 0.011547506786882877350f, -0.045894049108028411865f}
    },
    {
      {0.0027617462910711765289f, -0.011095169000327587128f, -0.0015535415150225162506f},
      {-0.032075185328722000122f, 0.010993002913892269135f, 0.026544461026787757874f},
      {0.061025500297546386719f, 0.066368453204631805420f, -0.026983032003045082092f}
    },
    {
      {0.014515645802021026611f, 0.024661256000399589539f, -0.015133488923311233521f},
      {-0.036020666360855102539f, -0.010317251086235046387f, 0.0041019269265234470367f},
      {-0.069791451096534729004f, -0.095928736031055450439f, 0.077986590564250946045f}
    },
    {
      {0.021821448579430580139f, 0.017119174823164939880f, 0.034645535051822662354f},
      {0.024545270949602127075f, 0.052889179438352584839f, -0.00015895611431915313005f},
      {0.047077316790819168091f, 0.017898555845022201538f, -0.097065538167953491211f}
    },
    {
      {-0.17144449055194854736f, 0.076086066663265228271f, 0.044047977775335311890f},
      {-0.086708568036556243896f, 0.091143630445003509521f, -0.098334863781929016113f},
      {0.010363810695707798004f, -0.064553104341030120850f, -0.027055881917476654053f}
    },
    {
      {-0.099263370037078857422f, -0.039921466261148452759f, -0.052984200417995452881f},
      {-0.049113649874925613403f, 0.046782873570919036865f, -0.010250706225633621216f},
      {0.012033306993544101715f, -0.020898634567856788635f, -0.11172488331794738770f}
    },
    {
      {-0.010467332787811756134f, -0.035164237022399902344f, -0.0043092947453260421753f},
      {0.018919818103313446045f, 0.075972087681293487549f, 0.0010519050993025302887f},
      {0.046470668166875839233f, -0.11398972570896148682f, -0.14270240068435668945f}
    },
    {
      {0.056560993194580078125f, 0.073923312127590179443f, -0.031283389776945114136f},
      {0.014543320983648300171f, 0.056882973760366439819f, 0.013701271265745162964f},
      {0.021830258890986442566f, -0.039802286773920059204f, -0.0046354569494724273682f}
    },
    {
      {-0.041323509067296981812f, -0.088459521532058715820f, 0.025465210899710655212f},
      {0.10859370976686477661f, 0.10814491659402847290f, 0.0087227961048483848572f},
      {0.0061198058538138866425f, 0.042228076606988906860f, 0.10428813099861145020f}
    },
    {
      {0.025020543485879898071f, 0.0050618639215826988220f, 0.037332061678171157837f},
      {-0.0036780324298888444901f, 0.0084923831745982170105f, 0.028736725449562072754f},
      {0.045120097696781158447f, -0.025248177349567413330f, -0.027431463822722434998f}
    },
    {
      {0.058645941317081451416f, -0.021496782079339027405f, -0.094212293624877929688f},
      {-0.021889312192797660828f, 0.065240040421485900879f, -0.033469431102275848389f},
      {-0.055022343993186950684f, 0.036642938852310180664f, 0.045659590512514114380f}
    },
    {
      {-0.074569493532180786133f, -0.00099346542265266180038f, -0.020198777318000793457f},
      {-0.059855885803699493408f, 0.047428764402866363525f, -0.035680461674928665161f},
      {-0.025939529761672019958f, -0.083275571465492248535f, -0.049223665148019790649f}
    },
    {
      {0.022898515686392784119f, 0.039916355162858963013f, -0.00046798793482594192028f},
      {-0.014571247622370719910f, -0.020682347938418388367f, 0.033550675958395004272f},
      {0.018527334555983543396f, -0.089189305901527404785f, -0.032363712787628173828f}
    },
    {
      {-0.083302021026611328125f, -0.077086620032787322998f, 0.0076346751302480697632f},
      {-0.010616805404424667358f, -0.027606884017586708069f, 0.0061363298445940017700f},
      {-0.041059911251068115234f, -0.041331153362989425659f, -0.22364337742328643799f}
    },
    {
      {0.021088548004627227783f, -0.026914842426776885986f, -0.0086068119853734970093f},
      {0.0082139959558844566345f, -0.059965863823890686035f, -0.017309505492448806763f},
      {0.022065753117203712463f, 0.022426845505833625793f, -0.0037445088382810354233f}
    },
    {
      {-0.022319605574011802673f, -0.094802707433700561523f, -0.0013128495775163173676f},
      {-0.0023333306889981031418f, -0.036168247461318969727f, -0.023968311026692390442f},
      {0.098154090344905853271f, -0.032685600221157073975f, 0.0026877149939537048340f}
    },
    {
      {-0.061925172805786132812f, -0.038138572126626968384f, 0.042582269757986068726f},
      {-0.052327226847410202026f, -0.0090464269742369651794f, -0.085351519286632537842f},
      {0.10726625472307205200f, -0.012046191841363906860f, 0.071619652211666107178f}
    },
    {
      {-0.028316250070929527283f, 0.014138198457658290863f, 0.047042764723300933838f},
      {0.032640155404806137085f, -0.048859432339668273926f, 0.023278087377548217773f},
      {0.018005339428782463074f, 0.0062809009104967117310f, 0.060315743088722229004f}
    },
    {
      {-0.034952912479639053345f, 0.018549786880612373352f, 0.050399962812662124634f},
      {-0.020109742879867553711f, -0.031188540160655975342f, 0.036015152931213378906f},
      {0.053395166993141174316f, 0.027215592563152313232f, 0.10892542451620101929f}
    },
    {
      {-0.051089555025100708008f, -0.042753394693136215210f, 0.0043254410848021507263f},
      {-0.0041438131593167781830f, -0.0025999727658927440643f, 0.039235305041074752808f},
      {-0.019116740673780441284f, -0.083596743643283843994f, -0.072816684842109680176f}
    },
    {
      {-0.023965077474713325500f, 0.16869407892227172852f, -0.036532100290060043335f},
      {0.0010889841942116618156f, 0.0034947737585753202438f, 0.027137937024235725403f},
      {0.053721308708190917969f, -0.040249384939670562744f, 0.025405449792742729187f}
    },
    {
      {0.038430817425251007080f, 0.010702587664127349854f, -0.0053940196521580219269f},
      {0.041538480669260025024f, -0.049303073436021804810f, 0.0078239310532808303833f},
      {0.067524462938308715820f, 0.018896283581852912903f, -0.016421211883425712585f}
    }
  },
  {
    {
      {0.015204059891402721405f, -0.064230822026729583740f, 0.029820909723639488220f},
      {0.027735088020563125610f, -0.043678395450115203857f, 0.010915384627878665924f},
      {-0.098573602735996246338f, 0.010815969668328762054f, -0.029544914141297340393f}
    },
    {
      {0.0078757330775260925293f, 0.0065075815655291080475f, -0.010122100822627544403f},
      {0.028296014294028282166f, 0.070727512240409851074f, -0.079447224736213684082f},
      {-0.13886202871799468994f, -0.063439346849918365479f, -0.075199112296104431152f}
    },
    {
      {0.092712461948394775391f, -0.073776036500930786133f, -0.086432240903377532959f},
      {-0.011710111051797866821f, -0.061093255877494812012f, -0.24262396991252899170f},
      {-0.021721430122852325439f, -0.014111025258898735046f, -0.074052207171916961670f}
    },
    {
      {-0.0075866514816880226135f, 0.0068274145014584064484f, -0.032896611839532852173f},
      {0.043410521000623703003f, 0.061566535383462905884f, 0.080856852233409881592f},
      {0.067025572061538696289f, 0.012421449646353721619f, -0.0018054363317787647247f}
    },
    {
      {0.0086232107132673263550f, -0.019813057035207748413f, -0.0082619115710258483887f},
      {-0.0092023182660341262817f, -0.023156370967626571655f, -0.058761145919561386108f},
      {-0.023806944489479064941f, 0.032306276261806488037f, -0.051802325993776321411f}
    },
    {
      {0.040247425436973571777f, 0.074715971946716308594f, -0.012858605012297630310f},
      {-0.014205166138708591461f, 0.029808683320879936218f, -0.044717594981193542480f},
      {-0.019365461543202400208f, 0.012104511260986328125f, 0.045728240162134170532f}
    },
    {
      {0.040510147809982299805f, 0.096699610352516174316f, 0.035197969526052474976f},
      {0.042250253260135650635f, 0.027091514319181442261f, -0.067508243024349212646f},
      {-0.0078734969720244407654f, -0.017646299675107002258f, -0.016344932839274406433f}
    },
    {
      {0.066309951245784759521f, 0.070600748062133789062f, 0.025682343170046806335f},
      {0.012727115303277969360f, 0.021732220426201820374f, -0.017943946644663810730f},
      {-0.053885556757450103760f, 0.027042500674724578857f, 0.085291624069213867188f}
    },
    {
      {-0.11965977400541305542f, -0.070426523685455322266f, 0.040192488580942153931f},
      {-0.15296788513660430908f, -0.055986601859331130981f, 0.013652306050062179565f},
      {-0.078244097530841827393f, -0.012173028662800788879f, -0.023200064897537231445f}
    },
    {
      {-0.0040479428134858608246f, 0.12028110027313232422f, -0.082574650645256042480f},
      {-0.071737654507160186768f, 0.0066131311468780040741f, -0.043026071041822433472f},
      {0.013828727416694164276f, -0.014711628668010234833f, 0.026129206642508506775f}
    },
    {
      {-0.035177603363990783691f, -0.041254334151744842529f, -0.024451972916722297668f},
      {0.013978145085275173187f, -0.064359165728092193604f, -0.0096785072237253189087f},
      {0.047429155558347702026f, -0.089403830468654632568f, -0.066108636558055877686f}
    },
    {
      {0.027662718668580055237f, 0.055632568895816802979f, -0.010811832733452320099f},
      {-0.019661258906126022339f, -0.079769968986511230469f, -0.10701020807027816772f},
      {0.064363151788711547852f, 0.0023277641739696264267f, 0.0073521174490451812744f}
    },
    {
      {0.010096997022628784180f, -0.084834426641464233398f, 0.0059924167580902576447f},
      {-0.045838866382837295532f, -0.042120616883039474487f, 0.019603479653596878052f},
      {-0.054844584316015243530f, 0.0098803257569670677185f, -0.050044730305671691895f}
    },
    {
      {-0.021491663530468940735f, 0.012681044638156890869f, -0.046800456941127777100f},
      {0.010917332954704761505f, 0.0033919441048055887222f, -0.13670659065246582031f},
      {-0.019183218479156494141f, -0.10867182910442352295f, -0.24823164939880371094f}
    },
    {
      {0.023009518161416053772f, 0.062466125935316085815f, -0.059877309948205947876f},
      {-0.033806409686803817749f, 0.15568868815898895264f, 0.024431975558400154114f},
      {-0.047344960272312164307f, 0.10407064855098724365f, -0.10537517070770263672f}
    },
    {
      {-0.052444323897361755371f, -0.047704897820949554443f, -0.059798642992973327637f},
      {-0.047729089856147766113f, -0.058576188981533050537f, -0.095277689397335052490f},
      {0.0014095671940594911575f, 0.0023998911492526531219f, -0.025119705125689506531f}
    },
    {
      {0.0022376847919076681137f, 0.0027772735338658094406f, 0.019159408286213874817f},
      {0.049272250384092330933f, 0.038226913660764694214f, 0.016439730301499366760f},
      {0.041675936430692672729f, 0.049230504781007766724f, -0.047246456146240234375f}
    },
    {
      {0.019866537302732467651f, -0.045827433466911315918f, 0.054894890636205673218f},
      {-0.037227295339107513428f, -0.062641307711601257324f, -0.049370456486940383911f},
      {-0.10832141339778900146f, -0.080494239926338195801f, -0.085072979331016540527f}
    },
    {
      {0.043542154133319854736f, -0.026830695569515228271f, -0.023191981017589569092f},
      {0.011504124850034713745f, -0.047214277088642120361f, 0.0051157218404114246368f},
      {0.052300676703453063965f, 0.068384699523448944092f, -0.050731677561998367310f}
    },
    {
      {0.040128245949745178223f, 0.012276389636099338531f, -0.081147909164428710938f},
      {0.021190300583839416504f, -0.0081231389194726943970f, -0.073315538465976715088f},
      {0.0069007272832095623016f, 0.024262137711048126221f, -0.018194178119301795959f}
    },
    {
      {0.036097913980484008789f, 0.041830435395240783691f, 0.065982215106487274170f},
      {0.031674344092607498169f, 0.016256364062428474426f, -0.028162607923150062561f},
      {-0.061253204941749572754f, -0.030240025371313095093f, -0.087547950446605682373f}
    },
    {
      {-0.015922276303172111511f, -0.016517834737896919250f, -0.081892959773540496826f},
      {-0.029000883921980857849f, -0.051978211849927902222f, -0.021112475544214248657f},
      {-0.0049385307356715202332f, 0.045370947569608688354f, -0.021530641242861747742f}
    },
    {
      {0.042510148137807846069f, 0.047568358480930328369f, -0.011155462823808193207f},
      {0.015261013060808181763f, 0.059347342699766159058f, 0.060409259051084518433f},
      {0.028925577178597450256f, 0.028627587482333183289f, 0.072187758982181549072f}
    },
    {
      {0.00089738261885941028595f, -0.011825485154986381531f, 0.046836901456117630005f},
      {0.081272266805171966553f, 0.027869718149304389954f, -0.0043885968625545501709f},
      {-0.0088569754734635353088f, -0.063267029821872711182f, -0.12584826350212097168f}
    },
    {
      {0.016866350546479225159f, 0.039826545864343643188f, -0.0052587306126952171326f},
      {-0.010936579667031764984f, 0.0024847656022757291794f, -0.043224118649959564209f},
      {-0.055094260722398757935f, -0.095558516681194305420f, -0.027726078405976295471f}
    },
    {
      {0.0046681282110512256622f, -0.077742718160152435303f, 0.025259023532271385193f},
      {-0.010797308757901191711f, -0.019146122038364410400f, -0.050887346267700195312f},
      {0.066656231880187988281f, 0.064316190779209136963f, -0.0033661802299320697784f}
    },
    {
      {0.037182901054620742798f, 0.094555735588073730469f, 0.063244938850402832031f},
      {0.051476996392011642456f, 0.11826629191637039185f, -0.047229308634996414185f},
      {-0.039071828126907348633f, -0.10034686326980590820f, -0.048461616039276123047f}
    },
    {
      {0.055616699159145355225f, 0.088910207152366638184f, -0.0072841602377593517303f},
      {-0.0096756545826792716980f, 0.0039059564005583524704f, -0.048591144382953643799f},
      {-0.050617288798093795776f, -0.052671384066343307495f, -0.025484168902039527893f}
    },
    {
      {0.032043639570474624634f, 0.083041138947010040283f, 0.021552456542849540710f},
      {-0.070969767868518829346f, 0.046596851199865341187f, -0.041598755866289138794f},
      {-0.060164425522089004517f, -0.043693140149116516113f, -0.039193090051412582397f}
    },
    {
      {0.022084858268499374390f, -0.052697494626045227051f, -0.048665080219507217407f},
      {-0.017149331048130989075f, -0.030222382396459579468f, -0.033339284360408782959f},
      {-0.040380999445915222168f, -0.045030869543552398682f, -0.037375085055828094482f}
    },
    {
      {0.046276856213808059692f, -0.0091354968026280403137f, -0.013243599794805049896f},
      {-0.031399294734001159668f, -0.030137086287140846252f, 0.021856591105461120605f},
      {0.041859973222017288208f, -0.0038098790682852268219f, 0.029878133907914161682f}
    },
    {
      {0.033392932265996932983f, 0.027827039361000061035f, -0.0089558968320488929749f},
      {0.052985716611146926880f, 0.0062312111258506774902f, -0.017793010920286178589f},
      {-0.010672989301383495331f, 0.0023644063621759414673f, -0.0063478844240307807922f}
    }
  },
  {
    {
      {-0.036202404648065567017f, 0.0029629322234541177750f, -0.058976318687200546265f},
      {-0.0025126158725470304489f, 0.082560516893863677979f, -0.0099672870710492134094f},
      {-0.024020962417125701904f, -0.032929271459579467773f, -0.010047754272818565369f}
    },
    {
      {0.077493570744991302490f, -0.039838481694459915161f, 0.10379802435636520386f},
      {0.045029584318399429321f, -0.033866424113512039185f, 0.038271550089120864868f},
      {0.020120823755860328674f, 0.055238556116819381714f, -0.022736495360732078552f}
    },
    {
      {0.024888364598155021667f, -0.043084956705570220947f, -0.053257774561643600464f},
      {0.0012891120277345180511f, -0.090227417647838592529f, -0.014354397542774677277f},
      {-0.015712190419435501099f, 0.0049068434163928031921f, -0.026010468602180480957f}
    },
    {
      {-0.091587066650390625000f, -0.14164325594902038574f, 0.034652993083000183105f},
      {-0.00035131259937770664692f, 0.017883110791444778442f, -0.026373725384473800659f},
      {-0.044829320162534713745f, 0.0039736451581120491028f, -0.049909915775060653687f}
    },
    {
      {-0.0011539944680407643318f, -0.013185000978410243988f, 0.064120396971702575684f},
      {0.036670550704002380371f, 0.036413758993148803711f, 0.045949392020702362061f},
      {0.033770058304071426392f, 0.044848013669252395630f, 0.0016658024396747350693f}
    },
    {
      {-0.13676606118679046631f, -0.040797840803861618042f, 0.10430569201707839966f},
      {-0.097814254462718963623f, 0.0028205025009810924530f, 0.052043490111827850342f},
      {-0.057292990386486053467f, -0.0055186003446578979492f, -0.0091516524553298950195f}
    },
    {
      {0.0014007526915520429611f, -0.081896834075450897217f, -0.0010856977896764874458f},
      {-0.042202267795801162720f, -0.0094536654651165008545f, 0.040892098098993301392f},
      {-0.15346844494342803955f, 0.054954838007688522339f, 0.021347036585211753845f}
    },
    {
      {-0.089697651565074920654f, -0.12846510112285614014f, -0.019243646413087844849f},
      {-0.015745913609862327576f, -0.090552233159542083740f, 0.012553788721561431885f},
      {-0.10692407190799713135f, 0.0014784507220610976219f, -0.062113024294376373291f}
    },
    {
      {0.013532426208257675171f, 0.044180706143379211426f, 0.12873400747776031494f},
      {0.038877677172422409058f, 0.047452159225940704346f, 0.042355518788099288940f},
      {0.039340600371360778809f, 0.0059762331657111644745f, -0.070842564105987548828f}
    },
    {
      {-0.14253832399845123291f, 0.0027711356524378061295f, 0.062014378607273101807f},
      {-0.048040486872196197510f, -0.030245419591665267944f, 0.034392736852169036865f},
      {0.0033565938938409090042f, 0.11265763640403747559f, 0.024082800373435020447f}
    },
    {
      {0.018911682069301605225f, 0.089825272560119628906f, -0.087759830057621002197f},
      {0.043145757168531417847f, 0.029037702828645706177f, -0.029379079118371009827f},
      {-0.069361165165901184082f, 0.051615603268146514893f, -0.085721366107463836670f}
    },
    {
      {-0.087118670344352722168f, -0.0063737253658473491669f, 0.11480028927326202393f},
      {0.042485047131776809692f, -0.0010135711636394262314f, 0.042098518460988998413f},
      {-0.017761128023266792297f, 0.11660794168710708618f, -0.025422893464565277100f}
    },
    {
      {-0.024267066270112991333f, 0.023145254701375961304f, 0.089220724999904632568f},
      {-0.022355692461133003235f, 0.043459288775920867920f, 0.00066233490360900759697f},
      {0.040569987148046493530f, -0.048517417162656784058f, -0.093672342598438262939f}
    },
    {
      {-0.055925834923982620239f, 0.040111746639013290405f, -0.029680574312806129456f},
      {-0.031941168010234832764f, -0.011095852591097354889f, 0.062100231647491455078f},
      {-0.034212127327919006348f, 0.053483944386243820190f, 0.0054819267243146896362f}
    },
    {
      {-0.040977425873279571533f, 0.0047247442416846752167f, -0.020617768168449401855f},
      {-0.0088894302025437355042f, -0.13407839834690093994f, 0.018685061484575271606f},
      {-0.046732854098081588745f, -0.024659037590026855469f, -0.037798233330249786377f}
    },
    {
      {0.041180536150932312012f, -0.16290061175823211670f, 0.10463948547840118408f},
      {0.029649434611201286316f, 0.069580532610416412354f, 0.040920808911323547363f},
      {0.076194927096366882324f, 0.067065104842185974121f, -0.045567180961370468140f}
    },
    {
      {0.045672010630369186401f, 0.011901744641363620758f, -0.069366015493869781494f},
      {-0.0076020327396690845490f, 0.0042434483766555786133f, -0.00082498166011646389961f},
      {0.0074227727018296718597f, 0.035207517445087432861f, -0.064516209065914154053f}
    },
    {
      {-0.056750010699033737183f, 0.052108079195022583008f, -0.066362716257572174072f},
      {-0.070358783006668090820f, -0.0052122860215604305267f, 0.051289353519678115845f},
      {-0.037983790040016174316f, -0.042206529527902603149f, 0.0085051320493221282959f}
    },
    {
      {-0.20325851440429687500f, -0.060746580362319946289f, -0.067910961806774139404f},
      {-0.067384801805019378662f, -0.014668883755803108215f, 0.040891792625188827515f},
      {-0.063294559717178344727f, 0.041088867932558059692f, -0.038555752485990524292f}
    },
    {
      {0.053492520004510879517f, -0.096603721380233764648f, -0.037767384201288223267f},
      {0.082801148295402526855f, 0.042700037360191345215f, 0.016925998032093048096f},
      {0.067404150962829589844f, 0.017841182649135589600f, -0.0055246064439415931702f}
    },
    {
      {-0.054100669920444488525f, -0.083043940365314483643f, 0.042224448174238204956f},
      {0.056185796856880187988f, -0.033050771802663803101f, -0.00079921225551515817642f},
      {-0.0035187918692827224731f, 0.0072800912894308567047f, -0.014165687374770641327f}
    },
    {
      {-0.037206482142210006714f, -0.089482955634593963623f, 0.0031222307588905096054f},
      {-0.0098201716318726539612f, 0.024260541424155235291f, 0.0014094404177740216255f},
      {-0.013101244345307350159f, 0.032359462231397628784f, -0.028169179335236549377f}
    },
    {
      {-0.0050481162033975124359f, -0.018483961001038551331f, -0.083567395806312561035f},
      {0.027080567553639411926f, 0.032225310802459716797f, -0.084983177483081817627f},
      {-0.014063892886042594910f, 0.033270042389631271362f, -0.073442682623863220215f}
    },
    {
      {-0.041481487452983856201f, -0.00077901338227093219757f, -0.033628188073635101318f},
      {0.087360426783561706543f, -0.0052149440161883831024f, 0.023355066776275634766f},
      {0.059303667396306991577f, 0.0025530247949063777924f, -0.070508725941181182861f}
    },
    {
      {0.075219415128231048584f, -0.095281779766082763672f, 0.0021019892301410436630f},
      {-0.048311747610569000244f, -0.083087846636772155762f, 0.049547810107469558716f},
      {-0.10577782243490219116f, -0.011030906811356544495f, -0.0081976307556033134460f}
    },
    {
      {-0.067520946264266967773f, 0.056837782263755798340f, -0.0028952970169484615326f},
      {-0.010077998973429203033f, 0.057640776038169860840f, -0.050604544579982757568f},
      {-0.071411401033401489258f, -0.081332966685295104980f, 0.011923200450837612152f}
    },
    {
      {0.021548995748162269592f, -0.13261504471302032471f, 0.12426980584859848022f},
      {-0.029376018792390823364f, -0.031388372182846069336f, 0.030675135552883148193f},
      {0.068168409168720245361f, 0.037373803555965423584f, -0.023568859323859214783f}
    },
    {
      {0.012800570577383041382f, -0.023223977535963058472f, 0.10377701371908187866f},
      {-0.091217868030071258545f, -0.047806788235902786255f, 0.019598193466663360596f},
      {-0.12850660085678100586f, 0.015873905271291732788f, -0.020088728517293930054f}
    },
    {
      {0.014884741045534610748f, -0.093434192240238189697f, 0.095321439206600189209f},
      {0.0036800308153033256531f, -0.050866913050413131714f, 0.036692760884761810303f},
      {0.010112129151821136475f, 0.040437657386064529419f, -0.026357095688581466675f}
    },
    {
      {0.0063206432387232780457f, 0.052566271275281906128f, -0.041055571287870407104f},
      {-0.056892160326242446899f, 0.0019347482593730092049f, -0.030276240780949592590f},
      {-0.035534888505935668945f, -0.045779857784509658813f, -0.066441535949707031250f}
    },
    {
      {-0.19533908367156982422f, 0.012257781811058521271f, -0.10404735803604125977f},
      {-0.034804258495569229126f, 0.089226216077804565430f, 0.036495469510555267334f},
      {-0.019577754661440849304f, -0.026442456990480422974f, -0.032867923378944396973f}
    },
    {
      {-0.033644773066043853760f, -0.056667555123567581177f, 0.079026080667972564697f},
      {0.017409654334187507629f, -0.0064738439396023750305f, -0.026840375736355781555f},
      {-0.10697171837091445923f, -0.014644836075603961945f, 0.013501413166522979736f}
    }
  },
  {
    {
      {-0.092163532972335815430f, -0.022793848067522048950f, -0.0012680868385359644890f},
      {-0.10858754813671112061f, -0.017305854707956314087f, -0.039352405816316604614f},
      {-0.089294798672199249268f, -0.012711367569863796234f, -0.057692408561706542969f}
    },
    {
      {-0.021872339770197868347f, -0.074505791068077087402f, 0.070116080343723297119f},
      {-0.057169061154127120972f, -0.036939043551683425903f, 0.081651821732521057129f},
      {0.019694443792104721069f, -0.0021563805639743804932f, 0.13405822217464447021f}
    },
    {
      {0.013537162914872169495f, 0.0030468124896287918091f, -0.038722045719623565674f},
      {-0.035113207995891571045f, -0.026566261425614356995f, -0.040179103612899780273f},
      {0.066470593214035034180f, -0.044091559946537017822f, -0.13326121866703033447f}
    },
    {
      {-0.17673340439796447754f, 0.022503521293401718140f, 0.017720282077789306641f},
      {0.0035405361559242010117f, -0.019456569105386734009f, 0.0020291334949433803558f},
      {0.011783150956034660339f, 0.031791016459465026855f, -0.045542012900114059448f}
    },
    {
      {-0.042678311467170715332f, -0.061355873942375183105f, -0.081458829343318939209f},
      {-0.030989188700914382935f, -0.014560285955667495728f, 0.031943511217832565308f},
      {-0.00016986255650408565998f, -0.0074824807234108448029f, 0.040384490042924880981f}
    },
    {
      {-0.083628751337528228760f, -0.039618860930204391479f, 0.043749872595071792603f},
      {-0.098302952945232391357f, -0.031763922423124313354f, 0.050309851765632629395f},
      {0.059248723089694976807f, 0.10285978764295578003f, 0.0067010833881795406342f}
    },
    {
      {-0.085373125970363616943f, -0.077870354056358337402f, 0.042308378964662551880f},
      {-0.13390000164508819580f, -0.14117313921451568604f, -0.0082868561148643493652f},
      {0.031748957931995391846f, 0.068501688539981842041f, -0.045840606093406677246f}
    },
    {
      {0.0091203199699521064758f, -0.099874168634414672852f, 0.061257861554622650146f},
      {-0.029141228646039962769f, -0.023167302832007408142f, 0.018090385943651199341f},
      {0.072971276938915252686f, 0.049534041434526443481f, -0.030116602778434753418f}
    },
    {
      {0.079813770949840545654f, 0.023654373362660408020f, -0.017640331760048866272f},
      {-0.024252280592918395996f, 0.058931119740009307861f, -0.055910777300596237183f},
      {0.066719472408294677734f, -0.022202901542186737061f, 0.031370207667350769043f}
    },
    {
      {-0.11024101823568344116f, -0.070648074150085449219f, 0.16673524677753448486f},
      {-0.047315016388893127441f, 0.023550810292363166809f, 0.13699482381343841553f},
      {0.046600833535194396973f, 0.045005645602941513062f, -0.0057670627720654010773f}
    },
    {
      {-0.032793369144201278687f, 0.043326355516910552979f, -0.14410176873207092285f},
      {-0.015856163576245307922f, -0.013307474553585052490f, 0.011692770756781101227f},
      {0.078033499419689178467f, 0.028362108394503593445f, -0.11009687930345535278f}
    },
    {
      {-0.046779293566942214966f, -0.084251470863819122314f, -0.047775432467460632324f},
      {-0.054403085261583328247f, -0.077455081045627593994f, 0.0010149962035939097404f},
      {0.055940337479114532471f, 0.078914321959018707275f, -0.084229685366153717041f}
    },
    {
      {-0.039111871272325515747f, -0.030080463737249374390f, -0.13462036848068237305f},
      {0.062265004962682723999f, -0.016122570261359214783f, 0.027276918292045593262f},
      {0.043955605477094650269f, -0.035326406359672546387f, -0.058064494282007217407f}
    },
    {
      {-0.032439738512039184570f, -0.055456757545471191406f, 0.033820692449808120728f},
      {0.0054233442060649394989f, -0.010840004310011863708f, -0.096259281039237976074f},
      {0.031212324276566505432f, 0.059229277074337005615f, -0.072947189211845397949f}
    },
    {
      {-0.10850410908460617065f, -0.023650975897908210754f, -0.036326829344034194946f},
      {-0.0087613686919212341309f, -0.083770647644996643066f, -0.068185776472091674805f},
      {0.083099804818630218506f, 0.018623055890202522278f, -0.12864553928375244141f}
    },
    {
      {-0.094289220869541168213f, 0.028775639832019805908f, -0.11538192629814147949f},
      {0.0018217153847217559814f, -0.077178470790386199951f, -0.029819760471582412720f},
      {0.023307517170906066895f, 0.059997126460075378418f, 0.032765194773674011230f}
    },
    {
      {0.0010035680606961250305f, 0.019483778625726699829f, -0.022877290844917297363f},
      {0.018827361986041069031f, 0.034176934510469436646f, 0.038226526230573654175f},
      {0.055514432489871978760f, -0.10285267233848571777f, -0.014604529365897178650f}
    },
    {
      {0.0010688748443499207497f, 0.071775838732719421387f, 0.017017588019371032715f},
      {-0.11861780285835266113f, -0.0020485005807131528854f, -0.014860156923532485962f},
      {0.018000980839133262634f, 0.032431352883577346802f, -0.088022165000438690186f}
    },
    {
      {-0.10167048871517181396f, -0.0071321371942758560181f, 0.099012739956378936768f},
      {0.093295440077781677246f, 0.15838220715522766113f, 0.014474995434284210205f},
      {-0.0014753920258954167366f, -0.0033325119875371456146f, -0.026060149073600769043f}
    },
    {
      {-0.0043915631249547004700f, -0.022672802209854125977f, -0.042769711464643478394f},
      {-0.025459412485361099243f, -0.0033705886453390121460f, -0.072684101760387420654f},
      {0.054718274623155593872f, -0.027185263112187385559f, -0.0011669326340779662132f}
    },
    {
      {0.094845883548259735107f, -0.058675553649663925171f, 0.031577367335557937622f},
      {-0.070758081972599029541f, 0.022858407348394393921f, -0.066257566213607788086f},
      {0.023504536598920822144f, 0.0053351512178778648376f, -0.073708511888980865479f}
    },
    {
      {0.012060327455401420593f, -0.042166411876678466797f, -0.10368797183036804199f},
      {0.013624528422951698303f, 0.0069975182414054870605f, -0.028087213635444641113f},
      {0.051556300371885299683f, -0.024325003847479820251f, -0.016132343560457229614f}
    },
    {
      {-0.021059347316622734070f, 0.10788881033658981323f, -0.078965470194816589355f},
      {0.030293973162770271301f, 0.034395694732666015625f, -0.026495983824133872986f},
      {0.036579161882400512695f, -0.022971294820308685303f, -0.039774231612682342529f}
    },
    {
      {0.031189341098070144653f, 0.034208428114652633667f, 0.049199447035789489746f},
      {-0.059725336730480194092f, -0.064899690449237823486f, -0.037039369344711303711f},
      {-0.0033295343164354562759f, -0.12251420319080352783f, -0.096689902245998382568f}
    },
    {
      {0.049687899649143218994f, -0.11101190000772476196f, 0.085218735039234161377f},
      {-0.052332993596792221069f, -0.068841606378555297852f, 0.039751909673213958740f},
      {-0.030631853267550468445f, 0.096248626708984375000f, -0.0066143786534667015076f}
    },
    {
      {-0.095149450004100799561f, 0.047041591256856918335f, -0.036797478795051574707f},
      {-0.0068254820071160793304f, 0.074766606092453002930f, 0.011754028499126434326f},
      {0.0031229951418936252594f, -0.018616534769535064697f, 0.084376476705074310303f}
    },
    {
      {-0.047217648476362228394f, 0.0085912030190229415894f, 0.10368157923221588135f},
      {-0.11334495991468429565f, -0.010331552475690841675f, 0.034409824758768081665f},
      {-0.049727808684110641479f, 0.017218040302395820618f, 0.024806812405586242676f}
    },
    {
      {0.0081117348745465278625f, -0.10633385926485061646f, 0.048046588897705078125f},
      {-0.11716204881668090820f, -0.075924202799797058105f, 0.012817800045013427734f},
      {-0.014193247072398662567f, 0.066267400979995727539f, 0.050872638821601867676f}
    },
    {
      {-0.037881433963775634766f, -0.11879727244377136230f, 0.034425783902406692505f},
      {-0.0084397979080677032471f, -0.029599996283650398254f, 0.039153408259153366089f},
      {0.022027222439646720886f, 0.019656142219901084900f, 0.040172714740037918091f}
    },
    {
      {0.036972165107727050781f, 0.046057924628257751465f, -0.10049171745777130127f},
      {0.029417455196380615234f, 0.015623738057911396027f, 0.068160563707351684570f},
      {0.0051267608068883419037f, 0.061815839260816574097f, 0.056310486048460006714f}
    },
    {
      {0.040628585964441299438f, 0.074678622186183929443f, 0.066010363399982452393f},
      {-0.031893730163574218750f, -0.017219012603163719177f, 0.0061996583826839923859f},
      {0.081783056259155273438f, 0.091075420379638671875f, -0.045071989297866821289f}
    },
    {
      {-0.069413296878337860107f, -0.030259899795055389404f, -0.054305680096149444580f},
      {-0.038837458938360214233f, 0.014073268510401248932f, 0.010425778105854988098f},
      {-0.014978738501667976379f, 0.027300151064991950989f, 0.016782199963927268982f}
    }
  },
  {
    {
      {0.016549840569496154785f, -0.0029861545190215110779f, -0.035948857665061950684f},
      {0.021140124648809432983f, 0.011945438571274280548f, -0.016611883416771888733f},
      {0.048924237489700317383f, 0.033827479928731918335f, 0.019120190292596817017f}
    },
    {
      {0.043702293187379837036f, -0.072168312966823577881f, 0.065358050167560577393f},
      {0.0011711828410625457764f, -0.062867783010005950928f, 0.070744663476943969727f},
      {0.036671187728643417358f, -0.10103496909141540527f, -0.076008029282093048096f}
    },
    {
      {0.0060183806344866752625f, -0.027073619887232780457f, -0.096101418137550354004f},
      {0.0034741058479994535446f, 0.0082077737897634506226f, -0.052907109260559082031f},
      {-0.032160371541976928711f, -0.022425170987844467163f, 0.13357193768024444580f}
    },
    {
      {0.091626666486263275146f, -0.058865439146757125854f, -0.012001062743365764618f},
      {0.067471072077751159668f, -0.0027058564592152833939f, 0.051386371254920959473f},
      {0.035563878715038299561f, -0.049527041614055633545f, -0.023295082151889801025f}
    },
    {
      {0.028947861865162849426f, 0.0019748315680772066116f, 0.051750659942626953125f},
      {-0.00063040584791451692581f, -0.074920259416103363037f, -0.088858187198638916016f},
      {0.00092578586190938949585f, 0.022813340649008750916f, 0.078627377748489379883f}
    },
    {
      {0.019300878047943115234f, 0.0099107567220926284790f, -0.0029312931001186370850f},
      {-0.033890962600708007812f, -0.12638872861862182617f, -0.043623954057693481445f},
      {-0.080808624625205993652f, -0.080580905079841613770f, -0.079153142869472503662f}
    },
    {
      {-0.074724711477756500244f, -0.090158522129058837891f, -0.026590254157781600952f},
      {0.019441835582256317139f, -0.073771558701992034912f, -0.044014465063810348511f},
      {0.042018588632345199585f, -0.089453049004077911377f, -0.088690631091594696045f}
    },
    {
      {-0.092985861003398895264f, 0.024959344416856765747f, 0.021589899435639381409f},
      {-0.087677896022796630859f, -0.063357844948768615723f, 0.092831902205944061279f},
      {-0.066248714923858642578f, -0.18609164655208587646f, 0.022423624992370605469f}
    },
    {
      {0.012887249700725078583f, -0.013903807848691940308f, -0.025987880304455757141f},
      {-0.053195256739854812622f, 0.032570149749517440796f, -0.029124930500984191895f},
      {0.032052773982286453247f, 0.0010245539015159010887f, 0.054582424461841583252f}
    },
    {
      {0.10113736242055892944f, -0.059584740549325942993f, -0.064757041633129119873f},
      {0.095847532153129577637f, -0.073756210505962371826f, -0.0077852043323218822479f},
      {-0.024192161858081817627f, -0.10429665446281433105f, -0.099280655384063720703f}
    },
    {
      {0.012468740344047546387f, -0.047104690223932266235f, -0.017990585416555404663f},
      {0.023179827257990837097f, -0.023241389542818069458f, 0.047714550048112869263f},
      {0.061794910579919815063f, -0.028381224721670150757f, -0.012130837887525558472f}
    },
    {
      {0.060269225388765335083f, -0.041585013270378112793f, -0.053701389580965042114f},
      {0.055541496723890304565f, -0.068751305341720581055f, 0.042936500161886215210f},
      {-0.016597472131252288818f, -0.012333193793892860413f, -0.014636430889368057251f}
    },
    {
      {0.051069647073745727539f, 0.034267228096723556519f, -0.11586091667413711548f},
      {0.018588850274682044983f, 0.014575312845408916473f, -0.13704289495944976807f},
      {0.013779164291918277740f, -0.055838305503129959106f, -0.089558050036430358887f}
    },
    {
      {-0.016968505457043647766f, -0.045610565692186355591f, -0.060785446316003799438f},
      {-0.020548073574900627136f, 0.032451670616865158081f, -0.048285517841577529907f},
      {0.024024851620197296143f, -0.034539252519607543945f, -0.036947272717952728271f}
    },
    {
      {0.071468248963356018066f, 0.074905388057231903076f, -0.074033588171005249023f},
      {0.031578168272972106934f, -0.033629041165113449097f, 0.041553858667612075806f},
      {-0.061901461333036422729f, 0.017026139423251152039f, 0.12489744275808334351f}
    },
    {
      {-0.0078334826976060867310f, -0.0079917274415493011475f, 0.024754833430051803589f},
      {0.036672219634056091309f, 0.044277813285589218140f, -0.026736997067928314209f},
      {0.068187311291694641113f, 0.0012530852109193801880f, 0.022056043148040771484f}
    },
    {
      {0.056478407233953475952f, 0.037435218691825866699f, -0.0028342306613922119141f},
      {-0.021829815581440925598f, -0.035207375884056091309f, -0.080915682017803192139f},
      {-0.025373490527272224426f, 0.0056980382651090621948f, 0.024020398035645484924f}
    },
    {
      {-0.044537790119647979736f, -0.062834449112415313721f, -0.10026158392429351807f},
      {-0.12380451709032058716f, -0.061777167022228240967f, -0.066798999905586242676f},
      {0.0060148825868964195251f, -0.010868369601666927338f, -0.023813415318727493286f}
    },
    {
      {0.014988071285188198090f, -0.017143709585070610046f, -0.13031367957592010498f},
      {0.016598045825958251953f, 0.040726482868194580078f, 0.032542504370212554932f},
      {0.039612766355276107788f, 0.026908485218882560730f, -0.091398283839225769043f}
    },
    {
      {0.048061802983283996582f, -0.010366694070398807526f, 0.022180195897817611694f},
      {0.021560700610280036926f, 0.012380676344037055969f, -0.011063153855502605438f},
      {0.010635229758918285370f, 0.055498778820037841797f, -0.019381551072001457214f}
    },
    {
      {-0.0086304480209946632385f, 0.065337404608726501465f, 0.0067290901206433773041f},
      {-0.10150472074747085571f, -0.060544691979885101318f, 0.065031625330448150635f},
      {-0.062421061098575592041f, -0.066602036356925964355f, 0.031825244426727294922f}
    },
    {
      {0.0033262569922953844070f, 0.0073726763948798179626f, -0.027323735877871513367f},
      {0.017019329592585563660f, 0.013254816643893718719f, 0.0038855895400047302246f},
      {0.0088522573933005332947f, 0.043894417583942413330f, -0.064089208841323852539f}
    },
    {
      {0.052320513874292373657f, -0.0083996728062629699707f, -0.025407746434211730957f},
      {0.053237695246934890747f, 0.052193012088537216187f, -0.037760779261589050293f},
      {0.025871895253658294678f, -0.035462010651826858521f, 0.010305576026439666748f}
    },
    {
      {0.081289879977703094482f, 0.031538385897874832153f, 0.0072072749026119709015f},
      {0.013779105618596076965f, 0.014449770562350749969f, 0.029855916276574134827f},
      {-0.037669871002435684204f, -0.054501589387655258179f, 0.060757629573345184326f}
    },
    {
      {-0.11444609612226486206f, 0.027646735310554504395f, -0.043674699962139129639f},
      {-0.0074114357121288776398f, -0.014526597224175930023f, -0.010174941271543502808f},
      {0.038637582212686538696f, -0.071116767823696136475f, -0.079473495483398437500f}
    },
    {
      {0.094302028417587280273f, 0.039899781346321105957f, -0.025705855339765548706f},
      {-0.010455426760017871857f, 0.051176723092794418335f, 0.0026125921867787837982f},
      {0.037243187427520751953f, 0.067797586321830749512f, -0.0090233534574508666992f}
    },
    {
      {-0.12252300977706909180f, 0.099335491657257080078f, -0.027102338150143623352f},
      {-0.0070805200375616550446f, 0.029696315526962280273f, 0.15743012726306915283f},
      {0.014922473579645156860f, -0.077780231833457946777f, 0.027847327291965484619f}
    },
    {
      {-0.028854228556156158447f, -0.051038641482591629028f, -0.058127000927925109863f},
      {-0.019566936418414115906f, -0.076047055423259735107f, -0.066015556454658508301f},
      {0.055352974683046340942f, -0.0035030329599976539612f, -0.050917454063892364502f}
    },
    {
      {-0.053113985806703567505f, 0.063890255987644195557f, 0.062768183648586273193f},
      {0.075965411961078643799f, -0.085382960736751556396f, -0.069847695529460906982f},
      {0.076812922954559326172f, -0.066219076514244079590f, -0.088297270238399505615f}
    },
    {
      {0.090727746486663818359f, 0.020755348727107048035f, 0.016347747296094894409f},
      {0.063507586717605590820f, 0.062620326876640319824f, -0.020432073622941970825f},
      {0.033288564532995223999f, -0.031382601708173751831f, -0.076145678758621215820f}
    },
    {
      {0.0026367111131548881531f, 0.034915179014205932617f, -0.067702718079090118408f},
      {-0.061484288424253463745f, -0.10429321974515914917f, 0.040374293923377990723f},
      {-0.042031373828649520874f, -0.059534363448619842529f, 0.012248825281858444214f}
    },
    {
      {0.10840812325477600098f, -0.023352002725005149841f, 0.049733906984329223633f},
      {0.059156373143196105957f, -0.0055849067866802215576f, -0.043967556208372116089f},
      {0.0024561795871704816818f, -0.0067007462494075298309f, 0.013699663802981376648f}
    }
  },
  {
    {
      {0.016049401834607124329f, 0.017967192456126213074f, 0.054092142730951309204f},
      {0.041312966495752334595f, 0.053212653845548629761f, 0.029605414718389511108f},
      {0.010972024872899055481f, 0.017108209431171417236f, 0.052022568881511688232f}
    },
    {
      {0.00028267293237149715424f, -0.038409750908613204956f, -0.060962535440921783447f},
      {-0.070390731096267700195f, -0.078172728419303894043f, 0.0068240645341575145721f},
      {0.040773306041955947876f, 0.097285874187946319580f, -0.084096834063529968262f}
    },
    {
      {-0.0010907959658652544022f, 0.048094317317008972168f, 0.048518273979425430298f},
      {0.0019186135614290833473f, -0.016440255567431449890f, -0.080315411090850830078f},
      {0.0094959549605846405029f, -0.051390290260314941406f, -0.057931285351514816284f}
    },
    {
      {0.022179575636982917786f, 0.015488367527723312378f, 0.034349501132965087891f},
      {0.11335080116987228394f, -0.011384729295969009399f, 0.097382560372352600098f},
      {0.015097137540578842163f, 0.022543147206306457520f, 0.059316158294677734375f}
    },
    {
      {-0.089087873697280883789f, -0.061165276914834976196f, -0.024339752271771430969f},
      {0.038204066455364227295f, 0.073393613100051879883f, 0.13376018404960632324f},
      {0.051737345755100250244f, 0.030185470357537269592f, -0.029785839840769767761f}
    },
    {
      {0.038176294416189193726f, -0.0074021928012371063232f, -0.044536709785461425781f},
      {-0.037127930670976638794f, 0.052997995167970657349f, -0.076844967901706695557f},
      {0.029733294621109962463f, 0.0066054943017661571503f, -0.0048920637927949428558f}
    },
    {
      {-0.040967784821987152100f, -0.087727233767509460449f, 0.00043960710172541439533f},
      {-0.024404607713222503662f, -0.083333447575569152832f, -0.061855852603912353516f},
