/*
 * Copyright (C) 2015
 *
 * This file is part of Paparazzi.
 *
 * Paparazzi is free software; you can redistribute it and/or modify
 * it under the terms of the GNU General Public License as published by
 * the Free Software Foundation; either version 2, or (at your option)
 * any later version.
 *
 * Paparazzi is distributed in the hope that it will be useful,
 * but WITHOUT ANY WARRANTY; without even the implied warranty of
 * MERCHANTABILITY or FITNESS FOR A PARTICULAR PURPOSE.  See the
 * GNU General Public License for more details.
 *
 * You should have received a copy of the GNU General Public License
 * along with Paparazzi; see the file COPYING.  If not, write to
 * the Free Software Foundation, 59 Temple Place - Suite 330,
 * Boston, MA 02111-1307, USA.
 */

/**
 * @file modules/computer_vision/cnn.c
 */

// Own header
#include "modules/computer_vision/cnn.h"
#include <stdio.h>

// Include the image library -> used to alter the incoming image
#include "modules/computer_vision/lib/vision/image.h"

// Include the ABI library -> used to send messages to the ground station
#include "modules/core/abi.h"

// #include "mcu_periph/sys_time.h"

#ifndef CNN_FPS
#define CNN_FPS 0 ///< Default FPS (zero means run at camera fps)
#endif

// Define white color
uint8_t white[4] = {127, 255, 127, 255};

// Competition mode
bool competition_mode = false;

// Function
static struct image_t *cnn_func(struct image_t *img, uint8_t camera_id __attribute__((unused)))
{
  // Convert to grayscale, but also keep original for live feed
  struct image_t gray;
  image_create(&gray, img->w, img->h, IMAGE_GRAYSCALE);
  image_to_grayscale(img, &gray);

  // Convert image to tensor
  float tensor_output[1][3];
  float tensor_input[1][1][TENSOR_HEIGHT][TENSOR_WIDTH];
  convert_image_to_tensor(&gray, tensor_input);

  // Perform inference
  entry(tensor_input, tensor_output);

  // Softmax on the output
  float sum_exp = exp(tensor_output[0][0]) + exp(tensor_output[0][1]) + exp(tensor_output[0][2]);
  tensor_output[0][0] = exp(tensor_output[0][0]) / sum_exp;
  tensor_output[0][1] = exp(tensor_output[0][1]) / sum_exp;
  tensor_output[0][2] = exp(tensor_output[0][2]) / sum_exp;
  
  // Draw rectangles on the original image corresponding to the outputs
  if (!competition_mode) {
    int x_min_left = 10;
    int x_max_left = 10 + (int)(tensor_output[0][0] * 40);
    int y_min_left = 10;
    int y_max_left = 30;
    image_draw_rectangle(img, x_min_left, x_max_left, y_min_left, y_max_left, white);

    int x_min_forward = 10;
    int x_max_forward = 10 + (int)(tensor_output[0][1] * 40);
    int y_min_forward = 35;
    int y_max_forward = 55;
    image_draw_rectangle(img, x_min_forward, x_max_forward, y_min_forward, y_max_forward, white);

    int x_min_right = 10;
    int x_max_right = 10 + (int)(tensor_output[0][2] * 40);
    int y_min_rigth = 60;
    int y_max_right = 80;
    image_draw_rectangle(img, x_min_right, x_max_right, y_min_rigth, y_max_right, white);
  }

  // // Print outputs
  // printf(stderr, "Right: %f, Forward: %f, Left: %f\n", tensor_output[0][0], tensor_output[0][1], tensor_output[0][2]);

  // Send outputs
  AbiSendMsgCNN_CONTROL_INPUTS(CNN_CONTROL_INPUTS_ID, tensor_output[0][0], tensor_output[0][1], tensor_output[0][2]);

  return img;
}

void cnn_init(void)
{
  cv_add_to_device(&CNN_CAMERA, cnn_func, CNN_FPS, 0);
}

void convert_image_to_tensor(struct image_t *image, float tensor_input_1[1][1][TENSOR_HEIGHT][TENSOR_WIDTH]) {
    // Extract pixel values from the image buffer
    uint8_t *pixel_values = (uint8_t *)(image->buf);

    // The method below is not very efficient, as it first saves the entire image and then extracts
    // the downsampled region of interest. However, this is the easiest way to do it for now. 
    // This can and probably should be optimized in the future.
    // first store the image in a tensor
    float intermediate[1][1][520][240];
    for (int i = 0; i < 520; i++) {
        for (int j = 0; j < 240; j++) {
            intermediate[0][0][i][j] = (float)pixel_values[(i * image->w) + j] / 255.0f;
          }
        }

    // then extract the region of interest
    for (int i = 0; i < TENSOR_HEIGHT; i++) {
        for (int j = 0; j < TENSOR_WIDTH; j++) {
            int row_idx = i * (520 / TENSOR_HEIGHT);
            int col_idx = j * (120 / TENSOR_WIDTH) + 60;
            tensor_input_1[0][0][i][j] = (intermediate[0][0][row_idx][col_idx] - 0.3046516478061676) / 0.1654612421989441;
        }
    }
}

// Auto generated code below
// ----------------------------------------------------------- 

// This file is computer-generated by onnx2c 
// (TODO: add creating command line here)
// (TODO: print creation date here )

// ONNX model:
// produced by pytorch, version 2.2.1
// ONNX IR version: 17
// Model documentation: 
/*

*/

#include <float.h>
#include <math.h>
#include <stdbool.h>
#include <stdint.h>
#include <string.h>
#define MAX(X,Y) ( X > Y ? X : Y)
#define MIN(X,Y) ( X < Y ? X : Y)
#define CLIP(X,L) ( MAX(MIN(X,L), -L) )

static const float tensor_fc_weight[3][128] = 
{
  {-0.39687713980674743652f, 0.44031375646591186523f, 0.12967589497566223145f, -0.069993019104003906250f, 0.096717938780784606934f, -0.25726377964019775391f, -0.40785709023475646973f, 0.34873813390731811523f, -0.38794851303100585938f, 0.64150840044021606445f, -0.10633176565170288086f, 0.026837311685085296631f, 0.19180746376514434814f, 0.72429603338241577148f, -0.38106498122215270996f, 0.32069909572601318359f, 0.26705154776573181152f, -0.14904963970184326172f, 0.75178378820419311523f, 0.13840328156948089600f, -0.40563210844993591309f, 0.30250042676925659180f, 0.18968015909194946289f, -0.18916048109531402588f, 0.28796532750129699707f, -0.56573659181594848633f, -0.62796932458877563477f, 0.30939278006553649902f, 0.34406885504722595215f, -0.21468728780746459961f, -0.40704971551895141602f, 0.41697800159454345703f, -0.54234611988067626953f, -0.61463469266891479492f, -0.47257328033447265625f, -0.63237738609313964844f, -0.26529595255851745605f, -0.13281424343585968018f, 0.16217170655727386475f, -0.45837533473968505859f, 0.31773218512535095215f, -0.29037362337112426758f, 0.070542566478252410889f, 0.23643472790718078613f, -0.28867858648300170898f, 0.25301793217658996582f, 0.45454841852188110352f, -0.32695901393890380859f, 0.37534248828887939453f, -0.46199944615364074707f, -0.035559657961130142212f, -0.081293523311614990234f, -0.22126542031764984131f, 0.27057498693466186523f, -0.24834761023521423340f, -0.028111115097999572754f, 0.24961805343627929688f, -0.62360715866088867188f, 0.41769015789031982422f, 0.057885952293872833252f, 0.17401462793350219727f, -0.45963102579116821289f, -0.22168655693531036377f, -0.17779710888862609863f, 0.27767658233642578125f, 0.39556995034217834473f, 0.21515169739723205566f, 0.20652101933956146240f, -0.15630860626697540283f, 0.26518636941909790039f, -0.029007073491811752319f, -0.70371615886688232422f, 0.040913987904787063599f, -0.30378472805023193359f, 0.0050252485089004039764f, -0.17954444885253906250f, -0.071061931550502777100f, 0.59351271390914916992f, -0.28471434116363525391f, 0.17741355299949645996f, 0.32871183753013610840f, -0.21385054290294647217f, 0.29928320646286010742f, -0.082335561513900756836f, -0.36587214469909667969f, 0.27145195007324218750f, 0.40689736604690551758f, -0.36277547478675842285f, 0.28227752447128295898f, -0.92297899723052978516f, -0.28243386745452880859f, 0.54705703258514404297f, -0.37006089091300964355f, 0.67406570911407470703f, 0.14328819513320922852f, -0.56401461362838745117f, 0.21827885508537292480f, -0.32418635487556457520f, -0.098906122148036956787f, 0.42457503080368041992f, -0.42480531334877014160f, 0.11393585801124572754f, 0.31195718050003051758f, -0.098304219543933868408f, -0.049106843769550323486f, 0.11838670819997787476f, -0.024987744167447090149f, -0.33169937133789062500f, 0.31092053651809692383f, -0.33466458320617675781f, -0.25276666879653930664f, 0.20458161830902099609f, -0.31176659464836120605f, 0.29573485255241394043f, 0.31116521358489990234f, 0.0075212437659502029419f, 0.38410890102386474609f, -0.39034914970397949219f, 0.23760937154293060303f, -0.18580898642539978027f, -0.15089604258537292480f, -0.40909683704376220703f, 0.26468363404273986816f, 0.55444771051406860352f, -0.38009893894195556641f, 0.52310770750045776367f, 0.25969985127449035645f, -0.36853241920471191406f},
  {0.23387445509433746338f, -0.33800768852233886719f, -0.41994386911392211914f, 0.27447935938835144043f, 0.30044791102409362793f, 0.047191757708787918091f, 0.079164780676364898682f, -0.30467718839645385742f, 0.14435738325119018555f, -0.26556169986724853516f, 0.34931331872940063477f, -0.34346714615821838379f, -0.31664493680000305176f, -0.52758181095123291016f, 0.25816926360130310059f, 0.11040578782558441162f, 0.054928582161664962769f, -0.17216356098651885986f, -0.36789804697036743164f, 0.26381179690361022949f, -0.21134121716022491455f, 0.052479024976491928101f, 0.19976121187210083008f, -0.23674190044403076172f, -0.046428352594375610352f, 0.18049967288970947266f, 0.38041999936103820801f, -0.37646058201789855957f, -0.54465073347091674805f, 0.13823696970939636230f, -0.059777233749628067017f, -0.10744196176528930664f, 0.10515171289443969727f, -0.18962578475475311279f, -0.14859481155872344971f, 0.25859767198562622070f, 0.38423287868499755859f, -0.26177513599395751953f, -0.030650548636913299561f, 0.14765189588069915771f, -0.36244919896125793457f, 0.74662327766418457031f, -0.16255205869674682617f, 0.24241720139980316162f, -0.10627159476280212402f, -0.25504189729690551758f, -0.62700229883193969727f, 0.18467952311038970947f, -0.26379635930061340332f, 0.16191208362579345703f, -0.12228713184595108032f, 0.61051130294799804688f, 0.33161988854408264160f, -0.33461615443229675293f, -0.071059040725231170654f, 0.58113193511962890625f, -0.13717591762542724609f, 0.20597776770591735840f, -0.53017348051071166992f, 0.44651433825492858887f, 0.18958389759063720703f, -0.12976787984371185303f, 0.087346300482749938965f, -0.35052397847175598145f, -0.018178451806306838989f, -0.14987586438655853271f, -0.24536105990409851074f, 0.23580969870090484619f, -0.37098428606986999512f, 0.13820132613182067871f, -0.42023783922195434570f, 0.41019624471664428711f, 0.36577901244163513184f, 0.17026108503341674805f, 0.37512657046318054199f, 0.068236351013183593750f, 0.21898502111434936523f, -0.68567138910293579102f, 0.41754016280174255371f, -0.37032103538513183594f, 0.074105985462665557861f, -0.22183661162853240967f, -0.57474046945571899414f, 0.16096292436122894287f, 0.39120405912399291992f, -0.085998266935348510742f, -0.11516502499580383301f, 0.27764356136322021484f, -0.0054873302578926086426f, 0.40012079477310180664f, 0.024806067347526550293f, -0.33285981416702270508f, 0.21981191635131835938f, -0.64388906955718994141f, -0.14912891387939453125f, 0.021285118535161018372f, -0.059667639434337615967f, -0.25963711738586425781f, -0.14987003803253173828f, -0.54152309894561767578f, 0.21029663085937500000f, 0.49799600243568420410f, -0.37401565909385681152f, 0.45545470714569091797f, -0.43430620431900024414f, 0.22281551361083984375f, 0.21698059141635894775f, -0.27911213040351867676f, -0.34399342536926269531f, 0.45410105586051940918f, 0.21560585498809814453f, -0.43758913874626159668f, -0.065392740070819854736f, 0.094807021319866180420f, -0.19003684818744659424f, 0.22538702189922332764f, -0.17119374871253967285f, 0.084471143782138824463f, 0.18931809067726135254f, -0.18556164205074310303f, 0.30493894219398498535f, 0.73042178153991699219f, -0.20206598937511444092f, -0.18435436487197875977f, 0.17803424596786499023f, -0.051145203411579132080f, -0.13780136406421661377f, 0.39724805951118469238f},
  {0.19947569072246551514f, -0.11986017972230911255f, 0.29915395379066467285f, -0.31466424465179443359f, -0.44989013671875000000f, 0.21533858776092529297f, 0.24542337656021118164f, -0.0038605334702879190445f, 0.28700783848762512207f, -0.27222526073455810547f, -0.30577990412712097168f, 0.25752386450767517090f, 0.11268673092126846313f, -0.13354511559009552002f, 0.23175099492073059082f, -0.43617603182792663574f, -0.30732369422912597656f, 0.37974938750267028809f, -0.25878044962882995605f, -0.28223320841789245605f, 0.47413724660873413086f, -0.35720962285995483398f, -0.28726249933242797852f, 0.33438092470169067383f, -0.34681013226509094238f, 0.29997974634170532227f, 0.15330113470554351807f, -0.0024787306319922208786f, 0.054751686751842498779f, 0.086122296750545501709f, 0.28930291533470153809f, -0.35462936758995056152f, 0.22914366424083709717f, 0.65893828868865966797f, 0.50284779071807861328f, 0.13652965426445007324f, -0.18592904508113861084f, 0.34513401985168457031f, -0.15557123720645904541f, 0.28077241778373718262f, 0.096034869551658630371f, -0.22422204911708831787f, 0.11492467671632766724f, -0.56740391254425048828f, 0.36481028795242309570f, 0.16969406604766845703f, 0.15321618318557739258f, 0.12952534854412078857f, -0.16739627718925476074f, 0.27265444397926330566f, 0.24478363990783691406f, -0.66296052932739257812f, 0.0031867111101746559143f, 0.18191894888877868652f, 0.26970580220222473145f, -0.57297247648239135742f, -0.21330678462982177734f, 0.077724084258079528809f, 0.078826114535331726074f, -0.36610046029090881348f, -0.35370996594429016113f, 0.26655566692352294922f, 0.058705691248178482056f, 0.36633265018463134766f, -0.12724536657333374023f, -0.33827856183052062988f, 0.054384794086217880249f, -0.52994763851165771484f, 0.38455381989479064941f, -0.40365478396415710449f, 0.56752294301986694336f, 0.061983775347471237183f, -0.31855025887489318848f, 0.051144350320100784302f, -0.44238355755805969238f, 0.073456987738609313965f, -0.17162644863128662109f, 0.077343374490737915039f, -0.18592132627964019775f, 0.23002970218658447266f, -0.17203848063945770264f, 0.40450176596641540527f, 0.24206371605396270752f, -0.34742784500122070312f, 0.046511899679899215698f, -0.20762346684932708740f, -0.24036912620067596436f, -0.026174493134021759033f, -0.25187897682189941406f, 0.061200104653835296631f, 0.21130317449569702148f, -0.17455433309078216553f, 0.16717122495174407959f, -0.018528047949075698853f, -0.072511740028858184814f, 0.41110920906066894531f, -0.19855691492557525635f, 0.57935190200805664062f, 0.40029597282409667969f, 0.19188389182090759277f, 0.22834374010562896729f, -0.33935499191284179688f, 0.026842107996344566345f, -0.36828061938285827637f, 0.41885155439376831055f, -0.29362863302230834961f, -0.14711654186248779297f, 0.56820243597030639648f, 0.098666660487651824951f, -0.16536337137222290039f, -0.063131697475910186768f, 0.45313525199890136719f, 0.48511743545532226562f, -0.35381484031677246094f, -0.051594313234090805054f, -0.42268654704093933105f, -0.052508234977722167969f, 0.27317571640014648438f, -0.43629088997840881348f, 0.42954054474830627441f, -0.049911618232727050781f, -0.30551519989967346191f, -0.021647054702043533325f, -0.31801635026931762695f, 0.21118201315402984619f, -0.42033073306083679199f, -0.13240447640419006348f, -0.11988998949527740479f}
};
static const float tensor_fc_bias[3] = 
{-0.059682603925466537476f, -0.060537401586771011353f, 0.055434398353099822998f};
static const float tensor_onnx__Conv_46[8][1][3][3] = 
{
  {
    {
      {0.28266564011573791504f, 0.062611974775791168213f, 0.45236554741859436035f},
      {-0.36678728461265563965f, -0.29825428128242492676f, -0.059050101786851882935f},
      {-0.20591971278190612793f, -0.29911813139915466309f, -0.21295714378356933594f}
    }
  },
  {
    {
      {-0.31766295433044433594f, 0.23896668851375579834f, 0.082320138812065124512f},
      {-0.11546849459409713745f, 0.13307321071624755859f, 0.30757635831832885742f},
      {-0.16543261706829071045f, 0.33973780274391174316f, 0.20724748075008392334f}
    }
  },
  {
    {
      {0.18263836205005645752f, -0.00061615090817213058472f, -0.12674854695796966553f},
      {0.71868395805358886719f, -0.15867282450199127197f, -0.82882302999496459961f},
      {0.56456631422042846680f, 0.019202852621674537659f, -0.62874102592468261719f}
    }
  },
  {
    {
      {-0.27441847324371337891f, -0.17487929761409759521f, 0.16446495056152343750f},
      {-0.34122705459594726562f, -0.060213327407836914062f, 0.28301373124122619629f},
      {0.13977408409118652344f, 0.46578258275985717773f, 0.48160758614540100098f}
    }
  },
  {
    {
      {0.42251107096672058105f, 0.066130071878433227539f, -0.75311189889907836914f},
      {0.51230710744857788086f, -0.13525852560997009277f, -0.25849592685699462891f},
      {0.52944785356521606445f, -0.21986640989780426025f, -0.58838760852813720703f}
    }
  },
  {
    {
      {-0.19993977248668670654f, -0.71364140510559082031f, -0.24247997999191284180f},
      {-0.18852956593036651611f, 0.70189529657363891602f, 0.44255852699279785156f},
      {-0.24467031657695770264f, -0.34932091832160949707f, 0.11531099677085876465f}
    }
  },
  {
    {
      {-0.50207865238189697266f, 0.39525055885314941406f, 0.12704235315322875977f},
      {-0.33554631471633911133f, 0.41112288832664489746f, 0.40392583608627319336f},
      {-0.26680299639701843262f, -0.43155267834663391113f, -0.38573381304740905762f}
    }
  },
  {
    {
      {-0.96925133466720581055f, 0.69929516315460205078f, 0.33573073148727416992f},
      {0.19127091765403747559f, -0.54115658998489379883f, -0.23804618418216705322f},
      {0.88175547122955322266f, -0.42880812287330627441f, 0.18883198499679565430f}
    }
  }
};
static const float tensor_onnx__Conv_47[8] = 
{-0.19535678625106811523f, 0.15226250886917114258f, -0.085181526839733123779f, -0.28952351212501525879f, -0.21602487564086914062f, -0.15448351204395294189f, 0.10820604860782623291f, -0.13103781640529632568f};
static const float tensor_onnx__Conv_49[16][8][3][3] = 
{
  {
    {
      {0.041236646473407745361f, -0.012691690586507320404f, -0.16414570808410644531f},
      {0.042064793407917022705f, -0.061612293124198913574f, -0.18060266971588134766f},
      {-0.062427975237369537354f, 0.031961988657712936401f, 0.11002217233180999756f}
    },
    {
      {0.016920341178774833679f, -0.070348069071769714355f, 0.0099375741556286811829f},
      {-0.12419941276311874390f, 0.12231726199388504028f, 0.017722522839903831482f},
      {-0.025256540626287460327f, 0.082757480442523956299f, 0.042916323989629745483f}
    },
    {
      {-0.074887432157993316650f, -0.097662836313247680664f, -0.050582695752382278442f},
      {0.0048189177177846431732f, -0.14982166886329650879f, 0.092424161732196807861f},
      {-0.059281930327415466309f, -0.071247458457946777344f, 0.028028270229697227478f}
    },
    {
      {-0.047381598502397537231f, 0.034675028175115585327f, 0.013804464600980281830f},
      {-0.13622662425041198730f, 0.18690769374370574951f, -0.025465575978159904480f},
      {0.094866313040256500244f, 0.011161901988089084625f, -0.11982974410057067871f}
    },
    {
      {-0.072497583925724029541f, 0.054134834557771682739f, -0.041708413511514663696f},
      {0.072220191359519958496f, -0.14225651323795318604f, 0.15330205857753753662f},
      {0.073452256619930267334f, -0.070012427866458892822f, -0.0018413787474855780602f}
    },
    {
      {0.054290961474180221558f, 0.075709208846092224121f, -0.090115398168563842773f},
      {-0.22058731317520141602f, 0.24725827574729919434f, -0.067292042076587677002f},
      {0.061518479138612747192f, 0.010988294146955013275f, -0.019072741270065307617f}
    },
    {
      {0.11707331240177154541f, -0.22942312061786651611f, -0.068656660616397857666f},
      {-0.11473003029823303223f, -0.016624705865979194641f, -0.013142351061105728149f},
      {-0.14546948671340942383f, 0.22991277277469635010f, -0.055861417204141616821f}
    },
    {
      {0.10492463409900665283f, -0.040729489177465438843f, -0.081783130764961242676f},
      {0.022594403475522994995f, 0.031985301524400711060f, 0.027763303369283676147f},
      {-0.10910175740718841553f, 0.29561904072761535645f, 0.010204622521996498108f}
    }
  },
  {
    {
      {-0.14612326025962829590f, 0.0089350538328289985657f, 0.031462743878364562988f},
      {-0.14376710355281829834f, -0.11216491460800170898f, 0.11266308277845382690f},
      {-0.038042757660150527954f, -0.12322482466697692871f, -0.098796151578426361084f}
    },
    {
      {0.096701368689537048340f, -0.13855823874473571777f, -0.037108983844518661499f},
      {0.10179289430379867554f, -0.13206109404563903809f, -0.054751884192228317261f},
      {0.10813815891742706299f, -0.072077766060829162598f, 0.027799896895885467529f}
    },
    {
      {-0.041992221027612686157f, 0.034170515835285186768f, -0.027910476550459861755f},
      {0.11515620350837707520f, 0.045701466500759124756f, -0.053288191556930541992f},
      {0.067792877554893493652f, 0.10167057812213897705f, 0.014233899302780628204f}
    },
    {
      {0.061766006052494049072f, -0.10891661047935485840f, -0.0020867679268121719360f},
      {0.084938324987888336182f, -0.13488316535949707031f, -0.019580215215682983398f},
      {0.0095153944566845893860f, -0.038440208882093429565f, 0.11666516959667205811f}
    },
    {
      {0.034061998128890991211f, 0.035732198506593704224f, 0.035104408860206604004f},
      {0.0066903773695230484009f, 0.017312830314040184021f, 0.064839959144592285156f},
      {-0.089162610471248626709f, 0.089986748993396759033f, 0.036512330174446105957f}
    },
    {
      {-0.10405702143907546997f, -0.076035618782043457031f, -0.12006372958421707153f},
      {-0.018802192062139511108f, -0.10184738039970397949f, 0.11865843087434768677f},
      {-0.10912177711725234985f, 0.0084484377875924110413f, 0.052589934319257736206f}
    },
    {
      {0.025696223601698875427f, -0.14195254445075988770f, 0.011550193652510643005f},
      {0.093751691281795501709f, -0.15084534883499145508f, -0.0071481089107692241669f},
      {0.11468539386987686157f, -0.15869805216789245605f, -0.045634727925062179565f}
    },
    {
      {-0.18294869363307952881f, -0.076380334794521331787f, -0.032539837062358856201f},
      {-0.11871265619993209839f, 0.13001863658428192139f, -0.048769939690828323364f},
      {-0.21165134012699127197f, 0.18001219630241394043f, 0.080996215343475341797f}
    }
  },
  {
    {
      {0.086564570665359497070f, 0.097520023584365844727f, 0.051014672964811325073f},
      {-0.090668775141239166260f, -0.16898120939731597900f, -0.23077328503131866455f},
      {0.083578191697597503662f, -0.053714293986558914185f, 0.023913016542792320251f}
    },
    {
      {-0.13767561316490173340f, 0.0086832875385880470276f, -0.073704160749912261963f},
      {0.075682900846004486084f, 0.032018601894378662109f, 0.0097303865477442741394f},
      {0.061604432761669158936f, 0.030859494581818580627f, 0.0061905486509203910828f}
    },
    {
      {0.080014854669570922852f, -0.15467189252376556396f, 0.085346885025501251221f},
      {-0.085856758058071136475f, -0.081507101655006408691f, -0.18429802358150482178f},
      {-0.18676450848579406738f, 0.029815932735800743103f, -0.19397294521331787109f}
    },
    {
      {-0.0057526766322553157806f, -0.0015440856805071234703f, -0.059953775256872177124f},
      {0.058773510158061981201f, 0.056952171027660369873f, 0.0096999304369091987610f},
      {0.062438793480396270752f, -0.013201360590755939484f, -0.047083627432584762573f}
    },
    {
      {0.051477242261171340942f, -0.11729298532009124756f, 0.11472439020872116089f},
      {-0.098469354212284088135f, -0.10880335420370101929f, -0.18604627251625061035f},
      {-0.11055184900760650635f, -0.0068974453024566173553f, -0.27183780074119567871f}
    },
    {
      {0.014268804341554641724f, -0.085070870816707611084f, -0.019636631011962890625f},
      {0.076309263706207275391f, 0.060894906520843505859f, -0.044295813888311386108f},
      {0.057502992451190948486f, -0.037206228822469711304f, -0.047439217567443847656f}
    },
    {
      {0.059074390679597854614f, 0.10502266883850097656f, 0.028708571568131446838f},
      {-0.0049112699925899505615f, -0.067218236625194549561f, -0.050403352826833724976f},
      {0.13132171332836151123f, 0.0017414450412616133690f, -0.033294316381216049194f}
    },
    {
      {0.10376640409231185913f, 0.061522305011749267578f, -0.023212928324937820435f},
      {0.0024455084931105375290f, 0.051622163504362106323f, 0.014277233742177486420f},
      {-0.029467266052961349487f, -0.14017963409423828125f, -0.083302296698093414307f}
    }
  },
  {
    {
      {0.0032450642902404069901f, 0.033057052642107009888f, -0.036049127578735351562f},
      {-0.0084321908652782440186f, -0.042772758752107620239f, -0.043327856808900833130f},
      {0.050682526081800460815f, 0.069326274096965789795f, -0.013502003625035285950f}
    },
    {
      {-0.13802969455718994141f, -0.060884810984134674072f, 0.0049277772195637226105f},
      {-0.051580812782049179077f, 0.0053935321047902107239f, 0.011082994751632213593f},
      {-0.049012605100870132446f, 0.13085667788982391357f, 0.11262281984090805054f}
    },
    {
      {-0.013505603186786174774f, -0.11531470715999603271f, -0.097509399056434631348f},
      {-0.030535666272044181824f, -0.18075793981552124023f, -0.10643749684095382690f},
      {0.054272048175334930420f, -0.19422204792499542236f, -0.0087515274062752723694f}
    },
    {
      {-0.099891237914562225342f, -0.027754450216889381409f, 0.013184797950088977814f},
      {-0.064471416175365447998f, 0.041610103100538253784f, 0.028142319992184638977f},
      {-0.0099106179550290107727f, 0.11275492608547210693f, 0.035329326987266540527f}
    },
    {
      {0.0041318126022815704346f, -0.061655335128307342529f, -0.088006071746349334717f},
      {0.0047146915458142757416f, -0.23569913208484649658f, -0.18754908442497253418f},
      {0.0092080747708678245544f, -0.18619973957538604736f, -0.079599618911743164062f}
    },
    {
      {-0.054773248732089996338f, 0.020490238443017005920f, 0.029880888760089874268f},
      {0.0021667799446731805801f, -0.053647022694349288940f, 0.016213210299611091614f},
      {-0.0069701261818408966064f, 0.054683320224285125732f, -0.045185059309005737305f}
    },
    {
      {-0.052890874445438385010f, 0.0060495799407362937927f, 0.030410971492528915405f},
      {0.035688236355781555176f, 0.0075150383636355400085f, -0.0039341626688838005066f},
      {-0.027665866538882255554f, 0.054657466709613800049f, -0.029112998396158218384f}
    },
    {
      {-0.041555747389793395996f, 0.012296658009290695190f, 0.067225486040115356445f},
      {-0.039951954036951065063f, -0.11272896826267242432f, 0.051782052963972091675f},
      {0.011149712838232517242f, -0.0040732263587415218353f, 0.0045592505484819412231f}
    }
  },
  {
    {
      {0.0010466877138242125511f, -0.020873241126537322998f, -0.11364350467920303345f},
      {-0.034654777497053146362f, -0.064977638423442840576f, 0.021881183609366416931f},
      {0.00012809649342671036720f, -0.081824690103530883789f, 0.039051197469234466553f}
    },
    {
      {-0.14146667718887329102f, -0.062139313668012619019f, 0.078718282282352447510f},
      {-0.12252064794301986694f, -0.12778192758560180664f, 0.027525294572114944458f},
      {-0.18032993376255035400f, -0.10811495035886764526f, 0.077481955289840698242f}
    },
    {
      {0.028224915266036987305f, -0.094994284212589263916f, -0.054277334362268447876f},
      {-0.18020285665988922119f, -0.073829405009746551514f, -0.054818239063024520874f},
      {-0.048067808151245117188f, -0.10340526700019836426f, -0.076870501041412353516f}
    },
    {
      {-0.14476931095123291016f, -0.12885873019695281982f, 0.075964868068695068359f},
      {-0.16898174583911895752f, -0.25900366902351379395f, -0.010551407933235168457f},
      {-0.12050081044435501099f, -0.087180979549884796143f, 0.061818875372409820557f}
    },
    {
      {0.015880845487117767334f, -0.073402352631092071533f, -0.072925157845020294189f},
      {-0.20477144420146942139f, -0.13617308437824249268f, -0.065631896257400512695f},
      {-0.040382575243711471558f, -0.067547626793384552002f, -0.079306997358798980713f}
    },
    {
      {0.034846700727939605713f, -0.015147665515542030334f, 0.012252599000930786133f},
      {0.027733184397220611572f, -0.075768679380416870117f, -0.029652805998921394348f},
      {0.0068838009610772132874f, -0.045280378311872482300f, 0.042972229421138763428f}
    },
    {
      {-0.021613752469420433044f, -0.0093991560861468315125f, 0.0056596035137772560120f},
      {0.012208667583763599396f, -0.014955485239624977112f, 0.0070647494867444038391f},
      {0.0070928498171269893646f, -0.020233560353517532349f, 0.010643746703863143921f}
    },
    {
      {-0.049772549420595169067f, -0.075085937976837158203f, -0.016909690573811531067f},
      {-0.16377042233943939209f, -0.18592612445354461670f, 0.026835873723030090332f},
      {-0.092733614146709442139f, -0.14723469316959381104f, 0.018680149689316749573f}
    }
  },
  {
    {
      {0.060862209647893905640f, -0.037315707653760910034f, -0.00052297150250524282455f},
      {-0.010361731983721256256f, -0.030581949278712272644f, 0.035520303994417190552f},
      {0.044152300804853439331f, 0.018588343635201454163f, -0.072117015719413757324f}
    },
    {
      {-0.048649679869413375854f, 0.033357691019773483276f, 0.063451886177062988281f},
      {-0.17230176925659179688f, -0.12732352316379547119f, -0.11134368926286697388f},
      {-0.045243274420499801636f, -0.034311875700950622559f, 0.088960111141204833984f}
    },
    {
      {-0.18688434362411499023f, 0.024890292435884475708f, -0.13186232745647430420f},
      {-0.28010970354080200195f, -0.074051074683666229248f, -0.19752360880374908447f},
      {-0.025414116680622100830f, 0.061770603060722351074f, -0.10134527832269668579f}
    },
    {
      {-0.12289194762706756592f, -0.081292688846588134766f, -0.046573966741561889648f},
      {-0.20911231637001037598f, -0.073946662247180938721f, -0.11840407550334930420f},
      {-0.030591716989874839783f, 0.021320350468158721924f, 0.067287884652614593506f}
    },
    {
      {-0.069112040102481842041f, -0.019457301124930381775f, -0.12520805001258850098f},
      {-0.42039731144905090332f, -0.055608816444873809814f, -0.34497752785682678223f},
      {-0.039684105664491653442f, 0.083623625338077545166f, -0.098177537322044372559f}
    },
    {
      {0.054136678576469421387f, -0.11782058328390121460f, 0.012454105541110038757f},
      {-0.019492506980895996094f, -0.010149273090064525604f, -0.099821008741855621338f},
      {0.00054861459648236632347f, -0.083773232996463775635f, 0.097261503338813781738f}
    },
    {
      {-0.053657710552215576172f, -0.0038716802373528480530f, 0.071854293346405029297f},
      {-0.014519822783768177032f, -0.019288433715701103210f, -0.029245257377624511719f},
      {0.015166110359132289886f, -0.010030623525381088257f, -0.0052702375687658786774f}
    },
    {
      {-0.20355308055877685547f, -0.13438956439495086670f, 0.010779947973787784576f},
      {-0.060005862265825271606f, -0.068328998982906341553f, -0.068735376000404357910f},
      {0.062154699116945266724f, 0.068586818873882293701f, 0.030931992456316947937f}
    }
  },
  {
    {
      {-0.078500688076019287109f, -0.071827962994575500488f, -0.061941515654325485229f},
      {-0.089419573545455932617f, -0.098695389926433563232f, -0.12409073859453201294f},
      {0.10615196824073791504f, -0.031263340264558792114f, 0.060115564614534378052f}
    },
    {
      {-0.037661723792552947998f, 0.12419927120208740234f, -0.089665263891220092773f},
      {0.073940113186836242676f, 0.086442470550537109375f, -0.25785559415817260742f},
      {-0.0076439054682850837708f, 0.066634513437747955322f, -0.11905274540185928345f}
    },
    {
      {-0.0014497593510895967484f, -0.069883972406387329102f, 0.078254699707031250000f},
      {-0.071647718548774719238f, 0.11446024477481842041f, 0.081836163997650146484f},
      {-0.046382606029510498047f, 0.034181278198957443237f, -0.0036757485941052436829f}
    },
    {
      {0.010721214115619659424f, 0.073809601366519927979f, -0.13137291371822357178f},
      {0.15259915590286254883f, 0.055049199610948562622f, -0.27721783518791198730f},
      {-0.042148798704147338867f, -0.028370795771479606628f, -0.15032917261123657227f}
    },
    {
      {-0.0070192571729421615601f, -0.087333962321281433105f, 0.0098833469673991203308f},
      {0.048770576715469360352f, 0.0037777582183480262756f, 0.16610436141490936279f},
      {0.044670809060335159302f, 0.045568387955427169800f, 0.025527937337756156921f}
    },
    {
      {-0.13561287522315979004f, -0.070523366332054138184f, 0.058153491467237472534f},
      {0.22265790402889251709f, -0.12237476557493209839f, -0.072231076657772064209f},
      {0.069191865622997283936f, -0.10977763682603836060f, -0.17638629674911499023f}
    },
    {
      {-0.025173192843794822693f, 0.060085684061050415039f, 0.0060419505462050437927f},
      {-0.015754526481032371521f, -0.0093134576454758644104f, -0.085222914814949035645f},
      {0.020168690010905265808f, -0.074695236980915069580f, -0.077179938554763793945f}
    },
    {
      {0.021404094994068145752f, -0.081025570631027221680f, -0.025355586782097816467f},
      {0.078941941261291503906f, -0.065928272902965545654f, 0.14354480803012847900f},
      {-0.014891875907778739929f, -0.14603273570537567139f, -0.079637050628662109375f}
    }
  },
  {
    {
      {0.0035599344410002231598f, 0.046946376562118530273f, 0.019052661955356597900f},
      {0.041523735970258712769f, 0.058727368712425231934f, 0.061799287796020507812f},
      {-0.063913829624652862549f, -0.025135656818747520447f, -0.021162237972021102905f}
    },
    {
      {0.064288802444934844971f, -0.019799180328845977783f, 0.099142603576183319092f},
      {-0.0055938595905900001526f, -0.12048221379518508911f, 0.012667918577790260315f},
      {0.025234231725335121155f, -0.11451164633035659790f, -0.11718453466892242432f}
    },
    {
      {-0.056766640394926071167f, 0.11762320250272750854f, -0.023112712427973747253f},
      {-0.080090351402759552002f, -0.020987542346119880676f, -0.0044672656804323196411f},
      {-0.027999006211757659912f, 0.066648826003074645996f, 0.082252554595470428467f}
    },
    {
      {0.034298870712518692017f, 0.0040855240076780319214f, 0.091244831681251525879f},
      {-0.094240389764308929443f, -0.050804670900106430054f, -0.0040591149590909481049f},
      {-0.0048347809351980686188f, -0.13650500774383544922f, -0.12064497172832489014f}
    },
    {
      {-0.039895176887512207031f, 0.045570131391286849976f, -0.073125891387462615967f},
      {-0.040703341364860534668f, 0.098209306597709655762f, -0.055773533880710601807f},
      {-0.0078446744009852409363f, 0.033583205193281173706f, 0.040810678154230117798f}
    },
    {
      {-0.0074017429724335670471f, -0.011142251081764698029f, 0.080441184341907501221f},
      {-0.067399591207504272461f, 0.013101969845592975616f, 0.12210276722908020020f},
      {-0.0023943642154335975647f, -0.068176515400409698486f, -0.069458097219467163086f}
    },
    {
      {-0.0046740667894482612610f, 0.055268943309783935547f, 0.12685397267341613770f},
      {0.038424663245677947998f, 0.0071179950609803199768f, 0.042781047523021697998f},
      {0.035457126796245574951f, -0.0034571245778352022171f, -0.039152659475803375244f}
    },
    {
      {-0.025072580203413963318f, 0.16303324699401855469f, 0.013330305926501750946f},
      {0.043378788977861404419f, -0.0054868743754923343658f, 0.030913123860955238342f},
      {-0.0041231014765799045563f, -0.048622880131006240845f, 0.019265145063400268555f}
    }
  },
  {
    {
      {-0.012110538780689239502f, 0.10102333128452301025f, -0.050033144652843475342f},
      {0.038462102413177490234f, -0.013380263000726699829f, -0.035015620291233062744f},
      {-0.014301483519375324249f, -0.019581733271479606628f, -0.042153339833021163940f}
    },
    {
      {-0.035688165575265884399f, 0.013425895012915134430f, 0.014467462897300720215f},
      {-0.065434262156486511230f, 0.020022297278046607971f, 0.065152615308761596680f},
      {-0.0056634503416717052460f, -0.089141644537448883057f, 0.029918098822236061096f}
    },
    {
      {0.10522170364856719971f, -0.075795702636241912842f, -0.043315313756465911865f},
      {0.046358436346054077148f, -0.17028380930423736572f, -0.17655882239341735840f},
      {-0.022815523669123649597f, -0.070950560271739959717f, -0.098664104938507080078f}
    },
    {
      {-0.043408345431089401245f, -0.045141123235225677490f, 0.089097768068313598633f},
      {-0.079059936106204986572f, -0.042164545506238937378f, 0.034052692353725433350f},
      {-0.015076971612870693207f, -0.013631253503262996674f, 0.064207017421722412109f}
    },
    {
      {0.039199844002723693848f, 0.022190591320395469666f, -0.18035337328910827637f},
      {0.064724788069725036621f, -0.19514162838459014893f, -0.14374025166034698486f},
      {-0.033481355756521224976f, 0.015938986092805862427f, -0.090402126312255859375f}
    },
    {
      {-0.012363689020276069641f, 0.11968114972114562988f, -0.073267795145511627197f},
      {-0.066241472959518432617f, 0.15917384624481201172f, 0.058344297111034393311f},
      {0.051801286637783050537f, 0.056945573538541793823f, -0.011180626228451728821f}
    },
    {
      {-0.071270294487476348877f, 0.076891720294952392578f, -0.029852790758013725281f},
      {-0.17192998528480529785f, 0.15791057050228118896f, 0.071628659963607788086f},
      {0.0065049421973526477814f, 0.077273681759834289551f, -0.087858721613883972168f}
    },
    {
      {0.13700632750988006592f, -0.077369205653667449951f, -0.014473022893071174622f},
      {0.014654588885605335236f, 0.080378346145153045654f, -0.056319370865821838379f},
      {-0.011376926675438880920f, -0.033308751881122589111f, 0.063389405608177185059f}
    }
  },
  {
    {
      {-0.15507945418357849121f, -0.10078168660402297974f, 0.033973358571529388428f},
      {-0.035773519426584243774f, 0.025169329717755317688f, 0.10212232917547225952f},
      {0.047782789915800094604f, 0.043975040316581726074f, 0.059682384133338928223f}
    },
    {
      {-0.088668778538703918457f, -0.043273258954286575317f, -0.015033193863928318024f},
      {-0.0066373553127050399780f, 0.095742136240005493164f, -0.024026302620768547058f},
      {-0.13870087265968322754f, -0.10322243720293045044f, -0.11813394725322723389f}
    },
    {
      {0.070355243980884552002f, -0.0076062045991420745850f, -0.053949054330587387085f},
      {0.042140968143939971924f, 0.069687142968177795410f, 0.062021218240261077881f},
      {0.045122552663087844849f, -0.065007917582988739014f, -0.12765513360500335693f}
    },
    {
      {-0.060845207422971725464f, -0.037814956158399581909f, 0.0015718076610937714577f},
      {0.035814609378576278687f, 0.059205703437328338623f, 0.039271157234907150269f},
      {-0.18771432340145111084f, -0.22557203471660614014f, -0.18206310272216796875f}
    },
    {
      {0.033403210341930389404f, 0.018425431102514266968f, -0.055823765695095062256f},
      {0.047901481389999389648f, 0.047331154346466064453f, 0.042627207934856414795f},
      {0.087104879319667816162f, -0.0056581641547381877899f, -0.027810124680399894714f}
    },
    {
      {-0.088554285466670989990f, -0.13121275603771209717f, -0.0030262053478509187698f},
      {0.11054873466491699219f, 0.076445460319519042969f, 0.12349980324506759644f},
      {-0.067629106342792510986f, -0.0091210473328828811646f, 0.031874984502792358398f}
    },
    {
      {-0.035308446735143661499f, -0.072113260626792907715f, -0.0052622715011239051819f},
      {-0.026160078123211860657f, 0.060990646481513977051f, 0.095492430031299591064f},
      {-0.038628660142421722412f, 0.094997480511665344238f, -0.045831814408302307129f}
    },
    {
      {-0.0019922952633351087570f, -0.0083962539210915565491f, -0.067354321479797363281f},
      {-0.0082347420975565910339f, -0.019260456785559654236f, 0.11978892982006072998f},
      {-0.068569861352443695068f, -0.091698132455348968506f, -0.15433631837368011475f}
    }
  },
  {
    {
      {-0.021849634125828742981f, -0.066306710243225097656f, -0.12453529983758926392f},
      {-0.078072205185890197754f, -0.30365794897079467773f, -0.065057680010795593262f},
      {0.018495557829737663269f, -0.27095487713813781738f, -0.044092912226915359497f}
    },
    {
      {-0.014688345603644847870f, -0.023008454591035842896f, -0.062921769917011260986f},
      {-0.042925037443637847900f, 0.0076511320658028125763f, -0.0079333977773785591125f},
      {-0.070926405489444732666f, 0.083142019808292388916f, -0.062671110033988952637f}
    },
    {
      {0.060905508697032928467f, -0.047777805477380752563f, -0.0036656516604125499725f},
      {0.0084078852087259292603f, -0.096050344407558441162f, -0.022328678518533706665f},
      {0.016999280080199241638f, -0.011776645667850971222f, 0.063652262091636657715f}
    },
    {
      {-0.011406871490180492401f, -0.035129103809595108032f, -0.13038218021392822266f},
      {-0.081142060458660125732f, -0.062658898532390594482f, -0.032727047801017761230f},
      {0.0046930913813412189484f, 0.11274347454309463501f, -0.0018401617417111992836f}
    },
    {
      {-0.017117444425821304321f, 0.031601727008819580078f, 0.064308986067771911621f},
      {0.058777790516614913940f, -0.13801820576190948486f, -0.054812330752611160278f},
      {0.021954108029603958130f, -0.034620326012372970581f, 0.051874835044145584106f}
    },
    {
      {0.031998094171285629272f, -0.11294602602720260620f, 0.027921903878450393677f},
      {-0.14679990708827972412f, -0.16580100357532501221f, -0.12865433096885681152f},
      {-0.014334102161228656769f, -0.074813783168792724609f, -0.21806587278842926025f}
    },
    {
      {-0.12643103301525115967f, -0.027823686599731445312f, -0.14632759988307952881f},
      {-0.16095106303691864014f, -0.034964144229888916016f, -0.14969648420810699463f},
      {-0.10216249525547027588f, 0.11861062049865722656f, -0.20801559090614318848f}
    },
    {
      {0.12358369678258895874f, -0.11708527058362960815f, -0.056473039090633392334f},
      {0.056058418005704879761f, -0.17511582374572753906f, -0.10505163669586181641f},
      {-0.052966754883527755737f, 0.0044577885419130325317f, -0.0012000960996374487877f}
    }
  },
  {
    {
      {-0.028895044699311256409f, -0.11922902613878250122f, -0.17206019163131713867f},
      {-0.046710859984159469604f, -0.10577463358640670776f, -0.011634740978479385376f},
      {0.10549851506948471069f, 0.070249766111373901367f, -0.010603719390928745270f}
    },
    {
      {0.044836699962615966797f, -0.040569644421339035034f, -0.029048673808574676514f},
      {0.043223585933446884155f, 0.0082761421799659729004f, 0.0024252838920801877975f},
      {-0.13272877037525177002f, -0.019590565934777259827f, 0.0037984417285770177841f}
    },
    {
      {-0.038868002593517303467f, 0.084139272570610046387f, 0.024717979133129119873f},
      {-0.27027699351310729980f, 0.049754623323678970337f, -0.30054065585136413574f},
      {0.13634178042411804199f, -0.076583169400691986084f, 0.025884021073579788208f}
    },
    {
      {0.051972851157188415527f, 0.014433603733777999878f, 0.051730360835790634155f},
      {-0.063685685396194458008f, -0.069375738501548767090f, 0.0041272924281656742096f},
      {-0.17356181144714355469f, -0.0043655154295265674591f, -0.047045622020959854126f}
    },
    {
      {-0.10907880961894989014f, 0.043016567826271057129f, 0.020185559988021850586f},
      {-0.18759952485561370850f, 0.097718939185142517090f, -0.19746419787406921387f},
      {0.084614671766757965088f, -0.096963219344615936279f, -0.14945811033248901367f}
    },
    {
      {0.029669994488358497620f, -0.045120798051357269287f, 0.0010986198903992772102f},
      {-0.019056880846619606018f, -0.095508784055709838867f, 0.036693889647722244263f},
      {-0.11521225422620773315f, 0.015682235360145568848f, -0.14889103174209594727f}
    },
    {
      {-0.17208479344844818115f, -0.12295020371675491333f, -0.12426947802305221558f},
      {-0.065845318138599395752f, -0.078842960298061370850f, -0.0075209010392427444458f},
      {0.13753399252891540527f, 0.027709765359759330750f, 0.039746843278408050537f}
    },
    {
      {0.071700610220432281494f, -0.0041103051044046878815f, 0.060559734702110290527f},
      {-0.13467773795127868652f, -0.088146016001701354980f, -0.12893265485763549805f},
      {0.043361242860555648804f, -0.17453004419803619385f, -0.053815368562936782837f}
    }
  },
  {
    {
      {-0.040602181106805801392f, 0.073019601404666900635f, 0.17307181656360626221f},
      {-0.020402697846293449402f, -0.0016015771543607115746f, -0.020857859402894973755f},
      {-0.18637241423130035400f, -0.022888189181685447693f, -0.052131440490484237671f}
    },
    {
      {0.016737248748540878296f, -0.11304721236228942871f, -0.068189568817615509033f},
      {-0.095991775393486022949f, -0.12866204977035522461f, 0.12809948623180389404f},
      {-0.032131154090166091919f, -0.081421092152595520020f, 0.13508106768131256104f}
    },
    {
      {0.059680443257093429565f, 0.046555534005165100098f, 0.012867306359112262726f},
      {0.018319087103009223938f, -0.0050339689478278160095f, -0.055251352488994598389f},
      {0.031010886654257774353f, 0.010874686762690544128f, -0.077954940497875213623f}
    },
    {
      {-0.049779742956161499023f, -0.050388466566801071167f, -0.069221109151840209961f},
      {-0.19703662395477294922f, -0.082356229424476623535f, 0.089900530874729156494f},
      {-0.048483256250619888306f, 0.033693049103021621704f, 0.076010078191757202148f}
    },
    {
      {0.00082695763558149337769f, 0.036141235381364822388f, 0.049143314361572265625f},
      {0.073985293507575988770f, -0.070853672921657562256f, 0.017790790647268295288f},
      {0.11722679436206817627f, -0.017928071320056915283f, 0.0077954097650945186615f}
    },
    {
      {0.020863890647888183594f, 0.023067459464073181152f, -0.0093364948406815528870f},
      {-0.095063991844654083252f, -0.064445622265338897705f, 0.16422398388385772705f},
      {-0.17897698283195495605f, -0.065775401890277862549f, 0.14093582332134246826f}
    },
    {
      {0.055937848985195159912f, -0.052464015781879425049f, 0.068488337099552154541f},
      {-0.055462542921304702759f, -0.11604282259941101074f, 0.15758866071701049805f},
      {-0.046783868223428726196f, -0.22189784049987792969f, 0.13535620272159576416f}
    },
    {
      {0.032638974487781524658f, 0.064168989658355712891f, 0.030122639611363410950f},
      {-0.10099096596240997314f, -0.0049831029027700424194f, -0.13888531923294067383f},
      {-0.0096548413857817649841f, -0.041880290955305099487f, 0.082361787557601928711f}
    }
  },
  {
    {
      {0.039750471711158752441f, 0.083810351788997650146f, -0.076183632016181945801f},
      {0.16375048458576202393f, 0.021563326939940452576f, -0.16392558813095092773f},
      {0.045455679297447204590f, 0.019745981320738792419f, -0.029123045504093170166f}
    },
    {
      {-0.025409413501620292664f, 0.093520216643810272217f, -0.14191249012947082520f},
      {-0.0036760726943612098694f, 0.023643746972084045410f, 0.094328843057155609131f},
      {-0.092366412281990051270f, -0.10892622917890548706f, -0.011896422132849693298f}
    },
    {
      {0.062425356358289718628f, -0.15437884628772735596f, 0.13495635986328125000f},
      {0.025941591709852218628f, -0.25534570217132568359f, -0.094189666211605072021f},
      {0.0087408376857638359070f, -0.12202924489974975586f, -0.12354536354541778564f}
    },
    {
      {0.10507202148437500000f, -0.015972604975104331970f, -0.016540335491299629211f},
      {0.010318077169358730316f, 0.029691059142351150513f, 0.066177621483802795410f},
      {-0.071720376610755920410f, -0.12215448915958404541f, -0.10110520571470260620f}
    },
    {
      {0.0056774681434035301208f, -0.19442550837993621826f, 0.11341559886932373047f},
      {0.074023611843585968018f, -0.26473003625869750977f, -0.081696018576622009277f},
      {0.025276783853769302368f, -0.23547348380088806152f, -0.062687225639820098877f}
    },
    {
      {0.0090962415561079978943f, 0.12155602872371673584f, -0.095537841320037841797f},
      {0.010939518921077251434f, 0.063099741935729980469f, -0.0070214546285569667816f},
      {0.018350971862673759460f, 0.041592534631490707397f, -0.085774824023246765137f}
    },
    {
      {-0.025261316448450088501f, 0.13766843080520629883f, -0.13451559841632843018f},
      {-0.017705129459500312805f, 0.023239448666572570801f, 0.013354019261896610260f},
      {0.0019771098159253597260f, -0.077931068837642669678f, 0.021747380495071411133f}
    },
    {
      {-0.00022833839466329663992f, 0.061534468084573745728f, -0.036250993609428405762f},
      {-0.14988850057125091553f, 0.10503396391868591309f, -0.053004525601863861084f},
      {-0.040182024240493774414f, 0.020821116864681243896f, -0.037084076553583145142f}
    }
  },
  {
    {
      {-0.37421876192092895508f, -0.0017702387413010001183f, 0.028326129540801048279f},
      {-0.19326224923133850098f, -0.14279107749462127686f, -0.016261737793684005737f},
      {-0.10963491350412368774f, -0.17169257998466491699f, 0.19786190986633300781f}
    },
    {
      {-0.0078013213351368904114f, 0.047511503100395202637f, 0.058751966804265975952f},
      {0.057843852788209915161f, -0.071494266390800476074f, -0.10956175625324249268f},
      {0.12467629462480545044f, 0.0086889229714870452881f, -0.23856650292873382568f}
    },
    {
      {0.017082566395401954651f, -0.016027817502617835999f, -0.0057611055672168731689f},
      {-0.029109224677085876465f, 0.12879708409309387207f, -0.087263248860836029053f},
      {0.057274594902992248535f, -0.042062271386384963989f, 0.077809385955333709717f}
    },
    {
      {-0.064523741602897644043f, -0.047018691897392272949f, 0.020089443773031234741f},
      {0.082602225244045257568f, -0.099050201475620269775f, 0.014136469922959804535f},
      {0.18389560282230377197f, -0.20929430425167083740f, -0.082461468875408172607f}
    },
    {
      {0.0016711773350834846497f, 0.070713311433792114258f, -0.12172394245862960815f},
      {-0.0056257676333189010620f, 0.022240640595555305481f, -0.026441494002938270569f},
      {0.042993810027837753296f, 0.0079757971689105033875f, 0.041000340133905410767f}
    },
    {
      {-0.18792183697223663330f, -0.11192953586578369141f, 0.016201671212911605835f},
      {-0.20998217165470123291f, -0.22515277564525604248f, 0.025067582726478576660f},
      {-0.14622402191162109375f, -0.064074441790580749512f, -0.099109746515750885010f}
    },
    {
      {-0.29065769910812377930f, -0.22070027887821197510f, 0.11987939476966857910f},
      {-0.14789795875549316406f, -0.23471872508525848389f, 0.084247693419456481934f},
      {-0.016701849177479743958f, 0.052728854119777679443f, -0.029077664017677307129f}
    },
    {
      {-0.050195053219795227051f, -0.045282579958438873291f, 0.031119043007493019104f},
      {-0.068458236753940582275f, -0.032844722270965576172f, 0.14504221081733703613f},
      {0.025226153433322906494f, -0.0010242626303806900978f, 0.010088281705975532532f}
    }
  },
  {
    {
      {0.080483362078666687012f, 0.073591955006122589111f, 0.044855259358882904053f},
      {-0.065195046365261077881f, -0.12975937128067016602f, -0.086468741297721862793f},
      {-0.10138583183288574219f, -0.038298994302749633789f, 0.0073380935937166213989f}
    },
    {
      {-0.15521100163459777832f, 0.014918359927833080292f, 0.034571565687656402588f},
      {-0.19047164916992187500f, -0.10923984646797180176f, 0.061503618955612182617f},
      {-0.14440841972827911377f, -0.17680563032627105713f, 0.011650263331830501556f}
    },
    {
      {-0.099729128181934356689f, 0.033365923911333084106f, 0.050191789865493774414f},
      {-0.16317695379257202148f, -0.18993785977363586426f, -0.015414719469845294952f},
      {0.18766869604587554932f, 0.017001565545797348022f, 0.029443589970469474792f}
    },
    {
      {-0.23732814192771911621f, -0.13841551542282104492f, 0.042726211249828338623f},
      {-0.18637455999851226807f, -0.19532838463783264160f, 0.047495733946561813354f},
      {-0.042827069759368896484f, -0.17170079052448272705f, 0.016287066042423248291f}
    },
    {
      {-0.10347656160593032837f, 0.040614731609821319580f, 0.035830020904541015625f},
      {-0.16558516025543212891f, -0.19820033013820648193f, -0.0050100996159017086029f},
      {0.17992798984050750732f, 0.015779869630932807922f, 0.051291536539793014526f}
    },
    {
      {0.045594513416290283203f, -0.055688124150037765503f, 0.053102821111679077148f},
      {-0.0070193959400057792664f, -0.045909143984317779541f, 0.034425236284732818604f},
      {-0.013423403725028038025f, 0.010741361416876316071f, -0.025262663140892982483f}
    },
    {
      {0.079510711133480072021f, -0.011014280840754508972f, -0.057848900556564331055f},
      {-0.0025313484948128461838f, -0.025223448872566223145f, -0.025015547871589660645f},
      {-0.016918558627367019653f, -0.045372456312179565430f, 0.057806450873613357544f}
    },
    {
      {-0.025738665834069252014f, -0.055901143699884414673f, -0.0097247622907161712646f},
      {-0.074526019394397735596f, -0.14326527714729309082f, -0.015636442229151725769f},
      {0.10946980863809585571f, -0.027579534798860549927f, -0.086592301726341247559f}
    }
  }
};
static const float tensor_onnx__Conv_50[16] = 
{-0.51686698198318481445f, -0.040096223354339599609f, 0.13459733128547668457f, 0.34225875139236450195f, 0.66923159360885620117f, 0.60539197921752929688f, 0.095683246850967407227f, -0.33152934908866882324f, -0.020614564418792724609f, 0.0054607689380645751953f, 1.1181596517562866211f, 0.54062342643737792969f, 0.14207600057125091553f, 0.25667700171470642090f, 0.42605316638946533203f, 0.49523228406906127930f};
static const float tensor_onnx__Conv_52[32][16][3][3] = 
{
  {
    {
      {-0.087753854691982269287f, -0.053539872169494628906f, 0.094550050795078277588f},
      {0.062673680484294891357f, 0.15520291030406951904f, 0.046006724238395690918f},
      {-0.043789938092231750488f, 0.040217839181423187256f, -0.12320690602064132690f}
    },
    {
      {0.20885889232158660889f, -0.13501474261283874512f, -0.28830620646476745605f},
      {0.027875015512108802795f, -0.030591554939746856689f, -0.089842997491359710693f},
      {0.026963874697685241699f, 0.015666920691728591919f, 0.025575371459126472473f}
    },
    {
      {-0.37726292014122009277f, 0.079015128314495086670f, -0.14896726608276367188f},
      {0.079558059573173522949f, 0.11476568877696990967f, -0.040429137647151947021f},
      {-0.15051905810832977295f, 0.047856930643320083618f, 0.16678391396999359131f}
    },
    {
      {-0.19645406305789947510f, 0.15989494323730468750f, 0.077814541757106781006f},
      {-0.014096596278250217438f, -0.083668261766433715820f, -0.065163880586624145508f},
      {-0.15541422367095947266f, -0.11593681573867797852f, -0.068371355533599853516f}
    },
    {
      {-0.10834042727947235107f, -0.10128577798604965210f, 0.12351774424314498901f},
      {-0.019368650391697883606f, -0.17600116133689880371f, -0.41382971405982971191f},
      {-0.050046049058437347412f, -0.094927683472633361816f, -0.10867651551961898804f}
    },
    {
      {-0.24413062632083892822f, 0.14535009860992431641f, 0.12176546454429626465f},
      {-0.046098966151475906372f, -0.29736667871475219727f, -0.37841272354125976562f},
      {-0.22842144966125488281f, -0.31516903638839721680f, -0.10343401134014129639f}
    },
    {
      {0.085116669535636901855f, -0.14551821351051330566f, -0.036975853145122528076f},
      {-0.060045775026082992554f, 0.28119826316833496094f, 0.11571970582008361816f},
      {-0.094128169119358062744f, -0.14973075687885284424f, 0.074929244816303253174f}
    },
    {
      {-0.11824407428503036499f, -0.019159825518727302551f, 0.11283352226018905640f},
      {0.19270747900009155273f, 0.28032818436622619629f, -0.18689763545989990234f},
      {0.057683240622282028198f, -0.13211353123188018799f, -0.24800248444080352783f}
    },
    {
      {-0.081619210541248321533f, 0.10304109752178192139f, 0.00049458944704383611679f},
      {-0.25441586971282958984f, -0.044274553656578063965f, 0.025870243087410926819f},
      {0.086267992854118347168f, -0.0034598920028656721115f, 0.015669237822294235229f}
    },
    {
      {0.13457757234573364258f, -0.052189406007528305054f, -0.13154631853103637695f},
      {0.047202456742525100708f, 0.36592498421669006348f, 0.24780084192752838135f},
      {-0.28235718607902526855f, -0.17117896676063537598f, -0.18117710947990417480f}
    },
    {
      {-0.058570563793182373047f, -0.12220942974090576172f, 0.023246463388204574585f},
      {0.10453316569328308105f, -0.090587176382541656494f, 0.036645311862230300903f},
      {0.12057352066040039062f, -0.023773511871695518494f, -0.065825320780277252197f}
    },
    {
      {-0.15217471122741699219f, -0.45775091648101806641f, -0.087841488420963287354f},
      {-0.11407854408025741577f, -0.34786900877952575684f, -0.29033678770065307617f},
      {0.087585143744945526123f, -0.029985710978507995605f, -0.19345487654209136963f}
    },
    {
      {0.11668194830417633057f, 0.13616232573986053467f, -0.16218240559101104736f},
      {-0.094553411006927490234f, 0.033967640250921249390f, 0.0036700153723359107971f},
      {-0.047930270433425903320f, 0.012517790310084819794f, -0.14542135596275329590f}
    },
    {
      {-0.15597131848335266113f, 0.15503703057765960693f, -0.047140926122665405273f},
      {-0.090478062629699707031f, -0.038640387356281280518f, -0.10118377208709716797f},
      {0.0044758506119251251221f, 0.10779748857021331787f, -0.031147552654147148132f}
    },
    {
      {-0.086048029363155364990f, -0.16285388171672821045f, -0.098334960639476776123f},
      {-0.011915218085050582886f, 0.11100510507822036743f, -0.054560955613851547241f},
      {0.066824980080127716064f, 0.061272572726011276245f, -0.24519190192222595215f}
    },
    {
      {-0.17823199927806854248f, -0.14394392073154449463f, -0.061917856335639953613f},
      {0.15707279741764068604f, -0.18198125064373016357f, -0.052648995071649551392f},
      {-0.041860293596982955933f, -0.042035527527332305908f, 0.031402166932821273804f}
    }
  },
  {
    {
      {0.0044928495772182941437f, -0.22184193134307861328f, 0.064129017293453216553f},
      {-0.14686785638332366943f, -0.068536259233951568604f, -0.21626845002174377441f},
      {0.095543429255485534668f, 0.013635273091495037079f, 0.0056739659048616886139f}
    },
    {
      {0.076352983713150024414f, 0.21830798685550689697f, -0.21068003773689270020f},
      {0.13858813047409057617f, -0.43276894092559814453f, -0.16457748413085937500f},
      {-0.26653638482093811035f, -0.0060347453691065311432f, 0.15682010352611541748f}
    },
    {
      {0.0093019967898726463318f, 0.044057637453079223633f, 0.24558679759502410889f},
      {-0.18184871971607208252f, -0.19002740085124969482f, -0.18075637519359588623f},
      {0.19024223089218139648f, 0.12775830924510955811f, -0.11662567406892776489f}
    },
    {
      {0.0093460390344262123108f, -0.10956278443336486816f, 0.044847618788480758667f},
      {0.11160563677549362183f, -0.12442976981401443481f, -0.078691773116588592529f},
      {0.086148895323276519775f, -0.18292294442653656006f, -0.012342480942606925964f}
    },
    {
      {0.18637101352214813232f, -0.15674756467342376709f, 0.071784153580665588379f},
      {0.0075669256038963794708f, -0.12966562807559967041f, 0.16330330073833465576f},
      {0.0081493789330124855042f, -0.027413208037614822388f, -0.012769536115229129791f}
    },
    {
      {0.35066917538642883301f, -0.17999820411205291748f, -0.086816653609275817871f},
      {0.20849296450614929199f, -0.085486397147178649902f, -0.045295383781194686890f},
      {0.044285997748374938965f, -0.054309140890836715698f, 0.064113453030586242676f}
    },
    {
      {0.073949605226516723633f, 0.16231651604175567627f, -0.31424468755722045898f},
      {0.013893977738916873932f, -0.44510796666145324707f, -0.24503585696220397949f},
      {-0.13456384837627410889f, 0.24741336703300476074f, 0.14151547849178314209f}
    },
    {
      {-0.13176575303077697754f, -0.084654569625854492188f, -0.097754299640655517578f},
      {0.096905566751956939697f, -0.24856382608413696289f, -0.22793048620223999023f},
      {-0.18096816539764404297f, -0.12077549099922180176f, 0.27189034223556518555f}
    },
    {
      {0.10537483543157577515f, -0.18768729269504547119f, 0.21854716539382934570f},
      {-0.0017883105902001261711f, -0.19674529135227203369f, -0.16844266653060913086f},
      {-0.053956460207700729370f, -0.25189378857612609863f, 0.060606911778450012207f}
    },
    {
      {-0.15643070638179779053f, 0.017729107290506362915f, 0.049881972372531890869f},
      {0.25741136074066162109f, -0.17118589580059051514f, -0.12254609912633895874f},
      {-0.12962934374809265137f, 0.025563955307006835938f, 0.16292741894721984863f}
    },
    {
      {0.035243641585111618042f, -0.29151087999343872070f, 0.16181398928165435791f},
      {-0.0080617805942893028259f, 0.21165128052234649658f, 0.027300892397761344910f},
      {0.19634613394737243652f, 0.015221468172967433929f, -0.33762934803962707520f}
    },
    {
      {0.21613624691963195801f, 0.24931870400905609131f, -0.089657701551914215088f},
      {0.026962233707308769226f, 0.083220832049846649170f, 0.13882437348365783691f},
      {-0.20503628253936767578f, -0.29100391268730163574f, -0.10377065092325210571f}
    },
    {
      {-0.34345677495002746582f, 0.10610995441675186157f, 0.12579217553138732910f},
      {0.071610972285270690918f, -0.23019292950630187988f, -0.081058651208877563477f},
      {-0.14512477815151214600f, 0.099804885685443878174f, -0.035772703588008880615f}
    },
    {
      {0.046405646950006484985f, -0.28641179203987121582f, 0.22309042513370513916f},
      {0.27136516571044921875f, 0.079953663051128387451f, -0.19266536831855773926f},
      {0.046250671148300170898f, -0.065285831689834594727f, -0.20953166484832763672f}
    },
    {
      {0.20360094308853149414f, 0.033458668738603591919f, -0.062507376074790954590f},
      {-0.0067197890020906925201f, -0.30846810340881347656f, -0.011631080880761146545f},
      {-0.14683523774147033691f, 0.028685377910733222961f, -0.048650287091732025146f}
    },
    {
      {-0.0091605354100465774536f, -0.065106496214866638184f, 0.0053029293194413185120f},
      {-0.29923743009567260742f, 0.089567966759204864502f, 0.14531575143337249756f},
      {-0.17000780999660491943f, -0.0034391286317259073257f, -0.017782559618353843689f}
    }
  },
  {
    {
      {-0.14588430523872375488f, -0.025158792734146118164f, 0.0021617121528834104538f},
      {-0.10261554270982742310f, 0.078852199018001556396f, 0.11379449814558029175f},
      {0.017784588038921356201f, 0.049533363431692123413f, 0.091748237609863281250f}
    },
    {
      {-0.20196041464805603027f, -0.14348316192626953125f, -0.13128194212913513184f},
      {-0.065318495035171508789f, 0.037621837109327316284f, 0.0041311234235763549805f},
      {0.077128209173679351807f, -0.031158028170466423035f, 0.17014156281948089600f}
    },
    {
      {0.14162437617778778076f, 0.020971354097127914429f, 0.20210959017276763916f},
      {-0.14450006186962127686f, -0.061577957123517990112f, 0.15843760967254638672f},
      {-0.030761010944843292236f, -0.39970251917839050293f, -0.091039441525936126709f}
    },
    {
      {-0.12103845179080963135f, 0.042215522378683090210f, 0.17640297114849090576f},
      {0.22746154665946960449f, -0.092010721564292907715f, 0.13094140589237213135f},
      {0.0041617061942815780640f, -0.035370476543903350830f, 0.10901445150375366211f}
    },
    {
      {0.34022891521453857422f, 0.46943449974060058594f, 0.20985069870948791504f},
      {-0.33397516608238220215f, -0.079462207853794097900f, -0.12205647677183151245f},
      {-0.13275912404060363770f, -0.10202505439519882202f, 0.0094464849680662155151f}
    },
    {
      {0.41556608676910400391f, 0.23751862347126007080f, 0.074948936700820922852f},
      {-0.021949028596282005310f, 0.022761022672057151794f, -0.11383114755153656006f},
      {-0.12354314327239990234f, -0.14882394671440124512f, 0.0033570982050150632858f}
    },
    {
      {-0.049286782741546630859f, -0.15913777053356170654f, -0.13389255106449127197f},
      {-0.027660965919494628906f, 0.23379233479499816895f, -0.10418806970119476318f},
      {0.071505591273307800293f, -0.20256207883358001709f, -0.12775529921054840088f}
    },
    {
      {-0.026426717638969421387f, 0.062847100198268890381f, -0.038990709930658340454f},
      {-0.18559528887271881104f, -0.0013083483790978789330f, -0.16919441521167755127f},
      {0.076053634285926818848f, 0.079955562949180603027f, -0.23297029733657836914f}
    },
    {
      {0.020838756114244461060f, 0.22480000555515289307f, 0.041021764278411865234f},
      {0.11873383074998855591f, -0.030949223786592483521f, -0.052154231816530227661f},
      {-0.012432053685188293457f, -0.014484731480479240417f, 0.055197298526763916016f}
    },
    {
      {0.087880052626132965088f, -0.072601616382598876953f, -0.10394766181707382202f},
      {0.018293363973498344421f, -0.071178682148456573486f, -0.15522125363349914551f},
      {-0.093079827725887298584f, -0.10118352621793746948f, 0.14142751693725585938f}
    },
    {
      {-0.14525169134140014648f, -0.19018827378749847412f, 0.14062565565109252930f},
      {0.14589935541152954102f, -0.17134921252727508545f, 0.065898843109607696533f},
      {0.31726750731468200684f, 0.061728518456220626831f, -0.30976170301437377930f}
    },
    {
      {0.20856826007366180420f, 0.23633785545825958252f, 0.20462100207805633545f},
      {0.015172142535448074341f, -0.30926176905632019043f, -0.25830814242362976074f},
      {-0.0056977262720465660095f, -0.042839203029870986938f, -0.19546724855899810791f}
    },
    {
      {-0.18865287303924560547f, -0.13538874685764312744f, -0.24302582442760467529f},
      {0.26400718092918395996f, -0.016796439886093139648f, -0.035156786441802978516f},
      {0.059429675340652465820f, 0.10224437713623046875f, -0.015224906615912914276f}
    },
    {
      {0.42311552166938781738f, -0.047825578600168228149f, 0.00058183510554954409599f},
      {0.12319576740264892578f, -0.15750855207443237305f, 0.15433943271636962891f},
      {0.13012351095676422119f, -0.16890664398670196533f, -0.27758651971817016602f}
    },
    {
      {-0.053966477513313293457f, -0.30530586838722229004f, -0.051624786108732223511f},
      {0.10414458811283111572f, -0.077595986425876617432f, -0.21286347508430480957f},
      {0.013521706685423851013f, 0.047794252634048461914f, 0.018580866977572441101f}
    },
    {
      {0.044674042612314224243f, 0.16650052368640899658f, 0.016777448356151580811f},
      {-0.065294168889522552490f, 0.027249822393059730530f, 0.11903981864452362061f},
      {0.026424609124660491943f, 0.00076426740270107984543f, -0.27655163407325744629f}
    }
  },
  {
    {
      {-0.21794311702251434326f, 0.24134524166584014893f, 0.32030573487281799316f},
      {-0.23736409842967987061f, -0.16305226087570190430f, 0.10700403153896331787f},
      {-0.42133724689483642578f, 0.017953824251890182495f, -0.12695574760437011719f}
    },
    {
      {-0.091722190380096435547f, 0.020203474909067153931f, 0.13941475749015808105f},
      {-0.080426834523677825928f, -0.18719039857387542725f, -0.065813094377517700195f},
      {-0.24314777553081512451f, -0.13787657022476196289f, -0.25717857480049133301f}
    },
    {
      {-0.068887434899806976318f, -0.13723397254943847656f, 0.10016760975122451782f},
      {-0.12774989008903503418f, -0.25477626919746398926f, 0.020957492291927337646f},
      {0.023030029609799385071f, 0.013005079701542854309f, 0.25488963723182678223f}
    },
    {
      {-0.15353892743587493896f, -0.16943085193634033203f, 0.085433147847652435303f},
      {0.14962255954742431641f, 0.054538641124963760376f, 0.11900713294744491577f},
      {0.072631642222404479980f, -0.0058129173703491687775f, 0.048660475760698318481f}
    },
    {
      {0.10475656390190124512f, -0.038589742034673690796f, -0.15767329931259155273f},
      {0.099092260003089904785f, 0.11315885931253433228f, -0.28601032495498657227f},
      {0.31525984406471252441f, 0.18806988000869750977f, 0.010351210832595825195f}
    },
    {
      {-0.093824401497840881348f, -0.058765500783920288086f, -0.069375477731227874756f},
      {0.50991195440292358398f, 0.14488598704338073730f, -0.31907397508621215820f},
      {0.19527372717857360840f, 0.10102999210357666016f, -0.16478270292282104492f}
    },
    {
      {-0.016163352876901626587f, 0.010528792627155780792f, 0.16866752505302429199f},
      {-0.18302789330482482910f, -0.086715534329414367676f, -0.032747332006692886353f},
      {-0.14191456139087677002f, -0.0039657484740018844604f, -0.28216150403022766113f}
    },
    {
      {-0.013752951286733150482f, 0.17787797749042510986f, 0.010560127906501293182f},
      {-0.28288379311561584473f, 0.065998211503028869629f, 0.083020389080047607422f},
      {-0.37482890486717224121f, 0.0020246803760528564453f, 0.048457443714141845703f}
    },
    {
      {0.022588750347495079041f, 0.18036513030529022217f, -0.068969197571277618408f},
      {0.0018738768994808197021f, 0.12394031882286071777f, 0.25882685184478759766f},
      {-0.25851088762283325195f, -0.21069067716598510742f, -0.022258995100855827332f}
    },
    {
      {0.14120921492576599121f, -0.0041436790488660335541f, 0.036459062248468399048f},
      {0.084589570760726928711f, -0.20409253239631652832f, -0.067167080938816070557f},
      {0.031450502574443817139f, -0.15063591301441192627f, -0.12798666954040527344f}
    },
    {
      {-0.031611979007720947266f, -0.26955455541610717773f, -0.10384827107191085815f},
      {0.12981913983821868896f, 0.11951496452093124390f, -0.052092898637056350708f},
      {-0.025464983657002449036f, 0.042565714567899703979f, 0.15409471094608306885f}
    },
    {
      {0.16539686918258666992f, -0.20969384908676147461f, -0.012222723104059696198f},
      {0.18114668130874633789f, -0.10785452276468276978f, -0.062004871666431427002f},
      {0.35992878675460815430f, 0.081066213548183441162f, 0.15455870330333709717f}
    },
    {
      {-0.054898295551538467407f, -0.061538465321063995361f, 0.17842473089694976807f},
      {-0.11455906182527542114f, -0.022942617535591125488f, -0.031095238402485847473f},
      {-0.16594015061855316162f, -0.089432679116725921631f, -0.061410151422023773193f}
    },
    {
      {0.048625092953443527222f, -0.090453483164310455322f, -0.15900909900665283203f},
      {-0.040261242538690567017f, 0.31660515069961547852f, -0.055000532418489456177f},
      {0.32904192805290222168f, 0.018189571797847747803f, 0.083891786634922027588f}
    },
    {
      {0.11947670578956604004f, 0.065066039562225341797f, 0.18869353830814361572f},
      {-0.17676930129528045654f, -0.12198457866907119751f, 0.025413645431399345398f},
      {-0.13015717267990112305f, -0.26451486349105834961f, -0.017983537167310714722f}
    },
    {
      {0.35410207509994506836f, 0.045668240636587142944f, -0.034132100641727447510f},
      {0.12137009948492050171f, 0.010363239794969558716f, -0.32121479511260986328f},
      {0.30661723017692565918f, 0.014348604716360569000f, -0.086169987916946411133f}
    }
  },
  {
    {
      {-0.14552767574787139893f, -0.086306802928447723389f, -0.032084662467241287231f},
      {-0.30124184489250183105f, -0.061984516680240631104f, 0.075109027326107025146f},
      {-0.10336500406265258789f, -0.077085092663764953613f, 0.12355053424835205078f}
    },
    {
      {0.035439759492874145508f, 0.13415238261222839355f, 0.11653447896242141724f},
      {-0.16668651998043060303f, -0.37148979306221008301f, -0.36276403069496154785f},
      {-0.14095656573772430420f, -0.088179416954517364502f, 0.069885857403278350830f}
    },
    {
      {-0.18053615093231201172f, -0.16587920486927032471f, 0.033808257430791854858f},
      {0.045459065586328506470f, 0.054436586797237396240f, 0.24236911535263061523f},
      {0.0012351725017651915550f, -0.24694001674652099609f, 0.079478889703750610352f}
    },
    {
      {-0.066084869205951690674f, -0.15295711159706115723f, 0.031262658536434173584f},
      {0.19223774969577789307f, 0.18912839889526367188f, 0.23018760979175567627f},
      {-0.30644181370735168457f, -0.13406108319759368896f, -0.080359674990177154541f}
    },
    {
      {0.076807595789432525635f, 0.058130338788032531738f, 0.097022704780101776123f},
      {-0.032238055020570755005f, -0.19299843907356262207f, -0.060765150934457778931f},
      {0.065292224287986755371f, 0.060251239687204360962f, -0.055918697267770767212f}
    },
    {
      {-0.0072786938399076461792f, 0.22238181531429290771f, 0.10963244736194610596f},
      {-0.073200173676013946533f, -0.096422202885150909424f, -0.048783332109451293945f},
      {0.10165210068225860596f, 0.072057925164699554443f, 0.084147505462169647217f}
    },
    {
      {-0.0078737828880548477173f, 0.11572653055191040039f, -0.12913030385971069336f},
      {-0.13869191706180572510f, -0.22920323908329010010f, 0.014057108201086521149f},
      {-0.15564897656440734863f, -0.11796848475933074951f, -0.048153284937143325806f}
    },
    {
      {0.054672122001647949219f, -0.0089834863319993019104f, -0.0023730206303298473358f},
      {-0.091942764818668365479f, -0.063904196023941040039f, -0.25602021813392639160f},
      {-0.057638581842184066772f, 0.029912823811173439026f, 0.10625868290662765503f}
    },
    {
      {0.039278611540794372559f, -0.15467935800552368164f, -0.013682881370186805725f},
      {0.15068745613098144531f, 0.039363712072372436523f, 0.051873922348022460938f},
      {-0.18144313991069793701f, 0.061205580830574035645f, -0.056764699518680572510f}
    },
    {
      {0.052545204758644104004f, 0.070838429033756256104f, 0.18259978294372558594f},
      {-0.031281638890504837036f, -0.055496208369731903076f, -0.20494537055492401123f},
      {0.039416588842868804932f, -0.0084307072684168815613f, -0.031100094318389892578f}
    },
    {
      {0.10279969125986099243f, -0.032704684883356094360f, 0.017386540770530700684f},
      {0.077071033418178558350f, -0.031789261847734451294f, -0.069792605936527252197f},
      {-0.35669508576393127441f, -0.32054302096366882324f, -0.22790300846099853516f}
    },
    {
      {-0.14932584762573242188f, 0.016779432073235511780f, -0.11094977706670761108f},
      {-0.016244927421212196350f, 0.051601357758045196533f, 0.19181881844997406006f},
      {0.058374907821416854858f, 0.19388115406036376953f, 0.28218215703964233398f}
    },
    {
      {-0.024159977212548255920f, -0.085552580654621124268f, 0.10914598405361175537f},
      {0.10567303746938705444f, 0.0026432303711771965027f, -0.24283982813358306885f},
      {-0.11746169626712799072f, 0.010062464512884616852f, -0.12576040625572204590f}
    },
    {
      {-0.16370089352130889893f, -0.065307639539241790771f, -0.056733217090368270874f},
      {0.13482663035392761230f, 0.054058428853750228882f, -0.13365040719509124756f},
      {0.047893442213535308838f, -0.039777994155883789062f, 0.14091160893440246582f}
    },
    {
      {-0.19166871905326843262f, -0.00014977149839978665113f, 0.022003358229994773865f},
      {-0.17128562927246093750f, -0.10641456395387649536f, -0.27299049496650695801f},
      {-0.28405293822288513184f, -0.097278006374835968018f, -0.11549514532089233398f}
    },
    {
      {0.22044079005718231201f, -0.0078777968883514404297f, -0.030294135212898254395f},
      {-0.033765308558940887451f, -0.18301711976528167725f, -0.25916376709938049316f},
      {0.13631066679954528809f, -0.27662429213523864746f, 0.11663948744535446167f}
    }
  },
  {
    {
      {-0.041601754724979400635f, 0.12016996741294860840f, 0.23923359811305999756f},
      {0.13557510077953338623f, -0.19966471195220947266f, -0.16745568811893463135f},
      {0.051406376063823699951f, -0.12130288779735565186f, -0.21755206584930419922f}
    },
    {
      {0.073982775211334228516f, 0.093336604535579681396f, 0.14743377268314361572f},
      {0.011928412131965160370f, -0.089088536798954010010f, -0.085532896220684051514f},
      {0.081459440290927886963f, -0.31172367930412292480f, -0.26193028688430786133f}
    },
    {
      {0.13703826069831848145f, -0.020198063924908638000f, 0.079159595072269439697f},
      {0.45056703686714172363f, 0.085247844457626342773f, -0.076856613159179687500f},
      {-0.12411023676395416260f, 0.011303362436592578888f, -0.0034484053030610084534f}
    },
    {
      {-0.22056193649768829346f, -0.050667956471443176270f, -0.23915852606296539307f},
      {0.35490554571151733398f, 0.053545415401458740234f, -0.10563965141773223877f},
      {0.011420444585382938385f, -0.00062867312226444482803f, 0.0061553041450679302216f}
    },
    {
      {0.12970042228698730469f, -0.069254063069820404053f, 0.22507758438587188721f},
      {-0.44161251187324523926f, -0.29295980930328369141f, -0.076730750501155853271f},
      {-0.31511718034744262695f, -0.25563839077949523926f, -0.28036868572235107422f}
    },
    {
      {-0.021194875240325927734f, 0.051840320229530334473f, 0.085755564272403717041f},
      {-0.19741666316986083984f, -0.15467925369739532471f, 0.11449002474546432495f},
      {-0.17031167447566986084f, 0.013929113745689392090f, -0.34933319687843322754f}
    },
    {
      {0.22361229360103607178f, 0.16271992027759552002f, 0.087739773094654083252f},
      {-0.13867734372615814209f, -0.22500371932983398438f, -0.27995574474334716797f},
      {-0.030524386093020439148f, -0.023914072662591934204f, -0.28948572278022766113f}
    },
    {
      {0.055361911654472351074f, -0.066409565508365631104f, -0.45284020900726318359f},
      {0.012854380533099174500f, -0.092582456767559051514f, -0.39566373825073242188f},
      {0.20250488817691802979f, -0.21433177590370178223f, -0.075809933245182037354f}
    },
    {
      {0.12837150692939758301f, 0.14075100421905517578f, 0.083566978573799133301f},
      {0.13228085637092590332f, 0.078872978687286376953f, -0.10765743255615234375f},
      {0.16944216191768646240f, -0.26014423370361328125f, -0.21066166460514068604f}
    },
    {
      {-0.10023459792137145996f, 0.11102958023548126221f, -0.27360588312149047852f},
      {-0.18400608003139495850f, -0.20000845193862915039f, 0.14585083723068237305f},
      {-0.094092734158039093018f, -0.0076282727532088756561f, -0.019500672817230224609f}
    },
    {
      {-0.029000725597143173218f, 0.075096279382705688477f, 0.097706325352191925049f},
      {0.11069846153259277344f, 0.014315390028059482574f, 0.068228587508201599121f},
      {0.23199622333049774170f, -0.16421748697757720947f, -0.14893670380115509033f}
    },
    {
      {-0.27872896194458007812f, 0.038216110318899154663f, 0.10228167474269866943f},
      {-0.086152441799640655518f, 0.13287536799907684326f, -0.10662256926298141479f},
      {0.11877335608005523682f, 0.32465344667434692383f, 0.038428708910942077637f}
    },
    {
      {0.10655997693538665771f, 0.21815043687820434570f, 0.050875142216682434082f},
      {-0.22964039444923400879f, -0.13857302069664001465f, -0.11359588801860809326f},
      {-0.14092874526977539062f, -0.31371280550956726074f, -0.14684240520000457764f}
    },
    {
      {0.11218090355396270752f, 0.062117692083120346069f, 0.15462394058704376221f},
      {-0.041218120604753494263f, 0.093398280441761016846f, -0.083184279501438140869f},
      {0.26839458942413330078f, 0.046816244721412658691f, -0.16961248219013214111f}
    },
    {
      {-0.031871739774942398071f, 0.044217359274625778198f, -0.020538467913866043091f},
      {-0.11828014254570007324f, -0.0074256081134080886841f, -0.12194934487342834473f},
      {-0.015038875862956047058f, -0.085636168718338012695f, 0.014719280414283275604f}
    },
    {
      {-0.13220408558845520020f, -0.048986256122589111328f, 0.31857192516326904297f},
      {-0.26343163847923278809f, -0.24440549314022064209f, -0.13174591958522796631f},
      {0.0014060259563848376274f, -0.094625987112522125244f, -0.20976345241069793701f}
    }
  },
  {
    {
      {0.018787020817399024963f, 0.043610896915197372437f, 0.11377806216478347778f},
      {-0.051320403814315795898f, -0.012676279991865158081f, 0.017728561535477638245f},
      {-0.094529375433921813965f, 0.17300422489643096924f, -0.051549121737480163574f}
    },
    {
      {0.069882877171039581299f, 0.020301926881074905396f, -0.046953964978456497192f},
      {-0.12452653050422668457f, -0.0062159318476915359497f, -0.033379007130861282349f},
      {0.21987909078598022461f, -0.059382200241088867188f, 0.15123127400875091553f}
    },
    {
      {0.13043540716171264648f, 0.026598386466503143311f, -0.016442170366644859314f},
      {-0.19713363051414489746f, 0.040254954248666763306f, -0.093930423259735107422f},
      {-0.40262511372566223145f, 0.070600830018520355225f, -0.014726636931300163269f}
    },
    {
      {0.045126974582672119141f, -0.14943476021289825439f, 0.045741554349660873413f},
      {0.16570794582366943359f, -0.031748197972774505615f, -0.24540178477764129639f},
      {-0.082026340067386627197f, 0.094397239387035369873f, -0.096972279250621795654f}
    },
    {
      {0.00035863465745933353901f, 0.14866991341114044189f, -0.094394400715827941895f},
      {0.066592991352081298828f, 0.029169496148824691772f, -0.085733473300933837891f},
      {0.064944453537464141846f, -0.0077841812744736671448f, 0.011284165084362030029f}
    },
    {
      {-0.033851519227027893066f, 0.066490128636360168457f, -0.16782942414283752441f},
      {-0.022083532065153121948f, -0.024563241750001907349f, -0.23776818811893463135f},
      {-0.069175012409687042236f, -0.10624262690544128418f, -0.018408795818686485291f}
    },
    {
      {-0.056729473173618316650f, 0.073679044842720031738f, -0.052952107042074203491f},
      {0.053183697164058685303f, -0.16968692839145660400f, 0.13035620748996734619f},
      {0.16849838197231292725f, -0.23727425932884216309f, 0.16093328595161437988f}
    },
    {
      {0.11467725038528442383f, -0.11675258725881576538f, -0.011856292374432086945f},
      {-0.044519081711769104004f, 0.017742849886417388916f, 0.11775343865156173706f},
      {0.059543311595916748047f, 0.057252798229455947876f, 0.13521009683609008789f}
    },
    {
      {0.13764429092407226562f, -0.069028951227664947510f, 0.12437678873538970947f},
      {0.030319077894091606140f, 0.058120805770158767700f, -0.13868616521358489990f},
      {-0.054819636046886444092f, 0.0084388228133320808411f, -0.084432438015937805176f}
    },
    {
      {-0.020891910418868064880f, -0.063316807150840759277f, -0.094042599201202392578f},
      {-0.041822530329227447510f, 0.062248785048723220825f, 0.056103810667991638184f},
      {0.0071800057776272296906f, -0.033229034394025802612f, 0.0029283922631293535233f}
    },
    {
      {0.045461546629667282104f, -0.060160983353853225708f, 0.046362526714801788330f},
      {0.016973489895462989807f, -0.11257313191890716553f, 0.022989477962255477905f},
      {0.18327650427818298340f, 0.042462717741727828979f, 0.045137856155633926392f}
    },
    {
      {0.025475254282355308533f, -0.14164774119853973389f, -0.13921158015727996826f},
      {0.014661782421171665192f, 0.0088861854746937751770f, -0.014028308913111686707f},
      {-0.20034353435039520264f, 0.038429711014032363892f, 0.098163545131683349609f}
    },
    {
      {0.11813685297966003418f, 0.083822235465049743652f, -0.026262214407324790955f},
      {-0.11450432986021041870f, 0.099278762936592102051f, -0.18133665621280670166f},
      {0.12647674977779388428f, 0.25267347693443298340f, 0.082946024835109710693f}
    },
    {
      {0.13788360357284545898f, -0.0074805780313909053802f, 0.013079194352030754089f},
      {-0.036000933498144149780f, 0.12830126285552978516f, -0.17502872645854949951f},
      {-0.13338391482830047607f, -0.12044274061918258667f, 0.14932866394519805908f}
    },
    {
      {-0.14015731215476989746f, -0.011561492457985877991f, 0.12595632672309875488f},
      {0.00086254818597808480263f, -0.055562049150466918945f, 0.14774014055728912354f},
      {0.29462093114852905273f, -0.024303568527102470398f, 0.17208369076251983643f}
    },
    {
      {0.017970327287912368774f, -0.070986866950988769531f, 0.14958021044731140137f},
      {0.038791447877883911133f, -0.087504595518112182617f, 0.052179031074047088623f},
      {-0.029956696555018424988f, -0.29736268520355224609f, 0.020188039168715476990f}
    }
  },
  {
    {
      {0.065482832491397857666f, -0.028285481035709381104f, 0.14578880369663238525f},
      {0.015097548253834247589f, 0.12788593769073486328f, -0.011981394141912460327f},
      {0.081617459654808044434f, -0.00062259816331788897514f, 0.071507908403873443604f}
    },
    {
      {0.17572140693664550781f, 0.093937791883945465088f, 0.10852342098951339722f},
      {-0.022678647190332412720f, -0.027338005602359771729f, -0.083319373428821563721f},
      {-0.15874490141868591309f, -0.10095673799514770508f, 0.013260834850370883942f}
    },
    {
      {-0.070120662450790405273f, -0.13747790455818176270f, 0.086156181991100311279f},
      {0.021623166278004646301f, 0.062214627861976623535f, -0.12249271571636199951f},
      {0.21570223569869995117f, 0.072499446570873260498f, -0.26003274321556091309f}
    },
    {
      {0.042603999376296997070f, 0.096639722585678100586f, 0.16220305860042572021f},
      {0.038674715906381607056f, -0.059240583330392837524f, -0.092522963881492614746f},
      {0.086002074182033538818f, -0.089665636420249938965f, -0.13843756914138793945f}
    },
    {
      {-0.15948544442653656006f, 0.025551872327923774719f, 0.16263800859451293945f},
      {-0.28081589937210083008f, -0.25519552826881408691f, -0.16366676986217498779f},
      {-0.040364205837249755859f, -0.050648018717765808105f, -0.022116180509328842163f}
    },
    {
      {-0.24847966432571411133f, -0.10931756347417831421f, -0.013371687382459640503f},
      {-0.091905087232589721680f, 0.036312300711870193481f, 0.26612898707389831543f},
      {0.19559089839458465576f, 0.11479058861732482910f, -0.10614729672670364380f}
    },
    {
      {0.014164833351969718933f, 0.12836147844791412354f, -0.084409765899181365967f},
      {0.11295352876186370850f, -0.050082936882972717285f, -0.010483602061867713928f},
      {-0.23426339030265808105f, 0.020091580227017402649f, 0.0073285149410367012024f}
    },
    {
      {0.014982088468968868256f, 0.0089879268780350685120f, 0.034404627978801727295f},
      {-0.0074278414249420166016f, 0.039374481886625289917f, 0.059376887977123260498f},
      {-0.13544999063014984131f, -0.012963868677616119385f, 0.23513559997081756592f}
    },
    {
      {0.13972690701484680176f, 0.11364357173442840576f, 0.17505694925785064697f},
      {-0.014549421146512031555f, -0.10502476990222930908f, 0.0071975290775299072266f},
      {-0.063783653080463409424f, -0.12306082993745803833f, -0.062972739338874816895f}
    },
    {
      {-0.043518714606761932373f, -0.0058508906513452529907f, 0.11724126338958740234f},
      {-0.065370611846446990967f, -0.092423856258392333984f, 0.11207901686429977417f},
      {-0.13664060831069946289f, -0.090067431330680847168f, 0.11114436388015747070f}
    },
    {
      {0.30241510272026062012f, 0.0062216771766543388367f, 0.24336892366409301758f},
      {-0.095478475093841552734f, -0.027478419244289398193f, -0.036057826131582260132f},
      {0.029396723955869674683f, -0.18694277107715606689f, 0.026653436943888664246f}
    },
    {
      {-0.036698345094919204712f, -0.081667564809322357178f, 0.089343413710594177246f},
      {0.0094237653538584709167f, -0.095562748610973358154f, 0.024608869105577468872f},
      {0.15818724036216735840f, 0.011432874016463756561f, -0.099359013140201568604f}
    },
    {
      {0.057735778391361236572f, 0.0017629517242312431335f, 0.083612486720085144043f},
      {0.067543245851993560791f, 0.11301087588071823120f, -0.080164529383182525635f},
      {-0.17939563095569610596f, -0.14362119138240814209f, 0.16731789708137512207f}
    },
    {
      {-0.027769105508923530579f, -0.11199253797531127930f, -0.060661539435386657715f},
      {0.011334473267197608948f, 0.093186505138874053955f, 0.035826921463012695312f},
      {0.076595649123191833496f, 0.019817745313048362732f, -0.11978821456432342529f}
    },
    {
      {0.049668699502944946289f, 0.14173598587512969971f, 0.11925227195024490356f},
      {0.027649316936731338501f, -0.10039295256137847900f, 0.15644766390323638916f},
      {-0.24154126644134521484f, -0.13159871101379394531f, 0.19407740235328674316f}
    },
    {
      {-0.088722422719001770020f, 0.0079985698685050010681f, 0.13296917080879211426f},
      {-0.17849621176719665527f, -0.010446937754750251770f, 0.035510871559381484985f},
      {0.18328875303268432617f, -0.11387322843074798584f, 0.053977098315954208374f}
    }
  },
  {
    {
      {-0.078134253621101379395f, -0.011863821186125278473f, 0.0042952885851263999939f},
      {0.041244845837354660034f, -0.096007436513900756836f, 0.0048498092219233512878f},
      {-0.0083008687943220138550f, 0.098505437374114990234f, -0.0069221626035869121552f}
    },
    {
      {-0.19017393887042999268f, 0.11731906235218048096f, -0.029586775228381156921f},
      {-0.049444627016782760620f, 0.011968619190156459808f, -0.16181597113609313965f},
      {0.10336609929800033569f, -0.067169703543186187744f, 0.0050587477162480354309f}
    },
    {
      {-0.18231388926506042480f, -0.11818486452102661133f, 0.0055017275735735893250f},
      {-0.077044181525707244873f, -0.15469777584075927734f, 0.17327688634395599365f},
      {-0.0041606333106756210327f, 0.27413144707679748535f, 0.15909305214881896973f}
    },
    {
      {0.025214320048689842224f, -0.20473107695579528809f, 0.12042042613029479980f},
      {-0.098681822419166564941f, -0.17092983424663543701f, 0.064086258411407470703f},
      {0.058438532054424285889f, 0.12358789891004562378f, 0.0049737449735403060913f}
    },
    {
      {-0.036505497992038726807f, -0.15186257660388946533f, 0.072159402072429656982f},
      {0.085332885384559631348f, -0.0061300052329897880554f, 0.16215471923351287842f},
      {0.21646021306514739990f, 0.096492044627666473389f, -0.12421161681413650513f}
    },
    {
      {0.024002825841307640076f, -0.034795630723237991333f, -0.077050693333148956299f},
      {-0.021647386252880096436f, -0.012418512254953384399f, -0.10526541620492935181f},
      {0.19979083538055419922f, -0.019576899707317352295f, -0.029652407392859458923f}
    },
    {
      {0.11163849383592605591f, 0.13946667313575744629f, -0.12208881229162216187f},
      {0.076698407530784606934f, -0.082024566829204559326f, -0.24035269021987915039f},
      {-0.26217180490493774414f, -0.31295919418334960938f, 0.061677288264036178589f}
    },
    {
      {-0.086749047040939331055f, 0.080709271132946014404f, 0.063539430499076843262f},
      {0.025264622643589973450f, 0.12757381796836853027f, 0.050592090934514999390f},
      {-0.12306759506464004517f, -0.21800331771373748779f, -0.12935861945152282715f}
    },
    {
      {-0.089731104671955108643f, 0.0081482063978910446167f, -0.0043542566709220409393f},
      {0.051405888050794601440f, -0.12437683343887329102f, 0.014601510018110275269f},
      {0.16444821655750274658f, -0.12844417989253997803f, 0.055104851722717285156f}
    },
    {
      {-0.043819040060043334961f, -0.021821241825819015503f, 0.13000799715518951416f},
      {0.086844481527805328369f, 0.12210687249898910522f, -0.067990586161613464355f},
      {-0.074746854603290557861f, -0.20609518885612487793f, -0.32986325025558471680f}
    },
    {
      {0.21474193036556243896f, 0.16485449671745300293f, 0.028479948639869689941f},
      {0.059636995196342468262f, -0.35019373893737792969f, -0.042212162166833877563f},
      {-0.0040408298373222351074f, -0.071322053670883178711f, 0.073277369141578674316f}
    },
    {
      {0.22204026579856872559f, 0.083131879568099975586f, 0.13775378465652465820f},
      {-0.093972213566303253174f, 0.17138950526714324951f, -0.21652822196483612061f},
      {0.0027183364145457744598f, -0.10944508016109466553f, 0.0056131058372557163239f}
    },
    {
      {0.020957844331860542297f, -0.023061396554112434387f, -0.054350808262825012207f},
      {0.077493093907833099365f, 0.029973708093166351318f, -0.011117810383439064026f},
      {0.20575855672359466553f, -0.019705928862094879150f, -0.23421335220336914062f}
    },
    {
      {-0.0087783122435212135315f, 0.077921003103256225586f, 0.22093303501605987549f},
      {0.038394849747419357300f, -0.26502323150634765625f, 0.032083515077829360962f},
      {0.21221658587455749512f, -0.13658699393272399902f, -0.15785132348537445068f}
    },
    {
      {0.029119988903403282166f, 0.26613554358482360840f, -0.070907674729824066162f},
      {0.15104983747005462646f, 0.055855032056570053101f, -0.18836662173271179199f},
      {0.043996065855026245117f, -0.31629544496536254883f, -0.18464601039886474609f}
    },
    {
      {-0.011082579381763935089f, -0.084860861301422119141f, 0.047110345214605331421f},
      {-0.070134960114955902100f, 0.15139904618263244629f, 0.12257405370473861694f},
      {0.12340656667947769165f, 0.0091935591772198677063f, -0.045007731765508651733f}
    }
  },
  {
    {
      {-0.029311338439583778381f, -0.049428716301918029785f, -0.059052307158708572388f},
      {-0.18086239695549011230f, -0.16033507883548736572f, -0.32206064462661743164f},
      {0.13713823258876800537f, 0.028771612793207168579f, 0.067224152386188507080f}
    },
    {
      {-0.23872546851634979248f, -0.057453554123640060425f, -0.11437553912401199341f},
      {-0.52096134424209594727f, -0.25087958574295043945f, -0.36303406953811645508f},
      {0.070530422031879425049f, 0.18580605089664459229f, 0.23140436410903930664f}
    },
    {
      {-0.12086378782987594604f, 0.080578342080116271973f, 0.33804753422737121582f},
      {-0.062826074659824371338f, -0.20003408193588256836f, -0.088169656693935394287f},
      {-0.10524376481771469116f, -0.19655470550060272217f, -0.089625425636768341064f}
    },
    {
      {-0.015585551038384437561f, 0.0094440449029207229614f, -0.056026685982942581177f},
      {-0.46243709325790405273f, -0.11230964958667755127f, -0.22399553656578063965f},
      {-0.051061294972896575928f, 0.016693502664566040039f, 0.036405246704816818237f}
    },
    {
      {-0.081262558698654174805f, -0.010659025050699710846f, -0.094962209463119506836f},
      {-0.080152124166488647461f, -0.019453534856438636780f, -0.094396345317363739014f},
      {-0.039852082729339599609f, -0.079288735985755920410f, -0.29866242408752441406f}
    },
    {
      {-0.040905859321355819702f, 0.063840523362159729004f, -0.12062181532382965088f},
      {-0.45637771487236022949f, 0.036621715873479843140f, -0.068864770233631134033f},
      {-0.10966128110885620117f, 0.0012736349599435925484f, -0.013271172530949115753f}
    },
    {
      {-0.22565628588199615479f, 0.036885209381580352783f, -0.10830930620431900024f},
      {-0.046685252338647842407f, -0.078303262591361999512f, -0.34481033682823181152f},
      {-0.29092714190483093262f, 0.13210737705230712891f, 0.046277400106191635132f}
    },
    {
      {0.066771276295185089111f, -0.12032741308212280273f, 0.060565531253814697266f},
      {-0.11471873521804809570f, -0.15455985069274902344f, -0.0077299159020185470581f},
      {-0.18792699277400970459f, 0.095003262162208557129f, 0.13975101709365844727f}
    },
    {
      {-0.15322066843509674072f, -0.039737656712532043457f, -0.088505364954471588135f},
      {-0.052932567894458770752f, 0.065108910202980041504f, -0.18847990036010742188f},
      {-0.32362079620361328125f, 0.070612587034702301025f, 0.20196315646171569824f}
    },
    {
      {-0.0047743245959281921387f, -0.057841427624225616455f, 0.053106483072042465210f},
      {0.0032525968272238969803f, 0.10660809278488159180f, -0.12795661389827728271f},
      {-0.0071167182177305221558f, -0.036166805773973464966f, 0.17577746510505676270f}
    },
    {
      {0.041446924209594726562f, 0.079524509608745574951f, 0.11466749012470245361f},
      {0.056088261306285858154f, -0.11435271054506301880f, -0.057067599147558212280f},
      {0.011434551328420639038f, -0.15056163072586059570f, -0.13504920899868011475f}
    },
    {
      {0.028613930568099021912f, 0.13643267750740051270f, 0.22160762548446655273f},
      {0.022662332281470298767f, 0.032566871494054794312f, -0.11508727818727493286f},
      {0.049484062939882278442f, -0.040000405162572860718f, -0.15697430074214935303f}
    },
    {
      {0.25341388583183288574f, -0.067098446190357208252f, 0.025970540940761566162f},
      {-0.035517126321792602539f, -0.12353983521461486816f, -0.18166257441043853760f},
      {0.070210210978984832764f, -0.025131037458777427673f, 0.032300468534231185913f}
    },
    {
      {-0.17463038861751556396f, 0.24725443124771118164f, -0.11647053807973861694f},
      {-0.28312438726425170898f, 0.067946024239063262939f, 0.021332250908017158508f},
      {-0.11040483415126800537f, 0.13917833566665649414f, -0.030094776302576065063f}
    },
    {
      {-0.17040517926216125488f, -0.039684344083070755005f, -0.19931732118129730225f},
      {-0.10514853894710540771f, 0.063346788287162780762f, -0.14407922327518463135f},
      {0.11056035757064819336f, 0.037550218403339385986f, 0.043110772967338562012f}
    },
    {
      {0.17888218164443969727f, -0.099606133997440338135f, -0.17419029772281646729f},
      {-0.055710241198539733887f, -0.17865359783172607422f, 0.11982233822345733643f},
      {0.14479658007621765137f, -0.14865197241306304932f, 0.080066308379173278809f}
    }
  },
  {
    {
      {-0.041779510676860809326f, 0.063742414116859436035f, -0.062434323132038116455f},
      {-0.073080234229564666748f, -0.11232150346040725708f, -0.10652147233486175537f},
      {-0.0066345906816422939301f, 0.0065316506661474704742f, 0.10812181234359741211f}
    },
    {
      {0.18909624218940734863f, 0.074165575206279754639f, -0.012096601538360118866f},
      {-0.10034879297018051147f, -0.072842657566070556641f, -0.16649122536182403564f},
      {-0.025048652663826942444f, 0.16874103248119354248f, -0.0052331071346998214722f}
    },
    {
      {-0.067179739475250244141f, 0.10316376388072967529f, -0.077045127749443054199f},
      {0.11976318806409835815f, 0.14497548341751098633f, -0.027032576501369476318f},
      {0.15627935528755187988f, -0.057934124022722244263f, 0.025384113192558288574f}
    },
    {
      {-0.084288462996482849121f, -0.14421227574348449707f, -0.082130856812000274658f},
      {-0.12754653394222259521f, -0.023991024121642112732f, -0.032494835555553436279f},
      {0.11959815025329589844f, 0.20259194076061248779f, 0.43065348267555236816f}
    },
    {
      {-0.18016219139099121094f, -0.11780185997486114502f, 0.10612783581018447876f},
      {0.055820044130086898804f, 0.21806298196315765381f, 0.22255796194076538086f},
      {-0.071041479706764221191f, 0.069119140505790710449f, -0.045054882764816284180f}
    },
    {
      {-0.15459357202053070068f, -0.039756026118993759155f, -0.10334660857915878296f},
      {-0.010430871509015560150f, 0.19214244186878204346f, -0.13044060766696929932f},
      {0.18110331892967224121f, 0.21685133874416351318f, 0.046884078532457351685f}
    },
    {
      {0.15531070530414581299f, -0.15933901071548461914f, -0.11100540310144424438f},
      {0.027373336255550384521f, -0.21327126026153564453f, -0.017551306635141372681f},
      {-0.23220424354076385498f, -0.38151955604553222656f, -0.28149378299713134766f}
    },
    {
      {0.11134757101535797119f, 0.027525747194886207581f, 0.035551663488149642944f},
      {-0.14450739324092864990f, -0.044696088880300521851f, 0.026300888508558273315f},
      {-0.16329987347126007080f, -0.32839399576187133789f, -0.20923727750778198242f}
    },
    {
      {0.026746569201350212097f, 0.090460263192653656006f, 0.029006682336330413818f},
      {0.051700744777917861938f, 0.036339815706014633179f, -0.14959527552127838135f},
      {0.028892584145069122314f, -0.057770982384681701660f, -0.23901267349720001221f}
    },
    {
      {0.046670109033584594727f, 0.10669908672571182251f, 0.24160875380039215088f},
      {0.32590934634208679199f, -0.074694521725177764893f, -0.38440164923667907715f},
      {-0.27512609958648681641f, -0.22050975263118743896f, 0.087184935808181762695f}
    },
    {
      {0.013344800099730491638f, -0.063716031610965728760f, 0.012974346987903118134f},
      {0.023495212197303771973f, -0.0055940798483788967133f, 0.17658579349517822266f},
      {0.18659247457981109619f, -0.063980497419834136963f, 0.068917840719223022461f}
    },
    {
      {0.13840256631374359131f, -0.11591008305549621582f, -0.15543273091316223145f},
      {-0.063770525157451629639f, -0.13646709918975830078f, 0.050176687538623809814f},
