/*
 * Copyright (C) 2015
 *
 * This file is part of Paparazzi.
 *
 * Paparazzi is free software; you can redistribute it and/or modify
 * it under the terms of the GNU General Public License as published by
 * the Free Software Foundation; either version 2, or (at your option)
 * any later version.
 *
 * Paparazzi is distributed in the hope that it will be useful,
 * but WITHOUT ANY WARRANTY; without even the implied warranty of
 * MERCHANTABILITY or FITNESS FOR A PARTICULAR PURPOSE.  See the
 * GNU General Public License for more details.
 *
 * You should have received a copy of the GNU General Public License
 * along with Paparazzi; see the file COPYING.  If not, write to
 * the Free Software Foundation, 59 Temple Place - Suite 330,
 * Boston, MA 02111-1307, USA.
 */

/**
 * @file modules/computer_vision/cnn.c
 */

// Own header
#include "modules/computer_vision/cnn.h"
#include <stdio.h>

// Include the image library -> used to alter the incoming image
#include "modules/computer_vision/lib/vision/image.h"

// Include the ABI library -> used to send messages to the ground station
#include "modules/core/abi.h"

#ifndef CNN_FPS
#define CNN_FPS 0 ///< Default FPS (zero means run at camera fps)
#endif

uint8_t white[4] = {127, 255, 127, 255};

// Function
static struct image_t *cnn_func(struct image_t *img, uint8_t camera_id __attribute__((unused)))
{
  // TODO: freeing of images ?
  // convert to grayscale, but also keep original for live feed
  struct image_t gray;
  image_create(&gray, img->w, img->h, IMAGE_GRAYSCALE);
  image_to_grayscale(img, &gray);

  // Convert image to tensor
  // IMPORTANT: order is now [right, forward, left]
  float tensor_output[1][3];
  float tensor_input[1][1][TENSOR_HEIGHT][TENSOR_WIDTH];
  convert_image_to_tensor(&gray, tensor_input);

  // Perform inference
  entry(tensor_input, tensor_output);

  // Softmax on the output
  // TODO: include in the model instead?
  float sum_exp = exp(tensor_output[0][0]) + exp(tensor_output[0][1]) + exp(tensor_output[0][2]);
  tensor_output[0][0] = exp(tensor_output[0][0]) / sum_exp;
  tensor_output[0][1] = exp(tensor_output[0][1]) / sum_exp;
  tensor_output[0][2] = exp(tensor_output[0][2]) / sum_exp;
  
  // draw rectangles on the original image corresponding to the outputs
  // TODO: improve code
  int x_min_left = 10;
  int x_max_left = 10 + (int)(tensor_output[0][2] * 40);
  int y_min_left = 10;
  int y_max_left = 30;
  image_draw_rectangle(img, x_min_left, x_max_left, y_min_left, y_max_left, white);

  int x_min_forward = 10;
  int x_max_forward = 10 + (int)(tensor_output[0][1] * 40);
  int y_min_forward = 35;
  int y_max_forward = 55;
  image_draw_rectangle(img, x_min_forward, x_max_forward, y_min_forward, y_max_forward, white);

    int x_min_right = 10;
  int x_max_right = 10 + (int)(tensor_output[0][0] * 40);
  int y_min_rigth = 60;
  int y_max_right = 80;
  image_draw_rectangle(img, x_min_right, x_max_right, y_min_rigth, y_max_right, white);

  // // Print outputs
  // printf("Right: %f, Forward: %f, Left: %f\n", tensor_output[0][0], tensor_output[0][1], tensor_output[0][2]);

  // Send outputs
  AbiSendMsgCNN_CONTROL_INPUTS(CNN_CONTROL_INPUTS_ID, tensor_output[0][0], tensor_output[0][1], tensor_output[0][2]);

  return img;
}

void cnn_init(void)
{
  cv_add_to_device(&CNN_CAMERA, cnn_func, CNN_FPS, 0);
}

void convert_image_to_tensor(struct image_t *image, float tensor_input_1[1][1][TENSOR_HEIGHT][TENSOR_WIDTH]) {
    // Extract pixel values from the image buffer
    uint8_t *pixel_values = (uint8_t *)(image->buf);

    // TODO: IMPROVE BELOW -> THIS IS TERRIBLE, BUT IT WORKS FOR NOW
    // first store the image in a tensor
    float intermediate[1][1][520][240];
    for (int i = 0; i < 520; i++) {
        for (int j = 0; j < 240; j++) {
            intermediate[0][0][i][j] = (float)pixel_values[(i * image->w) + j] / 255.0f;
          }
        }

    // then extract the region of interest
    for (int i = 0; i < TENSOR_HEIGHT; i++) {
        for (int j = 0; j < TENSOR_WIDTH; j++) {
            int row_idx = i * 4;
            int col_idx = j * 2 + 60;
            tensor_input_1[0][0][i][j] = intermediate[0][0][row_idx][col_idx];
        }
    }

    // // for debugging: save tensor_input_1 to a file
    // FILE *f = fopen("tensor_input_1.txt", "w");
    // if (f == NULL)
    // {
    //     printf("Error opening file!\n");
    //     exit(1);
    // }
    // for (int i = 0; i < TENSOR_HEIGHT; i++)
    // {
    //     for (int j = 0; j < TENSOR_WIDTH; j++)
    //     {
    //         printf("i: %d, j: %d, value: %f\n", i, j, tensor_input_1[0][0][i][j]);
    //         fprintf(f, "%f ", tensor_input_1[0][0][i][j]);
    //     }
    //     fprintf(f, "\n");
    // }
}

// AUTOGENERATED FILE BELOW

// This file is computer-generated by onnx2c 
// (TODO: add creating command line here)
// (TODO: print creation date here )

// ONNX model:
// produced by pytorch, version 2.2.1
// ONNX IR version: 17
// Model documentation: 
/*

*/

#include <float.h>
#include <math.h>
#include <stdbool.h>
#include <stdint.h>
#include <string.h>
#define MAX(X,Y) ( X > Y ? X : Y)
#define MIN(X,Y) ( X < Y ? X : Y)
#define CLIP(X,L) ( MAX(MIN(X,L), -L) )

static const float tensor_0_weight[6][1][5][5] = 
{
  {
    {
      {0.39191421866416931152f, 0.32290941476821899414f, -0.027565155178308486938f, 0.36280173063278198242f, 0.18679715692996978760f},
      {0.23376029729843139648f, -0.062583118677139282227f, 0.027950102463364601135f, -0.12506158649921417236f, 0.14665691554546356201f},
      {-0.20629179477691650391f, -0.14541564881801605225f, 0.20805868506431579590f, 0.086980722844600677490f, -8.4615967352874577045e-05f},
      {0.27750903367996215820f, 0.063296392560005187988f, 0.32622289657592773438f, 0.40963420271873474121f, 0.19444450736045837402f},
      {0.086333975195884704590f, 0.13933864235877990723f, -0.064736969769001007080f, 0.13803727924823760986f, 0.0070487461052834987640f}
    }
  },
  {
    {
      {0.29093444347381591797f, 0.25919085741043090820f, 0.11351483315229415894f, -0.23403540253639221191f, -0.20313566923141479492f},
      {0.45009353756904602051f, 0.13904739916324615479f, 0.14680220186710357666f, -0.20391385257244110107f, -0.32155001163482666016f},
      {0.36338090896606445312f, 0.24475617706775665283f, 0.040980145335197448730f, -0.11475859582424163818f, -0.39396783709526062012f},
      {0.23029816150665283203f, 0.31350287795066833496f, 0.077733263373374938965f, -0.24605461955070495605f, -0.39131203293800354004f},
      {0.18992435932159423828f, 0.12203149497509002686f, 0.10967741906642913818f, -0.28382369875907897949f, -0.52262693643569946289f}
    }
  },
  {
    {
      {-0.23361231386661529541f, -0.039417337626218795776f, -0.12857528030872344971f, -0.048022814095020294189f, 0.13887387514114379883f},
      {0.050444155931472778320f, -0.075767360627651214600f, -0.15182538330554962158f, -0.19368451833724975586f, 0.012222356162965297699f},
      {-0.0011135545792058110237f, -0.13640038669109344482f, 0.20429632067680358887f, 0.074155412614345550537f, -0.16337560117244720459f},
      {0.13806574046611785889f, -0.061190750449895858765f, -0.024766545742750167847f, 0.23646454513072967529f, -0.034056354314088821411f},
      {-0.032682307064533233643f, 0.30189421772956848145f, 0.28616765141487121582f, 0.26345705986022949219f, 0.15604253113269805908f}
    }
  },
  {
    {
      {0.13907167315483093262f, -0.056164816021919250488f, 0.082775324583053588867f, -0.071213915944099426270f, -0.053260456770658493042f},
      {0.26452463865280151367f, -0.10352315008640289307f, 0.073241248726844787598f, -0.19478088617324829102f, -0.28856965899467468262f},
      {-0.017987431958317756653f, 0.20081298053264617920f, -0.16325588524341583252f, -0.086458571255207061768f, -0.31324961781501770020f},
      {0.22270034253597259521f, 0.23338004946708679199f, 0.17262813448905944824f, -0.053276121616363525391f, -0.013718964532017707825f},
      {0.26506537199020385742f, 0.059448532760143280029f, 0.13839222490787506104f, 0.093284413218498229980f, -0.26679468154907226562f}
    }
  },
  {
    {
      {0.089604899287223815918f, -0.095109514892101287842f, 0.18640793859958648682f, -0.10394231230020523071f, -0.048480596393346786499f},
      {0.15827836096286773682f, 0.068319544196128845215f, 0.11449941992759704590f, -0.16229416429996490479f, 0.082873672246932983398f},
      {-0.17098383605480194092f, 0.10183022916316986084f, -0.079259306192398071289f, -0.085353635251522064209f, -0.0068471231497824192047f},
      {-0.19687299430370330811f, 0.0045297532342374324799f, 0.15598693490028381348f, -0.17423082888126373291f, -0.17894649505615234375f},
      {-0.15546852350234985352f, 0.041029166430234909058f, -0.15141043066978454590f, 0.12658862769603729248f, 0.00079892744543030858040f}
    }
  },
  {
    {
      {0.31370830535888671875f, 0.17731051146984100342f, -0.028690787032246589661f, 0.30262288451194763184f, -0.14441728591918945312f},
      {0.25848582386970520020f, 0.19897516071796417236f, 0.11487607657909393311f, 0.25080770254135131836f, 0.067888148128986358643f},
      {0.28402328491210937500f, 0.24543251097202301025f, -0.054800830781459808350f, 0.23557436466217041016f, 0.074603460729122161865f},
      {0.34720024466514587402f, 0.21016883850097656250f, -0.063241928815841674805f, 0.18781064450740814209f, -0.13814577460289001465f},
      {0.33205044269561767578f, 0.27327921986579895020f, 0.25746661424636840820f, 0.10143542289733886719f, 0.16081392765045166016f}
    }
  }
};
static const float tensor_0_bias[6] = 
{-0.75620448589324951172f, 0.015530310571193695068f, -0.28019192814826965332f, 0.0050511704757809638977f, -0.17906524240970611572f, -0.43315884470939636230f};
static const float tensor_4_weight[5][6][5][5] = 
{
  {
    {
      {-0.066623732447624206543f, 0.14038412272930145264f, 0.013451588340103626251f, 0.10757958889007568359f, 0.032339945435523986816f},
      {-0.024823443964123725891f, 0.14188647270202636719f, 0.18518547713756561279f, 0.096464909613132476807f, 0.11812762171030044556f},
      {0.072297446429729461670f, 0.079587355256080627441f, 0.049201499670743942261f, 0.12880994379520416260f, 0.041564073413610458374f},
      {0.037969455122947692871f, 0.10076820105314254761f, 0.048405833542346954346f, 0.19595849514007568359f, 0.12061554938554763794f},
      {-0.088077135384082794189f, 0.018200319260358810425f, 0.12033499032258987427f, 0.030606506392359733582f, 0.079066000878810882568f}
    },
    {
      {-0.057537578046321868896f, -0.11198189109563827515f, -0.10002109408378601074f, 0.050014179199934005737f, 0.084558933973312377930f},
      {-0.079551674425601959229f, -0.15420082211494445801f, -0.043530419468879699707f, 0.11102957278490066528f, 0.012982728891074657440f},
      {-0.13307735323905944824f, -0.17118607461452484131f, -0.068352952599525451660f, 0.070163480937480926514f, 0.051361344754695892334f},
      {-0.17276428639888763428f, -0.22981101274490356445f, -0.15564477443695068359f, -0.096234284341335296631f, -0.012537498027086257935f},
      {-0.13865251839160919189f, -0.098409257829189300537f, -0.16142253577709197998f, -0.026625437662005424500f, -0.050502941012382507324f}
    },
    {
      {0.053990576416254043579f, 0.078214116394519805908f, 0.043325949460268020630f, 0.10232741385698318481f, -0.014585130847990512848f},
      {0.047042544931173324585f, -0.029580876231193542480f, 0.039425674825906753540f, 0.028860986232757568359f, 0.039650920778512954712f},
      {-0.028377436101436614990f, 0.048036940395832061768f, -0.0057577979750931262970f, 0.0085846390575170516968f, -0.022806532680988311768f},
      {0.086729496717453002930f, 0.019583696499466896057f, -0.025450313463807106018f, 0.0018305169651284813881f, -0.032685324549674987793f},
      {-0.026703555136919021606f, 0.058349698781967163086f, -0.052986338734626770020f, -0.032372906804084777832f, 0.024122247472405433655f}
    },
    {
      {0.0062353657558560371399f, -0.0093086445704102516174f, 0.049975968897342681885f, 0.073741719126701354980f, 0.063652910292148590088f},
      {-0.082404948770999908447f, -0.11643451452255249023f, -0.040755197405815124512f, 0.088460028171539306641f, -0.036980103701353073120f},
      {-0.14475464820861816406f, -0.18684853613376617432f, -0.067699737846851348877f, -0.074411183595657348633f, -0.040195427834987640381f},
      {-0.089658476412296295166f, -0.16278946399688720703f, -0.10136913508176803589f, -0.079716049134731292725f, -0.014520382508635520935f},
      {-0.11101515591144561768f, -0.13958045840263366699f, -0.058585189282894134521f, 0.028219668194651603699f, 0.040965069085359573364f}
    },
    {
      {0.075673148036003112793f, 0.019717901945114135742f, 0.066712059080600738525f, 0.047011632472276687622f, 0.066566191613674163818f},
      {0.0018824444850906729698f, -0.046413514763116836548f, -0.024381039664149284363f, -0.0047577270306646823883f, 0.075808517634868621826f},
      {0.076162271201610565186f, -0.061138805001974105835f, -0.057644058018922805786f, 0.066522814333438873291f, 0.0066309776157140731812f},
      {0.0036595251876860857010f, 0.059938915073871612549f, 0.048080347478389739990f, 0.063581369817256927490f, -0.034295272082090377808f},
      {0.062696091830730438232f, -0.069288827478885650635f, 0.0079204011708498001099f, 0.034578304737806320190f, 0.019117601215839385986f}
    },
    {
      {-0.00047042773803696036339f, 0.0060814502649009227753f, -0.0054348763078451156616f, 0.049180213361978530884f, 0.11123613268136978149f},
      {0.011631981469690799713f, 0.044017605483531951904f, 0.12578196823596954346f, 0.023272437974810600281f, -0.051340244710445404053f},
      {-0.0057958527468144893646f, 0.0075853969901800155640f, 0.13173039257526397705f, 0.020663395524024963379f, 0.016884790733456611633f},
      {-0.021400956436991691589f, -0.024750867858529090881f, -0.011938186362385749817f, 0.097058556973934173584f, -0.069075167179107666016f},
      {-0.017454817891120910645f, -0.038236815482378005981f, -0.036359347403049468994f, -0.046046625822782516479f, 0.086503259837627410889f}
    }
  },
  {
    {
      {-0.062263209372758865356f, 0.082439899444580078125f, 0.063738040626049041748f, 0.055284101516008377075f, -0.00010634132195264101028f},
      {0.062927372753620147705f, -0.013664271682500839233f, 0.020422117784619331360f, 0.028265453875064849854f, -0.045193161815404891968f},
      {0.072496250271797180176f, 0.054187428206205368042f, 0.047080036252737045288f, -0.095396950840950012207f, 0.041953757405281066895f},
      {0.0056563382968306541443f, 0.064901217818260192871f, 0.021521085873246192932f, 0.049722634255886077881f, -0.0042243325151503086090f},
      {-0.051546104252338409424f, 0.038881041109561920166f, -0.0064559527672827243805f, 0.016943443566560745239f, -0.037846807390451431274f}
    },
    {
      {-0.020339630544185638428f, -0.0036133734975010156631f, 0.10341919213533401489f, 0.029254311695694923401f, -0.046763069927692413330f},
      {-0.029875027015805244446f, 0.037015702575445175171f, -0.014816097915172576904f, 0.092087052762508392334f, -0.063082613050937652588f},
      {0.10661666095256805420f, 0.054674062877893447876f, -0.0048036691732704639435f, 0.043778255581855773926f, -0.076759502291679382324f},
      {-0.029992450028657913208f, 0.059893861413002014160f, 0.042919326573610305786f, -0.059452194720506668091f, 0.032361183315515518188f},
      {0.037588227540254592896f, 0.054078143090009689331f, -0.062227394431829452515f, 0.00059960316866636276245f, 0.027617355808615684509f}
    },
    {
      {-0.082536123692989349365f, -0.016242871060967445374f, -0.031973831355571746826f, -0.017344143241643905640f, 0.055440418422222137451f},
      {-0.0059438897296786308289f, 0.069916978478431701660f, -0.048511542379856109619f, -0.020810864865779876709f, -0.065933018922805786133f},
      {-0.016867825761437416077f, 0.0072792596183717250824f, -0.030663607642054557800f, -0.061299867928028106689f, 0.073874741792678833008f},
      {-0.027738748118281364441f, -0.079174019396305084229f, 0.0090130614116787910461f, -0.066988930106163024902f, 0.046187814325094223022f},
      {-0.064882010221481323242f, 0.0083256345242261886597f, -0.080479361116886138916f, -0.024857467040419578552f, -0.018539847806096076965f}
    },
    {
      {-0.060848325490951538086f, 0.036176238209009170532f, 0.072755366563796997070f, 0.018622208386659622192f, -0.028153851628303527832f},
      {0.0020986085291951894760f, -0.0072535751387476921082f, 0.0042868521995842456818f, -0.025436181575059890747f, -0.021683862432837486267f},
      {0.099286414682865142822f, -0.047517839819192886353f, 0.073480047285556793213f, -0.024162011221051216125f, -0.032413396984338760376f},
      {0.014495380222797393799f, 0.026157630607485771179f, 0.085591375827789306641f, 0.014039782807230949402f, -0.014200264587998390198f},
      {0.098961360752582550049f, -0.044981740415096282959f, 0.031083311885595321655f, 0.037772305309772491455f, -0.030971342697739601135f}
    },
    {
      {-0.040545605123043060303f, 0.061300117522478103638f, 0.021305523812770843506f, -0.076360806822776794434f, -0.051291055977344512939f},
      {0.077015340328216552734f, -0.034372333437204360962f, 0.013774135150015354156f, -0.041654143482446670532f, 0.014530521817505359650f},
      {0.036701932549476623535f, -0.0057529802434146404266f, -0.065969839692115783691f, -0.017012288793921470642f, -0.079988494515419006348f},
      {-0.035166278481483459473f, -0.037429865449666976929f, -0.081410586833953857422f, -0.0046926694922149181366f, -0.021280549466609954834f},
      {0.075207538902759552002f, -0.053962346166372299194f, 0.057325519621372222900f, 0.076348535716533660889f, 0.031493116170167922974f}
    },
    {
      {0.038456890732049942017f, -0.027969403192400932312f, 0.023552021011710166931f, -0.028835162520408630371f, -0.034808527678251266479f},
      {-0.015703309327363967896f, 0.048429902642965316772f, -0.061740458011627197266f, -0.028403852134943008423f, -0.096030652523040771484f},
      {0.025550778955221176147f, -0.0038140018004924058914f, -0.034072879701852798462f, -0.061047982424497604370f, -0.010758991353213787079f},
      {0.081136435270309448242f, -0.019461177289485931396f, -0.046354513615369796753f, -0.053138766437768936157f, -0.0090402588248252868652f},
      {-0.020412942394614219666f, -0.030358878895640373230f, -0.052620381116867065430f, -0.066322803497314453125f, -0.0094793476164340972900f}
    }
  },
  {
    {
      {-0.0084288781508803367615f, -0.11574927717447280884f, -0.14066043496131896973f, -0.16848868131637573242f, -0.24220101535320281982f},
      {-0.010485121048986911774f, -0.061923984438180923462f, -0.19726119935512542725f, -0.27011221647262573242f, -0.25732508301734924316f},
      {-0.023380421102046966553f, -0.077797554433345794678f, -0.099886119365692138672f, -0.25583541393280029297f, -0.24157458543777465820f},
      {-0.036529142409563064575f, -0.0031442858744412660599f, -0.088630490005016326904f, -0.12023639678955078125f, -0.12019369751214981079f},
      {0.028882432729005813599f, 0.017492078244686126709f, 0.019636992365121841431f, 0.012985486537218093872f, -0.080094873905181884766f}
    },
    {
      {0.16397123038768768311f, 0.047623716294765472412f, 0.025563199073076248169f, -0.028929241001605987549f, -0.16584612429141998291f},
      {0.072534069418907165527f, 0.17194649577140808105f, 0.096217267215251922607f, 0.0081103453412652015686f, -0.093780472874641418457f},
      {0.16860312223434448242f, 0.12472962588071823120f, 0.15851886570453643799f, 0.035386994481086730957f, -0.062141075730323791504f},
      {0.085097894072532653809f, 0.11747616529464721680f, 0.084437228739261627197f, 0.043196734040975570679f, -0.059374921023845672607f},
      {0.041769456118345260620f, 0.0061523579061031341553f, -0.017974713817238807678f, -0.035448104143142700195f, 0.012063908390700817108f}
    },
    {
      {0.049735967069864273071f, -0.082902997732162475586f, -0.043525904417037963867f, 0.055534310638904571533f, 0.077631168067455291748f},
      {-0.044509731233119964600f, -0.074856832623481750488f, 0.079959310591220855713f, 0.080618463456630706787f, 0.015013422816991806030f},
      {-0.10190362483263015747f, 0.016127685084939002991f, -0.047739434987306594849f, -0.028835853561758995056f, -0.015571259893476963043f},
      {0.020159423351287841797f, -0.044261828064918518066f, 0.026158986613154411316f, 0.056329369544982910156f, 0.10906951129436492920f},
      {0.070681162178516387939f, -0.032141100615262985229f, 0.11772823333740234375f, 0.059783946722745895386f, 0.061019688844680786133f}
    },
    {
      {0.12992110848426818848f, 0.065228626132011413574f, 0.046805772930383682251f, 0.0011219652369618415833f, -0.084941342473030090332f},
      {0.075636066496372222900f, 0.076456278562545776367f, 0.070638187229633331299f, -0.013086732476949691772f, -0.10419248044490814209f},
      {0.052150905132293701172f, 0.049992669373750686646f, 0.038040254265069961548f, -0.044551353901624679565f, -0.099052906036376953125f},
      {0.065253131091594696045f, 0.084538862109184265137f, 0.031455311924219131470f, -0.0047737979330122470856f, -0.078475236892700195312f},
      {0.084993518888950347900f, 0.012479047290980815887f, 0.040758438408374786377f, 0.037098724395036697388f, -0.025026487186551094055f}
    },
    {
      {-0.079038448631763458252f, 0.037079501897096633911f, -0.039674244821071624756f, 0.030168285593390464783f, 0.064656354486942291260f},
      {-0.025409711524844169617f, -0.059821326285600662231f, 0.053149472922086715698f, 0.013838144019246101379f, -0.071806930005550384521f},
      {-0.055728375911712646484f, -0.012446381151676177979f, -0.028304588049650192261f, -0.022541096433997154236f, -0.0070824986323714256287f},
      {0.021356685087084770203f, 0.030444106087088584900f, 0.012612227350473403931f, 0.080754697322845458984f, 0.032318834215402603149f},
      {0.043206125497817993164f, 0.079593561589717864990f, 0.065504454076290130615f, 0.018811473622918128967f, 0.057698849588632583618f}
    },
    {
      {0.60934340953826904297f, -0.032051082700490951538f, -0.054928317666053771973f, -0.050817921757698059082f, -0.044366978108882904053f},
      {-0.019903346896171569824f, -0.015353700146079063416f, -0.036680553108453750610f, -0.056858360767364501953f, -0.071402706205844879150f},
      {0.033136684447526931763f, 0.014749353751540184021f, 0.0017414018511772155762f, -0.046836815774440765381f, -0.077032797038555145264f},
      {-0.0069996728561818599701f, -0.0041289106011390686035f, -0.0038255043327808380127f, -0.037441708147525787354f, -0.041894212365150451660f},
      {0.57560223340988159180f, -0.025336023420095443726f, -0.012268197722733020782f, -0.0056299669668078422546f, 0.00098461820743978023529f}
    }
  },
  {
    {
      {-0.13999232649803161621f, -0.016476422548294067383f, 0.0028123597148805856705f, 0.038684681057929992676f, 0.043950829654932022095f},
      {-0.19772152602672576904f, -0.11349597573280334473f, 0.0035245309118181467056f, 0.13155014812946319580f, 0.15939421951770782471f},
      {-0.15656983852386474609f, -0.075338080525398254395f, -0.014337336644530296326f, 0.0089893816038966178894f, 0.14332687854766845703f},
      {-0.10341739654541015625f, -0.084387123584747314453f, 0.049470581114292144775f, 0.13709764182567596436f, 0.14734290540218353271f},
      {-0.067503578960895538330f, -0.065807767212390899658f, 0.0049621514044702053070f, 0.14287975430488586426f, 0.22367712855339050293f}
    },
    {
      {-0.11733875423669815063f, -0.13906177878379821777f, -0.028353869915008544922f, 0.013859556056559085846f, 0.087300412356853485107f},
      {-0.22206233441829681396f, -0.10798061639070510864f, -0.10143093019723892212f, -0.10162249952554702759f, 0.032902903854846954346f},
      {-0.24271567165851593018f, -0.18085978925228118896f, -0.071034073829650878906f, -0.061477005481719970703f, 0.091766722500324249268f},
      {-0.23827728629112243652f, -0.18304371833801269531f, -0.045561160892248153687f, -0.10188417881727218628f, 0.026180110871791839600f},
      {-0.16734957695007324219f, -0.16608557105064392090f, -0.069248646497726440430f, -0.11775930970907211304f, 0.053807754069566726685f}
    },
    {
      {-0.080705128610134124756f, -0.11608974635601043701f, 0.030516482889652252197f, -0.0066517591476440429688f, 0.0025576471816748380661f},
      {-0.0061299693770706653595f, -0.12264228612184524536f, -0.13096618652343750000f, -0.050751633942127227783f, -0.14387120306491851807f},
      {-0.12491976469755172729f, -0.10284248739480972290f, -0.11961398273706436157f, -0.14293611049652099609f, -0.13990382850170135498f},
      {-0.041902583092451095581f, -0.044084094464778900146f, -0.091864310204982757568f, -0.062671855092048645020f, -0.090846255421638488770f},
      {-0.086722239851951599121f, -0.096896924078464508057f, -0.0025066677480936050415f, -0.043497301638126373291f, -0.036974113434553146362f}
    },
    {
      {-0.047448910772800445557f, 0.034168478101491928101f, 0.061836011707782745361f, 0.085187315940856933594f, 0.16882558166980743408f},
      {-0.16194143891334533691f, -0.036054473370313644409f, 0.086150512099266052246f, -0.0074959089979529380798f, 0.13259524106979370117f},
      {-0.21128283441066741943f, -0.092149384319782257080f, 0.036507565528154373169f, -0.029398102313280105591f, 0.12088683992624282837f},
      {-0.12217878550291061401f, -0.056503519415855407715f, -0.070114798843860626221f, -0.029174916446208953857f, 0.042325127869844436646f},
      {-0.17098657786846160889f, -0.056219771504402160645f, -0.035552166402339935303f, 0.061182312667369842529f, 0.013096094131469726562f}
    },
    {
      {0.0092344842851161956787f, 0.0018342237453907728195f, 0.0057454169727861881256f, 0.075508452951908111572f, -0.070145420730113983154f},
      {0.029334211722016334534f, -0.039914011955261230469f, -0.020241973921656608582f, 0.070080146193504333496f, -0.014979306608438491821f},
      {0.018141027539968490601f, -0.068023301661014556885f, -0.067123316228389739990f, -0.056269515305757522583f, 0.079146578907966613770f},
      {-0.040171928703784942627f, 0.014112315140664577484f, 0.042224604636430740356f, 0.058464530855417251587f, 0.074988834559917449951f},
      {-0.061546303331851959229f, 0.015887072309851646423f, 0.074987538158893585205f, -0.065243646502494812012f, -0.046733580529689788818f}
    },
    {
      {-0.10538946837186813354f, -0.096550598740577697754f, -0.089967831969261169434f, -0.043657343834638595581f, -0.12116535007953643799f},
      {-0.074579626321792602539f, -0.040827300399541854858f, 0.34000456333160400391f, -0.094182312488555908203f, 0.040025778114795684814f},
      {-0.035204622894525527954f, -0.056928899139165878296f, -0.073197841644287109375f, 0.023949868977069854736f, 0.59390836954116821289f},
      {-0.0028412286192178726196f, -0.026570722460746765137f, -0.016531430184841156006f, 0.045633874833583831787f, 0.056299157440662384033f},
      {-0.0051907338201999664307f, -0.018501678481698036194f, -0.047352213412523269653f, 0.43862116336822509766f, -0.044240809977054595947f}
    }
  },
  {
    {
      {-0.044292863458395004272f, -0.085758358240127563477f, -0.046496614813804626465f, 0.044998411089181900024f, 0.11179360747337341309f},
      {-0.037611208856105804443f, 0.0063168616034090518951f, -0.098074719309806823730f, 0.079873457551002502441f, 0.11190296709537506104f},
      {0.017610033974051475525f, -0.012266218662261962891f, -0.019099991768598556519f, 0.10096702724695205688f, 0.076978214085102081299f},
      {-0.074214458465576171875f, -0.079724207520484924316f, 0.053100347518920898438f, -0.0060712327249348163605f, 0.052706290036439895630f},
      {0.037287022918462753296f, -0.016401078552007675171f, -0.067824915051460266113f, -0.038259979337453842163f, 0.033370118588209152222f}
    },
    {
      {-0.047625694423913955688f, -0.022658856585621833801f, -0.0034638999495655298233f, -0.015547381713986396790f, 0.077344931662082672119f},
      {0.0089998804032802581787f, 0.011596499942243099213f, 0.055823195725679397583f, -0.026351476088166236877f, 0.0024474654346704483032f},
      {-0.0067291106097400188446f, 0.054988577961921691895f, 0.043208509683609008789f, 0.10791594535112380981f, 0.0079817166551947593689f},
      {0.098685234785079956055f, -0.041644446551799774170f, 0.051153261214494705200f, -0.057430822402238845825f, 0.066742368042469024658f},
      {0.11634250730276107788f, 0.13199405372142791748f, -0.0061746598221361637115f, 0.020467020571231842041f, -0.039967220276594161987f}
    },
    {
      {0.0095559209585189819336f, -0.065384820103645324707f, 0.023007443174719810486f, -0.067018710076808929443f, 0.063768759369850158691f},
      {-0.084691219031810760498f, 0.030743053182959556580f, 0.029241560027003288269f, 0.014742491766810417175f, 0.071655265986919403076f},
      {-0.075646609067916870117f, 0.027909936383366584778f, -0.059107694774866104126f, -0.035185806453227996826f, 0.0031567641999572515488f},
      {0.060344144701957702637f, 0.00089124636724591255188f, -0.068466164171695709229f, 0.036378927528858184814f, 0.024327604100108146667f},
      {-0.021721716970205307007f, 0.077378958463668823242f, 0.077403835952281951904f, 0.012590276077389717102f, -0.0015214217128232121468f}
    },
    {
      {-0.046313967555761337280f, 0.055275797843933105469f, 0.049403358250856399536f, -0.060836117714643478394f, 0.0068308357149362564087f},
      {0.026120061054825782776f, -0.021871173754334449768f, -0.027662158012390136719f, 0.013114051893353462219f, 0.11806178092956542969f},
      {-0.047060169279575347900f, 0.079269506037235260010f, -0.0092865135520696640015f, 0.057388972491025924683f, 0.028925085440278053284f},
      {-0.010967613197863101959f, 0.042225450277328491211f, 0.021296225488185882568f, 0.077019549906253814697f, -0.010563162155449390411f},
      {0.063056901097297668457f, -0.0072297006845474243164f, -0.068513363599777221680f, -0.073977999389171600342f, 0.0019900733605027198792f}
    },
    {
      {0.070405572652816772461f, -0.065354205667972564697f, -0.036513049155473709106f, 0.067747235298156738281f, -0.064592406153678894043f},
      {0.0069453255273401737213f, -0.0044389367103576660156f, 0.015904154628515243530f, -0.059509892016649246216f, -0.080927617847919464111f},
      {-0.028392909094691276550f, 0.075321599841117858887f, 0.033133290708065032959f, -0.068890690803527832031f, -0.017248293384909629822f},
      {0.070296809077262878418f, -0.053747914731502532959f, 0.040738049894571304321f, 0.030983310192823410034f, 0.061935056000947952271f},
      {0.013661733828485012054f, 0.030616767704486846924f, -0.043967593461275100708f, -0.011148473247885704041f, 0.014542762190103530884f}
    },
    {
      {-0.13928268849849700928f, -0.18943510949611663818f, -0.11066102981567382812f, 0.082074433565139770508f, 0.38143384456634521484f},
      {-0.14117152988910675049f, -0.20752167701721191406f, -0.094653576612472534180f, -0.047086827456951141357f, 0.075025290250778198242f},
      {-0.16515509784221649170f, -0.26130652427673339844f, -0.14446550607681274414f, -0.028789360076189041138f, 0.12134915590286254883f},
      {-0.18890792131423950195f, -0.23792915046215057373f, -0.19079969823360443115f, -0.050564218312501907349f, 0.13642570376396179199f},
      {-0.11401541531085968018f, -0.20444081723690032959f, -0.17202179133892059326f, -0.085279963910579681396f, 0.21487165987491607666f}
    }
  }
};
static const float tensor_4_bias[5] = 
{-0.77225297689437866211f, -0.011549533344805240631f, -0.0070920852012932300568f, -0.10179900377988815308f, 0.37084019184112548828f};
static const float tensor_8_weight[5][5][5][5] = 
{
  {
    {
      {0.094783067703247070312f, 0.094804778695106506348f, -0.080480724573135375977f, -0.089099504053592681885f, -0.10488767921924591064f},
      {0.11230541020631790161f, 0.089520163834095001221f, 0.021961519494652748108f, -0.10288716107606887817f, -0.16994689404964447021f},
      {0.021556347608566284180f, 0.095318011939525604248f, 0.012318626046180725098f, -0.059737306088209152222f, -0.15318198502063751221f},
      {-0.055860999971628189087f, -0.023591469973325729370f, -0.039242707192897796631f, 0.0091799162328243255615f, 0.012733122333884239197f},
      {-0.032889209687709808350f, -0.097708404064178466797f, -0.075280494987964630127f, 0.0021120037417858839035f, 0.10590584576129913330f}
    },
    {
      {0.023587085306644439697f, -0.062522210180759429932f, -0.064513601362705230713f, -0.079633250832557678223f, 0.082684203982353210449f},
      {0.0078495899215340614319f, -0.0066673532128334045410f, 0.034572124481201171875f, 0.061553880572319030762f, -0.014728965237736701965f},
      {0.021300751715898513794f, -0.075412184000015258789f, 0.030799707397818565369f, -0.10213636606931686401f, -0.015611737966537475586f},
      {0.016216810792684555054f, 0.022279983386397361755f, -0.0013556698104366660118f, 0.0011341343633830547333f, -0.027397083118557929993f},
      {0.011464709416031837463f, 0.058800965547561645508f, 0.060678850859403610229f, -0.047913905233144760132f, -0.00047100856318138539791f}
    },
    {
      {-0.40809631347656250000f, -0.14222390949726104736f, 0.035776156932115554810f, -0.046251676976680755615f, -0.088230170309543609619f},
      {-0.40319418907165527344f, -0.23938456177711486816f, -0.11121104657649993896f, 0.087410323321819305420f, 0.0037101777270436286926f},
      {-0.26627662777900695801f, -0.26318782567977905273f, -0.025326816365122795105f, 0.067895106971263885498f, 0.083953134715557098389f},
      {-0.15424637496471405029f, -0.16834928095340728760f, -0.079703278839588165283f, -0.069998078048229217529f, -0.055260989814996719360f},
      {0.015772351995110511780f, -0.028632599860429763794f, -0.017425259575247764587f, -0.22648915648460388184f, -0.21563149988651275635f}
    },
    {
      {0.19891557097434997559f, 0.068855218589305877686f, -0.031880211085081100464f, -0.057307943701744079590f, -0.070820838212966918945f},
      {0.071048587560653686523f, 0.19501189887523651123f, 0.095320053398609161377f, -0.14141722023487091064f, -0.17015740275382995605f},
      {0.065006271004676818848f, 0.054867453873157501221f, 0.056776337325572967529f, -0.061313413083553314209f, -0.14423248171806335449f},
      {0.025217397138476371765f, 0.054874103516340255737f, 0.081814818084239959717f, 0.056619033217430114746f, 0.14268720149993896484f},
      {0.070237129926681518555f, -0.020339783281087875366f, -0.018078103661537170410f, 0.077156841754913330078f, 0.090606622397899627686f}
    },
    {
      {0.10376835614442825317f, 0.017004597932100296021f, 0.018842497840523719788f, -0.019546248018741607666f, 0.086159035563468933105f},
      {0.14295585453510284424f, -0.074596643447875976562f, -0.0085123004391789436340f, -0.0053081233054399490356f, 0.0081915613263845443726f},
      {0.097590781748294830322f, -0.0069226692430675029755f, -0.045688651502132415771f, -0.018940370529890060425f, 0.043315358459949493408f},
      {0.037166576832532882690f, 0.011724443174898624420f, -0.11491879075765609741f, -0.071800060570240020752f, -0.015980707481503486633f},
      {-0.0029053431935608386993f, -0.053867813199758529663f, -0.034404367208480834961f, -0.038405235856771469116f, -0.018945984542369842529f}
    }
  },
  {
    {
      {-0.15765801072120666504f, 0.079676799476146697998f, 0.033982995897531509399f, 0.043974600732326507568f, 0.040657766163349151611f},
      {-0.11031255125999450684f, 0.058124255388975143433f, -0.0084843933582305908203f, 0.019564211368560791016f, -0.048485767096281051636f},
      {0.0030822930857539176941f, 0.053675387054681777954f, -0.0039270813576877117157f, 0.0099979406222701072693f, 0.025439191609621047974f},
      {0.065414197742938995361f, 0.041013356298208236694f, 0.023230647668242454529f, 0.0048627187497913837433f, -0.0023271543905138969421f},
      {-0.049016557633876800537f, 0.039918497204780578613f, -0.047942418605089187622f, -0.077298834919929504395f, -0.097109273076057434082f}
    },
    {
      {-0.082435421645641326904f, -0.012077327817678451538f, 0.070005185902118682861f, 0.026324450969696044922f, 0.011666947975754737854f},
      {-0.037816952913999557495f, -0.048125389963388442993f, -0.082343645393848419189f, -0.038446545600891113281f, 0.057985637336969375610f},
      {0.061335235834121704102f, -0.048897273838520050049f, -0.067395515739917755127f, -0.036025840789079666138f, -0.0071577210910618305206f},
      {-0.075664989650249481201f, -0.071470201015472412109f, 0.089492782950401306152f, 0.037221129983663558960f, -0.050067350268363952637f},
      {0.043719004839658737183f, 0.0058538685552775859833f, 0.016004703938961029053f, 0.026517318561673164368f, 0.029232187196612358093f}
    },
    {
      {-0.020190438255667686462f, -0.15489423274993896484f, -0.18806751072406768799f, -0.19769030809402465820f, -0.19012758135795593262f},
      {0.048363808542490005493f, -0.052785683423280715942f, -0.065548770129680633545f, -0.088293984532356262207f, 0.061262425035238265991f},
      {-0.11141865700483322144f, -0.095426462590694427490f, 0.015449596568942070007f, -0.13628196716308593750f, 0.0052862023003399372101f},
      {-0.13304570317268371582f, -0.031406391412019729614f, 0.027680244296789169312f, -0.076608054339885711670f, -0.021932840347290039062f},
      {-0.18749240040779113770f, 0.078540444374084472656f, -0.00055609055561944842339f, -0.015243547968566417694f, -0.057026974856853485107f}
    },
    {
      {-0.093790523707866668701f, 0.030363447964191436768f, 0.10181899368762969971f, -0.0051709101535379886627f, -0.035729855298995971680f},
      {-0.042816892266273498535f, 0.078341417014598846436f, 0.029780136421322822571f, -0.00093682319857180118561f, -0.017152257263660430908f},
      {0.12124550342559814453f, 0.12001645565032958984f, 0.060406062752008438110f, 0.0042456947267055511475f, 0.020821804180741310120f},
      {0.18083098530769348145f, 0.026487292721867561340f, 0.010786071419715881348f, -0.041019264608621597290f, -0.010140202939510345459f},
      {0.051791287958621978760f, 0.025470042601227760315f, -0.036413080990314483643f, -0.11394982039928436279f, -0.14649698138236999512f}
    },
    {
      {0.057532165199518203735f, 0.10299739986658096313f, -0.032054401934146881104f, 0.019206371158361434937f, -0.021007467061281204224f},
      {0.087520927190780639648f, 0.11514340341091156006f, 0.0051889712922275066376f, 0.020061127841472625732f, -0.041851330548524856567f},
      {-0.025191364809870719910f, 0.016421077772974967957f, -0.0083375358954071998596f, 0.018282501026988029480f, 0.022627452388405799866f},
      {-0.018143722787499427795f, -0.094058468937873840332f, 0.043539393693208694458f, -0.075607158243656158447f, -0.093668751418590545654f},
      {-0.13993482291698455811f, -0.029920097440481185913f, -0.079351089894771575928f, -0.027954813092947006226f, -0.048849217593669891357f}
    }
  },
  {
    {
      {0.036490488797426223755f, -0.015043099410831928253f, 0.039506822824478149414f, 0.0068053225986659526825f, -0.017474193125963211060f},
      {0.00069579714909195899963f, -0.047789365053176879883f, -0.17310656607151031494f, -0.21425575017929077148f, -0.24023756384849548340f},
      {0.063238702714443206787f, 0.064965173602104187012f, 0.015338756144046783447f, -0.12121186405420303345f, -0.23234729468822479248f},
      {0.17015370726585388184f, 0.12071789801120758057f, 0.076539345085620880127f, 0.038422204554080963135f, -0.020245272666215896606f},
      {0.28477922081947326660f, 0.13670849800109863281f, 0.00079021125566214323044f, -0.063420087099075317383f, 0.012075261212885379791f}
    },
    {
      {-0.076304405927658081055f, -0.083921998739242553711f, 0.017429398372769355774f, 0.044267427176237106323f, 0.046517800539731979370f},
      {-0.054727450013160705566f, -0.045141540467739105225f, 0.0071364329196512699127f, -0.062194809317588806152f, -0.052881635725498199463f},
      {-0.0058910576626658439636f, -0.041351720690727233887f, 0.020835489034652709961f, -0.061747178435325622559f, 0.048491090536117553711f},
      {-0.013173043727874755859f, -0.043210934847593307495f, -0.038224387913942337036f, 0.052871305495500564575f, 0.086665414273738861084f},
      {0.0074138976633548736572f, 0.084137931466102600098f, 0.053564827889204025269f, 0.00022621596872340887785f, 0.028480028733611106873f}
    },
    {
      {-0.0029553100466728210449f, -0.090251773595809936523f, -0.091657280921936035156f, -0.028926089406013488770f, -0.039305694401264190674f},
      {0.038045261055231094360f, -0.027761850506067276001f, -0.0084506589919328689575f, -0.0026752008125185966492f, -0.030451156198978424072f},
      {-0.088459081947803497314f, -0.044662553817033767700f, 0.031107520684599876404f, -0.040701687335968017578f, 0.00070015504024922847748f},
      {-0.11838351190090179443f, -0.028248531743884086609f, 0.027499288320541381836f, -0.0019373530521988868713f, -0.031024025753140449524f},
      {-0.11720620840787887573f, -0.028990892693400382996f, 0.0053027737885713577271f, 0.066002786159515380859f, 0.025194138288497924805f}
    },
    {
      {-0.15057128667831420898f, -0.13611494004726409912f, -0.17691124975681304932f, -0.30538421869277954102f, -0.38985064625740051270f},
      {-0.00076062575681135058403f, -0.045456126332283020020f, -0.19866809248924255371f, -0.26591145992279052734f, -0.43179759383201599121f},
      {0.043988414108753204346f, 0.093011371791362762451f, -0.065706498920917510986f, -0.038060624152421951294f, -0.25360625982284545898f},
      {0.10857944935560226440f, 0.011641297489404678345f, 0.044664647430181503296f, -0.034812808036804199219f, -0.076308324933052062988f},
      {0.065335281193256378174f, 0.11261256039142608643f, 0.053245428949594497681f, 0.018872510641813278198f, -0.077220030128955841064f}
    },
    {
      {0.16771490871906280518f, 0.00054656888823956251144f, 0.10394500941038131714f, 0.094927467405796051025f, 0.11692398041486740112f},
      {0.12698210775852203369f, 0.015737989917397499084f, 0.10160453617572784424f, -0.033615302294492721558f, -0.16374224424362182617f},
      {0.048154089599847793579f, -0.0054386262781918048859f, -0.045666672289371490479f, -0.073099240660667419434f, -0.053313516080379486084f},
      {0.29899987578392028809f, 0.023124814033508300781f, -0.0071337432600557804108f, -0.028252424672245979309f, -0.058202214539051055908f},
      {0.085495896637439727783f, -0.074671804904937744141f, 0.017008176073431968689f, -0.024766962975263595581f, -0.12213514000177383423f}
    }
  },
  {
    {
      {-0.21262773871421813965f, -0.12243955582380294800f, -0.027428118512034416199f, 0.025910794734954833984f, 0.17664793133735656738f},
      {-0.25833028554916381836f, -0.21049383282661437988f, -0.092821925878524780273f, -0.10526464879512786865f, -0.071758583188056945801f},
      {-0.23891496658325195312f, -0.28481975197792053223f, -0.10504588484764099121f, -0.062773764133453369141f, 0.010589559562504291534f},
      {-0.32152819633483886719f, -0.26402863860130310059f, -0.13160246610641479492f, 0.0072778766043484210968f, -0.11993707716464996338f},
      {-0.31049931049346923828f, -0.34183686971664428711f, -0.21196311712265014648f, -0.14714451134204864502f, -0.11770286411046981812f}
    },
    {
      {-0.029789280146360397339f, -0.086240381002426147461f, 0.033780071884393692017f, -0.056504301726818084717f, 0.010408222675323486328f},
      {0.016286946833133697510f, -0.084971986711025238037f, -0.045770600438117980957f, 0.039527308195829391479f, 0.041732888668775558472f},
      {-0.043372824788093566895f, -0.080096364021301269531f, 0.035127792507410049438f, 0.060724694281816482544f, 0.041680537164211273193f},
      {0.076293274760246276855f, 0.060626361519098281860f, 0.083448357880115509033f, 0.013487230055034160614f, -0.024912001565098762512f},
      {0.096580766141414642334f, -0.073099344968795776367f, -0.092622347176074981689f, -0.077995516359806060791f, -0.0094959372654557228088f}
    },
    {
      {-0.059231150895357131958f, 0.088993154466152191162f, -0.015786210075020790100f, -0.050560891628265380859f, -0.021691570058465003967f},
      {0.15414991974830627441f, -0.044420145452022552490f, 0.058614041656255722046f, 0.23073831200599670410f, 0.044675309211015701294f},
      {-0.17004744708538055420f, 0.29190605878829956055f, -0.017553091049194335938f, 0.19605945050716400146f, 0.036287974566221237183f},
      {0.067921042442321777344f, -0.0061061051674187183380f, -0.049905553460121154785f, 0.21093109250068664551f, 0.076004981994628906250f},
      {0.064869962632656097412f, 0.073849394917488098145f, -0.071334995329380035400f, 0.083921991288661956787f, 0.11650753766298294067f}
    },
    {
      {0.11143114417791366577f, -0.098078846931457519531f, -0.22574372589588165283f, -0.19552573561668395996f, -0.20719945430755615234f},
      {0.032604809850454330444f, -0.0061168656684458255768f, -0.12328676134347915649f, -0.25977900624275207520f, -0.26281183958053588867f},
      {0.088385105133056640625f, 0.0092370677739381790161f, -0.056786969304084777832f, -0.28747808933258056641f, -0.26359477639198303223f},
      {0.011119859293103218079f, -0.048489388078451156616f, -0.045873396098613739014f, -0.25674286484718322754f, -0.29485267400741577148f},
      {-0.011255520395934581757f, -0.089069835841655731201f, -0.14053991436958312988f, -0.25336724519729614258f, -0.31340968608856201172f}
    },
    {
      {-0.11719422787427902222f, -0.13068418204784393311f, -0.050409812480211257935f, 0.032070342451333999634f, 0.24070356786251068115f},
      {-0.071574702858924865723f, -0.12734217941761016846f, -0.022593053057789802551f, 0.053240425884723663330f, 0.33642914891242980957f},
      {-0.12857577204704284668f, -0.14511919021606445312f, -0.089884921908378601074f, 0.036769490689039230347f, 0.20952232182025909424f},
      {-0.099109306931495666504f, -0.12634266912937164307f, -0.080111101269721984863f, -0.0090848198160529136658f, 0.23087526857852935791f},
      {-0.11688797175884246826f, -0.19994705915451049805f, -0.11153752356767654419f, -0.044416494667530059814f, 0.14532050490379333496f}
    }
  },
  {
    {
      {-0.030348105356097221375f, -0.058622248470783233643f, 0.032407145947217941284f, 0.069441638886928558350f, 0.014092834666371345520f},
      {0.050044432282447814941f, -0.015726771205663681030f, 0.018147969618439674377f, -0.013510040938854217529f, -0.037089016288518905640f},
      {0.018389053642749786377f, 0.013343377970159053802f, 0.054509587585926055908f, 0.13502588868141174316f, 0.063937909901142120361f},
      {-0.052070520818233489990f, -0.081571102142333984375f, 0.015975134447216987610f, 0.00065480172634124755859f, 0.090768307447433471680f},
      {0.028906490653753280640f, -0.0047279056161642074585f, 0.055017091333866119385f, 0.045032672584056854248f, 0.077771134674549102783f}
    },
    {
      {-0.049592524766921997070f, -0.11634477972984313965f, -0.018611298874020576477f, 0.090919591486454010010f, 0.041353084146976470947f},
      {-0.045348800718784332275f, -0.013135212473571300507f, -0.021079266443848609924f, 0.071692742407321929932f, 0.027459003031253814697f},
      {0.049718603491783142090f, -0.010487375780940055847f, -0.050092764198780059814f, 0.042366355657577514648f, -0.049471531063318252563f},
      {-0.015427613630890846252f, 0.067148745059967041016f, -0.069779612123966217041f, 0.030811602249741554260f, -0.0095579829066991806030f},
      {0.052030697464942932129f, 0.065387301146984100342f, 0.090536579489707946777f, -0.0098752481862902641296f, -0.065203495323657989502f}
    },
    {
      {0.017573986202478408813f, 0.12296658754348754883f, 0.048298083245754241943f, 0.14139695465564727783f, 0.017746683210134506226f},
      {-0.044311057776212692261f, 0.16001597046852111816f, 0.088100165128707885742f, 0.014243430458009243011f, 0.17047309875488281250f},
      {-0.13439433276653289795f, 0.080851018428802490234f, 0.035099346190690994263f, -0.055153418332338333130f, 0.064770236611366271973f},
      {0.20902521908283233643f, -0.073758199810981750488f, -0.030632609501481056213f, -0.13477247953414916992f, -0.054957427084445953369f},
      {0.19173392653465270996f, 0.37856069207191467285f, -0.047866541892290115356f, -0.015820400789380073547f, 0.034108001738786697388f}
    },
    {
      {-0.073872633278369903564f, -0.097224354743957519531f, 0.017911832779645919800f, -0.032590433955192565918f, -0.013480585068464279175f},
      {-0.049581486731767654419f, -0.13082344830036163330f, -0.022819131612777709961f, 0.052430298179388046265f, 0.023405015468597412109f},
      {-0.057304553687572479248f, -0.18430596590042114258f, -0.066949926316738128662f, -0.018456809222698211670f, 0.091952055692672729492f},
      {-0.093663029372692108154f, -0.22856724262237548828f, -0.046849656850099563599f, 0.038484320044517517090f, 0.022819124162197113037f},
      {-0.091844059526920318604f, -0.17813423275947570801f, -0.049619071185588836670f, -0.0018260582583025097847f, -0.054786682128906250000f}
    },
    {
      {-0.15803000330924987793f, -0.088484160602092742920f, -0.048130720853805541992f, -0.18627233803272247314f, -0.079131565988063812256f},
      {-0.091986089944839477539f, 0.040809702128171920776f, -0.040008656680583953857f, -0.090922154486179351807f, -0.14511562883853912354f},
      {-0.077160552144050598145f, -0.040212664753198623657f, 0.14211271703243255615f, 0.010445922613143920898f, -0.018898354843258857727f},
      {-0.061579633504152297974f, -0.025083849206566810608f, -0.048872321844100952148f, -0.067486003041267395020f, 0.020852154120802879333f},
      {-0.13580350577831268311f, -0.11859408766031265259f, -0.097567684948444366455f, -0.077707335352897644043f, -0.14083360135555267334f}
    }
  }
};
static const float tensor_8_bias[5] = 
{0.023069344460964202881f, -0.0032749006059020757675f, -0.098721966147422790527f, 0.15134678781032562256f, -0.099587500095367431641f};
static const float tensor_13_weight[3][350] = 
{
  {0.053005926311016082764f, 0.11566130071878433228f, 0.091107033193111419678f, 0.035184279084205627441f, 0.058548282831907272339f, -0.015053169801831245422f, 0.16330160200595855713f, 0.049295980483293533325f, 0.045665126293897628784f, 0.086309336125850677490f, 0.16495577991008758545f, 0.093350693583488464355f, 0.097834005951881408691f, 0.032544579356908798218f, 0.089684352278709411621f, 0.022429557517170906067f, 0.057404052466154098511f, 0.10605724155902862549f, -0.050428114831447601318f, 0.053423121571540832520f, 0.024093326181173324585f, 0.078519947826862335205f, -0.036612052470445632935f, 0.00073718966450542211533f, 0.074057638645172119141f, -0.043053273111581802368f, 0.075885951519012451172f, 0.072206646203994750977f, 0.029778083786368370056f, -0.0015361515106633305550f, -0.041193190962076187134f, -0.15643495321273803711f, -0.12702147662639617920f, -0.034796789288520812988f, -0.022671846672892570496f, -0.11881062388420104980f, -0.045822583138942718506f, -0.078688189387321472168f, 0.011397323571145534515f, 0.035521611571311950684f, -0.039123818278312683105f, -0.083904370665550231934f, -0.063711598515510559082f, -0.042666893452405929565f, -0.017810268327593803406f, 0.0017313326243311166763f, -0.086724862456321716309f, 0.012723919935524463654f, -0.023318193852901458740f, -0.094973683357238769531f, -0.13729488849639892578f, -0.074385404586791992188f, -0.076518833637237548828f, -0.098669700324535369873f, -0.057734306901693344116f, -0.098673604428768157959f, -0.032889973372220993042f, -0.086371794342994689941f, -0.0026260574813932180405f, 0.073552012443542480469f, 0.040517326444387435913f, -0.081385895609855651855f, -0.11725670844316482544f, -0.068495891988277435303f, 0.015129836276173591614f, -0.11108509451150894165f, -0.17170765995979309082f, 0.024923270568251609802f, 0.10728739202022552490f, -0.040735710412263870239f, -0.033442031592130661011f, 0.064212962985038757324f, 0.029839634895324707031f, 0.0038297390565276145935f, 0.043213173747062683105f, -0.030576746910810470581f, 0.0025161122903227806091f, -0.014627667143940925598f, -0.056597102433443069458f, 0.018191270530223846436f, 0.023222163319587707520f, 0.093083985149860382080f, -0.024913201108574867249f, 0.040772158652544021606f, -0.018203010782599449158f, -0.0032490678131580352783f, 0.020092785358428955078f, -0.039789158850908279419f, -0.016644490882754325867f, -0.082601755857467651367f, 0.020983483642339706421f, 0.0041381521150469779968f, 0.051671613007783889771f, -0.0061165727674961090088f, -0.091476991772651672363f, 0.051204767078161239624f, 0.070788279175758361816f, 0.074408970773220062256f, 0.063783533871173858643f, -0.061804410070180892944f, 0.045783810317516326904f, 0.030563719570636749268f, 0.017555046826601028442f, -0.052323810756206512451f, -0.041206151247024536133f, 0.022937279194593429565f, 0.057280790060758590698f, 0.016682844609022140503f, -0.059258852154016494751f, 0.0050148796290159225464f, -0.031683873385190963745f, -0.033096019178628921509f, -0.056313309818506240845f, -0.058315943926572799683f, -0.026328766718506813049f, 0.0060806530527770519257f, 0.038869462907314300537f, -0.040992368012666702271f, 0.0031687445007264614105f, -0.043557975441217422485f, -0.0035724590998142957687f, 0.048264559358358383179f, 0.034904107451438903809f, -0.045355889946222305298f, -0.0018448623595759272575f, -0.090360298752784729004f, 0.023048220202326774597f, 0.084924943745136260986f, 0.021535869687795639038f, 0.050892036408185958862f, -0.039947357028722763062f, -0.060731749981641769409f, 0.014513776637613773346f, -0.035837445408105850220f, 0.029403205960988998413f, -0.042125020176172256470f, -0.079882048070430755615f, 0.024856831878423690796f, 0.026535600423812866211f, 0.033481188118457794189f, 0.037320651113986968994f, 0.037193384021520614624f, -0.048603281378746032715f, -0.057159427553415298462f, -0.050304759293794631958f, -0.027042569592595100403f, -0.10211906582117080688f, -0.045722920447587966919f, 0.11137594282627105713f, -0.088347569108009338379f, -0.036752603948116302490f, -0.10355605185031890869f, -0.080914504826068878174f, -0.14327654242515563965f, 0.028965529054403305054f, -0.025881042703986167908f, 0.0023976103402674198151f, -0.00058775354409590363503f, -0.15144738554954528809f, 0.080426737666130065918f, -0.0057090525515377521515f, 0.031983699649572372437f, 0.090822033584117889404f, -0.035350084304809570312f, 0.061140924692153930664f, -0.0035857402253895998001f, 0.018084408715367317200f, 0.0096517931669950485229f, -0.054629180580377578735f, 0.17069223523139953613f, -0.022257937118411064148f, 0.11355029046535491943f, -0.026326607912778854370f, -0.025892382487654685974f, 0.10148388892412185669f, 0.075322978198528289795f, 0.069212570786476135254f, 0.10116343200206756592f, 0.12999022006988525391f, 0.16337278485298156738f, 0.065025933086872100830f, 0.040775220841169357300f, 0.17363464832305908203f, 0.041733589023351669312f, 0.014689547009766101837f, 0.068253263831138610840f, 0.034390274435281753540f, -0.035334967076778411865f, 0.096251726150512695312f, -0.092635177075862884521f, 0.010408324189484119415f, 0.15697559714317321777f, 0.035354092717170715332f, 0.082509413361549377441f, -0.15525598824024200439f, 0.045028124004602432251f, 0.080413080751895904541f, -0.031736519187688827515f, 0.072251424193382263184f, -0.054409187287092208862f, 0.075985781848430633545f, 0.065145537257194519043f, -0.029425270855426788330f, 0.035051669925451278687f, 0.053541988134384155273f, 0.091341443359851837158f, 0.099995896220207214355f, -0.072858981788158416748f, -0.013819682411849498749f, -0.15885536372661590576f, 0.21034087240695953369f, 0.25879070162773132324f, 0.32768201828002929688f, 0.13331983983516693115f, -0.10935760289430618286f, 0.034256070852279663086f, 0.10976260155439376831f, 0.065622404217720031738f, 0.10122995078563690186f, -0.25034952163696289062f, 0.066132590174674987793f, 0.085988298058509826660f, -0.095542624592781066895f, 0.038330867886543273926f, -0.13662996888160705566f, 0.10070104151964187622f, 0.15211819112300872803f, -0.029655272141098976135f, 0.071829698979854583740f, -0.076438128948211669922f, 0.038288224488496780396f, 0.096999719738960266113f, -0.073879167437553405762f, 0.10749638825654983521f, 0.019400738179683685303f, -0.13068497180938720703f, -0.015561353415250778198f, -0.070348560810089111328f, -0.082596845924854278564f, -0.11605765670537948608f, -0.14538739621639251709f, -0.058672748506069183350f, -0.13797888159751892090f, -0.082668371498584747314f, -0.082090012729167938232f, -0.074144192039966583252f, 0.014175551012158393860f, -0.079961083829402923584f, 0.018784211948513984680f, 0.11732742190361022949f, -0.064993426203727722168f, 0.0010759476572275161743f, -0.012418163008987903595f, -0.024381058290600776672f, 0.051109261810779571533f, -0.061728738248348236084f, -0.015808839350938796997f, 0.036901798099279403687f, -0.075947754085063934326f, 0.13806883990764617920f, -0.12208425998687744141f, -0.13365311920642852783f, -0.044985342770814895630f, -0.097718961536884307861f, 0.26831683516502380371f, -0.053005427122116088867f, -0.088347978889942169189f, -0.090250089764595031738f, -0.079035960137844085693f, 0.21563979983329772949f, -0.064208976924419403076f, -0.034522674977779388428f, -0.037808235734701156616f, 0.13938395678997039795f, 0.17297686636447906494f, -0.049317870289087295532f, -0.025429807603359222412f, 0.067241229116916656494f, 0.21576596796512603760f, 0.093266412615776062012f, 0.24525444209575653076f, 0.075580120086669921875f, 0.042787399142980575562f, 0.090878643095493316650f, 0.11639717966318130493f, 0.033139746636152267456f, 0.069660253822803497314f, 0.059116050601005554199f, 0.071786135435104370117f, 0.060520503669977188110f, -0.014692224562168121338f, 0.055962301790714263916f, 0.015201172791421413422f, 0.013785492628812789917f, 0.043183509260416030884f, 0.064289540052413940430f, 0.11902852356433868408f, 0.058948688209056854248f, 0.034804753959178924561f, 0.081394121050834655762f, 0.032485432922840118408f, 0.057569280266761779785f, 0.10145919024944305420f, 0.032356563955545425415f, 0.053773596882820129395f, -0.051382884383201599121f, -0.016167681664228439331f, -0.020692227408289909363f, 3.4493066777940839529e-05f, 0.016193469986319541931f, -0.028304457664489746094f, -0.029726903885602951050f, -0.083271734416484832764f, 0.067933812737464904785f, -0.0015871406067162752151f, 0.054130293428897857666f, -0.018024766817688941956f, -0.023175574839115142822f, -0.081161677837371826172f, 0.014330526813864707947f, -0.026437429711222648621f, -0.017681756988167762756f, -0.019500015303492546082f, -0.10679099708795547485f, -0.066726177930831909180f, -0.054336197674274444580f, -0.086703889071941375732f, 0.014323303475975990295f, 0.010437615215778350830f, -0.043303158134222030640f, -0.020589688792824745178f, -0.099500514566898345947f, -0.050929877907037734985f, -0.024530237540602684021f, 0.0083639947697520256042f, -0.018089970573782920837f, -0.084426976740360260010f, 0.0037547554820775985718f, 0.0028318597469478845596f, -0.12614211440086364746f, -0.074473299086093902588f, -0.048593606799840927124f, -0.084448225796222686768f, -0.14218528568744659424f, -0.14694812893867492676f, -0.15106987953186035156f, -0.068416379392147064209f, -0.084811203181743621826f, -0.15419232845306396484f, -0.17832972109317779541f},
  {-0.093112170696258544922f, -0.082296460866928100586f, -0.10280273109674453735f, -0.069137036800384521484f, -0.10251750797033309937f, 0.057515554130077362061f, -0.12549667060375213623f, -0.068037681281566619873f, -0.14704261720180511475f, -0.025232978165149688721f, -0.088267520070075988770f, -0.035614017397165298462f, -0.12776114046573638916f, -0.061812266707420349121f, -0.097199521958827972412f, -0.038164570927619934082f, -0.052642792463302612305f, 0.053676262497901916504f, -0.050874676555395126343f, -0.035485997796058654785f, 0.11601004749536514282f, 0.016253015026450157166f, 0.15349884331226348877f, -0.041205707937479019165f, -0.073072962462902069092f, 0.012665486894547939301f, 0.092813365161418914795f, 0.14370235800743103027f, 0.079197347164154052734f, 0.11060295253992080688f, 0.12229351699352264404f, 0.18411566317081451416f, 0.13999475538730621338f, 0.016874417662620544434f, 0.15160638093948364258f, 0.017657151445746421814f, 0.053558923304080963135f, 0.15623757243156433105f, 0.039434105157852172852f, -0.044054571539163589478f, 0.038307834416627883911f, 0.13224592804908752441f, 0.17426362633705139160f, 0.079189114272594451904f, 0.075185470283031463623f, -0.015173875726759433746f, 0.081475548446178436279f, -0.049026396125555038452f, 0.023864349350333213806f, 0.18048867583274841309f, 0.068958468735218048096f, -0.054419659078121185303f, -0.045979775488376617432f, 0.024626921862363815308f, 0.11022522300481796265f, 0.034531977027654647827f, -0.059615354984998703003f, -0.0013552635209634900093f, -0.058780632913112640381f, -0.082130119204521179199f, -0.098522558808326721191f, -0.076130844652652740479f, -0.082259871065616607666f, -0.014349740929901599884f, -0.051927573978900909424f, -0.019229961559176445007f, -0.095664523541927337646f, -0.13073500990867614746f, -0.14260597527027130127f, -0.074585631489753723145f, 0.014650564640760421753f, 0.032197549939155578613f, 0.0030991774983704090118f, -0.027814827859401702881f, -0.098749570548534393311f, -0.027707744389772415161f, -0.040182847529649734497f, 0.00087504810653626918793f, -0.019447773694992065430f, -0.060942597687244415283f, 0.038361489772796630859f, -0.031472548842430114746f, 0.027597298845648765564f, 0.028685681521892547607f, 0.058757409453392028809f, 0.018686236813664436340f, -0.064417988061904907227f, 0.0013563621323555707932f, 0.051886443048715591431f, 0.0021170142572373151779f, 0.058649193495512008667f, -0.12435019016265869141f, -0.0036611105315387248993f, -0.013968273997306823730f, -0.0048348107375204563141f, -0.034552510827779769897f, -0.15781642496585845947f, -0.056698519736528396606f, -0.042679455131292343140f, 0.019360003992915153503f, 0.012089488096535205841f, -0.014727191068232059479f, 0.023060763254761695862f, 0.084460988640785217285f, 0.029599968343973159790f, 0.086047403514385223389f, 0.099317394196987152100f, 0.064024522900581359863f, -0.024638073518872261047f, -0.072220213711261749268f, 0.029768140986561775208f, 0.15648873150348663330f, 0.16621516644954681396f, 0.069868691265583038330f, -0.090530715882778167725f, 0.069807834923267364502f, 0.032127570360898971558f, 0.080855049192905426025f, 0.072878934442996978760f, -0.0096063716337084770203f, 0.024577347561717033386f, 0.025140037760138511658f, 0.0068810405209660530090f, -0.089914254844188690186f, -0.0075408029370009899139f, 0.10458876937627792358f, -0.068195477128028869629f, 0.011619491502642631531f, -0.052481245249509811401f, -0.036617878824472427368f, 0.064465068280696868896f, 0.027668459340929985046f, -0.011079432442784309387f, -0.029454339295625686646f, -0.086116410791873931885f, 0.050765484571456909180f, -0.020944787189364433289f, -0.054537814110517501831f, -0.090777628123760223389f, -0.039884421974420547485f, -0.047635015100240707397f, -0.092180021107196807861f, -0.0073628094978630542755f, -0.0015309965237975120544f, 0.11793925613164901733f, 0.032441049814224243164f, 0.042486507445573806763f, 0.060272172093391418457f, -0.00089368689805269241333f, 0.12603004276752471924f, -0.020720522850751876831f, -0.044117420911788940430f, -0.032133225351572036743f, 0.0016247590538114309311f, 0.013944953680038452148f, -0.076453343033790588379f, -0.11059247702360153198f, -0.12122866511344909668f, 0.042736619710922241211f, 0.043697740882635116577f, -0.046062935143709182739f, -0.23111267387866973877f, -0.21474918723106384277f, -0.043455492705106735229f, -0.033294979482889175415f, 0.040030967444181442261f, -0.11880478262901306152f, -0.071993440389633178711f, -8.6142630607355386019e-05f, -0.18289659917354583740f, -0.091498330235481262207f, -0.15137441456317901611f, -0.068484075367450714111f, -0.015558838844299316406f, -0.20224294066429138184f, 0.040867794305086135864f, -0.13710686564445495605f, -0.18920373916625976562f, -0.050644140690565109253f, -0.17955404520034790039f, -0.10508743673563003540f, -0.057902254164218902588f, -0.22686527669429779053f, -0.078178159892559051514f, -0.056130446493625640869f, -0.00036693859146907925606f, 0.0043858718127012252808f, -0.029120270162820816040f, -0.025166518986225128174f, 0.062600925564765930176f, -0.071191519498825073242f, -0.14870893955230712891f, 0.059716261923313140869f, 0.022553237155079841614f, 0.10709535330533981323f, -0.036315627396106719971f, -0.0063517345115542411804f, -0.056264132261276245117f, 0.021503953263163566589f, 0.080651432275772094727f, 0.019211681559681892395f, 0.066575840115547180176f, 0.017587006092071533203f, 0.016141751781105995178f, -0.0064655249007046222687f, -0.13660606741905212402f, -0.095092453062534332275f, 0.036911245435476303101f, 0.025736292824149131775f, 0.044300302863121032715f, -0.20500601828098297119f, -0.20464275777339935303f, -0.28293067216873168945f, -0.32532569766044616699f, 0.039034627377986907959f, 0.067783705890178680420f, -0.079606577754020690918f, 0.0031835925765335559845f, -0.13549166917800903320f, 0.00038747504004277288914f, -0.061440363526344299316f, -0.032203111797571182251f, 0.13151864707469940186f, -0.0049679232761263847351f, -0.044644191861152648926f, 0.059859968721866607666f, 0.025837600231170654297f, 0.048313762992620468140f, -0.027368485927581787109f, -0.11534087359905242920f, 0.068169206380844116211f, 0.021098349243402481079f, -0.040228076279163360596f, -0.084538556635379791260f, -0.091291993856430053711f, 0.12157035619020462036f, -0.0054012746550142765045f, 0.16218328475952148438f, 0.058513641357421875000f, 0.12135867029428482056f, 0.19867534935474395752f, 0.023986225947737693787f, 0.20659409463405609131f, 0.023766176775097846985f, 0.033745601773262023926f, 0.21552249789237976074f, 0.054825071245431900024f, 0.11654234677553176880f, 0.019778229296207427979f, -0.010159894824028015137f, 0.057232331484556198120f, 0.062782026827335357666f, 0.15162236988544464111f, 0.15913581848144531250f, 0.17291823029518127441f, 0.014890746213495731354f, -0.040893103927373886108f, -0.0066286898218095302582f, -0.058367859572172164917f, -0.060859829187393188477f, 0.018973454833030700684f, -0.0066572269424796104431f, -0.024586228653788566589f, -0.026278838515281677246f, -0.10669623315334320068f, -0.016239752992987632751f, -0.022165229544043540955f, 0.16464465856552124023f, -0.0012708455324172973633f, -0.11513014137744903564f, 0.086847923696041107178f, 0.016614891588687896729f, 0.057051803916692733765f, -0.15031440556049346924f, -0.015771761536598205566f, -0.17670808732509613037f, -0.27207636833190917969f, -0.40827590227127075195f, -0.29593843221664428711f, -0.015936311334371566772f, -0.12713231146335601807f, -0.029276214540004730225f, -0.018088465556502342224f, 0.014190382324159145355f, 0.050260964781045913696f, 0.0033692403230816125870f, -0.029125424101948738098f, -0.040633246302604675293f, 0.030330408364534378052f, 0.088653244078159332275f, -0.054896660149097442627f, -0.020305758342146873474f, 0.12162106484174728394f, 0.073310859501361846924f, -0.00067632523132488131523f, 0.015193863771855831146f, -0.089848332107067108154f, -0.057842988520860671997f, 0.015415290370583534241f, -0.0033323841635137796402f, 0.049937978386878967285f, -0.010898590087890625000f, 0.025566335767507553101f, 0.0081275980919599533081f, 0.016017861664295196533f, 0.095202155411243438721f, -0.0048995721153914928436f, 0.051523201167583465576f, 0.027494916692376136780f, -0.014009183272719383240f, -0.049238149076700210571f, 0.13865943253040313721f, 0.15886548161506652832f, -0.020237358286976814270f, -0.036127746105194091797f, -0.027268594130873680115f, 0.060015317052602767944f, 0.13704919815063476562f, 0.11757703125476837158f, -0.026969615370035171509f, 0.13332165777683258057f, 0.11375354975461959839f, 0.012185528874397277832f, 0.064356215298175811768f, 0.0074617895297706127167f, -0.0060743386857211589813f, -0.050290070474147796631f, 0.048260584473609924316f, 0.069199658930301666260f, 0.042226426303386688232f, -0.045262556523084640503f, -0.085338532924652099609f, -0.029767591506242752075f, 0.063259661197662353516f, -0.011391921900212764740f, 0.091657817363739013672f, 0.047444190829992294312f, 0.080932721495628356934f, -0.021092286333441734314f, 0.034023806452751159668f, -0.063918784260749816895f, -0.053494647145271301270f, -0.014674443751573562622f, -0.018477328121662139893f, 0.080606840550899505615f, -0.067565895617008209229f, -0.076653502881526947021f, -0.057368949055671691895f, 0.039825614541769027710f, -0.0083755366504192352295f},
  {0.014664967544376850128f, 0.022811723873019218445f, 0.0094651840627193450928f, 0.043144620954990386963f, 0.010776001960039138794f, -0.064460523426532745361f, 0.056351207196712493896f, 0.049672763794660568237f, 0.097445309162139892578f, -0.033277627080678939819f, 5.2165534725645557046e-05f, -0.056960955262184143066f, -0.031301803886890411377f, -0.014474850147962570190f, 0.075339764356613159180f, -0.096718885004520416260f, -0.049181409180164337158f, -0.059776730835437774658f, 0.068292282521724700928f, -0.020591638982295989990f, -0.13281902670860290527f, -0.055089801549911499023f, -0.13303598761558532715f, -0.013246858492493629456f, 0.023027032613754272461f, -0.080285623669624328613f, -0.065599590539932250977f, -0.12162365019321441650f, -0.052832875400781631470f, -0.049858242273330688477f, -0.087310962378978729248f, -0.13603456318378448486f, -0.082445248961448669434f, 0.0032342516351491212845f, -0.10002595931291580200f, 0.0080110849812626838684f, 0.045670226216316223145f, 0.049710761755704879761f, -0.039392441511154174805f, 0.013150623068213462830f, -0.024357413873076438904f, -0.034688882529735565186f, -0.026616927236318588257f, 0.0023394038435071706772f, -0.036927375942468643188f, 0.0058153239078819751740f, -0.056303095072507858276f, 0.12225266546010971069f, 0.064981475472450256348f, -0.13930594921112060547f, -0.00082243746146559715271f, 0.10888205468654632568f, 0.10114192217588424683f, 0.056314997375011444092f, -0.0017629620851948857307f, 0.13726685941219329834f, 0.082524061203002929688f, 0.088068686425685882568f, -0.015636771917343139648f, 0.024325573816895484924f, 0.14145167171955108643f, 0.10530697554349899292f, 0.074701815843582153320f, 0.034279897809028625488f, -0.00039619512972421944141f, 0.084372296929359436035f, 0.18690326809883117676f, 0.066820792853832244873f, 0.067831963300704956055f, 0.084364950656890869141f, 0.010340115055441856384f, -0.081102862954139709473f, -0.071090936660766601562f, 0.030656240880489349365f, 0.042313218116760253906f, -0.034485179930925369263f, -0.021746095269918441772f, 0.021312668919563293457f, -0.047212745994329452515f, 0.014772938564419746399f, -0.021006893366575241089f, -0.056843921542167663574f, -0.038301110267639160156f, -0.059610586613416671753f, 0.013136735185980796814f, -0.021752545610070228577f, -0.037939421832561492920f, 0.048589345067739486694f, -0.11028990894556045532f, 0.062908053398132324219f, 0.010627515614032745361f, 0.082793466746807098389f, 0.016544699668884277344f, -0.059798523783683776855f, 0.014956303872168064117f, 0.0078248688951134681702f, 0.047211509197950363159f, 0.065298169851303100586f, -0.014770924113690853119f, 0.072209380567073822021f, -0.086045622825622558594f, -0.010614194907248020172f, -0.060727365314960479736f, -0.042764618992805480957f, -0.014989808201789855957f, -0.053438659757375717163f, -0.10294006764888763428f, -0.14336091279983520508f, 0.031768023967742919922f, 0.097067214548587799072f, -0.077051259577274322510f, -0.10765634477138519287f, -0.078352749347686767578f, 0.016060626134276390076f, 0.030030103400349617004f, -0.094233021140098571777f, -0.097937665879726409912f, -0.012587633915245532990f, 0.020792730152606964111f, -0.011716322042047977448f, -0.038207843899726867676f, -0.053327001631259918213f, -0.042086634784936904907f, 0.044673055410385131836f, -0.059051319956779479980f, -0.081960380077362060547f, -0.038993537425994873047f, -0.020747819915413856506f, -0.028859414160251617432f, 0.012873731553554534912f, 0.018804596737027168274f, 0.055727701634168624878f, 0.022111061960458755493f, 0.042717076838016510010f, 0.020006297156214714050f, 0.064159318804740905762f, 0.087573282420635223389f, 0.036546625196933746338f, 0.11074735969305038452f, 0.024040926247835159302f, 0.041012451052665710449f, 0.12295421957969665527f, 0.027418226003646850586f, 0.0080056004226207733154f, -0.018384171649813652039f, 0.078377559781074523926f, 0.053960099816322326660f, 0.030652655288577079773f, -0.065708942711353302002f, -0.012259918265044689178f, 0.051077950745820999146f, 0.14186465740203857422f, 0.10169511288404464722f, 0.10655622184276580811f, -0.064845114946365356445f, 0.092024311423301696777f, 0.12970778346061706543f, 0.047274012118577957153f, 0.14565855264663696289f, -0.062974981963634490967f, 0.030306465923786163330f, 0.10787387937307357788f, 0.10144722461700439453f, 0.024906339123845100403f, -0.063932120800018310547f, 0.058420751243829727173f, 0.011821009218692779541f, 0.0093522481620311737061f, 0.11165991425514221191f, 0.098012566566467285156f, 0.040155094116926193237f, 0.026306157931685447693f, 0.076621480286121368408f, -0.024557994678616523743f, 0.040555976331233978271f, 0.0098531050607562065125f, 0.046244483441114425659f, 0.13582313060760498047f, 0.023550042882561683655f, 0.046036101877689361572f, 0.078901827335357666016f, 0.081516608595848083496f, 0.052856963127851486206f, 0.056212764233350753784f, 0.036941561847925186157f, 0.035236544907093048096f, -0.010348924435675144196f, -0.039861593395471572876f, -0.070005640387535095215f, 0.014219314791262149811f, 0.095356702804565429688f, 0.016491528600454330444f, -0.062912769615650177002f, -0.13958731293678283691f, -0.019544376060366630554f, -0.012577307410538196564f, -0.12305501103401184082f, -0.0080577721819281578064f, -0.14709277451038360596f, -0.072918660938739776611f, -0.083894141018390655518f, -0.10527822375297546387f, 0.0091283787041902542114f, -0.070977702736854553223f, 0.014815027825534343719f, 0.0033963143359869718552f, -0.055781349539756774902f, -0.039798270910978317261f, 0.098539978265762329102f, 0.099727623164653778076f, -0.051571294665336608887f, 0.014099208638072013855f, -0.016917677596211433411f, 0.15368504822254180908f, 0.077744916081428527832f, -0.10362829267978668213f, -0.079499132931232452393f, -0.087798140943050384521f, 0.057738099247217178345f, 0.20511998236179351807f, -0.080955326557159423828f, -0.10618114471435546875f, -0.026871901005506515503f, -0.067106723785400390625f, 0.28154858946800231934f, -0.14346359670162200928f, -0.13956388831138610840f, 0.062069579958915710449f, -0.038269396871328353882f, 0.19997037947177886963f, -0.082101225852966308594f, -0.018037563189864158630f, 0.043795656412839889526f, -0.063157774507999420166f, 0.13735862076282501221f, -0.055199664086103439331f, 0.0050334855914115905762f, -0.086877226829528808594f, -0.030424464493989944458f, -0.076280772686004638672f, -0.067933253943920135498f, 0.0026883236132562160492f, -0.076071821153163909912f, 0.084154933691024780273f, 0.029954079538583755493f, -0.12512245774269104004f, -0.056023202836513519287f, -0.062752619385719299316f, -0.011541741900146007538f, -0.060595352202653884888f, -0.083074025809764862061f, -0.032402209937572479248f, -0.12208454310894012451f, -0.046859700232744216919f, -0.14876818656921386719f, -0.021322008222341537476f, 0.0052163107320666313171f, 0.015852557495236396790f, 0.16693009436130523682f, -0.035822007805109024048f, 0.076174482703208923340f, 0.16072763502597808838f, -0.034527216106653213501f, 0.043928872793912887573f, -0.13315963745117187500f, 0.036776658147573471069f, 0.13463705778121948242f, -0.082276061177253723145f, 0.024647597223520278931f, -0.073063306510448455811f, -0.0022948323749005794525f, 0.10298296809196472168f, -0.020758565515279769897f, 0.10371870547533035278f, -0.092372626066207885742f, 0.17679426074028015137f, 0.26338568329811096191f, 0.38249522447586059570f, 0.14361414313316345215f, -0.11076533794403076172f, -0.055181015282869338989f, -0.025109790265560150146f, -0.10558465123176574707f, -0.18619433045387268066f, -0.10430703312158584595f, -0.099664501845836639404f, -0.074547372758388519287f, -0.092180192470550537109f, -0.11279869824647903442f, -0.17731845378875732422f, 0.017944922670722007751f, 0.018206285312771797180f, -0.028194272890686988831f, -0.021253366023302078247f, -0.031462542712688446045f, 0.041177667677402496338f, -0.17545625567436218262f, -0.068890005350112915039f, -0.071421198546886444092f, -0.049067433923482894897f, -0.11807230114936828613f, -0.070605963468551635742f, -0.050489500164985656738f, -0.052188243716955184937f, -0.054471287876367568970f, -0.032825149595737457275f, -0.051787193864583969116f, -0.048634786158800125122f, -0.076651111245155334473f, -0.0058680097572505474091f, 0.068740770220756530762f, -0.062476940453052520752f, -0.076666794717311859131f, -0.016686582937836647034f, -0.015486092306673526764f, 0.020121961832046508789f, -0.11376056820154190063f, -0.040486879646778106689f, -0.090549364686012268066f, 0.020166384056210517883f, -0.0037496569566428661346f, -0.036286693066358566284f, -0.0081000821664929389954f, 0.028180303052067756653f, 0.013270952738821506500f, 0.063338555395603179932f, 0.041372332721948623657f, 0.035689685493707656860f, -0.078382231295108795166f, -0.00079775851918384432793f, 0.046527300029993057251f, 0.045844245702028274536f, -0.020430626347661018372f, -0.0028285041917115449905f, 0.043008077889680862427f, 0.012524330057203769684f, 0.046378180384635925293f, -0.022323060780763626099f, 0.069375380873680114746f, 0.065939649939537048340f, 0.12794688344001770020f, 0.11360152065753936768f, 0.096634574234485626221f, 0.091033697128295898438f, 0.090926013886928558350f, 0.20648677647113800049f, 0.094500824809074401855f, 0.17820797860622406006f, 0.17745806276798248291f, 0.098830580711364746094f}
};
static const float tensor_13_bias[3] = 
{0.039454296231269836426f, -0.057640612125396728516f, 0.024915775284171104431f};
union tensor_union_0 {
float tensor__0_Conv_output_0[1][6][128][58];
float tensor__2_MaxPool_output_0[1][6][64][29];
float tensor__5_Relu_output_0[1][5][62][27];
float tensor__8_Conv_output_0[1][5][29][11];
float tensor__10_MaxPool_output_0[1][5][14][5];
};
static union tensor_union_0 tu0;

union tensor_union_1 {
float tensor__1_Relu_output_0[1][6][128][58];
float tensor__4_Conv_output_0[1][5][62][27];
float tensor__6_MaxPool_output_0[1][5][31][13];
float tensor__9_Relu_output_0[1][5][29][11];
float tensor__12_Flatten_output_0[1][350];
};
static union tensor_union_1 tu1;


/*
 * Operand:           Conv
 * Name in ONNX file: /0/Conv
 */
static inline void node__0_Conv( const float x[1][1][130][60], const float w[6][1][5][5], const float bias[6], float y[1][6][128][58] )
{
	/* Conv
	 *
	 * auto_pad: NOTSET
	 * dilations: 1 1 
	 * group: 1
	 * kernel_shape: 5 5 
	 * pads: 1 1 1 1 
	 * strides: 1 1 
	 */
	for( uint32_t b=0; b<1; b++ ) {
	for( uint32_t m=0; m<6; m++) {
		for( int32_t o0=0, i0=-1; o0<128; o0++, i0+=1) {
		for( int32_t o1=0, i1=-1; o1<58; o1++, i1+=1) {
			y[b][m][o0][o1] = bias[m];
			for( int32_t c=0; c<1; c++ ) {
			for( uint32_t k0=0; k0<5; k0++ ) {
			for( uint32_t k1=0; k1<5; k1++ ) {
				int ii0 = i0+k0 * 1;
				if( ii0<0) continue;
				if( ii0>=130) continue;
				int ii1 = i1+k1 * 1;
				if( ii1<0) continue;
				if( ii1>=60) continue;
				y[b][m][o0][o1] += x[b][c][ii0][ii1] *w[m][c][k0][k1];
			} /* k */
			} /* k */
			} /* c */
		} /* o */
		} /* o */
	} /* m */
	} /* b */
}

/*
 * Operand:           Relu
 * Name in ONNX file: /1/Relu
 */
static inline void node__1_Relu( const float X[1][6][128][58], float Y[1][6][128][58] )
{
	/*Relu*/
	float *X_ptr = (float*)X;
	float *Y_ptr = (float*)Y;
	for( uint32_t i=0; i<44544; i++ )
		Y_ptr[i] = X_ptr[i] > 0 ? X_ptr[i] : 0;

}

/*
 * Operand:           MaxPool
 * Name in ONNX file: /2/MaxPool
 */
static inline void node__2_MaxPool( const float x[1][6][128][58], float y[1][6][64][29] )
{
	/* MaxPool
	 *
	 * auto_pad: NOTSET
	 * dilations: 1 1 
	 * group: 1
	 * kernel_shape: 2 2 
	 * pads: 0 0 0 0 
	 * strides: 2 2 
	 */
	for( uint32_t b=0; b<1; b++ ) {
	for( uint32_t m=0, c=0; m<6; m++, c=m) {
		for( int32_t o0=0, i0=0; o0<64; o0++, i0+=2) {
		for( int32_t o1=0, i1=0; o1<29; o1++, i1+=2) {
			float curmax = -FLT_MAX;
			for( uint32_t k0=0; k0<2; k0++ ) {
			for( uint32_t k1=0; k1<2; k1++ ) {
				int ii0 = i0+k0 * 1;
				if( ii0<0) continue;
				if( ii0>=128) continue;
				int ii1 = i1+k1 * 1;
				if( ii1<0) continue;
				if( ii1>=58) continue;
				if( curmax < x[b][c][ii0][ii1]) {
				curmax = MAX( curmax, x[b][c][ii0][ii1]);
				}
			} /* k */
			} /* k */
			y[b][m][o0][o1]= curmax;
		} /* o */
		} /* o */
	} /* m */
	} /* b */
}

/*
 * Operand:           Conv
 * Name in ONNX file: /4/Conv
 */
static inline void node__4_Conv( const float x[1][6][64][29], const float w[5][6][5][5], const float bias[5], float y[1][5][62][27] )
{
	/* Conv
	 *
	 * auto_pad: NOTSET
	 * dilations: 1 1 
	 * group: 1
	 * kernel_shape: 5 5 
	 * pads: 1 1 1 1 
	 * strides: 1 1 
	 */
	for( uint32_t b=0; b<1; b++ ) {
	for( uint32_t m=0; m<5; m++) {
		for( int32_t o0=0, i0=-1; o0<62; o0++, i0+=1) {
		for( int32_t o1=0, i1=-1; o1<27; o1++, i1+=1) {
			y[b][m][o0][o1] = bias[m];
			for( int32_t c=0; c<6; c++ ) {
			for( uint32_t k0=0; k0<5; k0++ ) {
			for( uint32_t k1=0; k1<5; k1++ ) {
				int ii0 = i0+k0 * 1;
				if( ii0<0) continue;
				if( ii0>=64) continue;
				int ii1 = i1+k1 * 1;
				if( ii1<0) continue;
				if( ii1>=29) continue;
				y[b][m][o0][o1] += x[b][c][ii0][ii1] *w[m][c][k0][k1];
			} /* k */
			} /* k */
			} /* c */
		} /* o */
		} /* o */
	} /* m */
	} /* b */
}

/*
 * Operand:           Relu
 * Name in ONNX file: /5/Relu
 */
static inline void node__5_Relu( const float X[1][5][62][27], float Y[1][5][62][27] )
{
	/*Relu*/
	float *X_ptr = (float*)X;
	float *Y_ptr = (float*)Y;
	for( uint32_t i=0; i<8370; i++ )
		Y_ptr[i] = X_ptr[i] > 0 ? X_ptr[i] : 0;

}

/*
 * Operand:           MaxPool
 * Name in ONNX file: /6/MaxPool
 */
static inline void node__6_MaxPool( const float x[1][5][62][27], float y[1][5][31][13] )
{
	/* MaxPool
	 *
	 * auto_pad: NOTSET
	 * dilations: 1 1 
	 * group: 1
	 * kernel_shape: 2 2 
	 * pads: 0 0 0 0 
	 * strides: 2 2 
	 */
	for( uint32_t b=0; b<1; b++ ) {
	for( uint32_t m=0, c=0; m<5; m++, c=m) {
		for( int32_t o0=0, i0=0; o0<31; o0++, i0+=2) {
		for( int32_t o1=0, i1=0; o1<13; o1++, i1+=2) {
			float curmax = -FLT_MAX;
			for( uint32_t k0=0; k0<2; k0++ ) {
			for( uint32_t k1=0; k1<2; k1++ ) {
				int ii0 = i0+k0 * 1;
				if( ii0<0) continue;
				if( ii0>=62) continue;
				int ii1 = i1+k1 * 1;
				if( ii1<0) continue;
				if( ii1>=27) continue;
				if( curmax < x[b][c][ii0][ii1]) {
				curmax = MAX( curmax, x[b][c][ii0][ii1]);
				}
			} /* k */
			} /* k */
			y[b][m][o0][o1]= curmax;
		} /* o */
		} /* o */
	} /* m */
	} /* b */
}

/*
 * Operand:           Conv
 * Name in ONNX file: /8/Conv
 */
static inline void node__8_Conv( const float x[1][5][31][13], const float w[5][5][5][5], const float bias[5], float y[1][5][29][11] )
{
	/* Conv
	 *
	 * auto_pad: NOTSET
	 * dilations: 1 1 
	 * group: 1
	 * kernel_shape: 5 5 
	 * pads: 1 1 1 1 
	 * strides: 1 1 
	 */
	for( uint32_t b=0; b<1; b++ ) {
	for( uint32_t m=0; m<5; m++) {
		for( int32_t o0=0, i0=-1; o0<29; o0++, i0+=1) {
		for( int32_t o1=0, i1=-1; o1<11; o1++, i1+=1) {
			y[b][m][o0][o1] = bias[m];
			for( int32_t c=0; c<5; c++ ) {
			for( uint32_t k0=0; k0<5; k0++ ) {
			for( uint32_t k1=0; k1<5; k1++ ) {
				int ii0 = i0+k0 * 1;
				if( ii0<0) continue;
				if( ii0>=31) continue;
				int ii1 = i1+k1 * 1;
				if( ii1<0) continue;
				if( ii1>=13) continue;
				y[b][m][o0][o1] += x[b][c][ii0][ii1] *w[m][c][k0][k1];
			} /* k */
			} /* k */
			} /* c */
		} /* o */
		} /* o */
	} /* m */
	} /* b */
}

/*
 * Operand:           Relu
 * Name in ONNX file: /9/Relu
 */
static inline void node__9_Relu( const float X[1][5][29][11], float Y[1][5][29][11] )
{
	/*Relu*/
	float *X_ptr = (float*)X;
	float *Y_ptr = (float*)Y;
	for( uint32_t i=0; i<1595; i++ )
		Y_ptr[i] = X_ptr[i] > 0 ? X_ptr[i] : 0;

}

/*
 * Operand:           MaxPool
 * Name in ONNX file: /10/MaxPool
 */
static inline void node__10_MaxPool( const float x[1][5][29][11], float y[1][5][14][5] )
{
	/* MaxPool
	 *
	 * auto_pad: NOTSET
	 * dilations: 1 1 
	 * group: 1
	 * kernel_shape: 2 2 
	 * pads: 0 0 0 0 
	 * strides: 2 2 
	 */
	for( uint32_t b=0; b<1; b++ ) {
	for( uint32_t m=0, c=0; m<5; m++, c=m) {
		for( int32_t o0=0, i0=0; o0<14; o0++, i0+=2) {
		for( int32_t o1=0, i1=0; o1<5; o1++, i1+=2) {
			float curmax = -FLT_MAX;
			for( uint32_t k0=0; k0<2; k0++ ) {
			for( uint32_t k1=0; k1<2; k1++ ) {
				int ii0 = i0+k0 * 1;
				if( ii0<0) continue;
				if( ii0>=29) continue;
				int ii1 = i1+k1 * 1;
				if( ii1<0) continue;
				if( ii1>=11) continue;
				if( curmax < x[b][c][ii0][ii1]) {
				curmax = MAX( curmax, x[b][c][ii0][ii1]);
				}
			} /* k */
			} /* k */
			y[b][m][o0][o1]= curmax;
		} /* o */
		} /* o */
	} /* m */
	} /* b */
}

/*
 * Operand:           Flatten
 * Name in ONNX file: /12/Flatten
 */
static inline void node__12_Flatten( const float input[1][5][14][5], float output[1][350] )
{
	/* Flatten*/
	float *input_ = (float*)input;
	float *output_ = (float*)output;
	for( uint32_t i=0; i<350; i++ )
		output_[i] = input_[i];

}

/*
 * Operand:           Gemm
 * Name in ONNX file: /13/Gemm
 */
static inline void node__13_Gemm( const float A[1][350], const float B[3][350], const float C[3], float Y[1][3] )
{
	/* Gemm */
	/* alpha   = 1.0000000000000000000
	   beta    = 1.0000000000000000000
	   transA  = 0
	   transB  = 1
	 */
	const int M = 1;
	const int K = 350;
	const int N = 3;
	float alpha = 1.0000000000000000000;
	float beta = 1.0000000000000000000;
	float (*C_)[3]  = (float(*)[3])C;
	for( uint32_t r=0; r<M; r++ )
		for( uint32_t c=0; c<N; c++ ) {
			float ABrc = 0;
			for( uint32_t i=0; i<K; i++ ) {
				float B_el = B[c][i];
				ABrc += A[r][i] * B_el;
			}
			float tmp = ABrc * alpha;
			tmp += C_[0][c] * beta;
			Y[r][c] = tmp;
	}
}


void entry(const float tensor_input_1[1][1][130][60], float tensor_19[1][3]){
	node__0_Conv( tensor_input_1, tensor_0_weight, tensor_0_bias, tu0.tensor__0_Conv_output_0);
	node__1_Relu( tu0.tensor__0_Conv_output_0, tu1.tensor__1_Relu_output_0);
	node__2_MaxPool( tu1.tensor__1_Relu_output_0, tu0.tensor__2_MaxPool_output_0);
	node__4_Conv( tu0.tensor__2_MaxPool_output_0, tensor_4_weight, tensor_4_bias, tu1.tensor__4_Conv_output_0);
	node__5_Relu( tu1.tensor__4_Conv_output_0, tu0.tensor__5_Relu_output_0);
	node__6_MaxPool( tu0.tensor__5_Relu_output_0, tu1.tensor__6_MaxPool_output_0);
	node__8_Conv( tu1.tensor__6_MaxPool_output_0, tensor_8_weight, tensor_8_bias, tu0.tensor__8_Conv_output_0);
	node__9_Relu( tu0.tensor__8_Conv_output_0, tu1.tensor__9_Relu_output_0);
	node__10_MaxPool( tu1.tensor__9_Relu_output_0, tu0.tensor__10_MaxPool_output_0);
	node__12_Flatten( tu0.tensor__10_MaxPool_output_0, tu1.tensor__12_Flatten_output_0);
	node__13_Gemm( tu1.tensor__12_Flatten_output_0, tensor_13_weight, tensor_13_bias, tensor_19);
}