/*
 * Copyright (C) 2015
 *
 * This file is part of Paparazzi.
 *
 * Paparazzi is free software; you can redistribute it and/or modify
 * it under the terms of the GNU General Public License as published by
 * the Free Software Foundation; either version 2, or (at your option)
 * any later version.
 *
 * Paparazzi is distributed in the hope that it will be useful,
 * but WITHOUT ANY WARRANTY; without even the implied warranty of
 * MERCHANTABILITY or FITNESS FOR A PARTICULAR PURPOSE.  See the
 * GNU General Public License for more details.
 *
 * You should have received a copy of the GNU General Public License
 * along with Paparazzi; see the file COPYING.  If not, write to
 * the Free Software Foundation, 59 Temple Place - Suite 330,
 * Boston, MA 02111-1307, USA.
 */

/**
 * @file modules/computer_vision/cnn.c
 */

// Own header
#include "modules/computer_vision/cnn.h"
#include <stdio.h>

// Include the image library -> used to alter the incoming image
#include "modules/computer_vision/lib/vision/image.h"

// Include the ABI library -> used to send messages to the ground station
#include "modules/core/abi.h"

#include "mcu_periph/sys_time.h"

#ifndef CNN_FPS
#define CNN_FPS 0 ///< Default FPS (zero means run at camera fps)
#endif

uint8_t white[4] = {127, 255, 127, 255};

// Function
static struct image_t *cnn_func(struct image_t *img, uint8_t camera_id __attribute__((unused)))
{
  // TODO: freeing of images ?
  // convert to grayscale, but also keep original for live feed
  struct image_t gray;
  image_create(&gray, img->w, img->h, IMAGE_GRAYSCALE);
  image_to_grayscale(img, &gray);

  // Convert image to tensor
  // IMPORTANT: order is now [right, forward, left]
  float tensor_output[1][3];
  float tensor_input[1][1][TENSOR_HEIGHT][TENSOR_WIDTH];
  convert_image_to_tensor(&gray, tensor_input);

  // Perform inference
  entry(tensor_input, tensor_output);

  // Softmax on the output
  // TODO: include in the model instead?
  float sum_exp = exp(tensor_output[0][0]) + exp(tensor_output[0][1]) + exp(tensor_output[0][2]);
  tensor_output[0][0] = exp(tensor_output[0][0]) / sum_exp;
  tensor_output[0][1] = exp(tensor_output[0][1]) / sum_exp;
  tensor_output[0][2] = exp(tensor_output[0][2]) / sum_exp;
  
  // draw rectangles on the original image corresponding to the outputs
  // TODO: improve code
  int x_min_left = 10;
  int x_max_left = 10 + (int)(tensor_output[0][0] * 40);
  int y_min_left = 10;
  int y_max_left = 30;
  image_draw_rectangle(img, x_min_left, x_max_left, y_min_left, y_max_left, white);

  int x_min_forward = 10;
  int x_max_forward = 10 + (int)(tensor_output[0][1] * 40);
  int y_min_forward = 35;
  int y_max_forward = 55;
  image_draw_rectangle(img, x_min_forward, x_max_forward, y_min_forward, y_max_forward, white);

  int x_min_right = 10;
  int x_max_right = 10 + (int)(tensor_output[0][2] * 40);
  int y_min_rigth = 60;
  int y_max_right = 80;
  image_draw_rectangle(img, x_min_right, x_max_right, y_min_rigth, y_max_right, white);

  // // Print outputs
  // printf("Right: %f, Forward: %f, Left: %f\n", tensor_output[0][0], tensor_output[0][1], tensor_output[0][2]);

  // Print
  float time = get_sys_time_float();
  fprintf(stderr, "Processed image at time %f\n", time);

  // Send outputs
  AbiSendMsgCNN_CONTROL_INPUTS(CNN_CONTROL_INPUTS_ID, tensor_output[0][0], tensor_output[0][1], tensor_output[0][2]);

  return img;
}

void cnn_init(void)
{
  cv_add_to_device(&CNN_CAMERA, cnn_func, CNN_FPS, 0);
}

void convert_image_to_tensor(struct image_t *image, float tensor_input_1[1][1][TENSOR_HEIGHT][TENSOR_WIDTH]) {
    // Extract pixel values from the image buffer
    uint8_t *pixel_values = (uint8_t *)(image->buf);

    // TODO: IMPROVE BELOW -> THIS IS TERRIBLE, BUT IT WORKS FOR NOW
    // first store the image in a tensor
    float intermediate[1][1][520][240];
    for (int i = 0; i < 520; i++) {
        for (int j = 0; j < 240; j++) {
            intermediate[0][0][i][j] = (float)pixel_values[(i * image->w) + j] / 255.0f;
          }
        }

    // then extract the region of interest
    for (int i = 0; i < TENSOR_HEIGHT; i++) {
        for (int j = 0; j < TENSOR_WIDTH; j++) {
            int row_idx = i * (520 / TENSOR_HEIGHT);
            int col_idx = j * (120 / TENSOR_WIDTH) + 60;
            tensor_input_1[0][0][i][j] = intermediate[0][0][row_idx][col_idx];
        }
    }

    // // for debugging: save tensor_input_1 to a file
    // FILE *f = fopen("tensor_input_1.txt", "w");
    // if (f == NULL)
    // {
    //     printf("Error opening file!\n");
    //     exit(1);
    // }
    // for (int i = 0; i < TENSOR_HEIGHT; i++)
    // {
    //     for (int j = 0; j < TENSOR_WIDTH; j++)
    //     {
    //         printf("i: %d, j: %d, value: %f\n", i, j, tensor_input_1[0][0][i][j]);
    //         fprintf(f, "%f ", tensor_input_1[0][0][i][j]);
    //     }
    //     fprintf(f, "\n");
    // }
}

// // Auto generated code

// void entry(const float tensor_input_1[1][1][65][15], float tensor_37[1][3]){}

// This file is computer-generated by onnx2c 
// (TODO: add creating command line here)
// (TODO: print creation date here )

// ONNX model:
// produced by pytorch, version 2.2.1
// ONNX IR version: 17
// Model documentation: 
/*

*/

#include <float.h>
#include <math.h>
#include <stdbool.h>
#include <stdint.h>
#include <string.h>
#define MAX(X,Y) ( X > Y ? X : Y)
#define MIN(X,Y) ( X < Y ? X : Y)
#define CLIP(X,L) ( MAX(MIN(X,L), -L) )

static const float tensor_model_16_weight[3][1536] = 
{
  {0.023808864876627922058f, 0.010929957032203674316f, 0.013012372888624668121f, 0.036511704325675964355f, 0.017808979377150535583f, -0.11352096498012542725f, 0.070247739553451538086f, -0.0076443455182015895844f, 0.048488602042198181152f, 0.0052022952586412429810f, 0.0061241174116730690002f, -0.047707546502351760864f, 0.056905526667833328247f, 0.014107732102274894714f, 0.022772444412112236023f, -0.068760633468627929688f, 0.0036102882586419582367f, -0.053052637726068496704f, -0.072839841246604919434f, -0.021350724622607231140f, -0.10148820281028747559f, -0.041634019464254379272f, 0.017154118046164512634f, -0.26546767354011535645f, -0.028580041602253913879f, 0.035855062305927276611f, -0.053976390510797500610f, -0.026883775368332862854f, -0.084209322929382324219f, -0.015779687091708183289f, -0.028167052194476127625f, -0.060690626502037048340f, 0.016834490001201629639f, -0.015696182847023010254f, -0.15447840094566345215f, 0.0083073321729898452759f, 0.042935263365507125854f, 0.060273349285125732422f, 0.058799408376216888428f, -0.024318898096680641174f, 0.13575933873653411865f, 0.079990617930889129639f, -0.090069696307182312012f, 0.027357704937458038330f, 0.037014756351709365845f, 0.081005528569221496582f, -0.042617153376340866089f, -0.020629685372114181519f, -0.23724828660488128662f, -0.031482186168432235718f, -0.099711835384368896484f, -0.092802606523036956787f, -0.18482510745525360107f, 0.10043776035308837891f, -0.053025256842374801636f, -0.074486821889877319336f, -0.011045224033296108246f, 0.031509749591350555420f, 0.011543382890522480011f, -0.069387860596179962158f, 0.056219980120658874512f, 0.076532602310180664062f, 0.088195078074932098389f, 0.096598230302333831787f, 0.060011547058820724487f, 0.032209243625402450562f, 0.079252727329730987549f, 0.092087574303150177002f, -0.037703517824411392212f, 0.071714907884597778320f, 0.055160045623779296875f, 0.0069734943099319934845f, 0.030900642275810241699f, -0.016909729689359664917f, -0.019623963162302970886f, 0.056339297443628311157f, 0.020295592024922370911f, 0.071060188114643096924f, -0.021681651473045349121f, 0.032911445945501327515f, -0.093669369816780090332f, -0.067417718470096588135f, 0.028153771534562110901f, 0.017859468236565589905f, -0.034571886062622070312f, -0.043934144079685211182f, 0.028878139331936836243f, -0.14860974252223968506f, -0.13781991600990295410f, 0.076533176004886627197f, -0.010454499162733554840f, 0.13476753234863281250f, 0.12985476851463317871f, 0.088932707905769348145f, 0.073809064924716949463f, -0.0026602318976074457169f, -0.082113824784755706787f, -0.060881298035383224487f, -0.010823619551956653595f, 0.044786423444747924805f, -0.10651587694883346558f, 0.034024205058813095093f, -0.010227493941783905029f, -0.036563191562891006470f, 0.085757531225681304932f, -0.012073258869349956512f, 0.0049424804747104644775f, 0.10685011744499206543f, -0.038816615939140319824f, 0.072043739259243011475f, 0.034079916775226593018f, 0.031864084303379058838f, 0.075239248573780059814f, 0.042806010693311691284f, 0.047977779060602188110f, 0.073340222239494323730f, -0.093309700489044189453f, 0.023340623825788497925f, 0.054074440151453018188f, -0.013069020584225654602f, -0.096077203750610351562f, -0.040476504713296890259f, -0.016748284921050071716f, -0.070506758987903594971f, -0.074709363281726837158f, -0.049430433660745620728f, -0.057368587702512741089f, -0.018381381407380104065f, -0.055909123271703720093f, 0.011291143484413623810f, 0.016823533922433853149f, 0.057206567376852035522f, 0.019415464252233505249f, 0.092170022428035736084f, 0.067115850746631622314f, -0.041370090097188949585f, 0.032455559819936752319f, -0.10269049555063247681f, 0.096593067049980163574f, 0.065331071615219116211f, -0.0056269015185534954071f, 0.13797610998153686523f, 0.022430291399359703064f, 0.043766848742961883545f, -0.12784896790981292725f, 0.00041569775203242897987f, 0.21540857851505279541f, 0.014342769049108028412f, -0.042000144720077514648f, 0.027518020942807197571f, 0.0067495778203010559082f, 0.055480200797319412231f, 0.046674132347106933594f, 0.033664267510175704956f, -0.084594704210758209229f, -0.10868465900421142578f, -0.021538907662034034729f, 0.011365867219865322113f, 0.075451157987117767334f, 0.034659318625926971436f, -0.0082437638193368911743f, -0.14520220458507537842f, 0.046579331159591674805f, -0.027342282235622406006f, -0.096258305013179779053f, -0.0037712559569627046585f, -0.055662140250205993652f, -0.058899823576211929321f, -0.012559005990624427795f, 0.030012361705303192139f, -0.0049194633029401302338f, -0.096326291561126708984f, -0.024394176900386810303f, -0.11386618018150329590f, -0.060795716941356658936f, -0.050923142582178115845f, 0.051233090460300445557f, 0.020303942263126373291f, 0.14232352375984191895f, 0.058892697095870971680f, -0.045359309762716293335f, 0.015631644055247306824f, 0.0060286885127425193787f, -0.0015805438160896301270f, 0.035928957164287567139f, -0.10740312188863754272f, 0.11597388982772827148f, -0.015042723156511783600f, -0.020111808553338050842f, 0.10429080575704574585f, -0.038828320801258087158f, -0.099592827260494232178f, 0.053752627223730087280f, 0.040598969906568527222f, 0.0067167016677558422089f, -0.10675741732120513916f, 0.023875970393419265747f, 0.015311095863580703735f, -0.051043231040239334106f, -0.015880102291703224182f, 0.0066793430596590042114f, -0.042631175369024276733f, -0.13208207488059997559f, -0.015656288713216781616f, 0.051309213042259216309f, 0.038191389292478561401f, -0.0095653738826513290405f, -0.036710403859615325928f, 0.096238084137439727783f, -0.044241677969694137573f, 0.042361438274383544922f, 0.0044606490992009639740f, -0.010776073671877384186f, 0.085864886641502380371f, -0.050781965255737304688f, -0.043341815471649169922f, 0.069306753575801849365f, -0.016233230009675025940f, 0.080187983810901641846f, 0.018467469140887260437f, 0.054727405309677124023f, 0.10036840289831161499f, 0.014087751507759094238f, -0.028483247384428977966f, 0.00025770560023374855518f, 0.0015085935592651367188f, -0.0039041098207235336304f, 0.071981184184551239014f, -0.065579757094383239746f, -0.064969144761562347412f, -0.12276630848646163940f, -0.027372129261493682861f, -0.11024416238069534302f, 0.031619269400835037231f, -0.054132435470819473267f, 0.059326447546482086182f, 0.0044908528216183185577f, -0.12992912530899047852f, 0.054703816771507263184f, 0.00023084768326953053474f, 0.045165143907070159912f, -0.0014331097481772303581f, 0.020300626754760742188f, 0.018376428633928298950f, -0.035714611411094665527f, -0.17796958982944488525f, -0.052030883729457855225f, -0.047814384102821350098f, -0.18601149320602416992f, 0.036634825170040130615f, 0.064535692334175109863f, 0.064578302204608917236f, -0.056107774376869201660f, 0.086240381002426147461f, 0.11727643758058547974f, -0.075768828392028808594f, 0.059553481638431549072f, 0.070279136300086975098f, -0.013961391523480415344f, 0.13328117132186889648f, 0.11068890243768692017f, -0.051001321524381637573f, -0.061462506651878356934f, 0.030824400484561920166f, -0.053593471646308898926f, 0.00016609206795692443848f, -0.027724741026759147644f, -0.15200766921043395996f, -0.024129360914230346680f, -0.075076311826705932617f, -0.073158033192157745361f, -0.0060448511503636837006f, -0.12639996409416198730f, -0.0058497083373367786407f, 0.035052232444286346436f, -0.051601834595203399658f, 0.13477958738803863525f, -0.058932173997163772583f, 0.025853229686617851257f, 0.082111038267612457275f, -0.060690246522426605225f, 0.015330006368458271027f, -0.050065506249666213989f, 0.056393947452306747437f, 0.063654512166976928711f, 0.0083662662655115127563f, 0.021338922902941703796f, 0.012943414039909839630f, 0.075923085212707519531f, 0.0018138437299057841301f, 0.052447970956563949585f, 0.048590742051601409912f, 0.091615550220012664795f, 0.040522187948226928711f, 0.036208029836416244507f, 0.035006634891033172607f, 0.064283758401870727539f, -0.087971843779087066650f, 0.0026807382237166166306f, 0.021620105952024459839f, 0.094055265188217163086f, -0.075161188840866088867f, -0.022247722372412681580f, 0.024901693686842918396f, -0.14101319015026092529f, 0.042672861367464065552f, -0.078138038516044616699f, -0.069622084498405456543f, -0.012853760272264480591f, -0.037954512983560562134f, 0.038465589284896850586f, -0.0068834610283374786377f, -0.070967108011245727539f, -0.015893280506134033203f, 0.066105149686336517334f, -0.070577032864093780518f, -0.044621925801038742065f, 0.073772802948951721191f, -0.072809182107448577881f, 0.067535161972045898438f, 0.060064069926738739014f, -0.059166748076677322388f, -0.00096990942256525158882f, -0.13724175095558166504f, -0.015368504449725151062f, -0.022411951795220375061f, 0.062256287783384323120f, 0.062620431184768676758f, -0.040620293468236923218f, 0.023782465606927871704f, 0.040434781461954116821f, 0.017614513635635375977f, -0.040408752858638763428f, 0.078479640185832977295f, -0.0086437286809086799622f, -0.092424973845481872559f, 0.14374391734600067139f, 0.029954297468066215515f, 0.051669392734766006470f, -0.044914346188306808472f, 0.077412404119968414307f, 0.12129591405391693115f, 0.071257568895816802979f, 0.00068680755794048309326f, -0.0029639787971973419189f, -0.00086333334911614656448f, 0.044293258339166641235f, 0.0025670344475656747818f, 0.052112583070993423462f, -0.024995317682623863220f, 0.031558696180582046509f, 0.022907994687557220459f, -0.041800793260335922241f, 0.0012269769795238971710f, -0.096362717449665069580f, -0.16808676719665527344f, -0.028386985883116722107f, -0.044550009071826934814f, -0.078138299286365509033f, -0.15228353440761566162f, -0.091473534703254699707f, 0.061760574579238891602f, 0.038973625749349594116f, -0.0010601729154586791992f, 0.042901854962110519409f, 0.079759947955608367920f, 0.016486724838614463806f, 0.10816781222820281982f, -0.0054082432761788368225f, -0.0097792241722345352173f, -0.041145902127027511597f, 0.038357537239789962769f, 0.12933035194873809814f, -0.12819020450115203857f, 0.030196394771337509155f, 0.044255979359149932861f, -0.058628764003515243530f, -0.020300958305597305298f, -0.032924074679613113403f, -0.10650500655174255371f, -0.059238068759441375732f, 0.028662856668233871460f, 0.10267899930477142334f, 0.030463397502899169922f, 0.031635090708732604980f, -0.041722651571035385132f, -0.047330457717180252075f, -0.032487105578184127808f, 0.034899275749921798706f, -0.12919451296329498291f, 0.026521088555455207825f, -0.043395023792982101440f, -0.091412819921970367432f, 0.047912754118442535400f, 0.11877589672803878784f, -0.011048960499465465546f, -0.047933015972375869751f, 0.050705000758171081543f, 0.12213731557130813599f, -0.069126822054386138916f, -0.022916493937373161316f, 0.0048967027105391025543f, 0.032127089798450469971f, -0.019342418760061264038f, 0.031202301383018493652f, 0.016730133444070816040f, 0.056743390858173370361f, 0.068707890808582305908f, -0.045861743390560150146f, -0.064474560320377349854f, -0.034501213580369949341f, -0.018709711730480194092f, 0.017048599198460578918f, 0.034537103027105331421f, 0.16108697652816772461f, 0.097634151577949523926f, -0.015456045977771282196f, 0.10381164401769638062f, -0.072079144418239593506f, 0.093567885458469390869f, -0.13247603178024291992f, -0.061836902052164077759f, -0.084668219089508056641f, 0.040783837437629699707f, -0.037471808493137359619f, 0.0048781335353851318359f, 0.027758626267313957214f, 0.020867478102445602417f, -0.078511431813240051270f, 0.024917308241128921509f, -0.059059727936983108521f, -0.082746490836143493652f, -0.019322060048580169678f, -0.094957552850246429443f, 0.025733163580298423767f, -0.071772798895835876465f, -0.034019030630588531494f, -0.050701107829809188843f, -0.072468616068363189697f, -0.030441014096140861511f, 0.072365440428256988525f, -0.062594935297966003418f, 0.033364225178956985474f, -0.043762091547250747681f, 0.014437819831073284149f, 0.013673287816345691681f, 0.054964259266853332520f, -0.019175695255398750305f, 0.055222403258085250854f, 0.041006520390510559082f, -0.0059186117723584175110f, 0.046879637986421585083f, 0.0017841438530012965202f, 0.067670613527297973633f, -0.058214824646711349487f, -0.11747232079505920410f, 0.057584807276725769043f, 0.14862890541553497314f, 0.15600188076496124268f, 0.063772276043891906738f, -0.069828018546104431152f, -0.032366372644901275635f, -0.031586911529302597046f, -0.041780710220336914062f, 0.095429711043834686279f, -0.0019953539595007896423f, -0.095203377306461334229f, 0.032970353960990905762f, -0.10027398914098739624f, 0.034853901714086532593f, 0.036935269832611083984f, 0.025342879816889762878f, -0.061700098216533660889f, 0.11945545673370361328f, -0.048018883913755416870f, -0.00050871062558144330978f, -0.051798906177282333374f, -0.013911536894738674164f, -0.010567456483840942383f, -0.15800738334655761719f, -0.043681032955646514893f, 0.17554064095020294189f, 0.18063096702098846436f, -0.064998641610145568848f, 0.085412070155143737793f, 0.19640819728374481201f, -0.036975596100091934204f, 0.15200616419315338135f, 0.11456598341464996338f, -0.010407128371298313141f, 0.052858009934425354004f, 0.10354764014482498169f, 0.065207079052925109863f, 0.012317697517573833466f, 0.10151218622922897339f, 0.045517209917306900024f, -0.22727130353450775146f, -0.13827152550220489502f, -0.0034422450698912143707f, -0.052666354924440383911f, -0.055736508220434188843f, -0.0084509188309311866760f, -0.010684452950954437256f, 0.0068341125734150409698f, -0.083849303424358367920f, -0.055242009460926055908f, 0.13919992744922637939f, 0.16944226622581481934f, -0.0057795052416622638702f, -0.015288309194147586823f, -0.025331903249025344849f, -0.034663178026676177979f, 0.014687390998005867004f, -0.10374978184700012207f, 0.037853810936212539673f, -0.039454352110624313354f, -0.038890633732080459595f, 0.0074273124337196350098f, 0.058839485049247741699f, 0.039891734719276428223f, 0.027749242261052131653f, -0.016605231910943984985f, -0.11808625608682632446f, 0.10037584602832794189f, 0.065346702933311462402f, -0.076577961444854736328f, 0.11740623414516448975f, -0.13080279529094696045f, -0.058131758123636245728f, 0.098253093659877777100f, 0.0014394397148862481117f, -0.038905046880245208740f, -0.12603326141834259033f, 0.049933750182390213013f, -0.066674724221229553223f, -0.029640236869454383850f, 0.036650057882070541382f, -0.059705439954996109009f, -0.035646636039018630981f, 0.084610477089881896973f, -0.044009584933519363403f, 0.0070441062562167644501f, -0.13406832516193389893f, 0.024214334785938262939f, 0.017216820269823074341f, -0.19361020624637603760f, 0.0087397750467061996460f, -0.046276565641164779663f, 0.010026716627180576324f, 0.071640200912952423096f, 0.074558131396770477295f, -0.0034422185271978378296f, -0.0031066788360476493835f, 0.032997559756040573120f, 0.11650969833135604858f, 0.027178710326552391052f, -0.069409802556037902832f, 0.094570510089397430420f, 0.0041371444240212440491f, 0.10054694116115570068f, 0.11553461849689483643f, 0.0030740108340978622437f, 0.051243606954813003540f, -0.049974892288446426392f, -0.090419858694076538086f, -0.074630096554756164551f, -0.048400714993476867676f, 0.12388806790113449097f, -0.030184099450707435608f, -0.079372085630893707275f, -0.0058654034510254859924f, -0.040364973247051239014f, -0.089127995073795318604f, 0.054683353751897811890f, -0.018589949235320091248f, -0.10979821532964706421f, -0.082015968859195709229f, -0.095469191670417785645f, -0.00048182409955188632011f, 0.012318206951022148132f, -0.0020176456309854984283f, -0.013890860602259635925f, 0.14563392102718353271f, 0.046089716255664825439f, 0.078457273542881011963f, -0.027175504714250564575f, 0.0050389682874083518982f, 0.014239042066037654877f, 0.028978442773222923279f, 0.049941029399633407593f, 0.011534069664776325226f, -0.018197590485215187073f, 0.052714008837938308716f, -0.051078151911497116089f, 0.0082389796152710914612f, 0.0064086420461535453796f, 0.026330100372433662415f, -0.091233968734741210938f, 0.093784153461456298828f, -0.015823043882846832275f, -0.038264669477939605713f, 0.034171115607023239136f, 0.0027066550683230161667f, -0.024352975189685821533f, 0.11529299616813659668f, -0.00092636287445202469826f, 0.16199807822704315186f, 0.068029955029487609863f, 0.099773824214935302734f, -0.00069762329803779721260f, 0.0015527168288826942444f, -0.076235122978687286377f, -0.075143918395042419434f, 0.030646415427327156067f, 0.0010084093082696199417f, -0.13973008096218109131f, -0.027585921809077262878f, -0.029181150719523429871f, -0.12361790239810943604f, -0.079094111919403076172f, 0.14684671163558959961f, -0.013331325724720954895f, 0.0093075111508369445801f, -0.00081096729263663291931f, -0.14654710888862609863f, -0.10779841989278793335f, -0.042283922433853149414f, 0.026804460212588310242f, -0.092066347599029541016f, -0.038256254047155380249f, -0.043137151747941970825f, -0.044666942209005355835f, -0.015195217914879322052f, -0.079639732837677001953f, -0.11525506526231765747f, -0.074488960206508636475f, -0.023173805326223373413f, 0.15195688605308532715f, 0.041328147053718566895f, -0.015904167667031288147f, 0.049430206418037414551f, 0.0055632391013205051422f, 0.030143804848194122314f, 0.15408654510974884033f, 0.10632616281509399414f, 0.19654287397861480713f, 0.15514549612998962402f, -0.013079819269478321075f, -0.057327877730131149292f, 0.052608184516429901123f, 0.060454156249761581421f, -0.012945454567670822144f, 0.040512483566999435425f, -0.091018825769424438477f, -0.074820563197135925293f, 0.10940086841583251953f, 0.0064314035698771476746f, -0.065403692424297332764f, 0.12865433096885681152f, -0.074028506875038146973f, -0.011065298691391944885f, -0.030893636867403984070f, -0.075033411383628845215f, -0.0075799943879246711731f, 0.025478795170783996582f, -0.041412550956010818481f, 0.081020370125770568848f, 0.056405339390039443970f, -0.055337917059659957886f, -0.046227212995290756226f, -0.13045051693916320801f, -0.060669168829917907715f, -0.15650618076324462891f, -0.23798005282878875732f, -0.097965873777866363525f, -0.054839812219142913818f, 0.0024503325112164020538f, 0.018191408365964889526f, -0.025093171745538711548f, 0.080104365944862365723f, -0.0019457889720797538757f, -0.024393366649746894836f, -0.071089036762714385986f, -0.030146544799208641052f, -0.086124382913112640381f, -0.045414783060550689697f, 0.013011298142373561859f, 0.076500177383422851562f, 0.015987291932106018066f, -0.040241345763206481934f, 0.024792799726128578186f, 0.068521156907081604004f, 0.018497616052627563477f, 0.051840227097272872925f, 0.12817898392677307129f, 0.070076361298561096191f, -0.030328979715704917908f, -0.028375759720802307129f, 0.16091009974479675293f, 0.058309443295001983643f, 0.0061744921840727329254f, 0.10869532823562622070f, -0.0095925945788621902466f, 0.14583376049995422363f, -0.035709958523511886597f, -0.087234050035476684570f, -0.030458943918347358704f, -0.076230399310588836670f, 0.0035705431364476680756f, -0.0092499414458870887756f, 0.0015106564387679100037f, 0.019179126247763633728f, 0.0094666387885808944702f, -0.015677390620112419128f, 0.063430912792682647705f, -0.046395912766456604004f, -0.041941583156585693359f, -0.0030243592336773872375f, -0.024412248283624649048f, -0.16700886189937591553f, 0.11287432163953781128f, 0.14852553606033325195f, 0.085790596902370452881f, -0.034702338278293609619f, 0.085856176912784576416f, 0.019267613068222999573f, 0.047655347734689712524f, -0.016440596431493759155f, 0.035515740513801574707f, -0.032878607511520385742f, 0.12449676543474197388f, 0.043092992156744003296f, -0.014951230026781558990f, -0.088549874722957611084f, -0.066353797912597656250f, -0.054796058684587478638f, -0.092543251812458038330f, -0.021106677129864692688f, 0.051432974636554718018f, -0.089437142014503479004f, -0.15439625084400177002f, -0.035399083048105239868f, -0.021411471068859100342f, -0.074711434543132781982f, -0.045241553336381912231f, -0.078134030103683471680f, -0.062860049307346343994f, -0.048217508941888809204f, -0.13467903435230255127f, -0.13475759327411651611f, 0.011323908343911170959f, -0.11530850827693939209f, -0.15247812867164611816f, 0.056357499212026596069f, 0.069105289876461029053f, 0.027844659984111785889f, -0.017564725130796432495f, 0.023762559518218040466f, 0.13122743368148803711f, -0.027402101084589958191f, -0.034445963799953460693f, 0.12019805610179901123f, 0.020152103155851364136f, 0.062626644968986511230f, -0.047348614782094955444f, -0.023346884176135063171f, -0.068820513784885406494f, -0.0081703132018446922302f, -0.062555775046348571777f, 0.017414860427379608154f, 0.067042671144008636475f, 0.013549073599278926849f, 0.065271638333797454834f, 0.14310076832771301270f, 0.014527483843266963959f, 0.070511102676391601562f, 0.11374638229608535767f, -0.044541198760271072388f, 0.051281474530696868896f, 0.047894127666950225830f, -0.0041047618724405765533f, -0.14481300115585327148f, 0.013557948172092437744f, -0.12436609715223312378f, 0.018629377707839012146f, 0.043887414038181304932f, 0.072326250374317169189f, -0.10294090211391448975f, -0.057574190199375152588f, 0.056892454624176025391f, -0.015812940895557403564f, -0.096258774399757385254f, 0.083483286201953887939f, 0.022754469886422157288f, -0.023557748645544052124f, 0.042782876640558242798f, 0.0078253857791423797607f, 0.075729995965957641602f, 0.13549283146858215332f, 0.080055266618728637695f, -0.032571975141763687134f, -0.012860807590186595917f, 0.010753084905445575714f, -0.046950623393058776855f, 0.081186473369598388672f, 0.0046199653297662734985f, -0.099247448146343231201f, 0.073145538568496704102f, 0.033670004457235336304f, -0.20264865458011627197f, -0.010478409938514232635f, -0.028489073738455772400f, -0.040893614292144775391f, -0.034013710916042327881f, -0.016764879226684570312f, 0.062406625598669052124f, 0.097306959331035614014f, 0.040235668420791625977f, -0.0094087971374392509460f, -0.094097793102264404297f, 0.013483184389770030975f, 0.10504724085330963135f, -0.071718797087669372559f, -0.044864900410175323486f, 0.088466078042984008789f, -0.027481593191623687744f, -0.036635212600231170654f, -0.040147438645362854004f, 0.042493827641010284424f, -0.042845997959375381470f, 0.051202517002820968628f, -0.030923364683985710144f, 0.00064890133216977119446f, -0.18521425127983093262f, -0.0071742325089871883392f, -0.065665036439895629883f, -0.096063308417797088623f, -0.019895497709512710571f, -0.076944388449192047119f, -0.11453941464424133301f, -0.032644189894199371338f, -0.074492014944553375244f, 0.044839315116405487061f, 0.014879424124956130981f, -0.099649883806705474854f, -0.026716805994510650635f, -0.024328060448169708252f, -0.0014338367618620395660f, -0.092103317379951477051f, 0.095450572669506072998f, 0.043778076767921447754f, -0.055556893348693847656f, 0.051116466522216796875f, 0.064392842352390289307f, -0.012466086074709892273f, 0.086040057241916656494f, 0.081354796886444091797f, -0.026141250506043434143f, 0.040393840521574020386f, 0.055732052773237228394f, -0.042528040707111358643f, 0.092513732612133026123f, 0.047442242503166198730f, 0.064495347440242767334f, -0.015565285459160804749f, 0.051043562591075897217f, 0.030577491968870162964f, 0.019530879333615303040f, -0.013348840177059173584f, 0.073398239910602569580f, 0.030600240454077720642f, -0.075869366526603698730f, -0.055014435201883316040f, 0.0086571360006928443909f, -0.13912594318389892578f, -0.028025245293974876404f, -0.024297546595335006714f, -0.071745805442333221436f, -0.013940979726612567902f, -0.013983327895402908325f, 0.033115837723016738892f, 0.068114846944808959961f, -0.052759394049644470215f, 0.016304530203342437744f, -0.015978088602423667908f, -0.046252436935901641846f, 0.090865768492221832275f, -0.19498611986637115479f, 0.096783049404621124268f, 0.050534285604953765869f, 0.012914836406707763672f, 0.080073229968547821045f, 0.029526578262448310852f, -0.032756183296442031860f, 0.031961787492036819458f, -0.035265330225229263306f, 0.013823074288666248322f, 0.040165863931179046631f, -0.10400148481130599976f, 0.020258376374840736389f, -0.099579580128192901611f, -0.15309436619281768799f, -0.030944006517529487610f, -0.040729220956563949585f, 0.057509031146764755249f, 0.051739845424890518188f, -0.068360321223735809326f, 0.099548920989036560059f, 0.090079903602600097656f, -0.082289561629295349121f, -0.050595756620168685913f, 0.091059334576129913330f, -0.15986907482147216797f, -0.040606573224067687988f, 0.044584538787603378296f, 0.010053900070488452911f, -0.010155073367059230804f, 0.021170137450098991394f, -0.019638182595372200012f, 0.029263803735375404358f, -0.0044617801904678344727f, -0.059584625065326690674f, 0.14724896848201751709f, 0.12092776596546173096f, -0.10974163562059402466f, -0.018249224871397018433f, 0.11480571329593658447f, -0.015071649104356765747f, 0.013245481997728347778f, 0.0045866682194173336029f, 0.027304343879222869873f, 0.057604540139436721802f, -0.035212002694606781006f, 0.061175644397735595703f, 0.034209873527288436890f, -0.066449485719203948975f, 0.11722657084465026855f, -0.086540408432483673096f, 0.087493315339088439941f, 0.013782957568764686584f, -0.029108474031090736389f, -0.082894541323184967041f, -0.10486561059951782227f, 0.038285508751869201660f, -0.025509459897875785828f, 0.048115983605384826660f, 0.0084579847753047943115f, 0.086725853383541107178f, 0.086733214557170867920f, 0.017964446917176246643f, 0.051500484347343444824f, -0.079205065965652465820f, -0.070204861462116241455f, -0.10140282660722732544f, 0.016850594431161880493f, 0.11282214522361755371f, -0.065300568938255310059f, 0.034683112055063247681f, -0.053721014410257339478f, -0.011310698464512825012f, 0.047314044088125228882f, -0.14492133259773254395f, 0.037932455539703369141f, -0.0011619252618402242661f, -0.086103200912475585938f, 0.091999389231204986572f, -0.0065316227264702320099f, 0.12884877622127532959f, 0.11370269209146499634f, -0.042063560336828231812f, 0.063556745648384094238f, 0.14220939576625823975f, -0.045240480452775955200f, 0.0088049592450261116028f, -0.033610004931688308716f, -0.095308132469654083252f, 0.016369797289371490479f, 0.094353988766670227051f, -0.056649148464202880859f, 0.059681586921215057373f, -0.027367057278752326965f, 0.054554618895053863525f, 0.022243926301598548889f, -0.089822202920913696289f, 0.021044803783297538757f, -0.066408559679985046387f, -0.042212884873151779175f, -0.055571172386407852173f, -0.015615181997418403625f, 0.16510507464408874512f, -0.13965880870819091797f, 0.075244575738906860352f, 0.069457635283470153809f, -0.062079615890979766846f, -0.046709306538105010986f, -0.10560751706361770630f, 0.11233455687761306763f, 0.059607319533824920654f, -0.11752944439649581909f, -0.040427431464195251465f, 0.099960781633853912354f, -0.11494357138872146606f, -0.038347646594047546387f, 0.042406607419252395630f, -0.13108678162097930908f, 0.021780136972665786743f, 0.037901472300291061401f, -0.055491562932729721069f, 0.021820833906531333923f, 0.021767400205135345459f, 0.0058910935185849666595f, -0.016329305246472358704f, -0.027770185843110084534f, -0.095863394439220428467f, 0.11482580006122589111f, 0.069926440715789794922f, -0.044020388275384902954f, 0.12603519856929779053f, 0.12822879850864410400f, -0.0080138156190514564514f, 0.12782020866870880127f, -0.010880297981202602386f, 0.0022544276434928178787f, 0.10600010305643081665f, -0.016944406554102897644f, -0.030568279325962066650f, -0.078322604298591613770f, -0.017042415216565132141f, -0.10286724567413330078f, 0.030977912247180938721f, -0.012379656545817852020f, -0.034452632069587707520f, 0.10827212780714035034f, 0.10809815675020217896f, 0.019581999629735946655f, 0.084378905594348907471f, 0.0017550193006172776222f, 0.10135729610919952393f, -0.011643893085420131683f, -0.014044770970940589905f, 0.048901759088039398193f, -0.0069689368829131126404f, -0.070199087262153625488f, 0.039895787835121154785f, -0.076370559632778167725f, 0.029407180845737457275f, 0.027032876387238502502f, -0.089044839143753051758f, -0.056447032839059829712f, -0.15777224302291870117f, -0.036514002829790115356f, -0.030500840395689010620f, -0.016579605638980865479f, 0.0080751180648803710938f, 0.0026643734890967607498f, -0.065431162714958190918f, -0.026468031108379364014f, 0.024121256545186042786f, -0.055644661188125610352f, -0.034869201481342315674f, 0.057239945977926254272f, 0.031271029263734817505f, -0.012692139483988285065f, -0.0039618439041078090668f, 0.031563043594360351562f, 0.037152539938688278198f, -0.15986157953739166260f, -0.10363945364952087402f, 0.044280424714088439941f, 0.030242685228586196899f, 0.041988909244537353516f, 0.043094817548990249634f, -0.047321487218141555786f, -0.16481623053550720215f, 0.012037726119160652161f, 0.038388412445783615112f, -0.10410774499177932739f, -0.028151355683803558350f, 0.045818343758583068848f, 0.071522571146488189697f, 0.038011878728866577148f, -0.12121827900409698486f, -0.086100742220878601074f, -0.051855966448783874512f, -0.021707747131586074829f, -0.027178814634680747986f, 0.062847562134265899658f, -0.054761305451393127441f, -0.0051032546907663345337f, 0.016898013651371002197f, -0.011285881511867046356f, -0.0079900324344635009766f, 0.081110998988151550293f, 0.074442736804485321045f, 0.026561282575130462646f, 0.035670008510351181030f, -0.055584430694580078125f, -0.13930077850818634033f, 0.010876622051000595093f, 0.0033039466943591833115f, -0.091973967850208282471f, 0.067952089011669158936f, -0.044147372245788574219f, 0.049890037626028060913f, 0.081430949270725250244f, -0.00078433420276269316673f, 0.012021852657198905945f, 0.011425306089222431183f, 0.018250301480293273926f, 0.0056643052957952022552f, 0.28401127457618713379f, 0.055321320891380310059f, -0.11954046785831451416f, 0.020664880052208900452f, -0.017991138622164726257f, -0.0088771218433976173401f, -0.031534962356090545654f, -0.10849194973707199097f, 0.052497774362564086914f, -0.051677603274583816528f, -0.023917047306895256042f, 0.033998306840658187866f, -0.060460917651653289795f, 0.0030296819750219583511f, -0.072486102581024169922f, -0.027965096756815910339f, -0.078452758491039276123f, -0.15855886042118072510f, 0.079635672271251678467f, -0.025925554335117340088f, 0.040772043168544769287f, 0.084787756204605102539f, 0.063247032463550567627f, 0.027664408087730407715f, 0.074137456715106964111f, 0.10815881192684173584f, -0.00034501074696891009808f, -0.048651110380887985229f, -0.022673884406685829163f, -0.045652527362108230591f, -0.046177942305803298950f, -0.034739241003990173340f, -0.14148475229740142822f, -0.061651814728975296021f, 0.012668309733271598816f, -0.067511402070522308350f, -0.097621820867061614990f, -0.020119313150644302368f, -0.043069005012512207031f, 0.013473649509251117706f, 0.16965191066265106201f, 0.020394191145896911621f, 0.11599465459585189819f, 0.072151295840740203857f, -0.026578558608889579773f, -0.017832063138484954834f, 0.018091663718223571777f, -0.0067816372029483318329f, 0.030072163790464401245f, 0.014231932349503040314f, 0.055890012532472610474f, -0.086921446025371551514f, -0.042362492531538009644f, 0.039618030190467834473f, -0.020195424556732177734f, -0.021239433437585830688f, -0.036190595477819442749f, -0.0095375198870897293091f, -0.076008707284927368164f, -0.028352016583085060120f, -0.071045808494091033936f, -0.028517980128526687622f, -0.087870806455612182617f, -0.11772639304399490356f, -0.051460940390825271606f, 0.18746730685234069824f, -0.037893235683441162109f, -0.014026761054992675781f, -0.035862177610397338867f, -0.12809354066848754883f, -0.018836135044693946838f, -0.091615661978721618652f, 0.062776461243629455566f, 0.036742862313985824585f, -0.010081395506858825684f, 0.12763741612434387207f, 0.13658951222896575928f, 0.038484059274196624756f, 0.063669115304946899414f, 0.058227423578500747681f, 0.0054753436706960201263f, 0.0019413942936807870865f, -0.068391688168048858643f, -0.038298845291137695312f, -0.0045462455600500106812f, -0.015373193658888339996f, -0.018522385507822036743f, 0.084887407720088958740f, 0.049953192472457885742f, -0.061183262616395950317f, 0.081892944872379302979f, 0.010964901186525821686f, 0.073893904685974121094f, 0.038069833070039749146f, 0.075965926051139831543f, 0.043157096952199935913f, 0.058088287711143493652f, -0.011864583007991313934f, 0.052732218056917190552f, 0.039841603487730026245f, 0.022034443914890289307f, 0.0047857272438704967499f, 0.042509157210588455200f, -0.038142286241054534912f, 0.029503671452403068542f, 0.069031551480293273926f, 0.014192081056535243988f, -0.13150624930858612061f, 0.022722722962498664856f, -0.054437309503555297852f, 0.046933136880397796631f, -0.049032114446163177490f, 0.070250928401947021484f, -0.029033938422799110413f, -0.18330137431621551514f, -0.10256986320018768311f, -0.070679627358913421631f, -0.076816365122795104980f, -0.083474606275558471680f, 0.0066186073236167430878f, -0.021245693787932395935f, -0.0077304081059992313385f, 0.11185891926288604736f, 0.10735719650983810425f, 0.0068724215961992740631f, 0.083233967423439025879f, -0.055840771645307540894f, 0.030005294829607009888f, 0.11754123866558074951f, 0.077472671866416931152f, 0.068016886711120605469f, 0.14814265072345733643f, 0.067528307437896728516f, 0.11548730731010437012f, 0.10732357203960418701f, -0.0026816872414201498032f, -0.028983239084482192993f, 0.067547261714935302734f, 0.00015921753947623074055f, 0.044542677700519561768f, -0.010171921923756599426f, 0.015393374487757682800f, 0.072875589132308959961f, -0.015269092284142971039f, 0.022743612527847290039f, 0.085383199155330657959f, 0.15193362534046173096f, 0.039762221276760101318f, -0.079437755048274993896f, 0.051884099841117858887f, -0.020159715786576271057f, 0.082444220781326293945f, 0.013316510245203971863f, 0.030825965106487274170f, 0.086067736148834228516f, -0.083123728632926940918f, -0.017001586034893989563f, 0.059410016983747482300f, -0.13374206423759460449f, 0.072258502244949340820f, -0.073321461677551269531f, 0.079466097056865692139f, -0.14177232980728149414f, -0.022781528532505035400f, -0.037378232926130294800f, -0.11109397560358047485f, -0.10617369413375854492f, -0.025770222768187522888f, -0.034226957708597183228f, 0.010182400234043598175f, -0.038376018404960632324f, 0.046665493398904800415f, 0.022937458008527755737f, -0.040232952684164047241f, 0.047962401062250137329f, 0.079126819968223571777f, 0.014293241314589977264f, 0.10909515619277954102f, 0.020825613290071487427f, -0.096806161105632781982f, 0.044394895434379577637f, -0.0061079761944711208344f, -0.064334370195865631104f, 0.048651989549398422241f, -0.015073532238602638245f, 0.063974410295486450195f, -0.039685554802417755127f, -0.063394919037818908691f, -0.0013558121863752603531f, 0.022550670430064201355f, 0.0096832048147916793823f, 0.016808863729238510132f, -0.027381815016269683838f, 0.0022817498538643121719f, -0.080721877515316009521f, 0.081483989953994750977f, 0.14628781378269195557f, 0.035585593432188034058f, 0.056830637156963348389f, 0.0033029525075107812881f, 0.012864674441516399384f, 0.13303852081298828125f, 0.012177452445030212402f, 0.066107556223869323730f, 0.032834768295288085938f, 0.035933237522840499878f, -0.035637646913528442383f, -0.11029060184955596924f, 0.037946313619613647461f, -0.049082476645708084106f, -0.065940357744693756104f, 0.12168478220701217651f, 0.10392528027296066284f, 0.023301539942622184753f, -0.035311736166477203369f, 0.16426554322242736816f, -0.026775507256388664246f, 0.068279154598712921143f, 0.13133932650089263916f, -0.087016612291336059570f, -0.038279742002487182617f, -0.099186211824417114258f, 0.060935698449611663818f, -0.061341013759374618530f, -0.12475732713937759399f, 0.0058645587414503097534f, -0.033620890229940414429f, -0.11087495088577270508f, -0.0021328525617718696594f, 0.055621650069952011108f, 0.025765264406800270081f, -0.034963052719831466675f, 0.011163034476339817047f, -0.033283479511737823486f, -0.022141452878713607788f, 0.023279303684830665588f, 0.10420808196067810059f, -0.075738333165645599365f, 0.055386640131473541260f, 0.12776681780815124512f, 0.046180546283721923828f, -0.017653087154030799866f, 0.012293539009988307953f, 0.092623002827167510986f, -0.0024533241521567106247f, 0.049857918173074722290f, -0.014862013049423694611f, -0.099092558026313781738f, -0.16934713721275329590f, 0.028878958895802497864f, -0.036972615867853164673f, -0.052070118486881256104f, -0.0065974630415439605713f, -0.0025422801263630390167f, 0.028051692992448806763f, -0.0044962046667933464050f, -0.077507264912128448486f, 0.025304308161139488220f, 0.027230691164731979370f, -0.00085483083967119455338f, -0.065900444984436035156f, -0.12646678090095520020f, 0.055271528661251068115f, 0.084993265569210052490f, -0.042165450751781463623f, 0.0040932651609182357788f, 0.048330713063478469849f, 0.046287670731544494629f, 0.083122707903385162354f, -0.028245192021131515503f, 0.024594973772764205933f, -0.023064512759447097778f, -0.14372749626636505127f, 0.11259167641401290894f, -0.045652896165847778320f, 0.023905793204903602600f, 0.045204278081655502319f, 0.031420916318893432617f, -0.096482187509536743164f, -0.0042558452114462852478f, 0.018607877194881439209f, -0.017947131767868995667f, 0.030116090551018714905f, -0.042892824858427047729f, -0.21249109506607055664f, 0.0043012825772166252136f, -0.062535583972930908203f, -0.20451751351356506348f, -0.10688609629869461060f, -0.0092537393793463706970f, -0.20561112463474273682f, -0.00077293027425184845924f, 0.071751028299331665039f, -0.0053674299269914627075f, 0.057171080261468887329f, 0.0094627840444445610046f, 0.063706465065479278564f, 0.0050354287959635257721f, 0.063372254371643066406f, 0.098587356507778167725f, 0.012671675533056259155f, 0.088603213429450988770f, 0.067407689988613128662f, 0.027494551613926887512f, 0.039989072829484939575f, 0.10545342415571212769f, -0.13666294515132904053f, 0.010646118782460689545f, 0.016018435359001159668f, -0.060291193425655364990f, 0.0089433686807751655579f, -0.031635537743568420410f, 0.00060727196978405117989f, -0.042673636227846145630f, -0.047603685408830642700f, 0.037422001361846923828f, -0.025559931993484497070f, 0.091379240155220031738f, 0.056254200637340545654f, -0.018256025388836860657f, -0.0066622784361243247986f, 0.12305252254009246826f, 0.097664393484592437744f, -0.015551183372735977173f, 0.042439289391040802002f, 0.069921843707561492920f, -0.047939509153366088867f, 0.079036824405193328857f, 0.020362835377454757690f, -0.11246905475854873657f, -0.10626184195280075073f, -0.013945274986326694489f, -0.17328900098800659180f, -0.070986881852149963379f, -0.10711939632892608643f, -0.046837277710437774658f, 0.079894855618476867676f, 0.013697066344320774078f, -0.0012598496396094560623f, 0.052497830241918563843f, -0.0015746891731396317482f, -0.0080550136044621467590f, 0.076253131031990051270f, 0.083543837070465087891f, 0.060915466398000717163f, 0.0055620386265218257904f, 0.033223491162061691284f, 0.075312949717044830322f, 0.043213192373514175415f, 0.030869571492075920105f, -0.022369787096977233887f, 0.0020336792804300785065f, -0.12592640519142150879f, 0.030718604102730751038f, 0.039081241935491561890f, -0.031605407595634460449f, -0.10718767344951629639f, 0.11418642848730087280f, 0.049374189227819442749f, 0.015540638007223606110f, -0.021392444148659706116f, 0.022846736013889312744f, -0.055200148373842239380f, 0.085741654038429260254f, -0.078992053866386413574f, 0.017510237172245979309f, -0.019950486719608306885f, 0.099188514053821563721f, 0.038204092532396316528f, -0.062354478985071182251f, -0.077763922512531280518f, -0.021922904998064041138f, 0.027083164080977439880f, -0.17382146418094635010f, -0.032953936606645584106f, -0.0092911915853619575500f, -0.0066081332042813301086f, 0.040524948388338088989f, 0.090706355869770050049f, -0.031046200543642044067f, 0.091190829873085021973f, 0.073283627629280090332f, -0.018585847690701484680f, -0.042405433952808380127f, 0.11974688619375228882f, -0.041493885219097137451f, -0.086432464420795440674f, 0.012509917840361595154f, 0.028010416775941848755f, 0.045168746262788772583f, 0.043488800525665283203f, -0.0043225130066275596619f, 0.064862079918384552002f, -0.084970153868198394775f, 0.077034674584865570068f, -0.034561574459075927734f, -0.073605716228485107422f, 0.061066560447216033936f, -0.0054698996245861053467f, 0.038217831403017044067f, -0.036345593631267547607f, -0.043502781540155410767f, 0.046203695237636566162f, -0.058484882116317749023f, 0.064236819744110107422f, -0.029115980491042137146f, 0.043642874807119369507f, 0.062893964350223541260f, -0.12668447196483612061f, 0.018437540158629417419f, 0.096404440701007843018f, 0.018278071656823158264f, 0.071739859879016876221f, -0.037573989480733871460f, 0.0014435516204684972763f, -0.076770849525928497314f, -0.0077062090858817100525f, 0.0073040099814534187317f, -0.076948456466197967529f, -0.10929451882839202881f, -0.00029208546038717031479f, -0.037491567432880401611f, -0.027843784540891647339f, -0.10294004529714584351f, -0.0088676353916525840759f, 0.011523012071847915649f},
  {-0.025572447106242179871f, 0.039245948195457458496f, 0.064584918320178985596f, -0.035844504833221435547f, 0.023551320657134056091f, 0.13773839175701141357f, 0.040405314415693283081f, 0.032697591930627822876f, 0.022678866982460021973f, -0.011200355365872383118f, 0.019414119422435760498f, -0.096126586198806762695f, -0.012943245470523834229f, -0.030811456963419914246f, 0.012467481195926666260f, -0.043454598635435104370f, -0.015567476861178874969f, 0.018925644457340240479f, 0.030681757256388664246f, 0.034376595169305801392f, -0.056810397654771804810f, 0.093492865562438964844f, -0.065443180501461029053f, 0.050359386950731277466f, -0.0013226453447714447975f, -0.029313435778021812439f, -0.051304522901773452759f, 0.0077079255133867263794f, 0.080788366496562957764f, 0.0056105209514498710632f, 0.094322830438613891602f, 0.059776972979307174683f, -0.029927061870694160461f, 0.0069362097419798374176f, 0.12246508151292800903f, -0.0058388002216815948486f, -0.018308108672499656677f, -0.20161649584770202637f, -0.047296658158302307129f, 0.081165559589862823486f, -0.11870098114013671875f, 0.048776783049106597900f, -0.053705833852291107178f, -0.066803924739360809326f, -0.077622190117835998535f, 0.064660429954528808594f, 0.13142284750938415527f, 0.0069145108573138713837f, 0.038983922451734542847f, 0.098850898444652557373f, 0.069900438189506530762f, -0.064988054335117340088f, 0.019835527986288070679f, -0.068566463887691497803f, -0.090402230620384216309f, 0.050642196089029312134f, 0.045301035046577453613f, -0.046739947050809860229f, -0.018734127283096313477f, 0.063127391040325164795f, 0.027885222807526588440f, 0.022762415930628776550f, 0.023697078227996826172f, -0.098545715212821960449f, -0.070445694029331207275f, -0.13432779908180236816f, 0.013150434941053390503f, 0.014815988019108772278f, -0.037198130041360855103f, -0.062407139688730239868f, -0.076511979103088378906f, -0.083477661013603210449f, -0.021554237231612205505f, -0.055452108383178710938f, 0.064978547394275665283f, -0.037681762129068374634f, -0.0049759205430746078491f, 0.026890931650996208191f, 0.049659468233585357666f, -0.089324198663234710693f, 0.046914190053939819336f, 0.098872557282447814941f, 0.064268760383129119873f, -0.091663256287574768066f, 0.026171939447522163391f, 0.078715167939662933350f, 0.059103496372699737549f, 0.060863018035888671875f, 0.077481746673583984375f, 0.099975422024726867676f, -0.11679293215274810791f, -0.11142818629741668701f, 0.019535066559910774231f, -0.14116448163986206055f, -0.063766025006771087646f, -0.12742847204208374023f, 0.066062785685062408447f, 0.021076092496514320374f, 0.11980337649583816528f, -0.096861734986305236816f, 0.029967503622174263000f, -0.089729726314544677734f, -0.048357374966144561768f, -0.10191879421472549438f, -0.13582371175289154053f, 0.038511257618665695190f, -0.038558289408683776855f, -0.15789587795734405518f, 0.14344179630279541016f, -0.044048696756362915039f, -0.096349149942398071289f, -0.049656197428703308105f, -0.047437854111194610596f, -0.080372273921966552734f, 0.020325385034084320068f, -0.023796824738383293152f, -0.030904328450560569763f, 0.087374053895473480225f, 0.034067776054143905640f, 0.086410351097583770752f, 0.033398460596799850464f, 0.031400021165609359741f, -0.020577684044837951660f, 0.10597408562898635864f, 0.080750666558742523193f, -0.023136671632528305054f, 0.096956700086593627930f, -0.0080393822863698005676f, -0.010166076011955738068f, -0.058021135628223419189f, -0.11439445614814758301f, -0.060829170048236846924f, -0.035412594676017761230f, -0.13374911248683929443f, -0.16214939951896667480f, 0.066662818193435668945f, 0.021285511553287506104f, 0.080975435674190521240f, 0.092296443879604339600f, 0.11146279424428939819f, 0.078094318509101867676f, -0.020106326788663864136f, -0.062263309955596923828f, -0.050773337483406066895f, 0.10631623864173889160f, 0.079841397702693939209f, -0.14260156452655792236f, 0.0010849055834114551544f, 0.015326014719903469086f, 0.081967778503894805908f, -0.023583438247442245483f, -0.0091435657814145088196f, -0.012058740481734275818f, 0.020028239116072654724f, -0.057332925498485565186f, 0.00094051519408822059631f, -0.0037029893137514591217f, 0.056196961551904678345f, -0.068111635744571685791f, 0.034477543085813522339f, 0.012216170318424701691f, -0.072608113288879394531f, 0.038258284330368041992f, -0.024803226813673973083f, -0.025737687945365905762f, -0.033822067081928253174f, -0.014769266359508037567f, 0.053813844919204711914f, -0.020390024408698081970f, -0.010351411066949367523f, 0.049786899238824844360f, -0.028161425143480300903f, 0.065041445195674896240f, 0.12653850018978118896f, 0.062465116381645202637f, -0.026229929178953170776f, 0.089686699211597442627f, -0.044975060969591140747f, -0.17702902853488922119f, -0.16603375971317291260f, 0.083709076046943664551f, -0.10789301246404647827f, -0.068766839802265167236f, -0.0055843316949903964996f, -0.042486444115638732910f, -0.016922360286116600037f, 0.048636488616466522217f, 0.086105436086654663086f, 0.036365538835525512695f, -0.019296878948807716370f, 0.027584735304117202759f, 0.069633863866329193115f, -0.19185972213745117188f, -0.068441621959209442139f, 0.044194698333740234375f, 0.14834232628345489502f, 0.0041587622836232185364f, -0.0050156749784946441650f, 0.067460589110851287842f, 0.019267376512289047241f, 0.068220034241676330566f, -0.084070719778537750244f, 0.036390457302331924438f, -0.034419860690832138062f, -0.018964061513543128967f, -0.10330457240343093872f, 0.035132616758346557617f, 0.054447874426841735840f, -0.092077545821666717529f, -0.13568346202373504639f, -0.041061270982027053833f, 0.021626017987728118896f, 0.056580629199743270874f, -0.053701389580965042114f, 0.018342511728405952454f, -0.022776156663894653320f, 0.0043736468069255352020f, 0.038157086819410324097f, -0.058419957756996154785f, 0.061184339225292205811f, -0.050122436136007308960f, -0.094554886221885681152f, 0.0013822281034663319588f, 0.015618869103491306305f, 0.0047795488499104976654f, 0.023580590263009071350f, 0.067795537412166595459f, 0.024001682177186012268f, 0.046073205769062042236f, 0.092574425041675567627f, 0.044035933911800384521f, -0.021049244329333305359f, 0.080910973250865936279f, -0.025159653276205062866f, 0.13149133324623107910f, -0.15944769978523254395f, -0.0028851302340626716614f, -0.049912683665752410889f, -0.019540112465620040894f, -0.13202445209026336670f, 0.014943058602511882782f, 0.0081041604280471801758f, 0.036465372890233993530f, 0.066259302198886871338f, 0.080833174288272857666f, 0.051372200250625610352f, 0.044583439826965332031f, -0.054164923727512359619f, 0.010595950298011302948f, 0.070276312530040740967f, -0.097392074763774871826f, -0.041383702307939529419f, 0.13654385507106781006f, -0.017549803480505943298f, -0.12876616418361663818f, 0.058342669159173965454f, -0.021341288462281227112f, -0.10996688902378082275f, -0.019727256149053573608f, -0.037770301103591918945f, -0.043144281953573226929f, 0.061911713331937789917f, 0.086547739803791046143f, 0.014461554586887359619f, 0.10066598653793334961f, 0.035390514880418777466f, -0.031096065416932106018f, 0.062576666474342346191f, -0.011288931593298912048f, -0.020038289949297904968f, 0.029494509100914001465f, 0.025576660409569740295f, 0.14831830561161041260f, -0.14521653950214385986f, 0.014001132920384407043f, 0.029370130971074104309f, -0.19672575592994689941f, 0.053734336048364639282f, -0.062281016260385513306f, 0.015242684632539749146f, 0.072529904544353485107f, 0.060080643743276596069f, 0.12505385279655456543f, 0.072333395481109619141f, -0.023306041955947875977f, 0.023215323686599731445f, -0.051436550915241241455f, -0.027515346184372901917f, -0.060960721224546432495f, 0.019749023020267486572f, -0.046221513301134109497f, -0.017306683585047721863f, -0.033124931156635284424f, -0.092766992747783660889f, -0.021251510828733444214f, -0.026832081377506256104f, -0.042645707726478576660f, 0.013874123804271221161f, 0.00063889590092003345490f, 0.038953799754381179810f, -0.036217369139194488525f, 0.16209392249584197998f, 0.0073909265920519828796f, 0.081809341907501220703f, 0.077728621661663055420f, -0.056648906320333480835f, -0.041914831846952438354f, -0.039957083761692047119f, -0.10776253789663314819f, -0.14165470004081726074f, -0.079716853797435760498f, -0.10355252027511596680f, 0.018748955801129341125f, -0.067058198153972625732f, 0.033552628010511398315f, 0.017616454511880874634f, 0.13737478852272033691f, -0.11721153557300567627f, 0.00054912804625928401947f, 0.00050279160495847463608f, -0.028206909075379371643f, 0.060696054250001907349f, 0.0013789364602416753769f, 0.24983280897140502930f, -0.020411133766174316406f, 0.028672272339463233948f, 0.045132681727409362793f, -0.081313565373420715332f, -0.015067310072481632233f, -0.067872986197471618652f, 0.0047426973469555377960f, 0.033246044069528579712f, -0.025586664676666259766f, 0.063452996313571929932f, -0.00089124689111486077309f, -0.020115019753575325012f, -0.068082235753536224365f, 0.034819640219211578369f, 0.0024254138115793466568f, 0.057042792439460754395f, 0.040629856288433074951f, 0.0068221511319279670715f, 0.0071298759430646896362f, 0.080145999789237976074f, -0.031431373208761215210f, 0.029892032966017723083f, -0.034823548048734664917f, -0.055727329105138778687f, 0.022171219810843467712f, -0.0019551545847207307816f, -0.092205114662647247314f, -0.027214385569095611572f, 0.053932797163724899292f, -0.045671831816434860229f, -0.025402691215276718140f, 0.10182588547468185425f, 0.0042425696738064289093f, -0.054980207234621047974f, -0.028566105291247367859f, 0.016166396439075469971f, 0.070777714252471923828f, -0.037299506366252899170f, -0.090578466653823852539f, -0.097518391907215118408f, -0.0055283452384173870087f, 0.040277682244777679443f, -0.063954912126064300537f, -0.025782542303204536438f, 0.11672417074441909790f, -0.043093185871839523315f, 0.033613979816436767578f, -0.036243986338376998901f, -0.021828951314091682434f, 0.091716416180133819580f, 0.0092731220647692680359f, 0.087989613413810729980f, 0.035423438996076583862f, 0.039059538394212722778f, 0.072936587035655975342f, 0.00062565342523157596588f, -0.063845634460449218750f, -0.018560526892542839050f, -0.072788953781127929688f, -0.15224190056324005127f, 0.033440388739109039307f, 0.046081479638814926147f, 0.035805657505989074707f, 0.046102501451969146729f, 0.054023206233978271484f, 0.17785641551017761230f, 0.018569206818938255310f, -0.022608648985624313354f, 0.10328041762113571167f, -0.077500686049461364746f, -0.16887311637401580811f, -0.11244647949934005737f, 0.0097941840067505836487f, -0.083111643791198730469f, -0.069585882127285003662f, -0.018585465848445892334f, -0.041037984192371368408f, 0.083517760038375854492f, 0.0021813716739416122437f, -0.060924831777811050415f, 0.074711985886096954346f, 0.062531128525733947754f, 0.075314328074455261230f, -0.010261594317853450775f, -0.0021833272185176610947f, 0.084370650351047515869f, -0.029741540551185607910f, -0.041077680885791778564f, -0.033724959939718246460f, 0.039539650082588195801f, -0.10377278178930282593f, -0.036407414823770523071f, -0.043883446604013442993f, 0.015384565107524394989f, 0.041222438216209411621f, -0.063554331660270690918f, 0.10905082523822784424f, 0.080129332840442657471f, 0.071732752025127410889f, 0.0068751573562622070312f, 0.074813000857830047607f, 0.018951283767819404602f, -0.036731179803609848022f, -0.023598896339535713196f, 0.021955631673336029053f, 0.015250146389007568359f, -0.084736637771129608154f, 0.046636074781417846680f, -0.0014177069533616304398f, -0.035382110625505447388f, 0.14114892482757568359f, -0.0029704826883971691132f, 0.0087092723697423934937f, -0.0019935790915042161942f, 0.067091375589370727539f, -0.082090139389038085938f, -0.16953717172145843506f, 0.046040799468755722046f, -0.090393088757991790771f, -0.053351059556007385254f, -0.056691028177738189697f, -0.10364060848951339722f, -0.045797202736139297485f, 0.053306892514228820801f, -0.069610536098480224609f, 0.0070021389983594417572f, 0.023899264633655548096f, 0.015256621874868869781f, 0.10820244252681732178f, 0.0095480829477310180664f, 0.12835921347141265869f, 0.10510439425706863403f, -0.0077077690511941909790f, -0.14390242099761962891f, 0.0096197761595249176025f, -0.025194825604557991028f, 0.021381616592407226562f, -0.038426049053668975830f, 0.0065987892448902130127f, 0.023581132292747497559f, -0.066763482987880706787f, 0.049545735120773315430f, 0.077984787523746490479f, 0.015233715064823627472f, 0.010056944563984870911f, 0.037803523242473602295f, -0.067043915390968322754f, -0.11701264232397079468f, -0.068451888859272003174f, -0.049666564911603927612f, -0.044660579413175582886f, 0.010530445724725723267f, 0.048186220228672027588f, -0.065000563859939575195f, -0.13461178541183471680f, -0.035492632538080215454f, 0.033471588045358657837f, -0.14994390308856964111f, -0.12871888279914855957f, 0.036054573953151702881f, -0.069730542600154876709f, -0.088112913072109222412f, 0.020168282091617584229f, -0.087870068848133087158f, 0.0092865731567144393921f, -0.12553519010543823242f, 0.011025326326489448547f, 0.040402274578809738159f, -0.036241348832845687866f, 0.037695519626140594482f, -0.035107500851154327393f, 0.022423822432756423950f, 0.11914443969726562500f, 0.083513461053371429443f, -0.015058482065796852112f, -0.069899715483188629150f, -0.071183383464813232422f, 0.022744705900549888611f, -0.024257194250822067261f, -0.038122911006212234497f, 0.014862531796097755432f, -0.044911954551935195923f, -0.074130505323410034180f, -0.098749808967113494873f, -0.092655621469020843506f, 0.076542861759662628174f, 0.076798476278781890869f, -0.071245469152927398682f, 0.00079176086001098155975f, -0.026131659746170043945f, 0.033344503492116928101f, -0.047842554748058319092f, 0.034829594194889068604f, 0.074473552405834197998f, -0.071616217494010925293f, 0.022576572373509407043f, -0.012968395836651325226f, -0.028309809044003486633f, 0.065418682992458343506f, -0.051478222012519836426f, -0.055563315749168395996f, 0.041245091706514358521f, -0.031887605786323547363f, 0.075537592172622680664f, 0.079658411443233489990f, -0.020965630188584327698f, 0.053842756897211074829f, 0.0057367989793419837952f, 0.033096902072429656982f, 0.013804599642753601074f, 0.012903515249490737915f, 0.00063737609889358282089f, -0.024431416764855384827f, 0.097633093595504760742f, 0.014847887679934501648f, -0.034184567630290985107f, -0.049217317253351211548f, -0.086283162236213684082f, 0.080023571848869323730f, -0.066384419798851013184f, 0.068787053227424621582f, 0.13226282596588134766f, -0.026649978011846542358f, -0.016354961320757865906f, 0.029580159112811088562f, 0.022652313113212585449f, -0.040438298135995864868f, -0.023261800408363342285f, -0.026766080409288406372f, 0.013014898635447025299f, -0.11689337342977523804f, -0.037267211824655532837f, -0.0023862060625106096268f, -0.017184013500809669495f, -0.027657130733132362366f, -0.034596771001815795898f, -0.011287618428468704224f, 0.014085620641708374023f, 0.041142981499433517456f, 0.094252377748489379883f, 0.10908139497041702271f, 0.17554041743278503418f, 0.085414171218872070312f, -0.0087650641798973083496f, 0.045617647469043731689f, -0.050337247550487518311f, 0.022778563201427459717f, -0.056447174400091171265f, -0.062363948673009872437f, 0.043435182422399520874f, -0.048237536102533340454f, 0.022991515696048736572f, 0.023469438776373863220f, 0.072938546538352966309f, -0.021724080666899681091f, 0.038554098457098007202f, -0.043524570763111114502f, 0.027423532679677009583f, -0.066276885569095611572f, -0.047059044241905212402f, 0.0054879072122275829315f, -0.012987663969397544861f, -0.11697391420602798462f, -0.038847289979457855225f, -0.052578557282686233521f, -0.11872188746929168701f, -0.046189893037080764771f, -0.090359404683113098145f, -0.030876444652676582336f, 0.0088422568514943122864f, -0.041685771197080612183f, 0.089910291135311126709f, 0.043362088501453399658f, -0.027816038578748703003f, 0.039047479629516601562f, -0.083484925329685211182f, 0.031046181917190551758f, -0.00060079502873122692108f, -0.016746783629059791565f, 0.070402994751930236816f, -0.026782184839248657227f, 0.012386550195515155792f, -0.031109308823943138123f, -0.059438362717628479004f, -0.071028478443622589111f, 0.032800052314996719360f, -0.038079347461462020874f, 0.0021980791352689266205f, 0.0077456729486584663391f, 0.034883704036474227905f, 0.021888189017772674561f, -0.082383334636688232422f, 0.021892139688134193420f, 0.044792234897613525391f, 0.077427491545677185059f, 0.010229328647255897522f, -0.025740340352058410645f, 0.0087518021464347839355f, -0.024664772674441337585f, 0.056584157049655914307f, -0.059165205806493759155f, 0.054721180349588394165f, -0.012169214896857738495f, -0.055363733321428298950f, 0.051946211606264114380f, -0.018381327390670776367f, 0.026871243491768836975f, -0.10326690971851348877f, -0.018185369670391082764f, 0.077676795423030853271f, -0.0067806523293256759644f, 0.0072508514858782291412f, 0.017583157867193222046f, -0.040586445480585098267f, 0.038343627005815505981f, -0.029984001070261001587f, -0.066840425133705139160f, 0.076930798590183258057f, 0.048205599188804626465f, -0.073460802435874938965f, 0.021302413195371627808f, -0.018694207072257995605f, 0.044657342135906219482f, -0.014008196070790290833f, 0.033263020217418670654f, -0.096738480031490325928f, 0.036018934100866317749f, -0.0048151821829378604889f, -0.022164907306432723999f, 0.13214597105979919434f, -0.0021327736321836709976f, -0.081170253455638885498f, 0.053340159356594085693f, 0.083762429654598236084f, -0.036780923604965209961f, -0.058850001543760299683f, 0.11632268875837326050f, 0.030057493597269058228f, 0.055834636092185974121f, 0.026382982730865478516f, -0.10835842043161392212f, 0.012910895980894565582f, -0.074004054069519042969f, -0.0089088166132569313049f, 0.015785312280058860779f, -0.087988860905170440674f, 0.034884210675954818726f, -0.0060951448976993560791f, 0.12429375201463699341f, 0.094764754176139831543f, 0.038306076079607009888f, 0.024030262604355812073f, -0.032762750983238220215f, -0.043766576796770095825f, 0.10376526415348052979f, -0.14033609628677368164f, -0.065199621021747589111f, 0.031701318919658660889f, -0.0031235862988978624344f, -0.11614255607128143311f, 0.15555977821350097656f, 0.029454272240400314331f, -0.035481087863445281982f, 0.026310060173273086548f, -0.050912197679281234741f, 0.042207498103380203247f, 0.073037162423133850098f, -0.022320134565234184265f, 0.039199747145175933838f, 0.13945776224136352539f, 0.057682208716869354248f, 0.016157476231455802917f, -0.017655679956078529358f, 0.024577690288424491882f, 0.031183686107397079468f, -0.064523503184318542480f, -0.032969292253255844116f, -0.038887087255716323853f, 0.023823317140340805054f, -0.010487623512744903564f, 0.033338226377964019775f, 0.0082190996035933494568f, 0.057669978588819503784f, 0.16488449275493621826f, 0.060287978500127792358f, -0.055160436779260635376f, 0.10680267959833145142f, -0.0070974030531942844391f, -0.054514087736606597900f, 0.039556957781314849854f, -0.023032551631331443787f, -0.083778925240039825439f, -0.084688588976860046387f, -0.047193445265293121338f, -0.097253188490867614746f, 0.043256670236587524414f, 0.0076995240524411201477f, -0.066692411899566650391f, 0.023573018610477447510f, 0.053119491785764694214f, 0.0050033349543809890747f, 0.041280180215835571289f, 0.0041724615730345249176f, 0.090403415262699127197f, -0.0037283676210790872574f, 0.033030159771442413330f, -0.085521273314952850342f, 0.0047800140455365180969f, 0.048770453780889511108f, 0.0078116930089890956879f, 0.10577833652496337891f, 0.015510682947933673859f, 0.035976823419332504272f, 0.025009037926793098450f, 0.016723871231079101562f, 0.031326744705438613892f, 0.048497784882783889771f, -0.052737910300493240356f, -0.012234655208885669708f, 0.083635650575160980225f, 0.052225504070520401001f, 0.074411682784557342529f, 0.052953086793422698975f, -0.023935347795486450195f, -0.0091152237728238105774f, 0.097427159547805786133f, -0.013669191859662532806f, 0.046888276934623718262f, 0.028221845626831054688f, 0.0017026143614202737808f, -0.070754282176494598389f, -0.13376909494400024414f, -0.014909056015312671661f, -0.060621410608291625977f, -0.12440064549446105957f, -0.063410334289073944092f, 0.0015610996633768081665f, -0.14643792808055877686f, 0.012697084806859493256f, 0.077937185764312744141f, 0.11617480218410491943f, 0.10865494608879089355f, 0.18447093665599822998f, 0.13424536585807800293f, 0.021271431818604469299f, -0.022359240800142288208f, 0.076753728091716766357f, -0.055219259113073348999f, -0.084076635539531707764f, -0.082849301397800445557f, 0.0080266594886779785156f, 0.011750770732760429382f, -0.12772761285305023193f, -0.081057362258434295654f, 0.15512363612651824951f, -0.079218134284019470215f, -0.026938376948237419128f, 0.14631971716880798340f, 0.014935743063688278198f, 0.080615699291229248047f, -0.038092605769634246826f, -0.032976131886243820190f, -0.067731812596321105957f, 0.046508833765983581543f, -0.0055547221563756465912f, 0.0030993749387562274933f, -0.014175028540194034576f, -0.069962702691555023193f, -0.016750512644648551941f, 0.037497423589229583740f, -0.023654207587242126465f, 0.010842057876288890839f, -0.00050283351447433233261f, 0.050526954233646392822f, -0.081429250538349151611f, -0.089222118258476257324f, 0.11626733094453811646f, 0.014770674519240856171f, 0.035270027816295623779f, 0.10975784808397293091f, 0.030657533556222915649f, 0.012877278961241245270f, 0.084166735410690307617f, -0.0030351898167282342911f, -0.046510949730873107910f, 0.073542900383472442627f, -0.066105328500270843506f, -0.019538454711437225342f, 0.010938515886664390564f, -0.041960794478654861450f, -0.011828446760773658752f, -0.057430446147918701172f, -0.091639310121536254883f, -0.0011961974669247865677f, 0.049213562160730361938f, 0.0049029556103050708771f, 0.00024710048455744981766f, -0.14870509505271911621f, 0.051654070615768432617f, 0.061357874423265457153f, 0.042592152953147888184f, 0.057616088539361953735f, 0.088696204125881195068f, -0.0027422914281487464905f, -0.10949836671352386475f, 0.070782899856567382812f, -0.064501240849494934082f, -0.053536321967840194702f, 0.0025206797290593385696f, 0.15974728763103485107f, 0.043928954750299453735f, 0.041297748684883117676f, -0.018520243465900421143f, 0.029579402878880500793f, -0.053024560213088989258f, -0.070016890764236450195f, -0.057655606418848037720f, 0.040151298046112060547f, -0.047064408659934997559f, -0.090277560055255889893f, -0.0059992391616106033325f, -0.055276103317737579346f, -0.046980164945125579834f, -0.031679362058639526367f, -0.0097018815577030181885f, -0.039361920207738876343f, -0.042132198810577392578f, 0.013582810759544372559f, -0.098102860152721405029f, -0.097230479121208190918f, 0.0043377485126256942749f, -0.083490006625652313232f, -0.030289905145764350891f, -0.0098784333094954490662f, 0.0071126264519989490509f, -0.0034599706996232271194f, 0.056819420307874679565f, -0.053802214562892913818f, -0.0042561464942991733551f, -0.10687056183815002441f, -0.0052130608819425106049f, -0.044916257262229919434f, -0.036625180393457412720f, -0.0068289823830127716064f, -0.14758495986461639404f, -0.014780615456402301788f, 0.038372676819562911987f, 0.063378855586051940918f, -0.10126325488090515137f, -0.0039188330993056297302f, 0.010910727083683013916f, 0.14921243488788604736f, 0.012857723981142044067f, 0.060749001801013946533f, 0.015295322053134441376f, -0.00023189236526377499104f, -0.13194920122623443604f, 0.0096656717360019683838f, 0.071771100163459777832f, -0.14560092985630035400f, -0.11586804687976837158f, -0.0023096471559256315231f, -0.066352315247058868408f, 0.11554889380931854248f, -0.097237713634967803955f, -0.064235717058181762695f, 0.033438581973314285278f, -0.053351137787103652954f, 0.0032002748921513557434f, 0.054492715746164321899f, 0.093534387648105621338f, 0.062290400266647338867f, -0.023609405383467674255f, -0.027172589674592018127f, 0.10114397853612899780f, 0.021139509975910186768f, 0.063309334218502044678f, -0.0025086496025323867798f, -0.023467412218451499939f, -0.012579075992107391357f, -0.098593458533287048340f, 0.067867688834667205811f, -0.12217675149440765381f, -0.056655868887901306152f, -0.043250892311334609985f, -0.080035045742988586426f, 0.017089337110519409180f, 0.082967191934585571289f, 0.090809307992458343506f, 0.0057443492114543914795f, 0.016713157296180725098f, -0.0090728523209691047668f, -0.11752523481845855713f, 0.13562899827957153320f, 0.012415953911840915680f, -0.094936512410640716553f, 0.028161657974123954773f, 0.16202300786972045898f, -0.077517144381999969482f, -0.17800834774971008301f, 0.092324465513229370117f, -0.041100665926933288574f, -0.17934523522853851318f, 0.066363394260406494141f, -0.12017322331666946411f, -0.044557295739650726318f, -0.10013476014137268066f, 0.0053960066288709640503f, 0.056724078953266143799f, 0.057054620236158370972f, 0.027696723118424415588f, 0.054372455924749374390f, -0.047891948372125625610f, 0.059250622987747192383f, -0.0017855438636615872383f, 0.056608721613883972168f, 0.049708601087331771851f, 0.030327904969453811646f, -0.018091345205903053284f, -0.00075896782800555229187f, 0.069550111889839172363f, -0.091396950185298919678f, 0.048645894974470138550f, -0.031247660517692565918f, -0.048496101051568984985f, -0.051326714456081390381f, -0.068957351148128509521f, -0.011879462748765945435f, -0.036826882511377334595f, 0.080258212983608245850f, -0.036841053515672683716f, -0.012169509194791316986f, 0.024644281715154647827f, -0.018970046192407608032f, 0.11463896185159683228f, -0.046119052916765213013f, -0.016900461167097091675f, 0.035349398851394653320f, -0.10011112689971923828f, 0.018426498398184776306f, -0.012319312430918216705f, -0.14514298737049102783f, 0.055937249213457107544f, -0.11798229068517684937f, -0.13884852826595306396f, 0.073992237448692321777f, -0.093158900737762451172f, -0.16079929471015930176f, 0.041112985461950302124f, -0.026273021474480628967f, -0.013118576258420944214f, 0.062719643115997314453f, -0.033019192516803741455f, -0.16083194315433502197f, 0.019253339618444442749f, -0.048709280788898468018f, -0.020592095330357551575f, 0.048816148191690444946f, -0.037806101143360137939f, -0.019595237448811531067f, -0.012578004971146583557f, 0.036702856421470642090f, 0.027150113135576248169f, 0.056879792362451553345f, -0.079810582101345062256f, -0.12402578443288803101f, 0.043513797223567962646f, -0.15952394902706146240f, 0.065164878964424133301f, -0.10922103375196456909f, 0.094189949333667755127f, 0.099732562899589538574f, -0.087959825992584228516f, -0.043678287416696548462f, 0.18661984801292419434f, -0.019618710502982139587f, -0.13607124984264373779f, 0.015256807208061218262f, 0.087610468268394470215f, -0.022805480286478996277f, -0.067460685968399047852f, -0.039982464164495468140f, 0.014181161299347877502f, 0.20762096345424652100f, 0.021693918853998184204f, 0.033506840467453002930f, 0.10928044468164443970f, -0.037726636976003646851f, 0.0099450713023543357849f, 0.12876607477664947510f, -0.21991993486881256104f, 0.026433484628796577454f, 0.046388339251279830933f, -0.15670791268348693848f, -0.11383798718452453613f, -0.024982253089547157288f, -0.15458098053932189941f, -0.010751055553555488586f, -0.022181015461683273315f, -0.11899876594543457031f, -0.086450330913066864014f, -0.029742658138275146484f, 0.064917512238025665283f, 0.0065380623564124107361f, 0.021500723436474800110f, 0.12494856119155883789f, 0.049738936126232147217f, -0.0082425409927964210510f, -0.061272330582141876221f, -0.15234290063381195068f, -0.0087373834103345870972f, -0.042192582041025161743f, 0.034509327262639999390f, -0.079711593687534332275f, 0.017006915062665939331f, 0.010367711074650287628f, -0.039423953741788864136f, 0.054390430450439453125f, 0.052606381475925445557f, 0.00044752939720638096333f, 0.093697339296340942383f, 0.0097070354968309402466f, 0.013181069865822792053f, -0.099204815924167633057f, 0.011709340848028659821f, 0.16979250311851501465f, -0.047241192311048507690f, 0.021245257928967475891f, 0.087744601070880889893f, -0.034851685166358947754f, -0.00042095541721209883690f, 0.034001622349023818970f, 0.054347921162843704224f, -0.080405682325363159180f, -0.078612886369228363037f, 0.026750853285193443298f, -0.015548721887171268463f, 0.097120031714439392090f, -0.053722392767667770386f, -0.061081536114215850830f, 0.094376325607299804688f, -0.090648606419563293457f, 0.18226402997970581055f, 0.037236955016851425171f, -0.064556032419204711914f, 0.037647943943738937378f, -0.047691687941551208496f, 0.044020958244800567627f, -0.018429048359394073486f, 0.10194735974073410034f, 0.065593264997005462646f, -0.026526765897870063782f, 0.064738750457763671875f, 0.077141255140304565430f, -0.14658132195472717285f, -0.041976794600486755371f, -0.0025669389870017766953f, 0.022106504067778587341f, -0.079020909965038299561f, -0.030840277671813964844f, 0.0050582443363964557648f, -0.036408822983503341675f, -0.10184387117624282837f, 0.032238882035017013550f, 0.0068781604059040546417f, -0.13632985949516296387f, -0.023231916129589080811f, -0.071741439402103424072f, -0.11260104924440383911f, 0.0082186274230480194092f, -0.042592275887727737427f, -0.19590288400650024414f, 0.035090483725070953369f, 0.13396911323070526123f, -0.040625452995300292969f, 0.094852261245250701904f, 0.12483903765678405762f, 0.037337668240070343018f, 0.035384699702262878418f, -0.022843016311526298523f, -0.031438119709491729736f, 0.042179949581623077393f, 0.042261458933353424072f, 0.040355078876018524170f, 0.020886665210127830505f, 0.020742962136864662170f, -0.18979866802692413330f, -0.018075343221426010132f, 0.088896736502647399902f, 0.059723861515522003174f, 0.018547242507338523865f, 0.032618407160043716431f, 0.062515042722225189209f, 0.12220124900341033936f, -0.043919622898101806641f, 0.081872515380382537842f, 0.071110315620899200439f, -0.075089357793331146240f, -0.048593815416097640991f, 0.010476126335561275482f, -0.075221791863441467285f, -0.0073677869513630867004f, 0.032808527350425720215f, 0.036280944943428039551f, -0.14642460644245147705f, 0.015214019455015659332f, -0.052827384322881698608f, -0.026372959837317466736f, -0.019562965258955955505f, 0.017334884032607078552f, -0.038341119885444641113f, -0.0032003270462155342102f, 0.15193225443363189697f, 0.081369630992412567139f, 0.089512147009372711182f, -0.071982629597187042236f, 0.059506792575120925903f, 0.16077318787574768066f, 0.067264899611473083496f, 0.067983008921146392822f, -0.041982386261224746704f, -0.0049965120851993560791f, -0.0026443831156939268112f, -0.064829804003238677979f, -0.020982559770345687866f, -0.14105844497680664062f, -0.11614994704723358154f, -0.15204590559005737305f, -0.071479529142379760742f, -0.027862060815095901489f, -0.055840600281953811646f, 0.059887163341045379639f, 0.098397441208362579346f, 0.052866518497467041016f, -0.012753756716847419739f, -0.060825418680906295776f, 0.035281155258417129517f, 0.10089448094367980957f, 0.045949786901473999023f, -0.046673990786075592041f, 0.023203387856483459473f, 0.023516017943620681763f, -0.041703604161739349365f, -0.0086725410073995590210f, 0.062923632562160491943f, 0.052213322371244430542f, 0.019232816994190216064f, 0.13540157675743103027f, -0.056843578815460205078f, 0.010353974066674709320f, 0.093338556587696075439f, -0.059879709035158157349f, 0.085505396127700805664f, 0.063010595738887786865f, 0.10039167106151580811f, 0.12312976270914077759f, 0.0038879297208040952682f, 0.061866365373134613037f, -0.0059470254927873611450f, -0.075752213597297668457f, 0.042133308947086334229f, -0.12131538987159729004f, -0.047456655651330947876f, 0.011857239529490470886f, -0.091883145272731781006f, -0.13172884285449981689f, 0.024288205429911613464f, 0.012265835888683795929f, -0.015254531055688858032f, 0.016037020832300186157f, 0.049110922962427139282f, -0.010043864138424396515f, 0.018136119470000267029f, -0.050732638686895370483f, -0.019472889602184295654f, 0.10408436506986618042f, -0.023528229445219039917f, -0.094895288348197937012f, -0.023046178743243217468f, 0.0024431836791336536407f, 0.00024487680639140307903f, -0.090768292546272277832f, -0.13423305749893188477f, 0.010021895170211791992f, 0.027185998857021331787f, -0.079126864671707153320f, 0.058176714926958084106f, 0.049466609954833984375f, -0.082251861691474914551f, 0.067022293806076049805f, 0.051962729543447494507f, 0.0090913381427526473999f, -0.014165620319545269012f, -0.069719962775707244873f, -0.011251384392380714417f, -0.021653961390256881714f, -0.025094119831919670105f, 0.0052414503879845142365f, -0.065196551382541656494f, -0.062562577426433563232f, 0.046868480741977691650f, 0.0023476947098970413208f, 0.061053693294525146484f, 0.015394679270684719086f, 0.053200956434011459351f, -0.077299922704696655273f, 0.029465673491358757019f, -0.022005397826433181763f, -0.033483203500509262085f, -0.11321854591369628906f, -0.079877279698848724365f, -0.13446919620037078857f, 0.10277325659990310669f, -0.039716299623250961304f, -0.14258082211017608643f, -0.062154401093721389771f, -0.042666710913181304932f, -0.15428721904754638672f, -0.018047308549284934998f, -0.0032502636313438415527f, -0.067533224821090698242f, 0.065248191356658935547f, 0.15526224672794342041f, 0.045874096453189849854f, -0.0062056146562099456787f, -0.036972649395465850830f, -0.058383025228977203369f, -0.033325541764497756958f, -0.059201780706644058228f, 0.012281923554837703705f, -0.063982754945755004883f, -0.033496908843517303467f, -0.033830828964710235596f, -0.040553074330091476440f, 0.052008185535669326782f, 0.12497355043888092041f, -4.9732843763194978237e-06f, -0.073453105986118316650f, 0.018069844692945480347f, 0.010743438266217708588f, -0.038771420717239379883f, 0.013702000491321086884f, 0.075934268534183502197f, 0.0084583694115281105042f, 0.081088930368423461914f, -0.016727352514863014221f, 0.083294130861759185791f, 0.030630586668848991394f, 0.010843578726053237915f, 0.049323428422212600708f, -0.055703934282064437866f, 0.027493154630064964294f, 0.083080239593982696533f, 0.038707617670297622681f, 0.0045649954117834568024f, 0.0091735199093818664551f, 0.047375351190567016602f, -0.18783774971961975098f, -0.029333665966987609863f, 0.13855692744255065918f, -0.078856281936168670654f, -0.12540116906166076660f, 0.021033588796854019165f, -0.10937560349702835083f, -0.012429556809365749359f, -0.00068395165726542472839f, -0.0026159745175391435623f, 0.10962564498186111450f, -0.022288629785180091858f, 0.048713658004999160767f, 0.081882759928703308105f, -0.030413975939154624939f, 0.0038120779208838939667f, 0.0013916265452280640602f, 0.036221425980329513550f, -0.067561499774456024170f, 0.037725247442722320557f, 0.029555672779679298401f, -0.15237036347389221191f, -0.044097613543272018433f, -0.041695650666952133179f, -0.15251974761486053467f, -0.13047404587268829346f, -0.14761875569820404053f, -0.15323807299137115479f, -0.17935027182102203369f, -0.0070743900723755359650f, -0.13360938429832458496f, -0.099749445915222167969f, -0.11154717206954956055f, -0.027250563725829124451f, -0.0031953505240380764008f, 0.042085781693458557129f, 0.13887283205986022949f, 0.069478854537010192871f, 0.028984297066926956177f, 0.053104892373085021973f, -0.068891964852809906006f, -0.081609427928924560547f, 0.023908574134111404419f, -0.014066733419895172119f, -0.051697179675102233887f, -0.13758879899978637695f, -0.0048847417347133159637f, -0.015684962272644042969f, 0.00019505919772200286388f, 0.11887924373149871826f, 0.082704335451126098633f, -0.054344624280929565430f, 0.072127215564250946045f, 0.20719678699970245361f, -0.091241940855979919434f, -0.036045394837856292725f, 0.022204803302884101868f, -0.067483015358448028564f, -0.036386977881193161011f, -0.061937648802995681763f, 0.036719299852848052979f, 0.029064968228340148926f, 0.012882337905466556549f, -0.073598682880401611328f, 0.040952455252408981323f, -0.078792631626129150391f, 0.070272624492645263672f, -0.042896930128335952759f, -0.11054687947034835815f, 0.032495856285095214844f, 0.043412856757640838623f, 0.084519796073436737061f, 0.0082802185788750648499f, -0.011619900353252887726f, 0.052054777741432189941f, -0.044393952935934066772f, 0.049818683415651321411f, 0.095988295972347259521f, -0.060866236686706542969f, -0.064100921154022216797f, -0.14445117115974426270f, -0.027163611724972724915f, -0.0086861941963434219360f, -0.055854506790637969971f, -0.030427364632487297058f, 0.093271672725677490234f, 0.019646950066089630127f, -0.055022377520799636841f, 0.078606024384498596191f, 0.11545355618000030518f, 0.039394762367010116577f, -0.0012730729067698121071f, -0.030333222821354866028f, -0.038880646228790283203f, -0.0089405709877610206604f, 0.021108686923980712891f, -0.074460670351982116699f, -0.10020934790372848511f, 0.056800261139869689941f, 0.024837877601385116577f, 0.16342163085937500000f, 0.13499757647514343262f, -0.17679531872272491455f, -0.027738882228732109070f, 0.035852797329425811768f, 0.036719270050525665283f, -0.014713755808770656586f, -0.048262313008308410645f, 0.049605440348386764526f, 0.078795626759529113770f, 0.063540898263454437256f, -0.047070678323507308960f, 0.010192753747105598450f, 0.055258300155401229858f, -0.022047713398933410645f, -0.057587929069995880127f, 0.064586572349071502686f, 0.053725730627775192261f, -0.0084728086367249488831f, 0.052612897008657455444f, 0.031301114708185195923f, -0.086144648492336273193f, -0.10158705711364746094f, -0.0030520434956997632980f, -0.057318303734064102173f, 0.017561001703143119812f, 0.037683758884668350220f, 0.037890464067459106445f, 0.034257430583238601685f, -0.033409714698791503906f, -0.11278881877660751343f, 0.097160071134567260742f, -0.070062965154647827148f, -0.010651718825101852417f, 0.090717606246471405029f, 0.053864996880292892456f, -0.0069685005582869052887f, 0.11181673407554626465f, -0.038735922425985336304f, 0.017502833157777786255f, 0.11963053792715072632f, -0.037562154233455657959f, 0.050089657306671142578f, 0.080573350191116333008f, -0.044682554900646209717f, -0.087670661509037017822f, -0.12203623354434967041f, -0.0093212146311998367310f, 0.024091688916087150574f, -0.13237138092517852783f, -0.024475000798702239990f, -0.10422652214765548706f, -0.0098746791481971740723f, -0.035142961889505386353f, 0.11004819720983505249f, 0.15088729560375213623f, 0.016963757574558258057f, 0.042093753814697265625f, 0.094881452620029449463f, 0.082774341106414794922f, -0.064977847039699554443f, 0.13533444702625274658f, 0.056619171053171157837f, 0.067974865436553955078f, 0.012119143269956111908f, -0.059560425579547882080f, 0.029182098805904388428f, -0.018078813329339027405f, -0.15639145672321319580f, -0.090256147086620330811f, -0.049557022750377655029f, -0.22530297935009002686f, -0.14849771559238433838f, -0.077477313578128814697f, -0.056320928037166595459f, -0.020809991285204887390f, 0.076595589518547058105f, 0.014522080309689044952f, -0.021835904568433761597f, 0.14032068848609924316f, 0.053611077368259429932f, 0.093440771102905273438f, 0.086339227855205535889f, 0.0036301559302955865860f, 0.038235086947679519653f, 0.014246007427573204041f, -0.10175747424364089966f, 0.084830552339553833008f, 0.019325414672493934631f, 0.054468635469675064087f, 0.13480307161808013916f, 0.099720440804958343506f, -0.024638669565320014954f, 0.0048396326601505279541f, -0.0022134231403470039368f, 0.035036921501159667969f, -0.060352489352226257324f, -0.099568732082843780518f, 0.052396342158317565918f, 0.071911543607711791992f, 0.0099776033312082290649f, -0.012416543439030647278f, 0.10528814047574996948f, 0.015473306179046630859f, -0.031035684049129486084f, 0.016567233949899673462f, 0.072830066084861755371f, -0.072846136987209320068f, -4.0129380067810416222e-06f, -0.019793769344687461853f, -0.11654768139123916626f, 0.026474004611372947693f, 0.10022154450416564941f, -0.00018078841094393283129f, 0.035237818956375122070f, 0.020571758970618247986f, -0.022969560697674751282f, -0.10818292200565338135f, -0.064350880682468414307f, -0.049538020044565200806f, -0.0052778865210711956024f, -0.062415238469839096069f, 0.081381157040596008301f, 0.050772912800312042236f, 0.046888358891010284424f, 0.020420052111148834229f, -0.0099517228081822395325f, 0.0022617238573729991913f, -0.052730254828929901123f, 0.098967991769313812256f, -0.011584769003093242645f, -0.068935133516788482666f, -0.036156136542558670044f, -0.023192999884486198425f, 0.012565316632390022278f, 0.064914256334304809570f, -0.010152556933462619781f, 0.0085214395076036453247f, -0.028516899794340133667f, 0.0066644120961427688599f, 0.024201460182666778564f, 0.087821662425994873047f, 0.16671898961067199707f, -0.18243893980979919434f, 0.086641140282154083252f, 0.11663150042295455933f, -0.12176877260208129883f, -0.034224435687065124512f, 0.043385583907365798950f, 0.051734179258346557617f, 0.021790202707052230835f, 0.046496309340000152588f, 0.0084375450387597084045f, -0.0013173958286643028259f, -0.083224497735500335693f},
